{"type":"LSTM","options":{"inputSize":31,"inputRange":31,"hiddenLayers":[20,20],"outputSize":31,"decayRate":0.999,"smoothEps":1e-8,"regc":0.000001,"clipval":5,"maxPredictionLength":100,"dataFormatter":{"indexTable":{"p":0,"r":1,"o":2,"n":3,"u":4,"c":5,"e":6," ":7,"h":8,"i":9,"m":10,"t":11,"b":12,"a":13,"v":14,"f":15,"d":16,"l":17,"s":18,".":19,"”":20,"I":21,"g":22,"w":23,"x":24,"“":25,"W":26,"y":27,",":28,"k":29,"unrecognized":30},"characterTable":{"0":"p","1":"r","2":"o","3":"n","4":"u","5":"c","6":"e","7":" ","8":"h","9":"i","10":"m","11":"t","12":"b","13":"a","14":"v","15":"f","16":"d","17":"l","18":"s","19":".","20":"”","21":"I","22":"g","23":"w","24":"x","25":"“","26":"W","27":"y","28":",","29":"k","30":null},"values":["pronounce him to be an active member of the medical profession.”","I could not help laughing at the ease with which he explained his","process of deduction. “When I hear you give your reasons,” I remarked,","“the thing always appears to me to be so ridiculously simple that I","could easily do it myself, though at each successive instance of your"],"characters":["p","r","o","n","u","c","e"," ","h","i","m","t","b","a","v","f","d","l","s",".","”","I","g","w","x","“","W","y",",","k","unrecognized"],"specialIndexes":[30]}},"input":{"rows":32,"columns":31,"weights":{"0":0.49245595932006836,"1":-0.20007860660552979,"2":-1.7616056203842163,"3":1.4442771673202515,"4":2.570476770401001,"5":0.3570532500743866,"6":2.105710983276367,"7":0.4852757453918457,"8":-0.15288002789020538,"9":1.212035059928894,"10":-1.1350594758987427,"11":-4.143287181854248,"12":-1.6976677179336548,"13":-1.1344141960144043,"14":1.2454246282577515,"15":1.189738154411316,"16":-3.7548561096191406,"17":0.8666002154350281,"18":0.7107409238815308,"19":-0.3246556222438812,"20":1.7712385654449463,"21":5.235489845275879,"22":1.0172981023788452,"23":-2.4250354766845703,"24":-1.416490077972412,"25":-1.3480849266052246,"26":0.24494333565235138,"27":-1.7900577783584595,"28":-0.16841758787631989,"29":1.159103274345398,"30":1.1511363983154297,"31":-6.863065242767334,"32":2.6733481884002686,"33":-0.9121704697608948,"34":-0.013445925898849964,"35":1.434023141860962,"36":-0.85905921459198,"37":-2.3593287467956543,"38":-5.528119087219238,"39":-0.4205491244792938,"40":0.7842740416526794,"41":5.388742923736572,"42":1.0230052471160889,"43":-0.5572549700737,"44":5.358480930328369,"45":2.388368606567383,"46":1.335031270980835,"47":-3.849332094192505,"48":1.1184569597244263,"49":-3.8399510383605957,"50":1.202029824256897,"51":0.5552600622177124,"52":1.1583709716796875,"53":1.1097530126571655,"54":0.25919637084007263,"55":-6.517963409423828,"56":-3.108309507369995,"57":2.7561230659484863,"58":2.2777822017669678,"59":-4.389891624450684,"60":-2.5793943405151367,"61":3.2821238040924072,"62":3.297403573989868,"63":0.16179554164409637,"64":-0.21748562157154083,"65":-0.24542148411273956,"66":0.4518534541130066,"67":2.0636355876922607,"68":1.4291406869888306,"69":1.5019490718841553,"70":0.5704469084739685,"71":-1.3534963130950928,"72":0.19072984158992767,"73":0.25858229398727417,"74":1.8503732681274414,"75":2.216701030731201,"76":-3.8571815490722656,"77":-2.5730392932891846,"78":4.573984146118164,"79":-1.6395646333694458,"80":-4.526516437530518,"81":-0.362689733505249,"82":-6.044555187225342,"83":-1.7758420705795288,"84":-1.7546699047088623,"85":-0.31425952911376953,"86":-0.5787075757980347,"87":3.876361608505249,"88":-2.3111612796783447,"89":0.2319316864013672,"90":-1.875100016593933,"91":2.0606720447540283,"92":-3.4322824478149414,"93":1.046377182006836,"94":1.706820011138916,"95":-1.123984932899475,"96":-1.5526940822601318,"97":2.178025245666504,"98":0.7082328796386719,"99":-3.632666826248169,"100":-0.6430904865264893,"101":0.8017603158950806,"102":-0.21485859155654907,"103":6.541675090789795,"104":-0.4811725616455078,"105":1.137141227722168,"106":3.416454792022705,"107":1.7169997692108154,"108":0.21580809354782104,"109":1.319322109222412,"110":-0.32214024662971497,"111":2.1506412029266357,"112":-1.2760570049285889,"113":-3.481093406677246,"114":-3.969003915786743,"115":0.14451660215854645,"116":-0.15365679562091827,"117":0.6919958591461182,"118":-4.454289436340332,"119":0.8792682886123657,"120":0.6899700164794922,"121":-1.8658909797668457,"122":0.09747471660375595,"123":1.0216387510299683,"124":-1.4182231426239014,"125":0.6388581991195679,"126":-0.7799005508422852,"127":0.6568930149078369,"128":3.6410179138183594,"129":0.8770805597305298,"130":-1.5294185876846313,"131":2.6459944248199463,"132":-0.12061159312725067,"133":2.0389907360076904,"134":0.6041892170906067,"135":-2.796173095703125,"136":0.9238103032112122,"137":3.192701816558838,"138":1.112768530845642,"139":-1.4770455360412598,"140":0.7465578317642212,"141":-2.681825637817383,"142":3.0203237533569336,"143":0.14477317035198212,"144":-1.8213162422180176,"145":-1.2777429819107056,"146":1.7485172748565674,"147":0.13452985882759094,"148":-1.4950993061065674,"149":-2.3524019718170166,"150":1.283593773841858,"151":0.3021048307418823,"152":-0.04070432111620903,"153":1.9473354816436768,"154":0.8700289726257324,"155":0.9708176851272583,"156":4.509416580200195,"157":0.01268366165459156,"158":-1.5270954370498657,"159":1.5564039945602417,"160":2.340320110321045,"161":1.8445720672607422,"162":2.730539321899414,"163":4.344814300537109,"164":1.1712926626205444,"165":0.7562103271484375,"166":-0.8194906711578369,"167":-2.0697107315063477,"168":0.24126295745372772,"169":-4.5082173347473145,"170":-5.4107136726379395,"171":3.9003701210021973,"172":-2.9180781841278076,"173":-3.264709949493408,"174":3.040435314178467,"175":-2.9405789375305176,"176":2.860539674758911,"177":-2.6842617988586426,"178":0.931190550327301,"179":-2.6138830184936523,"180":3.3010365962982178,"181":-2.149746894836426,"182":-6.331502914428711,"183":1.0405575037002563,"184":-4.477463245391846,"185":-5.314028739929199,"186":4.2667999267578125,"187":3.4954774379730225,"188":-0.30713796615600586,"189":-1.208099126815796,"190":4.329801559448242,"191":-5.98527717590332,"192":-0.017829304561018944,"193":2.174743890762329,"194":-5.810633659362793,"195":1.849879503250122,"196":2.209254741668701,"197":-2.7081034183502197,"198":2.268444299697876,"199":0.3095845580101013,"200":-1.5455189943313599,"201":0.8736024498939514,"202":0.23999841511249542,"203":-0.2626270353794098,"204":2.0315799713134766,"205":-0.3708574175834656,"206":1.0932371616363525,"207":-2.4342691898345947,"208":0.20282886922359467,"209":-3.826969861984253,"210":0.24988587200641632,"211":0.6022235155105591,"212":-1.6678913831710815,"213":3.1571192741394043,"214":-3.679563283920288,"215":1.913006067276001,"216":-0.15259180963039398,"217":2.897995710372925,"218":0.42525744438171387,"219":0.5316365957260132,"220":2.014704942703247,"221":2.495595693588257,"222":1.5091991424560547,"223":-2.4504315853118896,"224":2.6480002403259277,"225":-0.30823230743408203,"226":-2.9133458137512207,"227":-0.5246891975402832,"228":3.337146282196045,"229":1.9950543642044067,"230":-2.7642877101898193,"231":-0.028272956609725952,"232":0.41640979051589966,"233":-0.3868229389190674,"234":-4.070044994354248,"235":0.395700067281723,"236":3.900482416152954,"237":2.9046220779418945,"238":1.2783839702606201,"239":-1.7116303443908691,"240":1.0309112071990967,"241":4.123262405395508,"242":-0.9655653834342957,"243":-1.5207291841506958,"244":1.6722491979599,"245":2.5737226009368896,"246":-1.994593858718872,"247":0.38092121481895447,"248":0.9741824269294739,"249":-0.15633238852024078,"250":-0.8463743329048157,"251":-0.20923256874084473,"252":-4.059866905212402,"253":0.1628706008195877,"254":-0.7335484623908997,"255":-2.081854820251465,"256":2.2318177223205566,"257":2.14690899848938,"258":1.4190683364868164,"259":-1.2619173526763916,"260":1.2205650806427002,"261":0.2978471517562866,"262":-1.7901031970977783,"263":-5.093337535858154,"264":-0.6554271578788757,"265":-1.7835482358932495,"266":-0.440732479095459,"267":1.90822172164917,"268":-3.524371862411499,"269":-3.3702361583709717,"270":0.033913806080818176,"271":-1.6441696882247925,"272":0.03602110221982002,"273":-4.866089344024658,"274":0.09140174090862274,"275":-2.9387662410736084,"276":-1.349839210510254,"277":-8.400863647460938,"278":2.6471610069274902,"279":-0.9297895431518555,"280":1.4041649103164673,"281":3.7623212337493896,"282":-0.37525421380996704,"283":6.6823201179504395,"284":1.6230639219284058,"285":1.8358964920043945,"286":-0.4541621506214142,"287":0.9601089954376221,"288":0.5813378691673279,"289":1.0203163623809814,"290":1.737807035446167,"291":-2.65525221824646,"292":-0.06838937103748322,"293":-0.2113877683877945,"294":6.084566593170166,"295":-1.5507464408874512,"296":-0.6495640873908997,"297":-1.2541253566741943,"298":-3.142158031463623,"299":-0.27622249722480774,"300":0.3539027273654938,"301":-3.9954824447631836,"302":0.7698705792427063,"303":-5.2427659034729,"304":0.5467250347137451,"305":4.701179027557373,"306":2.434584617614746,"307":-2.6148324012756348,"308":-1.048054575920105,"309":-0.6653561592102051,"310":-0.5878251194953918,"311":-2.514932155609131,"312":-1.2843626737594604,"313":-0.5370302796363831,"314":-2.8991076946258545,"315":-1.5081955194473267,"316":0.23728957772254944,"317":0.6563045382499695,"318":-1.0983834266662598,"319":-3.3001129627227783,"320":-1.0922393798828125,"321":-0.7026187777519226,"322":-3.5135674476623535,"323":-1.6377146244049072,"324":1.3880560398101807,"325":2.008363962173462,"326":0.9395062327384949,"327":0.21809452772140503,"328":0.8856249451637268,"329":1.876685380935669,"330":1.7955361604690552,"331":-8.572619438171387,"332":-0.914359450340271,"333":1.9221813678741455,"334":2.7174899578094482,"335":-0.48507407307624817,"336":-2.0135159492492676,"337":-3.1630618572235107,"338":-1.8281893730163574,"339":1.8823109865188599,"340":-3.681417942047119,"341":-0.37351447343826294,"342":-4.4784626960754395,"343":1.0428714752197266,"344":-2.662619113922119,"345":3.6820690631866455,"346":-0.451560378074646,"347":2.5017001628875732,"348":-3.017268180847168,"349":-2.398102283477783,"350":1.1980060338974,"351":1.4339263439178467,"352":-2.4495813846588135,"353":-6.11979866027832,"354":-0.642405092716217,"355":4.621222972869873,"356":3.38615083694458,"357":2.913729429244995,"358":-0.972703754901886,"359":0.6830694675445557,"360":-3.745004415512085,"361":2.2124581336975098,"362":0.32728925347328186,"363":-0.9359506368637085,"364":-1.202886939048767,"365":-2.8943419456481934,"366":4.235325813293457,"367":2.4823060035705566,"368":-1.2719788551330566,"369":-4.864414215087891,"370":0.6316864490509033,"371":0.5939576029777527,"372":-0.47522199153900146,"373":-0.1647500991821289,"374":-0.500238835811615,"375":0.6834429502487183,"376":2.392611265182495,"377":0.41595426201820374,"378":3.335646629333496,"379":4.782204627990723,"380":1.2031258344650269,"381":2.018749475479126,"382":1.0039913654327393,"383":-0.8120684027671814,"384":-3.2439310550689697,"385":3.9867632389068604,"386":1.5137454271316528,"387":2.177172899246216,"388":0.29162102937698364,"389":3.251793384552002,"390":0.40889567136764526,"391":-0.2968207895755768,"392":-0.4494330585002899,"393":3.2945897579193115,"394":1.7692642211914062,"395":-2.155285596847534,"396":-4.928493499755859,"397":4.110229969024658,"398":1.1741629838943481,"399":-2.1498775482177734,"400":-0.8340744972229004,"401":2.3660800457000732,"402":-2.3864424228668213,"403":2.6700992584228516,"404":0.6304323077201843,"405":2.8249473571777344,"406":1.5661619901657104,"407":0.2730901837348938,"408":0.5322259068489075,"409":-0.0921877771615982,"410":1.0296893119812012,"411":3.618462562561035,"412":-0.19404131174087524,"413":-2.1160500049591064,"414":5.104748249053955,"415":3.255592107772827,"416":-1.8271856307983398,"417":-4.09837532043457,"418":-1.6377066373825073,"419":-2.2069497108459473,"420":-4.532232761383057,"421":-0.5094417929649353,"422":4.378366470336914,"423":-1.3371319770812988,"424":6.703922748565674,"425":-2.7875540256500244,"426":0.7878485918045044,"427":-0.6984589099884033,"428":-0.6193695664405823,"429":-2.398326873779297,"430":-5.650084495544434,"431":-0.5397580862045288,"432":-3.9733126163482666,"433":-5.352758884429932,"434":2.1393301486968994,"435":-0.5055252909660339,"436":-0.41571298241615295,"437":0.36583152413368225,"438":-2.636955499649048,"439":0.5333467125892639,"440":0.8095798492431641,"441":-1.2463412284851074,"442":0.7143455147743225,"443":-5.110264301300049,"444":-1.806061863899231,"445":0.5564025044441223,"446":-0.7560175657272339,"447":0.0737430676817894,"448":1.019413709640503,"449":0.5720641613006592,"450":2.0374011993408203,"451":-0.19497953355312347,"452":-2.227490186691284,"453":-2.114194869995117,"454":-4.419125556945801,"455":-0.7614690065383911,"456":0.3169648051261902,"457":1.5739941596984863,"458":0.1904340237379074,"459":1.795358657836914,"460":-0.6300387978553772,"461":-3.36952543258667,"462":0.971595287322998,"463":1.3301759958267212,"464":-2.3521909713745117,"465":-0.6846616864204407,"466":1.5430784225463867,"467":-8.347358703613281,"468":-0.1274261176586151,"469":1.140281081199646,"470":-3.1992733478546143,"471":-5.604734897613525,"472":0.6663333773612976,"473":-2.50518536567688,"474":3.491658926010132,"475":5.9527201652526855,"476":-4.632811069488525,"477":-0.459758996963501,"478":4.801711559295654,"479":-4.147426605224609,"480":-7.455719470977783,"481":-0.602691650390625,"482":2.0668187141418457,"483":-0.2848590314388275,"484":-2.911165714263916,"485":1.046357274055481,"486":-3.3186657428741455,"487":-0.7249873876571655,"488":-4.3091535568237305,"489":-0.7525169253349304,"490":-2.972853660583496,"491":-1.876693606376648,"492":2.7576169967651367,"493":0.6591038107872009,"494":6.605341911315918,"495":5.1038336753845215,"496":3.269892454147339,"497":-6.431974411010742,"498":-1.2972865104675293,"499":1.9135786294937134,"500":0.8601563572883606,"501":3.6496851444244385,"502":3.493497848510742,"503":-1.758718729019165,"504":-0.06612434983253479,"505":0.8541309833526611,"506":-0.8726798892021179,"507":-3.554311513900757,"508":-0.6524345874786377,"509":-3.6087279319763184,"510":0.22411364316940308,"511":2.4097325801849365,"512":-1.0216184854507446,"513":3.9279379844665527,"514":0.6579685211181641,"515":-0.5785838961601257,"516":-1.1083136796951294,"517":-0.8724349141120911,"518":-4.904911518096924,"519":-0.6238439083099365,"520":-0.9464663863182068,"521":2.5657284259796143,"522":-3.17667818069458,"523":-0.0499575100839138,"524":-4.517634868621826,"525":-1.1588690280914307,"526":1.4145861864089966,"527":-0.5533713102340698,"528":-1.7811015844345093,"529":-3.1782383918762207,"530":1.3152198791503906,"531":0.38294947147369385,"532":-2.451861619949341,"533":-0.9319067597389221,"534":4.574911594390869,"535":0.48439547419548035,"536":-0.9897087216377258,"537":-0.14726431667804718,"538":0.3265756070613861,"539":-0.7020219564437866,"540":2.907914638519287,"541":-0.29785460233688354,"542":-0.976538360118866,"543":-2.546523094177246,"544":1.050889253616333,"545":0.07608005404472351,"546":-2.541126251220703,"547":1.397247552871704,"548":-1.6124827861785889,"549":2.6911656856536865,"550":-0.47343453764915466,"551":0.6629694104194641,"552":2.4232823848724365,"553":2.933255434036255,"554":2.6336729526519775,"555":0.6312905550003052,"556":1.9506603479385376,"557":1.7648507356643677,"558":1.6801040172576904,"559":3.7485339641571045,"560":-0.17426705360412598,"561":2.7533390522003174,"562":2.159987449645996,"563":1.5292205810546875,"564":1.3345227241516113,"565":2.278465986251831,"566":-1.613250494003296,"567":3.9948623180389404,"568":0.693306565284729,"569":0.28592556715011597,"570":-7.256539821624756,"571":2.950268030166626,"572":-0.2083130180835724,"573":-0.5691936016082764,"574":5.714804172515869,"575":-0.577130913734436,"576":3.205077886581421,"577":-0.33927661180496216,"578":-4.083220481872559,"579":1.041115641593933,"580":-3.1260130405426025,"581":4.544300079345703,"582":-4.946953296661377,"583":-1.797554850578308,"584":0.7892380356788635,"585":2.601259708404541,"586":3.0165131092071533,"587":-0.5119265913963318,"588":-4.422980785369873,"589":-0.6004393100738525,"590":0.2259019911289215,"591":-0.72939133644104,"592":0.7477738857269287,"593":-0.25048354268074036,"594":-0.1436157524585724,"595":1.3247312307357788,"596":3.124194860458374,"597":0.8337221741676331,"598":-1.0682096481323242,"599":-1.5671236515045166,"600":-0.923841118812561,"601":-2.7969930171966553,"602":-3.7698473930358887,"603":-4.0115065574646,"604":-1.0400937795639038,"605":-1.5727227926254272,"606":1.414083480834961,"607":-3.386411190032959,"608":-1.2733570337295532,"609":-0.6689807176589966,"610":0.18912272155284882,"611":1.2439863681793213,"612":-0.4494219422340393,"613":0.1670190542936325,"614":-0.20169022679328918,"615":-0.05723229795694351,"616":-0.24626153707504272,"617":1.634376883506775,"618":4.407129287719727,"619":-1.734925389289856,"620":-1.585956335067749,"621":-1.5680049657821655,"622":0.6661441922187805,"623":-6.73763370513916,"624":2.6242246627807617,"625":1.626976728439331,"626":1.5340861082077026,"627":2.0100088119506836,"628":0.43280962109565735,"629":-3.446317672729492,"630":-3.218588352203369,"631":-1.2433942556381226,"632":2.6504862308502197,"633":-0.9629797339439392,"634":-0.20110011100769043,"635":1.3158721923828125,"636":1.4317222833633423,"637":6.9404401779174805,"638":-2.4763143062591553,"639":3.9831182956695557,"640":-0.9374691247940063,"641":-1.741518497467041,"642":5.466842174530029,"643":-7.884176731109619,"644":-0.2571287453174591,"645":-0.8759666681289673,"646":5.139534950256348,"647":-6.115540981292725,"648":5.326880931854248,"649":3.531388759613037,"650":1.2663605213165283,"651":-2.080443859100342,"652":-4.1485395431518555,"653":0.8144927024841309,"654":2.0012269020080566,"655":3.6617374420166016,"656":1.9395586252212524,"657":1.6382050514221191,"658":3.6367409229278564,"659":1.40190589427948,"660":2.5068857669830322,"661":2.493863105773926,"662":-1.5194640159606934,"663":0.6557363867759705,"664":0.4599419832229614,"665":2.465742826461792,"666":6.611107349395752,"667":-3.7912163734436035,"668":-0.11578701436519623,"669":1.4936296939849854,"670":-0.6058328151702881,"671":7.285515785217285,"672":-0.1462996006011963,"673":0.6978763341903687,"674":1.1474506855010986,"675":-2.41276216506958,"676":0.65755695104599,"677":0.7942774295806885,"678":-1.7612664699554443,"679":-2.7992091178894043,"680":0.9624053239822388,"681":-2.1948471069335938,"682":4.8960113525390625,"683":2.0131914615631104,"684":3.7871434688568115,"685":-0.031004881486296654,"686":5.827362537384033,"687":-0.056615158915519714,"688":0.4692651629447937,"689":-1.5006660223007202,"690":0.9209268689155579,"691":-3.8902947902679443,"692":0.21556876599788666,"693":2.1016907691955566,"694":4.991775989532471,"695":0.30974406003952026,"696":1.7383989095687866,"697":1.9354926347732544,"698":-3.4997377395629883,"699":-2.026461124420166,"700":2.4960508346557617,"701":2.355640411376953,"702":-1.905893087387085,"703":-0.7967995405197144,"704":-3.628774642944336,"705":-0.6599825620651245,"706":4.202805995941162,"707":-2.3141086101531982,"708":-7.841780185699463,"709":-0.7189935445785522,"710":-3.853518009185791,"711":-1.6968176364898682,"712":4.676985263824463,"713":3.5735843181610107,"714":-0.016547605395317078,"715":-4.987541675567627,"716":-2.9492685794830322,"717":3.0231359004974365,"718":1.1611450910568237,"719":1.1833164691925049,"720":5.546788692474365,"721":2.2111129760742188,"722":-2.499397039413452,"723":2.0951039791107178,"724":-5.937058925628662,"725":-2.3657891750335693,"726":-1.902641773223877,"727":-4.597465991973877,"728":-1.8386406898498535,"729":-2.79425311088562,"730":-0.8541972041130066,"731":-3.5410284996032715,"732":0.5999574661254883,"733":0.15967653691768646,"734":-3.4013378620147705,"735":-0.08682114630937576,"736":-4.125070095062256,"737":-0.0037445120979100466,"738":3.746091842651367,"739":1.0359511375427246,"740":0.12286946177482605,"741":-0.20357173681259155,"742":-0.9654526114463806,"743":-0.671471118927002,"744":-2.492783308029175,"745":-1.3202792406082153,"746":-0.169864684343338,"747":1.6468119621276855,"748":2.307823657989502,"749":0.14684650301933289,"750":-1.1123560667037964,"751":-1.4874393939971924,"752":-0.21061567962169647,"753":1.4066226482391357,"754":5.958561420440674,"755":-2.434419631958008,"756":-0.16130727529525757,"757":1.6172171831130981,"758":1.2504125833511353,"759":2.365833282470703,"760":-1.440172791481018,"761":3.511162281036377,"762":0.2577536404132843,"763":-0.3283096253871918,"764":2.2451229095458984,"765":-0.6192105412483215,"766":1.3611676692962646,"767":-1.561112642288208,"768":-2.3617942333221436,"769":0.6515232920646667,"770":1.8571137189865112,"771":1.584303855895996,"772":-1.8352757692337036,"773":0.8591871857643127,"774":0.7715649008750916,"775":-1.2356252670288086,"776":0.06905577331781387,"777":4.151721477508545,"778":-0.7907702922821045,"779":-3.881272077560425,"780":0.7961030006408691,"781":-2.171173572540283,"782":-2.226656913757324,"783":5.186595916748047,"784":-1.9711878299713135,"785":-0.21489590406417847,"786":2.848456621170044,"787":-0.958321213722229,"788":-0.4968196749687195,"789":1.1998870372772217,"790":0.859002947807312,"791":0.2209036946296692,"792":-0.6203876733779907,"793":0.06323426216840744,"794":-0.184279203414917,"795":-0.6205374598503113,"796":2.990339994430542,"797":1.4974273443222046,"798":2.340867519378662,"799":0.7953306436538696,"800":-3.042672634124756,"801":1.0102022886276245,"802":-0.021662533283233643,"803":-0.8430829048156738,"804":-2.8148281574249268,"805":-0.2571586072444916,"806":4.446467876434326,"807":1.28162682056427,"808":1.9531511068344116,"809":-1.0835397243499756,"810":2.2812960147857666,"811":-0.3533332645893097,"812":0.8168932795524597,"813":2.129030227661133,"814":-1.603299617767334,"815":0.6850982904434204,"816":3.4544715881347656,"817":1.4139978885650635,"818":-0.7279583215713501,"819":2.1866073608398438,"820":-0.6116918325424194,"821":2.8511557579040527,"822":4.165433406829834,"823":-2.2303051948547363,"824":1.7169125080108643,"825":1.921957015991211,"826":-3.4291000366210938,"827":-7.336392402648926,"828":-4.977298259735107,"829":0.8816097974777222,"830":1.3713161945343018,"831":3.430722713470459,"832":-0.7134339809417725,"833":-3.087904691696167,"834":-1.4239165782928467,"835":-3.7071828842163086,"836":0.36160725355148315,"837":-1.1623586416244507,"838":-0.16819049417972565,"839":-4.836953639984131,"840":1.5631572008132935,"841":1.7249653339385986,"842":-0.11843826621770859,"843":2.4482452869415283,"844":3.5775742530822754,"845":-1.3883076906204224,"846":0.581959068775177,"847":3.3467586040496826,"848":-4.0391154289245605,"849":-2.3645293712615967,"850":-0.4554484188556671,"851":-3.232234001159668,"852":-1.0073537826538086,"853":-0.8573698401451111,"854":3.800626516342163,"855":-2.3540945053100586,"856":-2.581609010696411,"857":1.2756925821304321,"858":-5.941538333892822,"859":-2.460299491882324,"860":-1.8282184600830078,"861":1.4023197889328003,"862":1.1390483379364014,"863":-1.4557939767837524,"864":4.978785514831543,"865":4.3828558921813965,"866":3.3028740882873535,"867":-2.645101547241211,"868":-2.1044673919677734,"869":1.5231115818023682,"870":-0.04637321084737778,"871":-0.8703027963638306,"872":-0.17042802274227142,"873":0.04870528355240822,"874":-0.7345958948135376,"875":1.2741148471832275,"876":0.0389910489320755,"877":-0.13197337090969086,"878":-0.32689976692199707,"879":0.6974080801010132,"880":-3.564426898956299,"881":-0.5792759656906128,"882":-0.5251339673995972,"883":2.5960779190063477,"884":-3.499396800994873,"885":3.2008273601531982,"886":-0.34719741344451904,"887":0.14360707998275757,"888":2.348003625869751,"889":-1.4208265542984009,"890":2.828033924102783,"891":1.3610337972640991,"892":-0.372214674949646,"893":-1.3543813228607178,"894":0.48012837767601013,"895":0.6927450299263,"896":-1.330095887184143,"897":0.9566336274147034,"898":2.5512335300445557,"899":-0.8407186269760132,"900":-5.055545330047607,"901":-3.8362390995025635,"902":1.2290507555007935,"903":-0.7751340270042419,"904":-2.86012601852417,"905":6.850467681884766,"906":5.899672508239746,"907":1.142209529876709,"908":-3.0330045223236084,"909":0.018782978877425194,"910":-2.6508350372314453,"911":-1.3973172903060913,"912":-0.32822751998901367,"913":3.0944435596466064,"914":1.7622582912445068,"915":-2.3512728214263916,"916":-2.0055582523345947,"917":-0.576758623123169,"918":-2.1281018257141113,"919":1.7086114883422852,"920":-2.7471859455108643,"921":2.8601019382476807,"922":-6.331592559814453,"923":1.8575093746185303,"924":2.566434621810913,"925":4.089312553405762,"926":-0.24747516214847565,"927":0.16879312694072723,"928":2.362062454223633,"929":0.03783886507153511,"930":3.938753366470337,"931":3.693657875061035,"932":-2.459099769592285,"933":-2.8869121074676514,"934":-2.0556933879852295,"935":3.9885666370391846,"936":-3.201199531555176,"937":1.167205572128296,"938":4.40183162689209,"939":-4.4027557373046875,"940":0.061472948640584946,"941":0.9530202150344849,"942":1.82198166847229,"943":-2.905022382736206,"944":-8.641609191894531,"945":-1.9670664072036743,"946":2.098856210708618,"947":-0.5394101738929749,"948":-5.890748500823975,"949":4.12493896484375,"950":-1.4708553552627563,"951":-1.9596977233886719,"952":0.6143830418586731,"953":-0.05440458655357361,"954":0.245779886841774,"955":1.5366328954696655,"956":-3.078929901123047,"957":-2.489574432373047,"958":-1.1557717323303223,"959":-0.942573606967926,"960":2.149963855743408,"961":-0.9974802136421204,"962":0.9495816230773926,"963":0.012882430106401443,"964":-2.409329891204834,"965":-2.716428279876709,"966":1.121495008468628,"967":0.9921857714653015,"968":0.5841674208641052,"969":-2.2770836353302,"970":-1.9681499004364014,"971":-1.4183000326156616,"972":1.0137463808059692,"973":-0.07263100147247314,"974":-1.5125668048858643,"975":-0.17557473480701447,"976":0.00727658998221159,"977":5.227134704589844,"978":-5.742251873016357,"979":-0.1533944308757782,"980":0.9479991793632507,"981":-3.626298666000366,"982":2.1252639293670654,"983":0.591118574142456,"984":0.50632244348526,"985":2.083249807357788,"986":-1.3623943328857422,"987":0.16488568484783173,"988":0.8031939268112183,"989":2.261775016784668,"990":-1.8994241952896118,"991":1.1285220384597778}},"hiddenLayers":[{"inputMatrix":{"rows":20,"columns":31,"weights":{"0":-0.8521319031715393,"1":4.963708877563477,"2":2.6222105026245117,"3":-0.785735011100769,"4":-1.5631678104400635,"5":-1.3360285758972168,"6":-0.05476959049701691,"7":-1.328803539276123,"8":1.4277714490890503,"9":-0.10940250009298325,"10":2.225971221923828,"11":3.6064722537994385,"12":0.8366091847419739,"13":2.2754783630371094,"14":-0.9447643756866455,"15":2.181697130203247,"16":-1.0369004011154175,"17":1.6436277627944946,"18":0.4612973630428314,"19":-0.2567512094974518,"20":-0.3555348515510559,"21":0.8688579201698303,"22":-2.0640199184417725,"23":0.9268084764480591,"24":-2.3478479385375977,"25":0.6856439709663391,"26":-3.4297354221343994,"27":2.850147247314453,"28":-0.748241662979126,"29":1.7737782001495361,"30":-0.9030179381370544,"31":0.8011367321014404,"32":-0.8921369910240173,"33":-1.7247071266174316,"34":1.8241603374481201,"35":2.726598024368286,"36":-1.6665244102478027,"37":-0.6258780360221863,"38":0.6019803881645203,"39":-1.5654747486114502,"40":2.7393834590911865,"41":2.3388924598693848,"42":-1.191829800605774,"43":-0.3474930226802826,"44":0.685790479183197,"45":0.11939211189746857,"46":0.021691450849175453,"47":-2.4231555461883545,"48":0.7454701662063599,"49":-1.6660016775131226,"50":-3.9502785205841064,"51":1.3009642362594604,"52":-2.6556551456451416,"53":0.7560084462165833,"54":-0.40774327516555786,"55":-3.5053439140319824,"56":0.6134001612663269,"57":2.015146255493164,"58":0.6262631416320801,"59":-2.6037180423736572,"60":1.3498704433441162,"61":1.336690902709961,"62":0.4457092881202698,"63":0.9890429973602295,"64":-1.6779006719589233,"65":-1.0657683610916138,"66":-1.7593822479248047,"67":3.0679337978363037,"68":2.7645905017852783,"69":1.2089725732803345,"70":1.5120350122451782,"71":-3.3535616397857666,"72":0.8111896514892578,"73":0.8826131224632263,"74":-0.27356818318367004,"75":-1.8690810203552246,"76":-1.4426485300064087,"77":-0.7602083086967468,"78":2.1510894298553467,"79":0.01781577244400978,"80":-2.8134825229644775,"81":1.726299524307251,"82":-1.8641058206558228,"83":0.39083316922187805,"84":0.2886344790458679,"85":-0.3546014726161957,"86":0.7257814407348633,"87":1.8325101137161255,"88":0.5894724726676941,"89":-2.48393177986145,"90":0.8468973636627197,"91":1.3322595357894897,"92":-1.2676012516021729,"93":1.8387507200241089,"94":1.290127158164978,"95":1.338478684425354,"96":-0.05365246906876564,"97":1.8364049196243286,"98":0.9296993017196655,"99":0.34916403889656067,"100":1.8594943284988403,"101":-1.8950449228286743,"102":1.5366644859313965,"103":1.24861741065979,"104":-0.7479247450828552,"105":2.0127053260803223,"106":-0.685166597366333,"107":-2.5271215438842773,"108":-4.141241073608398,"109":-0.7742286324501038,"110":-3.3659679889678955,"111":0.8759866952896118,"112":2.5047736167907715,"113":-1.6786137819290161,"114":-4.31895637512207,"115":-2.3455862998962402,"116":0.35853442549705505,"117":1.4109209775924683,"118":-4.644016742706299,"119":-2.056978464126587,"120":1.8884193897247314,"121":-1.4215885400772095,"122":0.37099090218544006,"123":-0.7930402755737305,"124":1.3500179052352905,"125":3.2743594646453857,"126":0.6165168881416321,"127":-3.0172369480133057,"128":0.46691444516181946,"129":1.656248688697815,"130":-1.202743649482727,"131":-0.6117483973503113,"132":2.4997003078460693,"133":-1.356680989265442,"134":-0.3604905605316162,"135":-1.024031639099121,"136":2.0361413955688477,"137":-3.540888547897339,"138":-5.235167026519775,"139":1.2245094776153564,"140":1.6378395557403564,"141":-2.9069719314575195,"142":-2.6968560218811035,"143":-0.2924491763114929,"144":1.2018001079559326,"145":-1.1351027488708496,"146":-2.8388187885284424,"147":-0.11287187784910202,"148":1.5187791585922241,"149":-0.6085864305496216,"150":-2.7935359477996826,"151":1.0426490306854248,"152":-0.1256006360054016,"153":-0.21669968962669373,"154":-1.7122228145599365,"155":-0.3734495937824249,"156":2.4245691299438477,"157":4.118332862854004,"158":-0.4219195246696472,"159":0.4626801013946533,"160":-0.8877344131469727,"161":-1.575244426727295,"162":1.7663075923919678,"163":-1.545116662979126,"164":0.49224165081977844,"165":-1.7178003787994385,"166":1.9377696514129639,"167":-1.1861295700073242,"168":-0.21785497665405273,"169":0.10037306696176529,"170":4.717424392700195,"171":-0.14844202995300293,"172":2.45969557762146,"173":-0.02794853411614895,"174":3.9628725051879883,"175":1.187135100364685,"176":-2.1380834579467773,"177":-1.6135106086730957,"178":0.8456317782402039,"179":2.468400716781616,"180":-2.5047080516815186,"181":-1.6519469022750854,"182":2.277719497680664,"183":3.5727193355560303,"184":-0.9378646612167358,"185":1.7880312204360962,"186":0.20772992074489594,"187":-0.8396283388137817,"188":0.6092591285705566,"189":-2.656428813934326,"190":-1.5520166158676147,"191":0.8195174932479858,"192":1.5686700344085693,"193":0.4513043463230133,"194":-0.15364320576190948,"195":-2.3093576431274414,"196":-1.7085670232772827,"197":3.8144798278808594,"198":-1.786232352256775,"199":-1.695605754852295,"200":-0.1911318600177765,"201":-0.3179539442062378,"202":0.9024856686592102,"203":0.5656685829162598,"204":-2.2702229022979736,"205":3.384376287460327,"206":0.7110823392868042,"207":-1.2513418197631836,"208":0.4304454028606415,"209":1.8516206741333008,"210":1.3461084365844727,"211":-0.24138639867305756,"212":-1.8155748844146729,"213":-1.61190927028656,"214":1.5617507696151733,"215":-0.49294090270996094,"216":-0.021210595965385437,"217":-1.6402138471603394,"218":2.7217178344726562,"219":-2.8165903091430664,"220":2.178147792816162,"221":1.8657984733581543,"222":1.4117940664291382,"223":-1.8849297761917114,"224":-0.27858275175094604,"225":1.927147388458252,"226":0.2265329658985138,"227":3.784336566925049,"228":-0.3277713358402252,"229":0.4470096826553345,"230":-1.0038875341415405,"231":-3.904834747314453,"232":-2.1500399112701416,"233":-3.4391486644744873,"234":0.2821877896785736,"235":-3.483215808868408,"236":-1.517856478691101,"237":-1.056592583656311,"238":-1.7974456548690796,"239":-0.6685449481010437,"240":-0.8206173777580261,"241":-0.8254823088645935,"242":-0.4271429777145386,"243":3.6451168060302734,"244":5.769957542419434,"245":-3.225659132003784,"246":-0.13276731967926025,"247":1.5940686464309692,"248":-2.3281972408294678,"249":-0.42337942123413086,"250":-0.9334339499473572,"251":-0.4187425673007965,"252":0.009864320047199726,"253":-0.7099218964576721,"254":1.6061540842056274,"255":0.5505387783050537,"256":-0.2917422652244568,"257":-1.0344479084014893,"258":0.6505398750305176,"259":-1.974568486213684,"260":-2.491459846496582,"261":0.0911603569984436,"262":-1.4228521585464478,"263":1.7616294622421265,"264":-2.2215428352355957,"265":1.2900570631027222,"266":-1.0364280939102173,"267":2.3728809356689453,"268":2.850905418395996,"269":-0.7867777943611145,"270":1.4741382598876953,"271":-3.3773908615112305,"272":-2.8368053436279297,"273":3.072366714477539,"274":1.300852656364441,"275":-0.8553954362869263,"276":-1.421795129776001,"277":2.8716819286346436,"278":-0.967503547668457,"279":-0.3093293011188507,"280":-2.7528297901153564,"281":1.1110349893569946,"282":-0.5613649487495422,"283":0.4337328374385834,"284":2.8570830821990967,"285":0.5633554458618164,"286":-0.4030294120311737,"287":-0.3607511520385742,"288":3.5148797035217285,"289":3.152674674987793,"290":0.18759402632713318,"291":-0.5852846503257751,"292":1.1843233108520508,"293":1.6190907955169678,"294":4.118033409118652,"295":-1.050094723701477,"296":1.7621103525161743,"297":1.8940576314926147,"298":-1.1353633403778076,"299":0.5178111791610718,"300":1.7141824960708618,"301":-0.12918046116828918,"302":3.4923794269561768,"303":-3.5351669788360596,"304":0.00688762916252017,"305":0.7620272636413574,"306":3.278399705886841,"307":-4.107210159301758,"308":0.07855527102947235,"309":0.9139440059661865,"310":-4.268099784851074,"311":-0.8131527304649353,"312":-2.2881224155426025,"313":2.60127854347229,"314":-0.8869960308074951,"315":-2.0783684253692627,"316":1.6789335012435913,"317":-1.300995111465454,"318":-1.3464559316635132,"319":0.7430088520050049,"320":-0.6914114952087402,"321":-1.8216567039489746,"322":-1.6646537780761719,"323":0.7336530089378357,"324":1.1821719408035278,"325":1.4540259838104248,"326":-2.113600730895996,"327":1.8910619020462036,"328":-0.0704454854130745,"329":0.6135733723640442,"330":2.9901316165924072,"331":-2.1823842525482178,"332":2.794839382171631,"333":-4.027772426605225,"334":0.34600040316581726,"335":-0.4732116162776947,"336":1.6406644582748413,"337":0.3472791910171509,"338":-1.906846046447754,"339":-0.4610477387905121,"340":-1.6307414770126343,"341":2.625044584274292,"342":0.5021375417709351,"343":0.429543137550354,"344":-0.5222557187080383,"345":-1.9108349084854126,"346":2.0457351207733154,"347":-0.6628109812736511,"348":0.3631684482097626,"349":2.176581382751465,"350":-2.395547866821289,"351":-0.9378930926322937,"352":0.6209189891815186,"353":0.009162026457488537,"354":-2.463022470474243,"355":-2.420626163482666,"356":-1.278464436531067,"357":3.2974417209625244,"358":-0.6760618090629578,"359":-1.9704360961914062,"360":0.0701477900147438,"361":-2.564943313598633,"362":2.3611788749694824,"363":-1.4671000242233276,"364":1.0203659534454346,"365":0.3751901090145111,"366":0.7184152603149414,"367":-1.5076351165771484,"368":1.234869360923767,"369":4.733617782592773,"370":0.157560333609581,"371":-0.3691844344139099,"372":-0.473041296005249,"373":-2.1581969261169434,"374":-1.8279008865356445,"375":0.3109128773212433,"376":-1.0244836807250977,"377":-2.0267207622528076,"378":-0.3904133439064026,"379":-0.5604254603385925,"380":-0.744529664516449,"381":-4.895046234130859,"382":-2.971013069152832,"383":-1.9781136512756348,"384":-1.4800479412078857,"385":-0.33115071058273315,"386":2.105923891067505,"387":-2.9322547912597656,"388":-0.9063884615898132,"389":-2.2502517700195312,"390":1.2810286283493042,"391":3.1511127948760986,"392":-1.3538166284561157,"393":-2.2689247131347656,"394":-0.47474461793899536,"395":-1.2252821922302246,"396":7.7944254875183105,"397":-1.7148265838623047,"398":1.7932568788528442,"399":1.3640961647033691,"400":7.029723167419434,"401":-0.7830086350440979,"402":2.25461745262146,"403":-0.1431499719619751,"404":1.988088846206665,"405":-0.3786485195159912,"406":-1.9852569103240967,"407":1.5726121664047241,"408":2.3734400272369385,"409":0.04104890674352646,"410":-1.8402149677276611,"411":1.5317368507385254,"412":-1.820990800857544,"413":-2.6957685947418213,"414":-0.16547255218029022,"415":2.0386757850646973,"416":-3.3364555835723877,"417":-1.1535903215408325,"418":-0.06338643282651901,"419":0.5316504836082458,"420":0.5388563871383667,"421":-1.2703245878219604,"422":0.7216408848762512,"423":-1.0530484914779663,"424":2.4543209075927734,"425":-0.7480002641677856,"426":-0.7532195448875427,"427":1.6652004718780518,"428":-2.457150459289551,"429":-1.6602180004119873,"430":-0.9878650307655334,"431":0.27216586470603943,"432":-0.2245221734046936,"433":1.0466309785842896,"434":1.4666862487792969,"435":-2.3915939331054688,"436":0.38306206464767456,"437":0.7861613631248474,"438":1.3536351919174194,"439":0.4949907958507538,"440":2.9902796745300293,"441":1.4580258131027222,"442":0.45696768164634705,"443":-0.3225734829902649,"444":0.8014328479766846,"445":-0.9242230653762817,"446":-2.2415714263916016,"447":0.8606619238853455,"448":-0.00477204704657197,"449":0.47029539942741394,"450":-1.6283929347991943,"451":-0.5014339685440063,"452":-1.0650196075439453,"453":-4.530257701873779,"454":-0.19235330820083618,"455":2.3911185264587402,"456":-1.9603605270385742,"457":-0.3983602225780487,"458":-0.1813146322965622,"459":6.097487449645996,"460":-0.8920285701751709,"461":-0.2996642589569092,"462":0.502852737903595,"463":-1.1844866275787354,"464":-2.3049678802490234,"465":-2.617633819580078,"466":-0.13010834157466888,"467":-1.5783253908157349,"468":-2.533928871154785,"469":-1.772316813468933,"470":-1.0792527198791504,"471":-1.3014252185821533,"472":-3.6916234493255615,"473":-3.874371290206909,"474":1.0934929847717285,"475":0.14375075697898865,"476":-1.150315523147583,"477":0.824232816696167,"478":-0.2878248393535614,"479":1.9067180156707764,"480":1.6669399738311768,"481":4.07825231552124,"482":0.9229699969291687,"483":2.276411533355713,"484":-0.36610671877861023,"485":0.05087735131382942,"486":0.01999376155436039,"487":1.9286527633666992,"488":0.7062304019927979,"489":0.8687535524368286,"490":-2.745192766189575,"491":1.2188514471054077,"492":0.7039986848831177,"493":-0.7616665959358215,"494":1.3243706226348877,"495":0.022563733160495758,"496":2.2520909309387207,"497":3.0343832969665527,"498":-1.5974935293197632,"499":-2.3314108848571777,"500":-0.12528955936431885,"501":-0.08525439351797104,"502":-1.550367832183838,"503":-1.0047181844711304,"504":-1.5311248302459717,"505":0.15765197575092316,"506":1.3426913022994995,"507":-0.40784183144569397,"508":-0.23911161720752716,"509":-1.6249696016311646,"510":0.7644799947738647,"511":-2.257608652114868,"512":-0.8891974091529846,"513":-0.0467120036482811,"514":2.140005588531494,"515":-0.5079089403152466,"516":0.7252417206764221,"517":-1.717339038848877,"518":-0.9527281522750854,"519":-1.0520168542861938,"520":6.273523807525635,"521":-0.5733209848403931,"522":0.2746555507183075,"523":1.0738530158996582,"524":0.9578268527984619,"525":-3.2803664207458496,"526":3.962402820587158,"527":-1.6691629886627197,"528":0.26208949089050293,"529":0.22598128020763397,"530":-3.7416412830352783,"531":-1.98533034324646,"532":-0.24964383244514465,"533":1.0264779329299927,"534":1.0983319282531738,"535":0.651909589767456,"536":-3.9709396362304688,"537":-2.4789655208587646,"538":-0.7524065375328064,"539":0.5544847846031189,"540":-3.798482656478882,"541":1.17844557762146,"542":1.5193206071853638,"543":0.2448893040418625,"544":-1.5065367221832275,"545":-1.9552292823791504,"546":1.0596030950546265,"547":2.4925408363342285,"548":4.12576150894165,"549":2.2693402767181396,"550":1.4330873489379883,"551":1.9788157939910889,"552":-1.357978105545044,"553":-0.31034961342811584,"554":-2.693183660507202,"555":3.4241244792938232,"556":0.6636731028556824,"557":-1.5559781789779663,"558":3.088148832321167,"559":-3.6981160640716553,"560":3.5336403846740723,"561":0.21422724425792694,"562":0.40121379494667053,"563":0.395087331533432,"564":1.9421310424804688,"565":0.7492235898971558,"566":-0.3717398941516876,"567":-0.8596639037132263,"568":0.3842599093914032,"569":2.4802186489105225,"570":-2.9009714126586914,"571":0.036279987543821335,"572":1.4647760391235352,"573":0.17932432889938354,"574":1.5099356174468994,"575":-0.12350033968687057,"576":-0.9527230858802795,"577":1.4913145303726196,"578":-1.5956038236618042,"579":2.427731513977051,"580":-1.7567213773727417,"581":-1.514795184135437,"582":0.9526310563087463,"583":0.7536803483963013,"584":-0.5837308764457703,"585":-2.8991191387176514,"586":1.4591346979141235,"587":-0.14604566991329193,"588":-4.915102481842041,"589":-1.7451225519180298,"590":-4.288687229156494,"591":0.09840358048677444,"592":0.22837647795677185,"593":-3.0268943309783936,"594":-2.8008546829223633,"595":-1.9232842922210693,"596":-1.1410086154937744,"597":-0.4793933928012848,"598":2.290959358215332,"599":-1.1982392072677612,"600":4.306839942932129,"601":-1.7290226221084595,"602":3.139847993850708,"603":1.4997196197509766,"604":0.4351004660129547,"605":-1.4816135168075562,"606":1.0530425310134888,"607":0.08791806548833847,"608":-1.2081708908081055,"609":3.6783602237701416,"610":-0.663153886795044,"611":1.5748391151428223,"612":0.7927778363227844,"613":0.6747744083404541,"614":0.14763133227825165,"615":1.3110482692718506,"616":2.7186975479125977,"617":1.9841160774230957,"618":-1.0706562995910645,"619":2.51686954498291}},"inputHidden":{"rows":20,"columns":20,"weights":{"0":-3.8642499446868896,"1":2.1127729415893555,"2":-2.872584342956543,"3":-1.9703062772750854,"4":4.007417678833008,"5":-0.43355974555015564,"6":1.1797335147857666,"7":-3.025615692138672,"8":-4.299842357635498,"9":4.718338489532471,"10":0.5432755351066589,"11":2.248255491256714,"12":0.03430923819541931,"13":7.081790924072266,"14":-0.740118682384491,"15":-1.6840293407440186,"16":-6.251081943511963,"17":0.10780449211597443,"18":-0.9608907103538513,"19":-1.8126521110534668,"20":-3.381469249725342,"21":0.13281956315040588,"22":-0.15549378097057343,"23":1.4014838933944702,"24":1.959357500076294,"25":0.9535290002822876,"26":2.3188295364379883,"27":-4.591148376464844,"28":-3.3706789016723633,"29":0.45661109685897827,"30":-0.7104558348655701,"31":0.2027900367975235,"32":-0.5199611783027649,"33":-0.3549841046333313,"34":-1.7194033861160278,"35":2.306196689605713,"36":0.18403342366218567,"37":2.7541534900665283,"38":-1.1442824602127075,"39":1.3915619850158691,"40":-2.5317747592926025,"41":0.8122785091400146,"42":1.5189616680145264,"43":0.9903126358985901,"44":0.392466276884079,"45":-0.3696329593658447,"46":-3.6067824363708496,"47":1.5810048580169678,"48":-2.1074330806732178,"49":3.101268768310547,"50":3.3255395889282227,"51":1.257416009902954,"52":-1.943946361541748,"53":3.1842000484466553,"54":-0.7760177254676819,"55":2.5704100131988525,"56":-4.476655006408691,"57":-0.030282998457551003,"58":-1.481163501739502,"59":-0.8053305149078369,"60":-1.050553321838379,"61":1.3849835395812988,"62":2.72900128364563,"63":3.4899134635925293,"64":-3.7361929416656494,"65":-0.38273298740386963,"66":0.2711988389492035,"67":0.3099091649055481,"68":0.8333979845046997,"69":-1.5942212343215942,"70":-2.337076425552368,"71":1.1577727794647217,"72":-3.5334861278533936,"73":-1.7006527185440063,"74":-0.7053126692771912,"75":0.23009558022022247,"76":0.9050350189208984,"77":4.965745449066162,"78":3.8154830932617188,"79":1.5378813743591309,"80":-1.1057536602020264,"81":-4.126650333404541,"82":3.909273624420166,"83":2.6640777587890625,"84":-2.3308563232421875,"85":-2.4421958923339844,"86":-2.44635272026062,"87":1.0806869268417358,"88":0.753633975982666,"89":-1.297324538230896,"90":1.5623457431793213,"91":2.2323954105377197,"92":-2.3224778175354004,"93":1.352063775062561,"94":1.6791579723358154,"95":-1.9330819845199585,"96":2.058981418609619,"97":0.2817284166812897,"98":-0.008093228563666344,"99":-1.4289683103561401,"100":-3.0862090587615967,"101":-0.9553890824317932,"102":2.5060412883758545,"103":2.7104692459106445,"104":-3.0044500827789307,"105":1.9899375438690186,"106":-0.3366113603115082,"107":2.901181697845459,"108":-3.0504705905914307,"109":0.6610399484634399,"110":-0.22708480060100555,"111":-1.1991078853607178,"112":-4.048109531402588,"113":0.6425955295562744,"114":1.0498857498168945,"115":2.8098816871643066,"116":-1.334537148475647,"117":-2.6808853149414062,"118":1.482834815979004,"119":-1.2818490266799927,"120":-5.537022590637207,"121":-6.526316165924072,"122":-4.411655426025391,"123":4.091692924499512,"124":-1.5759921073913574,"125":-0.29857105016708374,"126":-5.639594554901123,"127":6.185549736022949,"128":1.4186089038848877,"129":-5.492780685424805,"130":-2.2318594455718994,"131":-2.937060832977295,"132":-1.2472349405288696,"133":-3.383683919906616,"134":3.8387086391448975,"135":-4.791937828063965,"136":-1.7915300130844116,"137":1.8899946212768555,"138":0.7370415925979614,"139":2.513482093811035,"140":2.5453436374664307,"141":-2.655186653137207,"142":-3.0090670585632324,"143":1.2410167455673218,"144":2.111421585083008,"145":-2.375016450881958,"146":-2.1482772827148438,"147":5.787289142608643,"148":-1.8459999561309814,"149":-4.846240520477295,"150":-5.002352714538574,"151":1.0322333574295044,"152":0.6760287284851074,"153":-0.7213689684867859,"154":-1.5125821828842163,"155":0.4456818997859955,"156":-2.1193878650665283,"157":1.476535677909851,"158":3.5984697341918945,"159":5.356629848480225,"160":-4.311481952667236,"161":-2.0250790119171143,"162":-4.366950035095215,"163":-7.025848865509033,"164":3.908047914505005,"165":5.126814365386963,"166":3.834968328475952,"167":4.874666213989258,"168":2.6659302711486816,"169":-3.348069429397583,"170":2.8191845417022705,"171":1.2707072496414185,"172":3.7240896224975586,"173":-0.7174738049507141,"174":1.764711618423462,"175":-4.776263236999512,"176":1.7954469919204712,"177":-3.5205070972442627,"178":-1.0684365034103394,"179":1.6678861379623413,"180":0.2356889396905899,"181":1.0898581743240356,"182":-1.332151174545288,"183":-4.878230571746826,"184":-0.4042055010795593,"185":-3.2121126651763916,"186":1.909568428993225,"187":4.812769412994385,"188":-0.9888405203819275,"189":0.03621424734592438,"190":-1.6746971607208252,"191":-1.3721636533737183,"192":6.789174556732178,"193":-0.5208582282066345,"194":-5.112467288970947,"195":-5.052216053009033,"196":0.7791153192520142,"197":3.633380651473999,"198":1.5642905235290527,"199":-1.3597288131713867,"200":2.2212626934051514,"201":-1.5034815073013306,"202":-2.0050463676452637,"203":-0.3188278377056122,"204":1.270500898361206,"205":-2.7665297985076904,"206":4.987411022186279,"207":-5.32962703704834,"208":5.704692840576172,"209":1.49382746219635,"210":1.5724233388900757,"211":-1.7284780740737915,"212":-1.1879503726959229,"213":4.034033298492432,"214":-2.5604734420776367,"215":0.3905218243598938,"216":0.3333010673522949,"217":-2.1424832344055176,"218":-0.94035804271698,"219":-5.049829959869385,"220":-3.017354965209961,"221":1.609565019607544,"222":-3.032438039779663,"223":1.4618409872055054,"224":2.677290678024292,"225":-1.6894489526748657,"226":-1.592179298400879,"227":0.2358551174402237,"228":1.5379767417907715,"229":3.964933395385742,"230":0.9003915190696716,"231":-4.252623558044434,"232":-2.5196781158447266,"233":-1.4358985424041748,"234":-3.680715560913086,"235":4.056654453277588,"236":0.039085280150175095,"237":-1.058297038078308,"238":1.5259064435958862,"239":-2.537027597427368,"240":2.3938558101654053,"241":-3.440903663635254,"242":4.364259719848633,"243":-2.086968183517456,"244":2.2400755882263184,"245":-1.7397984266281128,"246":-2.3817965984344482,"247":3.419205904006958,"248":4.556209564208984,"249":-6.975271224975586,"250":3.3768060207366943,"251":3.8601179122924805,"252":0.23910121619701385,"253":1.6430951356887817,"254":2.5866966247558594,"255":4.90228796005249,"256":1.3204560279846191,"257":1.608328938484192,"258":0.8817744851112366,"259":-2.995159387588501,"260":2.4959206581115723,"261":-4.344008445739746,"262":-2.5718307495117188,"263":2.34078311920166,"264":-1.6252456903457642,"265":0.7342579960823059,"266":-3.8806281089782715,"267":-3.729701280593872,"268":2.499427556991577,"269":-3.5276567935943604,"270":-2.182462453842163,"271":-5.846912860870361,"272":3.3077361583709717,"273":-2.3229918479919434,"274":-4.598180294036865,"275":4.360814094543457,"276":-8.128382682800293,"277":-0.25593388080596924,"278":0.718744695186615,"279":4.470602512359619,"280":2.2045373916625977,"281":-1.8534364700317383,"282":2.8392701148986816,"283":-1.667676568031311,"284":-5.4722723960876465,"285":0.49914711713790894,"286":5.622331619262695,"287":6.517520427703857,"288":0.9344391822814941,"289":-3.376485824584961,"290":-0.5454703569412231,"291":-0.5672351121902466,"292":7.411409378051758,"293":3.837737798690796,"294":-1.9899158477783203,"295":2.1488447189331055,"296":-2.9465606212615967,"297":0.6668405532836914,"298":3.0600221157073975,"299":3.924758195877075,"300":-5.363598346710205,"301":4.661214351654053,"302":-1.0396082401275635,"303":-3.160433292388916,"304":-2.7592296600341797,"305":-0.7200350165367126,"306":0.21660810708999634,"307":-1.2681269645690918,"308":-1.9750242233276367,"309":-0.32688239216804504,"310":1.2008564472198486,"311":3.6932177543640137,"312":-0.30731964111328125,"313":-2.842114210128784,"314":1.6721551418304443,"315":-1.6728709936141968,"316":-7.255589008331299,"317":-0.4320218563079834,"318":0.3012455403804779,"319":-1.9981683492660522,"320":2.102541923522949,"321":0.6734952926635742,"322":-2.477602958679199,"323":0.20348137617111206,"324":4.537413597106934,"325":0.6096346378326416,"326":-4.494552135467529,"327":-4.963089466094971,"328":2.5762155055999756,"329":0.058285586535930634,"330":-2.2391719818115234,"331":-1.559043049812317,"332":-1.1124224662780762,"333":1.7222665548324585,"334":2.4514384269714355,"335":2.59920597076416,"336":1.7779251337051392,"337":2.204414129257202,"338":2.1765341758728027,"339":-4.45029354095459,"340":3.1140198707580566,"341":-2.298893451690674,"342":-3.931037425994873,"343":3.7993783950805664,"344":5.747312068939209,"345":-2.7419111728668213,"346":-1.923129677772522,"347":-0.07662219554185867,"348":2.170802593231201,"349":-0.29480263590812683,"350":-2.5800552368164062,"351":-0.06807857006788254,"352":4.582985877990723,"353":-1.729525089263916,"354":-1.4419933557510376,"355":0.4650830328464508,"356":-1.2386527061462402,"357":-2.179178237915039,"358":2.1419973373413086,"359":0.8278855085372925,"360":1.9810187816619873,"361":0.217426598072052,"362":0.4149804413318634,"363":1.923563838005066,"364":0.1764310896396637,"365":-0.49263861775398254,"366":3.3389811515808105,"367":1.8145023584365845,"368":2.8099606037139893,"369":2.16567325592041,"370":-1.6822612285614014,"371":2.024576425552368,"372":2.663325071334839,"373":-3.8309543132781982,"374":0.4882926642894745,"375":3.3821825981140137,"376":0.1372077614068985,"377":3.0937178134918213,"378":-1.8888472318649292,"379":-3.425333023071289,"380":1.2805157899856567,"381":5.393954277038574,"382":1.7294725179672241,"383":-0.949684202671051,"384":0.8012043833732605,"385":4.907501220703125,"386":-1.2067599296569824,"387":-6.550464153289795,"388":0.21147680282592773,"389":3.2089970111846924,"390":1.2999649047851562,"391":1.6281883716583252,"392":1.123063087463379,"393":2.1722211837768555,"394":2.2047858238220215,"395":3.2823445796966553,"396":-0.1833925098180771,"397":0.8179764151573181,"398":-1.216233491897583,"399":-0.8156503438949585}},"inputBias":{"rows":20,"columns":1,"weights":{"0":-1.8748703002929688,"1":-0.41273602843284607,"2":-0.6498805284500122,"3":-0.0710323229432106,"4":-2.0097527503967285,"5":-2.159236192703247,"6":-2.985522747039795,"7":-1.0347532033920288,"8":-0.12321408838033676,"9":-0.0386451780796051,"10":-1.1675395965576172,"11":-0.8267697095870972,"12":-0.1894065886735916,"13":-0.13197723031044006,"14":-1.944833755493164,"15":-0.1671140491962433,"16":-1.3535921573638916,"17":0.7084886431694031,"18":-0.7894474864006042,"19":-2.238307476043701}},"forgetMatrix":{"rows":20,"columns":31,"weights":{"0":-0.9652007818222046,"1":-1.0044804811477661,"2":0.8618419766426086,"3":0.2068605124950409,"4":-0.12128650397062302,"5":1.0200555324554443,"6":-2.998992681503296,"7":-1.0013498067855835,"8":1.0502724647521973,"9":0.4688130021095276,"10":2.484218120574951,"11":2.322347402572632,"12":0.4945409595966339,"13":0.10939139872789383,"14":0.1158769279718399,"15":1.8086154460906982,"16":1.6852768659591675,"17":-0.14751467108726501,"18":1.4051311016082764,"19":3.1084039211273193,"20":0.8313944935798645,"21":2.6131839752197266,"22":2.239271402359009,"23":2.629903793334961,"24":0.48573037981987,"25":-1.7022351026535034,"26":-1.71435546875,"27":-0.215420201420784,"28":-1.036649465560913,"29":0.6704245209693909,"30":-0.2310238480567932,"31":0.8926180601119995,"32":-0.46988677978515625,"33":-0.47670623660087585,"34":-1.379257082939148,"35":0.6962523460388184,"36":0.3781493604183197,"37":3.485579252243042,"38":0.7693300247192383,"39":2.806279182434082,"40":-1.6208254098892212,"41":-2.1032485961914062,"42":-0.25462889671325684,"43":-0.7359052896499634,"44":-2.3874270915985107,"45":-1.8267512321472168,"46":-0.9688262343406677,"47":-2.0683634281158447,"48":-0.17686928808689117,"49":-1.7476165294647217,"50":-4.548089027404785,"51":-0.04106678068637848,"52":1.13228178024292,"53":3.0456912517547607,"54":-0.21399837732315063,"55":-2.5644476413726807,"56":4.885879039764404,"57":1.3670023679733276,"58":-3.2434606552124023,"59":2.5492165088653564,"60":1.4665058851242065,"61":-1.7092090845108032,"62":1.418271541595459,"63":0.8909807205200195,"64":-0.6236491799354553,"65":2.2913455963134766,"66":0.11797396838665009,"67":-0.20302079617977142,"68":-1.171615481376648,"69":-0.3977828025817871,"70":0.12648797035217285,"71":5.614558219909668,"72":-0.5739222168922424,"73":-0.44633665680885315,"74":-1.4143000841140747,"75":-1.3589520454406738,"76":-0.4065001308917999,"77":-1.5229097604751587,"78":-3.460676670074463,"79":4.09232234954834,"80":1.1812045574188232,"81":-0.6528293490409851,"82":-0.01637144386768341,"83":0.5392882227897644,"84":-3.1742725372314453,"85":0.3269928991794586,"86":-2.547355890274048,"87":1.425454020500183,"88":-0.9992210268974304,"89":2.748403549194336,"90":2.4209625720977783,"91":2.2863166332244873,"92":-1.2794978618621826,"93":2.7398946285247803,"94":0.6220538020133972,"95":0.23377542197704315,"96":2.1065237522125244,"97":0.7849398851394653,"98":-0.682818591594696,"99":-1.030585527420044,"100":-2.6833720207214355,"101":-1.1827481985092163,"102":1.6466435194015503,"103":3.0162336826324463,"104":2.129286766052246,"105":0.04115167260169983,"106":1.448448657989502,"107":1.4051306247711182,"108":0.17618414759635925,"109":0.09019512683153152,"110":-0.8644558191299438,"111":2.8998677730560303,"112":1.1869442462921143,"113":3.0089802742004395,"114":0.3127383589744568,"115":-4.704784870147705,"116":2.4975318908691406,"117":0.7625353336334229,"118":-0.4914674758911133,"119":-1.5677366256713867,"120":-1.563021183013916,"121":-2.1205530166625977,"122":-4.588598728179932,"123":0.9676448702812195,"124":-2.6845152378082275,"125":-1.4501399993896484,"126":-0.38219624757766724,"127":-3.366499423980713,"128":0.5499311089515686,"129":2.461909770965576,"130":-1.5735077857971191,"131":-1.0280464887619019,"132":1.6595680713653564,"133":1.8712270259857178,"134":-0.20198480784893036,"135":-0.11868081241846085,"136":0.00883250031620264,"137":-1.2132248878479004,"138":2.1095705032348633,"139":4.159679889678955,"140":0.2565787732601166,"141":1.131791114807129,"142":-3.730055570602417,"143":3.097646951675415,"144":-0.36887744069099426,"145":3.4301769733428955,"146":2.383772134780884,"147":0.07094933092594147,"148":-1.7649379968643188,"149":-0.8532572984695435,"150":1.8647264242172241,"151":-5.737917423248291,"152":-1.6706961393356323,"153":-0.8852558732032776,"154":-0.1549985557794571,"155":-0.9835852384567261,"156":-1.1520755290985107,"157":-1.3745720386505127,"158":2.8864312171936035,"159":-1.5302481651306152,"160":-0.8696179986000061,"161":-1.7844997644424438,"162":-1.2190529108047485,"163":-1.427607774734497,"164":2.4509713649749756,"165":2.6117591857910156,"166":-1.9220606088638306,"167":1.3839895725250244,"168":2.2791907787323,"169":-0.2357759028673172,"170":-1.0914103984832764,"171":1.2104909420013428,"172":-0.5980460047721863,"173":1.6106435060501099,"174":-1.292990803718567,"175":1.6149412393569946,"176":-0.37490537762641907,"177":-1.208385944366455,"178":-0.7390943169593811,"179":-0.22231066226959229,"180":1.4537907838821411,"181":0.4264473617076874,"182":2.5803258419036865,"183":0.32147714495658875,"184":-0.5725968480110168,"185":1.2399119138717651,"186":-1.5843751430511475,"187":1.3613530397415161,"188":3.114508867263794,"189":1.606824278831482,"190":0.8444346785545349,"191":1.7409559488296509,"192":0.07843758910894394,"193":-0.7163527011871338,"194":0.797813892364502,"195":0.016975274309515953,"196":0.41924819350242615,"197":1.6584943532943726,"198":-1.482132077217102,"199":1.9473642110824585,"200":1.254806399345398,"201":2.4931323528289795,"202":-1.1336746215820312,"203":1.4953868389129639,"204":0.4294186234474182,"205":1.8332899808883667,"206":1.9523438215255737,"207":1.5393507480621338,"208":1.426461100578308,"209":2.213006019592285,"210":-2.573213577270508,"211":-2.419168472290039,"212":4.253811359405518,"213":-0.07570287585258484,"214":-3.29502534866333,"215":-0.46281394362449646,"216":-1.407582402229309,"217":-0.9227244257926941,"218":-1.1830315589904785,"219":0.2786789834499359,"220":0.2586429715156555,"221":1.179173469543457,"222":-1.3018956184387207,"223":1.2627519369125366,"224":2.608271360397339,"225":1.3683875799179077,"226":-1.311548113822937,"227":-1.7958344221115112,"228":-1.7008424997329712,"229":1.127785325050354,"230":-1.2825818061828613,"231":-1.9462183713912964,"232":-0.22438973188400269,"233":-0.9316376447677612,"234":2.0115580558776855,"235":-2.4523279666900635,"236":-2.7130281925201416,"237":-1.2597099542617798,"238":-0.5424826741218567,"239":2.4160757064819336,"240":-1.3192138671875,"241":-2.5271918773651123,"242":1.0769236087799072,"243":-0.12315580248832703,"244":2.0933139324188232,"245":0.30086004734039307,"246":3.5741219520568848,"247":-1.1191370487213135,"248":0.1909487247467041,"249":-2.06132173538208,"250":-3.1929566860198975,"251":1.4025769233703613,"252":0.6874903440475464,"253":-0.9238661527633667,"254":0.5933896899223328,"255":0.3746548295021057,"256":-0.2245393544435501,"257":2.750941276550293,"258":4.409594535827637,"259":-1.3593930006027222,"260":-0.3819458484649658,"261":1.78806471824646,"262":1.1743110418319702,"263":0.0113176004961133,"264":-1.668710708618164,"265":0.119815893471241,"266":2.1102662086486816,"267":-3.966845989227295,"268":1.2119039297103882,"269":-0.6970377564430237,"270":3.283973217010498,"271":-0.04927883669734001,"272":-3.3419651985168457,"273":1.5458787679672241,"274":3.528987407684326,"275":0.21445874869823456,"276":-2.6465280055999756,"277":0.9094153642654419,"278":-0.5621315836906433,"279":-2.019561767578125,"280":-1.4962760210037231,"281":1.2870358228683472,"282":0.22814179956912994,"283":-3.257293939590454,"284":-0.40023741126060486,"285":3.0557756423950195,"286":-3.479949712753296,"287":-2.5433576107025146,"288":3.160113573074341,"289":3.8462696075439453,"290":1.4385710954666138,"291":-1.9190400838851929,"292":3.83614182472229,"293":2.0723135471343994,"294":1.574373483657837,"295":-1.0208461284637451,"296":-0.12471633404493332,"297":0.8877096176147461,"298":-1.5247695446014404,"299":0.9175701141357422,"300":0.8809283375740051,"301":-1.5634044408798218,"302":0.36281755566596985,"303":-0.0443885512650013,"304":2.8913354873657227,"305":1.2327224016189575,"306":0.8349116444587708,"307":-3.2902350425720215,"308":-2.5416347980499268,"309":-1.152727484703064,"310":0.23048877716064453,"311":1.7177468538284302,"312":-0.1605784147977829,"313":0.33756327629089355,"314":2.894091844558716,"315":-0.3425503373146057,"316":-0.2510905861854553,"317":1.6680693626403809,"318":1.4748098850250244,"319":1.3219397068023682,"320":2.122495412826538,"321":-0.3249412775039673,"322":-1.974063515663147,"323":2.1618878841400146,"324":-1.2196170091629028,"325":-0.08617143332958221,"326":-1.8796124458312988,"327":2.087003469467163,"328":-0.615226149559021,"329":-2.087146520614624,"330":-0.02047112211585045,"331":0.9496443867683411,"332":-1.7853803634643555,"333":0.6282880902290344,"334":-0.6610497832298279,"335":1.6956650018692017,"336":2.102257251739502,"337":1.5889241695404053,"338":-0.5172743201255798,"339":1.3577797412872314,"340":1.0984294414520264,"341":0.5523700714111328,"342":-0.9335442781448364,"343":-0.40945982933044434,"344":1.7257888317108154,"345":0.7499259114265442,"346":-0.8830430507659912,"347":-0.01164510753005743,"348":0.02990293875336647,"349":-1.4496097564697266,"350":2.228916883468628,"351":2.3731374740600586,"352":-0.44280382990837097,"353":0.3320261836051941,"354":0.7565842866897583,"355":-1.2428559064865112,"356":-0.25381845235824585,"357":-1.3717517852783203,"358":-0.2771972119808197,"359":0.057886093854904175,"360":-1.661489725112915,"361":0.14643943309783936,"362":-2.1034538745880127,"363":-0.035247091203927994,"364":0.8935434222221375,"365":-2.303569793701172,"366":-0.2013789415359497,"367":2.7722861766815186,"368":3.0855765342712402,"369":-1.621475338935852,"370":-0.05531679838895798,"371":-1.3071717023849487,"372":1.0750782489776611,"373":-0.4585476517677307,"374":-0.6506847143173218,"375":-2.1044745445251465,"376":4.062101364135742,"377":0.5323206782341003,"378":-0.9749111533164978,"379":2.6090950965881348,"380":0.18994884192943573,"381":6.455448627471924,"382":0.6775928735733032,"383":-2.628953218460083,"384":1.7127255201339722,"385":-0.3060680627822876,"386":-2.9036922454833984,"387":-2.0269367694854736,"388":-0.034231338649988174,"389":3.4872937202453613,"390":-1.5070624351501465,"391":-0.46228471398353577,"392":0.13530293107032776,"393":-2.9428160190582275,"394":-1.703824520111084,"395":-3.2605159282684326,"396":-2.3271071910858154,"397":0.5495799779891968,"398":-2.2872393131256104,"399":3.1867148876190186,"400":0.37920570373535156,"401":3.296058416366577,"402":-2.3125405311584473,"403":-0.9409094452857971,"404":-2.668065071105957,"405":1.0151972770690918,"406":1.6142604351043701,"407":0.9527549743652344,"408":-1.9572105407714844,"409":-1.9308384656906128,"410":0.3718869984149933,"411":-0.5977836847305298,"412":-0.20512302219867706,"413":-0.019320623949170113,"414":2.034440279006958,"415":-3.685380697250366,"416":3.892073631286621,"417":-0.4553317427635193,"418":0.559622049331665,"419":-1.6117092370986938,"420":0.7951275110244751,"421":0.7757982015609741,"422":0.07869618386030197,"423":1.165122628211975,"424":-0.6113168001174927,"425":0.8962292671203613,"426":0.11571510136127472,"427":-1.663039207458496,"428":1.270790696144104,"429":3.1789937019348145,"430":1.2322170734405518,"431":-1.2162582874298096,"432":1.733324408531189,"433":-1.6803070306777954,"434":5.409818649291992,"435":2.0503346920013428,"436":1.6496491432189941,"437":-2.4106836318969727,"438":2.7928242683410645,"439":0.40731436014175415,"440":-1.4023393392562866,"441":0.3421107828617096,"442":0.737700879573822,"443":2.5201516151428223,"444":1.80044424533844,"445":0.9443539381027222,"446":2.973039150238037,"447":0.3337347209453583,"448":-4.042731761932373,"449":-0.0027405801229178905,"450":-0.7617299556732178,"451":-4.349794387817383,"452":2.2558202743530273,"453":1.0820690393447876,"454":1.7607841491699219,"455":-0.8434244990348816,"456":-3.3597288131713867,"457":1.7031501531600952,"458":-2.3033089637756348,"459":-3.2364659309387207,"460":-0.7642380595207214,"461":0.5992233753204346,"462":-0.18540073931217194,"463":-1.1316306591033936,"464":-2.636301279067993,"465":-0.9238912463188171,"466":-1.5434465408325195,"467":-2.1324543952941895,"468":0.14385978877544403,"469":-1.2509702444076538,"470":-1.9059890508651733,"471":-2.0806427001953125,"472":-2.929304361343384,"473":-2.1957337856292725,"474":1.6238446235656738,"475":0.1014971062541008,"476":0.6547892093658447,"477":-1.0753968954086304,"478":1.088770866394043,"479":3.9929091930389404,"480":2.058603525161743,"481":0.13695095479488373,"482":2.2206077575683594,"483":1.5803428888320923,"484":0.29851099848747253,"485":-0.6211487650871277,"486":1.2367559671401978,"487":-1.2523083686828613,"488":2.5645341873168945,"489":-0.7119418382644653,"490":-1.3497751951217651,"491":-0.909736692905426,"492":1.0446473360061646,"493":0.18745474517345428,"494":0.6332889795303345,"495":1.3652186393737793,"496":1.546778678894043,"497":-0.06142253801226616,"498":0.5890716314315796,"499":-0.6564581394195557,"500":2.634070873260498,"501":-0.9746109247207642,"502":1.5044939517974854,"503":-1.836934208869934,"504":-0.47090068459510803,"505":-1.5985382795333862,"506":1.695551872253418,"507":0.13300922513008118,"508":-0.438987135887146,"509":-1.5261540412902832,"510":-0.9775872230529785,"511":0.3263566792011261,"512":-2.650299310684204,"513":1.0753270387649536,"514":1.1008930206298828,"515":0.12876415252685547,"516":2.2763283252716064,"517":-1.580630898475647,"518":-3.2262158393859863,"519":-1.8706402778625488,"520":3.754316568374634,"521":2.6801137924194336,"522":1.399666428565979,"523":1.2418437004089355,"524":1.5119600296020508,"525":-0.8111724257469177,"526":1.3571298122406006,"527":-3.965322732925415,"528":-2.8093411922454834,"529":-4.437593936920166,"530":0.2805745005607605,"531":-0.6313826441764832,"532":-6.266817092895508,"533":-0.8871346712112427,"534":-1.875130534172058,"535":-2.7575113773345947,"536":2.4186301231384277,"537":1.7812864780426025,"538":-0.5579392910003662,"539":1.7036484479904175,"540":1.7587473392486572,"541":2.0568995475769043,"542":-3.6625142097473145,"543":-1.433953046798706,"544":-0.18965232372283936,"545":2.3156521320343018,"546":-1.4090631008148193,"547":1.2457294464111328,"548":-1.832310676574707,"549":-0.3831275403499603,"550":-1.2442021369934082,"551":3.2029013633728027,"552":1.0888595581054688,"553":-2.236560583114624,"554":1.925582766532898,"555":-1.1875786781311035,"556":-2.3125498294830322,"557":0.7826535105705261,"558":1.935807228088379,"559":-0.7384798526763916,"560":-1.0847625732421875,"561":4.207153797149658,"562":0.33234867453575134,"563":0.7653532028198242,"564":-0.14892897009849548,"565":0.16582733392715454,"566":-1.534446120262146,"567":1.9828240871429443,"568":4.400495529174805,"569":-3.6253485679626465,"570":-1.3223674297332764,"571":2.0924835205078125,"572":-1.7781678438186646,"573":-0.010408117435872555,"574":-2.6536104679107666,"575":0.8978656530380249,"576":0.7577101588249207,"577":-3.22070050239563,"578":0.3686079680919647,"579":-1.6025028228759766,"580":2.097825288772583,"581":-1.8287453651428223,"582":-2.5865705013275146,"583":1.7847344875335693,"584":3.2869067192077637,"585":3.833366870880127,"586":-1.6650069952011108,"587":-2.403167724609375,"588":-0.9579697251319885,"589":-1.8119953870773315,"590":-1.5554726123809814,"591":-1.320956826210022,"592":1.3090381622314453,"593":0.594966471195221,"594":2.320908546447754,"595":3.862180471420288,"596":2.6686594486236572,"597":0.9253668785095215,"598":-1.893113136291504,"599":-3.005770206451416,"600":-4.635017395019531,"601":0.39826875925064087,"602":-1.0334330797195435,"603":0.36139360070228577,"604":1.8860769271850586,"605":-2.7364683151245117,"606":-0.8899360299110413,"607":-0.9137284755706787,"608":0.36133021116256714,"609":-1.1722949743270874,"610":-0.234026238322258,"611":-0.5389127135276794,"612":-2.374305009841919,"613":-0.3466329574584961,"614":1.9804681539535522,"615":2.2209420204162598,"616":-0.5020242929458618,"617":-0.17369318008422852,"618":0.8747425079345703,"619":-0.10311966389417648}},"forgetHidden":{"rows":20,"columns":20,"weights":{"0":-1.1697604656219482,"1":3.1697728633880615,"2":0.353859543800354,"3":2.855774164199829,"4":0.8141545057296753,"5":-0.8394721746444702,"6":1.0685676336288452,"7":0.7097914814949036,"8":-3.8134045600891113,"9":2.048581600189209,"10":-0.2412959486246109,"11":-0.9174807071685791,"12":0.08863669633865356,"13":-2.585353374481201,"14":-1.987129807472229,"15":-0.4702503979206085,"16":-1.2463219165802002,"17":1.6185202598571777,"18":3.3068113327026367,"19":-1.514877438545227,"20":5.440185070037842,"21":0.6485716104507446,"22":-0.20557019114494324,"23":3.2604470252990723,"24":1.358659029006958,"25":1.5744719505310059,"26":3.8400795459747314,"27":1.631693720817566,"28":-0.9984978437423706,"29":2.1834285259246826,"30":-1.0948187112808228,"31":0.03574546054005623,"32":3.77974796295166,"33":1.5601495504379272,"34":0.9152234196662903,"35":0.8619112968444824,"36":-1.5686694383621216,"37":5.374429702758789,"38":0.7000380754470825,"39":2.8376011848449707,"40":-0.6966938972473145,"41":-1.896295428276062,"42":-1.123620629310608,"43":2.9411981105804443,"44":3.1836936473846436,"45":0.4235624670982361,"46":1.7833853960037231,"47":2.370250701904297,"48":-0.40369659662246704,"49":0.017988281324505806,"50":1.3401483297348022,"51":-3.2058303356170654,"52":1.161373496055603,"53":2.4859089851379395,"54":-0.8566447496414185,"55":0.37699776887893677,"56":0.20754247903823853,"57":-0.12084755301475525,"58":-0.4073585867881775,"59":2.6712684631347656,"60":0.8864166736602783,"61":-1.4089665412902832,"62":-2.4265928268432617,"63":0.7200168967247009,"64":-0.6196253895759583,"65":2.807717800140381,"66":4.777997016906738,"67":0.2791290879249573,"68":-0.8494053483009338,"69":1.496730089187622,"70":2.8419442176818848,"71":-0.3096475303173065,"72":-1.2087136507034302,"73":-0.014560230076313019,"74":-0.38097503781318665,"75":-0.25859490036964417,"76":0.7110958099365234,"77":-1.540756344795227,"78":-2.9526684284210205,"79":-0.698982298374176,"80":-1.1343247890472412,"81":1.8154659271240234,"82":0.38404375314712524,"83":-0.2162538319826126,"84":-0.15863999724388123,"85":-1.9600293636322021,"86":0.78248530626297,"87":-2.572399377822876,"88":-0.36620524525642395,"89":1.299955129623413,"90":-2.8672521114349365,"91":-1.4380974769592285,"92":-0.8361389636993408,"93":-1.6966476440429688,"94":-0.8416939377784729,"95":-0.7851688861846924,"96":0.9109589457511902,"97":2.2770090103149414,"98":1.0555036067962646,"99":1.6592328548431396,"100":0.7575592398643494,"101":0.16511505842208862,"102":1.6385555267333984,"103":-0.03057452291250229,"104":-0.5035189390182495,"105":1.210410714149475,"106":-0.5421519875526428,"107":0.276078999042511,"108":0.7732554078102112,"109":1.8239954710006714,"110":-0.30144739151000977,"111":1.598968505859375,"112":-0.1461896300315857,"113":3.5222907066345215,"114":-0.49122655391693115,"115":-1.0413676500320435,"116":-1.7060739994049072,"117":-2.582653284072876,"118":-1.8500195741653442,"119":-3.3270883560180664,"120":0.07968440651893616,"121":1.3450863361358643,"122":1.5390675067901611,"123":1.489268183708191,"124":-2.8400309085845947,"125":0.4183335602283478,"126":0.8604190349578857,"127":-0.10238628834486008,"128":-1.9648808240890503,"129":-0.6683483719825745,"130":5.2204670906066895,"131":2.117588758468628,"132":0.07205866277217865,"133":0.9651293158531189,"134":-1.83804452419281,"135":4.879845142364502,"136":-3.3251821994781494,"137":4.274511814117432,"138":0.7695462107658386,"139":3.6608362197875977,"140":0.7086358070373535,"141":-1.2243034839630127,"142":-1.5534536838531494,"143":0.6803871393203735,"144":-0.861555278301239,"145":-0.2268962562084198,"146":2.8421881198883057,"147":1.7704553604125977,"148":0.17369753122329712,"149":-0.2681856155395508,"150":-0.3328915238380432,"151":-0.016752278432250023,"152":1.496671438217163,"153":-0.050731636583805084,"154":1.0993088483810425,"155":-0.23584723472595215,"156":-1.5827887058258057,"157":0.5795513391494751,"158":1.6210395097732544,"159":2.24334979057312,"160":1.4589420557022095,"161":-0.4305965006351471,"162":0.361733078956604,"163":-1.568646788597107,"164":0.27198848128318787,"165":2.3718199729919434,"166":0.42780688405036926,"167":0.4453068673610687,"168":0.35565367341041565,"169":-0.3972637951374054,"170":0.4702463448047638,"171":-0.6902480721473694,"172":-0.3257604241371155,"173":0.6538417935371399,"174":-1.859406590461731,"175":-0.2663534879684448,"176":1.0217912197113037,"177":1.2080028057098389,"178":-0.8987250924110413,"179":-1.2962961196899414,"180":10.783997535705566,"181":-1.621759295463562,"182":4.69622802734375,"183":2.5619547367095947,"184":-0.12651465833187103,"185":-2.9582903385162354,"186":0.3074445128440857,"187":-3.7229623794555664,"188":-0.40592697262763977,"189":2.1094493865966797,"190":-3.14762282371521,"191":-1.094616413116455,"192":-1.5735031366348267,"193":-0.3034229576587677,"194":-1.1387661695480347,"195":1.5465961694717407,"196":2.439196825027466,"197":-0.8392063975334167,"198":-1.106533408164978,"199":3.3319571018218994,"200":3.023542642593384,"201":0.8480063080787659,"202":-1.9049363136291504,"203":1.3698792457580566,"204":2.3432018756866455,"205":1.5320496559143066,"206":1.445309042930603,"207":-0.9884824752807617,"208":2.0548744201660156,"209":4.900832176208496,"210":1.949931025505066,"211":-0.4981785714626312,"212":2.214961290359497,"213":-2.631903886795044,"214":1.0329159498214722,"215":1.334886908531189,"216":-0.0687737837433815,"217":-2.220853090286255,"218":0.9140244722366333,"219":0.806969404220581,"220":-0.15419578552246094,"221":0.4241218864917755,"222":1.2388217449188232,"223":-0.9807577729225159,"224":-0.09788698703050613,"225":0.6603249311447144,"226":0.08455793559551239,"227":-1.1526365280151367,"228":1.110921025276184,"229":-1.051472544670105,"230":0.7654309868812561,"231":0.1170617863535881,"232":0.5508888363838196,"233":-1.9040648937225342,"234":-0.6518129110336304,"235":0.055600523948669434,"236":1.4266639947891235,"237":0.5986166000366211,"238":-1.1050525903701782,"239":-1.1207025051116943,"240":-1.5194201469421387,"241":3.3448989391326904,"242":1.8076450824737549,"243":-1.1792528629302979,"244":1.4224519729614258,"245":-1.3496594429016113,"246":3.763357162475586,"247":-1.0760936737060547,"248":-0.6992871165275574,"249":1.2782797813415527,"250":-1.4006727933883667,"251":0.7709843516349792,"252":2.2510557174682617,"253":2.9222378730773926,"254":-5.4743523597717285,"255":0.5109768509864807,"256":4.725897789001465,"257":0.46582919359207153,"258":0.3941304087638855,"259":-2.1884806156158447,"260":-1.158748745918274,"261":1.820248007774353,"262":0.6308096647262573,"263":0.6852439045906067,"264":2.5105812549591064,"265":-0.38603541254997253,"266":1.1556181907653809,"267":1.1116341352462769,"268":0.05310492590069771,"269":1.7420161962509155,"270":-1.8352258205413818,"271":-0.1287294179201126,"272":1.1107014417648315,"273":-0.9587094187736511,"274":-1.062225103378296,"275":-2.1160948276519775,"276":-0.4413539469242096,"277":0.4411163330078125,"278":0.3515426814556122,"279":-0.7857640385627747,"280":0.3207882344722748,"281":1.2306960821151733,"282":-0.4317346513271332,"283":-0.5288658738136292,"284":0.7613427042961121,"285":0.2492227703332901,"286":0.6301731467247009,"287":1.4517565965652466,"288":-1.00882089138031,"289":1.0900278091430664,"290":-1.0984845161437988,"291":-0.5764744281768799,"292":-2.2977747917175293,"293":0.860015332698822,"294":-0.7451074719429016,"295":-0.34176287055015564,"296":1.0829795598983765,"297":2.327089548110962,"298":2.7317097187042236,"299":0.9557336568832397,"300":-2.3669590950012207,"301":-0.858665943145752,"302":0.8245636820793152,"303":1.6888024806976318,"304":1.156362533569336,"305":-2.013554811477661,"306":-1.2311021089553833,"307":-0.019402742385864258,"308":2.431209087371826,"309":-1.0173733234405518,"310":-4.022974967956543,"311":0.5528512597084045,"312":1.4203670024871826,"313":-0.22931577265262604,"314":-2.8733177185058594,"315":0.12186076492071152,"316":-0.39856356382369995,"317":1.5568807125091553,"318":1.9684805870056152,"319":-0.3654080629348755,"320":0.723781168460846,"321":-0.6540403962135315,"322":-5.906734943389893,"323":0.7724300622940063,"324":1.3203842639923096,"325":-0.5703033208847046,"326":-3.689633369445801,"327":-3.2034010887145996,"328":1.134061336517334,"329":-4.189283847808838,"330":0.6733980178833008,"331":-0.7976971864700317,"332":1.6279422044754028,"333":1.1378183364868164,"334":0.0801829993724823,"335":-2.0738072395324707,"336":0.43131574988365173,"337":-2.3919458389282227,"338":0.46790173649787903,"339":1.958164930343628,"340":6.7357635498046875,"341":0.19686710834503174,"342":-3.1323368549346924,"343":2.140641689300537,"344":-3.3087782859802246,"345":0.6819151639938354,"346":4.667153358459473,"347":4.8300347328186035,"348":4.634932518005371,"349":3.2659661769866943,"350":1.3603006601333618,"351":-1.1908568143844604,"352":-2.7070233821868896,"353":0.8687428832054138,"354":3.5680840015411377,"355":1.2359338998794556,"356":-0.5091515183448792,"357":-5.6966986656188965,"358":2.943016767501831,"359":0.3933883309364319,"360":-1.5902657508850098,"361":2.702059030532837,"362":-0.19239643216133118,"363":-2.2612617015838623,"364":-1.9901578426361084,"365":-0.4572684168815613,"366":-1.2020965814590454,"367":1.6953986883163452,"368":-2.9323418140411377,"369":1.9122426509857178,"370":-1.2817010879516602,"371":0.6398830413818359,"372":0.7866702079772949,"373":2.5942511558532715,"374":1.3503303527832031,"375":0.6400937438011169,"376":-1.8890302181243896,"377":1.8353439569473267,"378":-3.8216135501861572,"379":-1.0184069871902466,"380":0.8286783695220947,"381":-2.2124881744384766,"382":-0.4027572274208069,"383":-2.131195306777954,"384":0.510779619216919,"385":0.6433194279670715,"386":-1.8979759216308594,"387":-0.4845440983772278,"388":2.318885564804077,"389":-4.09375,"390":0.08488135784864426,"391":-0.34469369053840637,"392":0.313335120677948,"393":1.6466352939605713,"394":4.092926979064941,"395":-0.1975586861371994,"396":-6.678112983703613,"397":-0.3678717017173767,"398":-0.9050576686859131,"399":0.4394936263561249}},"forgetBias":{"rows":20,"columns":1,"weights":{"0":0,"1":0,"2":0,"3":0,"4":0,"5":0,"6":0,"7":0,"8":0,"9":0,"10":0,"11":0,"12":0,"13":0,"14":0,"15":0,"16":0,"17":0,"18":0,"19":0}},"outputMatrix":{"rows":20,"columns":31,"weights":{"0":-1.702409267425537,"1":0.4714300036430359,"2":0.8199328184127808,"3":0.7919178009033203,"4":3.4297361373901367,"5":-0.37493154406547546,"6":-0.6164349317550659,"7":-0.9258696436882019,"8":-0.04201481491327286,"9":-1.4388790130615234,"10":-0.5906885862350464,"11":-0.2719047963619232,"12":1.9736703634262085,"13":-3.244690418243408,"14":-1.616707682609558,"15":1.4658697843551636,"16":-3.0523183345794678,"17":-1.2718842029571533,"18":-1.236377239227295,"19":-0.05003140866756439,"20":4.66602897644043,"21":1.3958390951156616,"22":1.6784005165100098,"23":0.08131515979766846,"24":-1.1157351732254028,"25":-2.297200918197632,"26":0.8942801356315613,"27":0.7834474444389343,"28":-3.2933743000030518,"29":-0.11961465328931808,"30":-1.3807048797607422,"31":-1.015641450881958,"32":-4.19416618347168,"33":-0.88565993309021,"34":0.568777322769165,"35":-0.24153386056423187,"36":-2.414639949798584,"37":-0.6149106025695801,"38":-0.8349754810333252,"39":-0.14510618150234222,"40":2.2438111305236816,"41":3.257553815841675,"42":-1.3521891832351685,"43":2.0791330337524414,"44":0.275359570980072,"45":2.973684072494507,"46":1.5505032539367676,"47":-1.5948138236999512,"48":-1.4408239126205444,"49":0.3048440217971802,"50":-3.632655143737793,"51":2.579413414001465,"52":-0.7176766991615295,"53":2.946293354034424,"54":0.04570561647415161,"55":-3.3335988521575928,"56":-1.916090965270996,"57":3.6655983924865723,"58":-0.7030977010726929,"59":-6.917275905609131,"60":1.8245418071746826,"61":1.0769966840744019,"62":-2.4186198711395264,"63":2.3028061389923096,"64":-0.9607653021812439,"65":1.623745322227478,"66":0.5790044069290161,"67":-1.7896145582199097,"68":0.4496368169784546,"69":1.0183918476104736,"70":1.6779767274856567,"71":0.9312695860862732,"72":-0.4455470144748688,"73":0.4147888422012329,"74":-0.7693453431129456,"75":1.7076350450515747,"76":0.0867411270737648,"77":0.6904789805412292,"78":-0.7800792455673218,"79":3.5453550815582275,"80":-0.0873592346906662,"81":-1.7291414737701416,"82":1.4218816757202148,"83":1.930918574333191,"84":1.7494162321090698,"85":-1.1066465377807617,"86":-0.2633010149002075,"87":-3.5630204677581787,"88":5.151658058166504,"89":2.801201343536377,"90":4.833820343017578,"91":2.40494704246521,"92":1.3170446157455444,"93":2.6986308097839355,"94":1.2580437660217285,"95":-1.6565115451812744,"96":-0.012156118638813496,"97":-0.13881923258304596,"98":-0.4148780107498169,"99":0.6711432337760925,"100":0.9521099925041199,"101":-0.4292500615119934,"102":2.8600046634674072,"103":-0.6736211180686951,"104":0.7355800271034241,"105":2.688532829284668,"106":4.294391632080078,"107":0.470694899559021,"108":-1.095408320426941,"109":2.182098865509033,"110":-1.145616054534912,"111":1.3257641792297363,"112":-0.19065576791763306,"113":-1.7201601266860962,"114":1.51007878780365,"115":-0.9358072876930237,"116":0.19815240800380707,"117":1.1646758317947388,"118":0.2787294387817383,"119":-3.7992732524871826,"120":0.6207940578460693,"121":1.7065726518630981,"122":-0.5092757940292358,"123":0.5181236267089844,"124":1.6512930393218994,"125":2.159954309463501,"126":-0.6408182978630066,"127":1.444175362586975,"128":-1.5158255100250244,"129":0.45293286442756653,"130":0.47478213906288147,"131":3.092480182647705,"132":-1.3117756843566895,"133":0.9399703741073608,"134":2.05684757232666,"135":0.7669116854667664,"136":-0.36992672085762024,"137":-1.67404043674469,"138":-4.310755252838135,"139":-3.1575629711151123,"140":-1.5850783586502075,"141":-2.216721534729004,"142":-3.220391273498535,"143":0.14284385740756989,"144":1.9121015071868896,"145":0.675144374370575,"146":-0.790642499923706,"147":-1.56680428981781,"148":1.6711302995681763,"149":-0.12122657895088196,"150":-0.2944123446941376,"151":1.466976284980774,"152":1.8794820308685303,"153":-0.5795700550079346,"154":-0.38096821308135986,"155":-3.080977439880371,"156":0.4901006817817688,"157":-1.1267226934432983,"158":-0.041433412581682205,"159":-4.0947794914245605,"160":-1.9018412828445435,"161":-1.2080644369125366,"162":-3.2555384635925293,"163":-0.15075039863586426,"164":2.652637481689453,"165":-1.542043924331665,"166":0.4555760622024536,"167":1.1799683570861816,"168":-0.08199548721313477,"169":2.225766897201538,"170":-1.0775433778762817,"171":-1.7032045125961304,"172":1.477911114692688,"173":0.443301796913147,"174":-0.23027484118938446,"175":1.2653740644454956,"176":-0.532479465007782,"177":-0.2065780907869339,"178":0.8589534759521484,"179":-0.42141422629356384,"180":-0.8684982061386108,"181":0.6710457801818848,"182":-0.10597701370716095,"183":-0.0774509385228157,"184":0.3619208335876465,"185":-1.0206955671310425,"186":1.0622676610946655,"187":-1.1711432933807373,"188":-1.542793869972229,"189":3.147920846939087,"190":0.1340818554162979,"191":-2.4241809844970703,"192":-3.053474187850952,"193":-0.5303119421005249,"194":-0.1938810646533966,"195":1.6210761070251465,"196":2.1483309268951416,"197":-0.8817073106765747,"198":-1.9677469730377197,"199":3.4075722694396973,"200":2.3755381107330322,"201":0.23051968216896057,"202":-1.9250962734222412,"203":-0.4720536470413208,"204":2.6990761756896973,"205":-1.185877799987793,"206":0.9635217189788818,"207":-0.06427466869354248,"208":3.894871473312378,"209":0.5301535129547119,"210":-1.1816412210464478,"211":-0.559966504573822,"212":4.569892883300781,"213":0.4632054269313812,"214":-2.3948867321014404,"215":-0.6454429030418396,"216":0.9054207801818848,"217":-1.6077698469161987,"218":1.7130697965621948,"219":4.858715057373047,"220":0.6048074960708618,"221":3.037616491317749,"222":2.4705607891082764,"223":-0.18278686702251434,"224":1.7084836959838867,"225":4.006657123565674,"226":-0.6963390707969666,"227":2.6361231803894043,"228":3.067927122116089,"229":0.3768393397331238,"230":1.7450542449951172,"231":-3.506049633026123,"232":3.1659939289093018,"233":0.17562109231948853,"234":1.538205623626709,"235":-1.928005576133728,"236":0.36051803827285767,"237":-1.5460405349731445,"238":0.35704484581947327,"239":3.3424272537231445,"240":0.864456295967102,"241":-4.8257246017456055,"242":-0.723755419254303,"243":1.8631591796875,"244":-2.697155475616455,"245":-1.2456765174865723,"246":0.31276872754096985,"247":-1.5021876096725464,"248":1.49739670753479,"249":1.0988385677337646,"250":3.8532984256744385,"251":-0.9325307011604309,"252":-0.04598814621567726,"253":-0.6550610065460205,"254":-0.8553763031959534,"255":-2.600358247756958,"256":-1.4220322370529175,"257":0.23535960912704468,"258":3.0224103927612305,"259":3.200364112854004,"260":2.260207414627075,"261":-0.725860595703125,"262":1.4928234815597534,"263":0.22558417916297913,"264":-3.4662463665008545,"265":-1.1504617929458618,"266":0.8510125279426575,"267":2.6001689434051514,"268":3.0406179428100586,"269":0.9361709356307983,"270":-0.24175268411636353,"271":-0.6905977129936218,"272":0.14565478265285492,"273":-1.1747126579284668,"274":1.1625168323516846,"275":3.281059741973877,"276":-0.38189804553985596,"277":-4.466782569885254,"278":-0.6764894723892212,"279":-3.664891242980957,"280":-4.742491245269775,"281":0.0482013113796711,"282":1.564720630645752,"283":1.889064908027649,"284":2.454498767852783,"285":0.46240106225013733,"286":-0.961466372013092,"287":3.1693990230560303,"288":-1.6340121030807495,"289":-1.7142046689987183,"290":-1.2328616380691528,"291":-0.413869172334671,"292":1.299390196800232,"293":0.3262179493904114,"294":2.1064229011535645,"295":-2.4867589473724365,"296":-0.8277000188827515,"297":0.5458403825759888,"298":0.4733956754207611,"299":0.7464349865913391,"300":2.8798139095306396,"301":3.32639741897583,"302":-2.2505476474761963,"303":-0.2176053822040558,"304":1.83009672164917,"305":4.622714996337891,"306":1.019368052482605,"307":-2.3935112953186035,"308":0.48871344327926636,"309":-0.5784607529640198,"310":-0.06337354332208633,"311":1.8585476875305176,"312":0.3665383756160736,"313":0.37137049436569214,"314":-2.1284544467926025,"315":-3.4949231147766113,"316":-0.8564301133155823,"317":-0.9873108863830566,"318":-1.9722115993499756,"319":0.9920842051506042,"320":-0.23735901713371277,"321":3.0173256397247314,"322":0.512889564037323,"323":0.848519504070282,"324":0.8224220871925354,"325":0.8828766942024231,"326":1.1031330823898315,"327":-1.5178120136260986,"328":1.3039147853851318,"329":2.1846842765808105,"330":2.8291945457458496,"331":-1.5971111059188843,"332":-2.844815969467163,"333":1.1504238843917847,"334":1.6581106185913086,"335":-1.794006109237671,"336":-2.6926045417785645,"337":1.6477141380310059,"338":-0.7307866215705872,"339":-2.7333366870880127,"340":-0.5890581011772156,"341":-1.148618459701538,"342":0.29044485092163086,"343":-0.19395329058170319,"344":2.230942487716675,"345":2.592341184616089,"346":-0.11299090832471848,"347":-1.6303179264068604,"348":-1.5107070207595825,"349":-0.665024995803833,"350":2.7543931007385254,"351":2.8573689460754395,"352":0.9058860540390015,"353":1.6694111824035645,"354":2.7370102405548096,"355":0.3916364014148712,"356":-0.6271255612373352,"357":-3.8225409984588623,"358":1.7886141538619995,"359":0.128245010972023,"360":-0.7904164791107178,"361":1.5503374338150024,"362":-1.3290109634399414,"363":1.2185370922088623,"364":1.439804196357727,"365":0.8385517597198486,"366":0.6979790925979614,"367":1.675723910331726,"368":1.8642181158065796,"369":-1.2911254167556763,"370":1.4122896194458008,"371":1.5487887859344482,"372":0.9304704070091248,"373":-1.913149118423462,"374":-2.5593085289001465,"375":5.081689357757568,"376":0.23468762636184692,"377":-1.109997272491455,"378":-1.814220666885376,"379":2.3340132236480713,"380":0.43794503808021545,"381":0.9718602895736694,"382":2.1859421730041504,"383":-1.7291508913040161,"384":2.855726480484009,"385":1.1885645389556885,"386":0.8664082288742065,"387":-0.01052238792181015,"388":-3.2297956943511963,"389":0.468243271112442,"390":2.9674880504608154,"391":0.32781049609184265,"392":1.3647228479385376,"393":-1.040460228919983,"394":1.1719976663589478,"395":-2.1284196376800537,"396":1.0674525499343872,"397":1.4037245512008667,"398":-0.8904839158058167,"399":-0.8758088946342468,"400":-2.506748676300049,"401":-1.4495378732681274,"402":-1.0437836647033691,"403":0.5312747359275818,"404":0.26089566946029663,"405":0.7564343810081482,"406":0.7268673181533813,"407":-1.3219873905181885,"408":2.3918023109436035,"409":-0.09620876610279083,"410":-3.4532861709594727,"411":-0.03362575173377991,"412":1.0335907936096191,"413":-1.089429497718811,"414":0.5582059025764465,"415":3.8784143924713135,"416":-2.977415084838867,"417":-0.7121486663818359,"418":0.4857384264469147,"419":-1.3211960792541504,"420":-0.3334404528141022,"421":2.459321975708008,"422":4.708207130432129,"423":2.076906442642212,"424":2.8107292652130127,"425":-0.7419221997261047,"426":-3.073613405227661,"427":2.3744869232177734,"428":0.21196503937244415,"429":-1.9464595317840576,"430":-1.6090903282165527,"431":0.4161696135997772,"432":-0.7261122465133667,"433":4.670700550079346,"434":2.2081713676452637,"435":2.5413424968719482,"436":2.118748426437378,"437":1.3719500303268433,"438":0.9851622581481934,"439":3.1528635025024414,"440":2.651449203491211,"441":2.0774848461151123,"442":2.203556776046753,"443":0.5102933645248413,"444":-2.128600597381592,"445":-0.13906730711460114,"446":-0.5890572667121887,"447":-0.6297986507415771,"448":-1.3550989627838135,"449":1.2168772220611572,"450":-0.6003453135490417,"451":3.3163464069366455,"452":-1.2475783824920654,"453":-1.0003198385238647,"454":-2.1312384605407715,"455":0.5355746746063232,"456":-0.454295814037323,"457":-0.4219966232776642,"458":-3.4064629077911377,"459":1.5438026189804077,"460":-0.6307796239852905,"461":-0.7745509147644043,"462":1.546863079071045,"463":-0.532082200050354,"464":-1.9500038623809814,"465":0.24109020829200745,"466":-0.6355832815170288,"467":1.6621357202529907,"468":-1.4578076601028442,"469":1.7107067108154297,"470":-3.180482864379883,"471":-3.248046398162842,"472":3.1398379802703857,"473":-3.565211057662964,"474":-1.31197988986969,"475":-0.7622484564781189,"476":1.2058706283569336,"477":1.4158746004104614,"478":-1.6170707941055298,"479":-3.5500080585479736,"480":-0.7273050546646118,"481":-1.5319104194641113,"482":1.5561250448226929,"483":-1.8400770425796509,"484":0.9895103573799133,"485":3.0514492988586426,"486":-2.3450305461883545,"487":0.6519581079483032,"488":0.5490847229957581,"489":2.154679775238037,"490":-1.7529034614562988,"491":-2.7780303955078125,"492":1.2421714067459106,"493":0.6389241814613342,"494":-0.045460086315870285,"495":0.24556440114974976,"496":-0.746407151222229,"497":-0.5200566649436951,"498":0.3294227421283722,"499":-2.157867670059204,"500":-0.11220590025186539,"501":5.276577472686768,"502":1.3180975914001465,"503":-1.9120216369628906,"504":2.941260814666748,"505":-0.755240261554718,"506":1.688117504119873,"507":0.06448878347873688,"508":0.7585485577583313,"509":1.0257847309112549,"510":2.474287748336792,"511":-2.6762406826019287,"512":0.8226538300514221,"513":-1.3078135251998901,"514":-0.5968676209449768,"515":-1.3076963424682617,"516":-3.4248745441436768,"517":-0.6036479473114014,"518":0.5761852264404297,"519":-0.0499902106821537,"520":-0.9619526863098145,"521":0.6917687058448792,"522":3.586047887802124,"523":-1.5863032341003418,"524":-1.448983073234558,"525":-2.5825541019439697,"526":-1.394841194152832,"527":0.13498109579086304,"528":0.8927422165870667,"529":-0.019986184313893318,"530":1.3272429704666138,"531":-1.6121968030929565,"532":-1.3104839324951172,"533":-0.11170506477355957,"534":1.5056285858154297,"535":-2.319478750228882,"536":-0.9561944603919983,"537":-0.06569808721542358,"538":0.612618625164032,"539":0.12453288584947586,"540":0.07470915466547012,"541":1.474656105041504,"542":-0.223426952958107,"543":0.17775952816009521,"544":-1.676911473274231,"545":1.6224702596664429,"546":-2.4847400188446045,"547":0.622768223285675,"548":-1.79347825050354,"549":-0.6322892904281616,"550":2.1818645000457764,"551":2.986658811569214,"552":0.33860304951667786,"553":0.17139938473701477,"554":1.0613510608673096,"555":0.3926403224468231,"556":0.8432867527008057,"557":-0.4582003057003021,"558":5.671273231506348,"559":-3.0079071521759033,"560":0.8786216974258423,"561":-1.461142659187317,"562":-2.2820050716400146,"563":-2.151768445968628,"564":1.645304560661316,"565":-3.151428461074829,"566":-2.346454620361328,"567":-1.0840765237808228,"568":2.5364084243774414,"569":0.2199728935956955,"570":1.07207190990448,"571":2.346193552017212,"572":5.851809501647949,"573":0.8769215941429138,"574":2.282991886138916,"575":-1.6091318130493164,"576":1.6033903360366821,"577":-2.2230892181396484,"578":-2.429986000061035,"579":-1.9735363721847534,"580":0.06394617259502411,"581":1.0266218185424805,"582":1.9673912525177002,"583":0.7209827303886414,"584":-0.8176687955856323,"585":-2.7330825328826904,"586":-2.9181134700775146,"587":-1.3535571098327637,"588":-2.227942943572998,"589":-0.8481231331825256,"590":2.6011126041412354,"591":-0.3875696063041687,"592":-0.7087520360946655,"593":3.3522796630859375,"594":1.8213417530059814,"595":-2.2342522144317627,"596":-0.04850800335407257,"597":-0.10343130677938461,"598":0.5511976480484009,"599":1.3991189002990723,"600":-0.5333938002586365,"601":0.8792155981063843,"602":0.39812570810317993,"603":-0.8288429975509644,"604":-1.6817247867584229,"605":-3.0131285190582275,"606":3.6727495193481445,"607":-1.1544057130813599,"608":-1.557262659072876,"609":-0.8296128511428833,"610":-0.35587865114212036,"611":0.2833667993545532,"612":-1.6384583711624146,"613":0.6749194264411926,"614":-2.6497209072113037,"615":1.8033186197280884,"616":3.9226150512695312,"617":1.3844860792160034,"618":2.7345356941223145,"619":2.289222478866577}},"outputHidden":{"rows":20,"columns":20,"weights":{"0":4.820467472076416,"1":-0.21165882050991058,"2":-2.5848982334136963,"3":-1.8581931591033936,"4":5.358551979064941,"5":2.0263125896453857,"6":-1.2922093868255615,"7":-1.7387206554412842,"8":-0.17543111741542816,"9":-0.023779701441526413,"10":0.45106586813926697,"11":3.0001380443573,"12":2.646545171737671,"13":0.9573409557342529,"14":1.3510328531265259,"15":3.5703139305114746,"16":1.6682103872299194,"17":-1.2542849779129028,"18":-1.5564316511154175,"19":3.5498642921447754,"20":-1.3388530015945435,"21":1.1405415534973145,"22":-0.0823473259806633,"23":0.8091913461685181,"24":1.7634642124176025,"25":-1.0664424896240234,"26":1.7017017602920532,"27":1.4605679512023926,"28":-0.6449623107910156,"29":-0.5679306387901306,"30":1.5186530351638794,"31":-2.187441349029541,"32":2.3145132064819336,"33":-0.7792422771453857,"34":-0.6841867566108704,"35":-6.009659290313721,"36":-0.9559412002563477,"37":-4.40162467956543,"38":0.6480300426483154,"39":2.509033679962158,"40":0.47790294885635376,"41":2.8860766887664795,"42":-0.31131938099861145,"43":1.0679458379745483,"44":-1.9287025928497314,"45":1.5832316875457764,"46":-0.8048155903816223,"47":3.8285393714904785,"48":3.357175350189209,"49":0.7041534185409546,"50":-2.444365978240967,"51":1.9738562107086182,"52":-1.9344688653945923,"53":1.5858805179595947,"54":0.31075799465179443,"55":0.4258663058280945,"56":0.25512203574180603,"57":-0.940940797328949,"58":1.5714058876037598,"59":-1.0718305110931396,"60":12.494178771972656,"61":-4.149849891662598,"62":0.8179100155830383,"63":1.72287118434906,"64":1.6877022981643677,"65":4.738741874694824,"66":-3.201908588409424,"67":2.828526735305786,"68":3.8322417736053467,"69":-1.3831067085266113,"70":4.7945661544799805,"71":-3.958218574523926,"72":0.8355696201324463,"73":5.211667537689209,"74":6.639394760131836,"75":2.1534619331359863,"76":1.0108672380447388,"77":3.252309560775757,"78":-2.5349373817443848,"79":4.553163528442383,"80":-1.0113060474395752,"81":1.4101160764694214,"82":4.77681827545166,"83":5.296271324157715,"84":-1.255499005317688,"85":-6.696613788604736,"86":-0.05881650745868683,"87":5.201240062713623,"88":-0.8974655270576477,"89":0.28815925121307373,"90":-2.5749740600585938,"91":2.073770523071289,"92":-2.863739013671875,"93":0.7195973992347717,"94":0.4810892343521118,"95":-2.231159210205078,"96":-4.639773368835449,"97":-0.15157769620418549,"98":0.1377686709165573,"99":0.031114835292100906,"100":5.338536262512207,"101":0.07759340107440948,"102":-4.128101348876953,"103":1.1075948476791382,"104":-2.0384531021118164,"105":-0.4460078179836273,"106":-1.5761867761611938,"107":-4.163212299346924,"108":0.5250906348228455,"109":-6.19257116317749,"110":-0.37878233194351196,"111":-1.3648931980133057,"112":0.37585604190826416,"113":1.6333023309707642,"114":3.221255302429199,"115":0.8399483561515808,"116":-4.938697338104248,"117":0.471151739358902,"118":-0.4081672728061676,"119":-6.367403984069824,"120":-3.5363311767578125,"121":-1.7025340795516968,"122":-3.831812620162964,"123":0.9248079061508179,"124":1.3627523183822632,"125":1.8833296298980713,"126":-2.0288190841674805,"127":7.303154945373535,"128":-1.1876552104949951,"129":-2.8376357555389404,"130":-1.1146459579467773,"131":1.3451178073883057,"132":2.68279767036438,"133":-1.6959586143493652,"134":-3.6609995365142822,"135":-0.4903874695301056,"136":0.9526220560073853,"137":-2.0544919967651367,"138":2.5529518127441406,"139":7.491560935974121,"140":-2.263221502304077,"141":1.6468312740325928,"142":-0.6406838297843933,"143":-1.6910825967788696,"144":7.0417304039001465,"145":-3.8589184284210205,"146":1.9655351638793945,"147":0.6711060404777527,"148":1.5512864589691162,"149":-0.19942501187324524,"150":0.5156005620956421,"151":0.8499405384063721,"152":1.953428864479065,"153":4.778835773468018,"154":-2.3977444171905518,"155":-0.999473512172699,"156":-5.317499160766602,"157":-3.7047696113586426,"158":6.472263336181641,"159":-1.8155597448349,"160":8.478522300720215,"161":-3.996943712234497,"162":-4.773033142089844,"163":-1.05814790725708,"164":1.5304731130599976,"165":0.1771121770143509,"166":-0.3344515860080719,"167":3.6626181602478027,"168":3.293646812438965,"169":-3.6454412937164307,"170":0.5362749695777893,"171":-0.31846800446510315,"172":0.3515816628932953,"173":0.6889657378196716,"174":6.651815414428711,"175":-4.0719685554504395,"176":2.608226776123047,"177":2.0296804904937744,"178":-1.1992374658584595,"179":4.618192195892334,"180":2.924034357070923,"181":-2.8169445991516113,"182":-2.613037347793579,"183":0.3690151274204254,"184":-0.3212701380252838,"185":-6.047605991363525,"186":2.3298444747924805,"187":1.8913549184799194,"188":-0.04313892498612404,"189":-5.242315292358398,"190":-2.9639251232147217,"191":-4.819718837738037,"192":1.9049724340438843,"193":-3.457463026046753,"194":3.3511154651641846,"195":-3.4484989643096924,"196":5.144504070281982,"197":0.5887278914451599,"198":-0.10383132845163345,"199":4.279414653778076,"200":-5.430601596832275,"201":1.4737887382507324,"202":1.119994044303894,"203":-0.8673303127288818,"204":4.891161918640137,"205":-2.2359306812286377,"206":2.407231092453003,"207":1.954425573348999,"208":-3.8179738521575928,"209":-1.6493277549743652,"210":-4.493594169616699,"211":-0.8240382075309753,"212":4.324548721313477,"213":1.320849061012268,"214":0.6687175035476685,"215":-2.7065794467926025,"216":-5.368383407592773,"217":-3.583218812942505,"218":3.145437002182007,"219":-6.388101100921631,"220":-3.36895489692688,"221":-1.3174231052398682,"222":-5.452483177185059,"223":1.4979331493377686,"224":2.9244041442871094,"225":-6.139567852020264,"226":-3.939896821975708,"227":-2.0619821548461914,"228":-2.1746387481689453,"229":2.5587944984436035,"230":1.3417469263076782,"231":-0.12843327224254608,"232":-2.338721752166748,"233":-0.14095434546470642,"234":1.198798418045044,"235":0.34962669014930725,"236":1.7227904796600342,