{"type":"LSTM","options":{"inputSize":31,"inputRange":31,"hiddenLayers":[20,20],"outputSize":31,"decayRate":0.999,"smoothEps":1e-8,"regc":0.000001,"clipval":5,"maxPredictionLength":100,"dataFormatter":{"indexTable":{"p":0,"r":1,"o":2,"n":3,"u":4,"c":5,"e":6," ":7,"h":8,"i":9,"m":10,"t":11,"b":12,"a":13,"v":14,"f":15,"d":16,"l":17,"s":18,".":19,"”":20,"I":21,"g":22,"w":23,"x":24,"“":25,"W":26,"y":27,",":28,"k":29,"unrecognized":30},"characterTable":{"0":"p","1":"r","2":"o","3":"n","4":"u","5":"c","6":"e","7":" ","8":"h","9":"i","10":"m","11":"t","12":"b","13":"a","14":"v","15":"f","16":"d","17":"l","18":"s","19":".","20":"”","21":"I","22":"g","23":"w","24":"x","25":"“","26":"W","27":"y","28":",","29":"k","30":null},"values":["pronounce him to be an active member of the medical profession.”","I could not help laughing at the ease with which he explained his","process of deduction. “When I hear you give your reasons,” I remarked,","“the thing always appears to me to be so ridiculously simple that I","could easily do it myself, though at each successive instance of your"],"characters":["p","r","o","n","u","c","e"," ","h","i","m","t","b","a","v","f","d","l","s",".","”","I","g","w","x","“","W","y",",","k","unrecognized"],"specialIndexes":[30]}},"input":{"rows":32,"columns":31,"weights":{"0":0.047217462211847305,"1":0.7835010886192322,"2":-0.3039087951183319,"3":1.449648141860962,"4":2.5791172981262207,"5":1.0199114084243774,"6":0.8433026075363159,"7":0.3328781723976135,"8":-0.3079391419887543,"9":0.5284421443939209,"10":-0.8468452095985413,"11":-2.664142608642578,"12":-0.2206110805273056,"13":-1.7815574407577515,"14":0.6818364262580872,"15":0.8457033038139343,"16":-3.1784298419952393,"17":-0.15132707357406616,"18":0.4970655143260956,"19":0.94931560754776,"20":2.3382296562194824,"21":4.871123313903809,"22":0.9330560564994812,"23":-1.8377615213394165,"24":-1.249762773513794,"25":-2.210592746734619,"26":0.9853776097297668,"27":-1.2662100791931152,"28":0.22146403789520264,"29":0.7111861109733582,"30":0.741084098815918,"31":-2.51838755607605,"32":0.3628031015396118,"33":-1.6134514808654785,"34":1.1603877544403076,"35":-0.14917394518852234,"36":-0.9712463617324829,"37":-1.3806990385055542,"38":-4.497672080993652,"39":-1.1898356676101685,"40":2.1335883140563965,"41":2.43046498298645,"42":0.4328969120979309,"43":-0.01891862414777279,"44":6.327566623687744,"45":3.9271299839019775,"46":-0.20761555433273315,"47":-2.667691230773926,"48":-0.5618195533752441,"49":-1.520052433013916,"50":-0.565643310546875,"51":0.02616492100059986,"52":0.17710529267787933,"53":-0.13993220031261444,"54":0.48687124252319336,"55":-4.235138416290283,"56":-1.8905552625656128,"57":0.6831509470939636,"58":4.045376777648926,"59":-2.9775400161743164,"60":-1.5081361532211304,"61":4.013208389282227,"62":1.1492085456848145,"63":0.3882574439048767,"64":-1.1320555210113525,"65":0.22470703721046448,"66":1.7217103242874146,"67":2.477247953414917,"68":0.49522218108177185,"69":1.6389678716659546,"70":1.3994040489196777,"71":0.9279874563217163,"72":1.0723779201507568,"73":0.3982166349887848,"74":2.1159989833831787,"75":2.6871330738067627,"76":-3.674808979034424,"77":-3.7378833293914795,"78":2.660614252090454,"79":-2.3875184059143066,"80":-3.5682060718536377,"81":-0.44782117009162903,"82":-4.263060569763184,"83":-1.797827959060669,"84":-1.9315747022628784,"85":-1.1189601421356201,"86":-1.375631332397461,"87":3.1124322414398193,"88":-1.1482220888137817,"89":1.2227261066436768,"90":-2.0107128620147705,"91":1.5056357383728027,"92":-2.5362391471862793,"93":2.28204345703125,"94":1.4928957223892212,"95":-0.881064772605896,"96":-0.7009700536727905,"97":2.2825777530670166,"98":0.2795533239841461,"99":-0.7116667628288269,"100":0.12080439925193787,"101":-1.1853703260421753,"102":0.7432655096054077,"103":6.079883575439453,"104":-0.32022517919540405,"105":2.0360991954803467,"106":1.3684861660003662,"107":0.7200649380683899,"108":-0.9430975914001465,"109":0.19248750805854797,"110":0.8595592975616455,"111":0.9576036930084229,"112":-1.0617334842681885,"113":-1.6311298608779907,"114":-3.0049474239349365,"115":-0.6355966925621033,"116":0.4179150462150574,"117":0.07597567141056061,"118":-2.520603656768799,"119":-0.7549199461936951,"120":1.1917599439620972,"121":-1.5312684774398804,"122":-0.24294255673885345,"123":1.5768458843231201,"124":-2.649787425994873,"125":0.6354807615280151,"126":1.4946497678756714,"127":2.0164825916290283,"128":2.3955371379852295,"129":1.2517277002334595,"130":-0.07609307020902634,"131":1.8172106742858887,"132":2.130641222000122,"133":0.34657567739486694,"134":-1.5384418964385986,"135":-2.61506724357605,"136":-2.512200117111206,"137":1.0420821905136108,"138":0.2891771197319031,"139":2.180776596069336,"140":1.0135356187820435,"141":-1.0475670099258423,"142":2.230625867843628,"143":-0.9309821128845215,"144":-1.3802540302276611,"145":0.44858425855636597,"146":1.8102103471755981,"147":1.9768611192703247,"148":-2.180612087249756,"149":-0.7133749723434448,"150":2.1861565113067627,"151":-1.1965428590774536,"152":-0.8098554015159607,"153":2.368652820587158,"154":-0.4208091199398041,"155":2.337575912475586,"156":2.606029748916626,"157":0.8424963355064392,"158":0.16686028242111206,"159":0.9880589246749878,"160":2.215724229812622,"161":3.5768723487854004,"162":1.7918189764022827,"163":2.893834114074707,"164":-0.08467473834753036,"165":0.26765716075897217,"166":-1.8530421257019043,"167":-1.522688388824463,"168":0.8834585547447205,"169":-3.143084764480591,"170":-5.503933429718018,"171":4.588781356811523,"172":-4.221867561340332,"173":-1.1761651039123535,"174":1.3278785943984985,"175":-2.8022336959838867,"176":-0.23384544253349304,"177":-3.8976235389709473,"178":-0.5576950311660767,"179":-1.2297427654266357,"180":3.956829786300659,"181":-1.9109821319580078,"182":-3.97754168510437,"183":0.5849829912185669,"184":-2.941648244857788,"185":-5.628307342529297,"186":4.6946539878845215,"187":2.301154136657715,"188":-0.14613282680511475,"189":1.0632455348968506,"190":2.975325584411621,"191":-5.369602203369141,"192":1.0138046741485596,"193":2.3727235794067383,"194":-5.773487567901611,"195":2.233551502227783,"196":2.470344305038452,"197":-0.21571552753448486,"198":0.6855378150939941,"199":0.6872368454933167,"200":-0.11696408689022064,"201":0.3829955756664276,"202":0.9557421803474426,"203":0.14176444709300995,"204":2.0204381942749023,"205":-0.912407636642456,"206":3.676161527633667,"207":-1.6851750612258911,"208":-0.8974363207817078,"209":-3.3914976119995117,"210":0.15453064441680908,"211":0.5483866930007935,"212":-1.6843270063400269,"213":2.071653127670288,"214":-3.166809558868408,"215":0.6511716842651367,"216":-0.5122409462928772,"217":2.543102741241455,"218":-0.9634988307952881,"219":0.5950578451156616,"220":-0.25200265645980835,"221":1.7619092464447021,"222":0.4447156488895416,"223":-1.2281103134155273,"224":0.7313099503517151,"225":-0.44526392221450806,"226":-4.367674350738525,"227":0.12301167100667953,"228":0.9504579901695251,"229":1.8477847576141357,"230":-1.6757407188415527,"231":0.30734068155288696,"232":1.2791855335235596,"233":0.14107990264892578,"234":-3.4454805850982666,"235":0.22805993258953094,"236":3.5871174335479736,"237":1.596912145614624,"238":1.516365885734558,"239":-0.1840684413909912,"240":1.092837929725647,"241":3.1853435039520264,"242":-1.0521808862686157,"243":-1.4212771654129028,"244":0.06146547570824623,"245":0.007701549679040909,"246":-2.2414541244506836,"247":-0.1569456160068512,"248":0.8258445262908936,"249":-1.2319145202636719,"250":-2.5107717514038086,"251":0.8172301650047302,"252":-3.703040599822998,"253":-1.682037353515625,"254":-0.0038523836992681026,"255":-0.24508045613765717,"256":-1.9677826166152954,"257":-0.4895731210708618,"258":2.42153000831604,"259":-2.269991159439087,"260":1.645169734954834,"261":1.5005064010620117,"262":2.3627710342407227,"263":-3.563239336013794,"264":0.8614421486854553,"265":-2.760300397872925,"266":1.889031171798706,"267":-0.8514871597290039,"268":-2.7346365451812744,"269":-4.809535980224609,"270":0.6990646123886108,"271":-0.29564547538757324,"272":2.291156053543091,"273":0.8344403505325317,"274":0.22222131490707397,"275":-0.9241263270378113,"276":-0.42406734824180603,"277":-2.6235220432281494,"278":-0.404986172914505,"279":0.3222751319408417,"280":1.334643006324768,"281":2.6318118572235107,"282":0.4488522708415985,"283":5.88392972946167,"284":0.9259626865386963,"285":2.0969579219818115,"286":-0.6888571977615356,"287":-0.45532462000846863,"288":1.3981258869171143,"289":1.4421272277832031,"290":-0.3097298741340637,"291":-1.6040189266204834,"292":1.3031022548675537,"293":0.3785916268825531,"294":5.65334415435791,"295":-0.8132054209709167,"296":0.6487241387367249,"297":0.2705419957637787,"298":-2.7846972942352295,"299":-1.6794430017471313,"300":0.4534275531768799,"301":-2.9049220085144043,"302":-0.020479828119277954,"303":-4.561588764190674,"304":0.2502036988735199,"305":3.880657196044922,"306":1.7994475364685059,"307":-2.1225428581237793,"308":0.6023180484771729,"309":0.17268691956996918,"310":0.768363356590271,"311":-1.7938823699951172,"312":-1.5517373085021973,"313":0.18775983154773712,"314":-3.357733964920044,"315":-2.951995849609375,"316":2.126591920852661,"317":0.6349055171012878,"318":-2.825373888015747,"319":-1.0867700576782227,"320":-0.728832483291626,"321":0.4198561906814575,"322":-2.9918673038482666,"323":0.36185330152511597,"324":2.481037139892578,"325":0.03743923455476761,"326":1.2632033824920654,"327":-0.27067211270332336,"328":3.2162070274353027,"329":2.3154525756835938,"330":0.060924217104911804,"331":-7.2959980964660645,"332":-2.2848663330078125,"333":1.5142332315444946,"334":3.2583866119384766,"335":0.20386557281017303,"336":-2.72847580909729,"337":-2.2700257301330566,"338":-0.2971716523170471,"339":0.2174719125032425,"340":-2.6291396617889404,"341":1.8831212520599365,"342":-4.425068378448486,"343":0.9017707109451294,"344":-2.4831655025482178,"345":1.5979443788528442,"346":-1.0576634407043457,"347":3.126840353012085,"348":-2.7046120166778564,"349":-3.102743625640869,"350":2.6603729724884033,"351":1.3445756435394287,"352":-0.8950186371803284,"353":-5.613783836364746,"354":0.6749608516693115,"355":6.044887065887451,"356":1.9301034212112427,"357":3.696244955062866,"358":-1.0899889469146729,"359":2.5146899223327637,"360":-3.743173360824585,"361":-0.08372033387422562,"362":0.03052755631506443,"363":-2.762833833694458,"364":-1.3352574110031128,"365":-0.3299696147441864,"366":4.214529991149902,"367":0.07343842834234238,"368":-0.7577840089797974,"369":-3.061718702316284,"370":0.1550150215625763,"371":1.2073358297348022,"372":-0.5413634777069092,"373":0.5376444458961487,"374":-0.35993796586990356,"375":1.0804778337478638,"376":1.4805092811584473,"377":1.7342523336410522,"378":1.827233076095581,"379":4.054909706115723,"380":0.8118258714675903,"381":1.9573712348937988,"382":2.748936653137207,"383":-1.035495400428772,"384":-1.6364154815673828,"385":2.5553736686706543,"386":0.8428437113761902,"387":0.657728374004364,"388":-0.3718405067920685,"389":1.6410592794418335,"390":-1.2391173839569092,"391":-0.9351643919944763,"392":-1.1562715768814087,"393":2.5579538345336914,"394":1.3834813833236694,"395":-2.435351848602295,"396":-4.56146764755249,"397":4.085056781768799,"398":1.8332980871200562,"399":-2.2162208557128906,"400":-1.2792410850524902,"401":1.7763912677764893,"402":-1.8893847465515137,"403":2.830275774002075,"404":-0.6093417406082153,"405":1.5021296739578247,"406":0.8741899132728577,"407":2.0262207984924316,"408":1.1512850522994995,"409":-1.136396884918213,"410":0.4296952784061432,"411":3.0467851161956787,"412":0.7915416359901428,"413":-1.352062702178955,"414":3.0394296646118164,"415":5.277766704559326,"416":-1.9531508684158325,"417":-3.8902060985565186,"418":-3.039970874786377,"419":-1.8970922231674194,"420":-3.4221277236938477,"421":0.29609984159469604,"422":4.100118160247803,"423":-2.918668270111084,"424":4.35491943359375,"425":-3.7687058448791504,"426":-0.4694017171859741,"427":-1.8402460813522339,"428":-0.28111532330513,"429":-3.3865840435028076,"430":-5.24384069442749,"431":-0.7938153147697449,"432":-2.232198476791382,"433":-5.6866455078125,"434":0.7967355847358704,"435":-0.7688479423522949,"436":0.6666444540023804,"437":-0.7360399961471558,"438":-2.3412065505981445,"439":0.1302773505449295,"440":0.5705536007881165,"441":-3.132230043411255,"442":1.358424425125122,"443":-2.710592746734619,"444":-2.0585083961486816,"445":0.1038023829460144,"446":-0.6022412180900574,"447":-0.3570089638233185,"448":0.5958340764045715,"449":0.724136471748352,"450":2.119882345199585,"451":-0.06755203008651733,"452":-1.733076810836792,"453":-1.9159141778945923,"454":-3.5836708545684814,"455":0.9211344122886658,"456":-0.18567880988121033,"457":-0.6010602116584778,"458":-0.14763246476650238,"459":1.3894524574279785,"460":-0.6167097091674805,"461":-1.9678142070770264,"462":0.8115360140800476,"463":0.7458630800247192,"464":-1.7979964017868042,"465":-2.4445321559906006,"466":-0.47134554386138916,"467":-7.271904945373535,"468":1.8527417182922363,"469":1.2097978591918945,"470":-3.53403377532959,"471":-6.16335916519165,"472":-1.319309115409851,"473":-4.4021315574646,"474":1.3613494634628296,"475":4.109242916107178,"476":-5.451019763946533,"477":-2.6795244216918945,"478":3.1513748168945312,"479":-3.3473615646362305,"480":-6.675904273986816,"481":-2.5409915447235107,"482":2.471717357635498,"483":-1.3325669765472412,"484":-6.028260707855225,"485":1.731750249862671,"486":-4.874476432800293,"487":-0.15621033310890198,"488":-4.921630859375,"489":-0.26004570722579956,"490":-3.44160532951355,"491":0.38963156938552856,"492":5.0045366287231445,"493":-0.23751141130924225,"494":8.741082191467285,"495":3.764331340789795,"496":1.2096227407455444,"497":-4.498363971710205,"498":-2.5057594776153564,"499":-0.23364081978797913,"500":2.903067111968994,"501":1.2826286554336548,"502":1.8152340650558472,"503":-0.5979964733123779,"504":0.26200225949287415,"505":0.6696966886520386,"506":-0.395151287317276,"507":-3.794300079345703,"508":-1.1841237545013428,"509":-1.4265546798706055,"510":0.9895960092544556,"511":0.8825094103813171,"512":-3.8685193061828613,"513":2.680701971054077,"514":-1.2654122114181519,"515":-0.7287671566009521,"516":0.5706454515457153,"517":1.3546109199523926,"518":-0.8315504789352417,"519":-1.483626365661621,"520":-1.859578013420105,"521":1.6280163526535034,"522":-0.8508155941963196,"523":-1.0822066068649292,"524":-5.529516696929932,"525":-0.774934709072113,"526":0.2308274358510971,"527":0.16922126710414886,"528":0.6417350172996521,"529":-2.75376558303833,"530":2.2910268306732178,"531":1.1002748012542725,"532":-1.0379774570465088,"533":-0.7238801717758179,"534":4.969420909881592,"535":0.5125121474266052,"536":0.002505374839529395,"537":0.12836819887161255,"538":-0.0254893209785223,"539":-0.43493905663490295,"540":1.5964939594268799,"541":-1.7281283140182495,"542":-2.5112457275390625,"543":-1.6455436944961548,"544":1.2107657194137573,"545":0.14469735324382782,"546":-0.06637781858444214,"547":-0.3583974540233612,"548":-1.246608018875122,"549":0.943070650100708,"550":-2.0272018909454346,"551":-0.016808537766337395,"552":3.1912803649902344,"553":1.064517617225647,"554":0.6366669535636902,"555":1.0788112878799438,"556":3.0667967796325684,"557":1.477828025817871,"558":2.9441022872924805,"559":1.4091874361038208,"560":1.723724365234375,"561":2.7474851608276367,"562":1.825214147567749,"563":-0.4001253843307495,"564":2.0327844619750977,"565":1.4239792823791504,"566":-2.1592040061950684,"567":2.2899420261383057,"568":3.3534469604492188,"569":-0.23136596381664276,"570":-6.223580837249756,"571":4.521721839904785,"572":2.596935510635376,"573":1.013161301612854,"574":4.670444488525391,"575":-0.7679005861282349,"576":3.6910452842712402,"577":-1.0047576427459717,"578":-4.011059284210205,"579":0.4992442727088928,"580":-1.8623647689819336,"581":3.8871350288391113,"582":-2.6120448112487793,"583":0.62967848777771,"584":-1.0355408191680908,"585":1.9125819206237793,"586":0.28474387526512146,"587":-2.1814284324645996,"588":-6.584320545196533,"589":1.0660953521728516,"590":-0.6302757859230042,"591":0.29381200671195984,"592":-0.9776957035064697,"593":-0.0676419585943222,"594":-0.25575265288352966,"595":1.4477564096450806,"596":1.5730931758880615,"597":0.3054412007331848,"598":-0.08570235222578049,"599":-2.01824688911438,"600":-2.2523818016052246,"601":-2.1413772106170654,"602":-4.247627258300781,"603":-3.1172118186950684,"604":-0.7680187821388245,"605":-0.2667926847934723,"606":-0.30648666620254517,"607":-1.8877431154251099,"608":-0.8766235709190369,"609":-0.910537600517273,"610":-0.7461887001991272,"611":-0.8181931376457214,"612":0.6320041418075562,"613":-0.26433396339416504,"614":0.25236207246780396,"615":-2.342155933380127,"616":-0.5030926465988159,"617":0.9061175584793091,"618":3.333111047744751,"619":-1.499409794807434,"620":-0.6516733169555664,"621":-0.25296297669410706,"622":-1.7434228658676147,"623":-3.7012624740600586,"624":1.1986387968063354,"625":1.1829098463058472,"626":1.0841877460479736,"627":1.4747878313064575,"628":-0.46597257256507874,"629":-3.181800603866577,"630":-4.257359504699707,"631":-1.9830559492111206,"632":1.453326940536499,"633":-3.1854231357574463,"634":0.50496506690979,"635":0.05431101471185684,"636":0.12952706217765808,"637":5.49226713180542,"638":-1.7954343557357788,"639":2.6276001930236816,"640":0.978647768497467,"641":-2.260963201522827,"642":3.530797243118286,"643":-6.110912322998047,"644":-0.08921652287244797,"645":-0.06399858742952347,"646":4.661931037902832,"647":-4.6590118408203125,"648":7.310598373413086,"649":3.9234135150909424,"650":0.9757063388824463,"651":-2.0925610065460205,"652":-4.172773838043213,"653":0.8192049264907837,"654":2.011997699737549,"655":3.6819326877593994,"656":1.9503294229507446,"657":1.6476294994354248,"658":3.6569361686706543,"659":1.4099839925765991,"660":2.521695613861084,"661":2.5077199935913086,"662":-1.5282152891159058,"663":0.6594388484954834,"664":0.46250176429748535,"665":2.4792063236236572,"666":6.648805141448975,"667":-3.812757968902588,"668":-0.11646018922328949,"669":1.5023809671401978,"670":-0.6091986894607544,"671":7.325906276702881,"672":-0.14714106917381287,"673":0.7019153833389282,"674":1.1541824340820312,"675":-2.4262256622314453,"676":0.6612594127655029,"677":0.7986530661582947,"678":-1.7713640928268433,"679":-2.8153653144836426,"680":0.9677907228469849,"681":-2.2069642543792725,"682":4.078958988189697,"683":2.9051711559295654,"684":1.9090627431869507,"685":-2.1685140132904053,"686":5.288225173950195,"687":-0.4111107885837555,"688":-0.7013702392578125,"689":-1.6319431066513062,"690":0.35909873247146606,"691":-3.162336826324463,"692":0.350613534450531,"693":0.6919193863868713,"694":5.413869380950928,"695":-0.3010644316673279,"696":2.025759696960449,"697":1.7751349210739136,"698":-3.6103997230529785,"699":-0.4102623164653778,"700":4.0484843254089355,"701":2.6000142097473145,"702":-1.814845323562622,"703":-0.9282969832420349,"704":-2.0174851417541504,"705":-0.6418746113777161,"706":3.777132749557495,"707":-1.336044430732727,"708":-7.019751071929932,"709":-0.5666772723197937,"710":-4.370498180389404,"711":1.0947396755218506,"712":3.8416154384613037,"713":3.3195974826812744,"714":0.8647958040237427,"715":-4.972917556762695,"716":-3.0199646949768066,"717":2.4695098400115967,"718":1.229326605796814,"719":1.7116228342056274,"720":5.560495853424072,"721":1.1347060203552246,"722":-3.031252861022949,"723":1.405360460281372,"724":-5.150350093841553,"725":-2.4873769283294678,"726":-2.3628673553466797,"727":-4.367287635803223,"728":-1.612192153930664,"729":-2.3013341426849365,"730":-1.9020782709121704,"731":-3.3826863765716553,"732":-0.5373266935348511,"733":-0.5880361199378967,"734":-2.896937370300293,"735":-0.7071603536605835,"736":-3.0908679962158203,"737":0.13883349299430847,"738":3.7918312549591064,"739":1.4596245288848877,"740":-0.02534428983926773,"741":0.25260642170906067,"742":-0.689278244972229,"743":0.03126685693860054,"744":-1.0220319032669067,"745":-3.330923318862915,"746":-1.1302869319915771,"747":2.21321177482605,"748":1.286231517791748,"749":0.09336642920970917,"750":-1.0811916589736938,"751":-0.8482187986373901,"752":-0.5473068952560425,"753":1.4192769527435303,"754":4.719513893127441,"755":-2.539792776107788,"756":-0.9137367606163025,"757":2.427478790283203,"758":2.413102865219116,"759":2.283621072769165,"760":-0.1588432937860489,"761":2.4099175930023193,"762":0.5762512683868408,"763":0.042964138090610504,"764":1.8216570615768433,"765":-0.5086748003959656,"766":0.3095735013484955,"767":-1.7922533750534058,"768":-1.9932113885879517,"769":0.37494096159935,"770":0.9530035853385925,"771":1.6167477369308472,"772":-1.8841886520385742,"773":1.3437892198562622,"774":-0.3417307138442993,"775":-1.2423570156097412,"776":0.06943443417549133,"777":4.175955772399902,"778":-0.7951459288597107,"779":-3.902813673019409,"780":0.8004786372184753,"781":-2.183290719985962,"782":-2.238774061203003,"783":5.21621561050415,"784":-1.982631802558899,"785":-0.21607448160648346,"786":2.8646128177642822,"787":-0.9637066125869751,"788":-0.49968066811561584,"789":1.2066187858581543,"790":0.8637151718139648,"791":0.22216589748859406,"792":-0.623753547668457,"793":0.06360096484422684,"794":-0.18528896570205688,"795":-0.6239033341407776,"796":3.007842540740967,"797":1.506178617477417,"798":2.3543310165405273,"799":0.7997062802314758,"800":-3.0601751804351807,"801":1.015876293182373,"802":-0.02178875356912613,"803":-0.8477951288223267,"804":-2.830984354019165,"805":-0.2586732506752014,"806":4.470702171325684,"807":1.289031744003296,"808":1.9639219045639038,"809":-1.089598298072815,"810":2.294759511947632,"811":-0.3553527891635895,"812":0.8216055035591125,"813":2.1411473751068115,"814":-1.6122605800628662,"815":0.6891050934791565,"816":3.4744813442230225,"817":1.4220759868621826,"818":-0.7319973707199097,"819":2.1987245082855225,"820":-0.6150577068328857,"821":2.867311954498291,"822":4.189667701721191,"823":-2.242422342300415,"824":1.72633695602417,"825":1.9327278137207031,"826":-3.447948932647705,"827":-7.3767828941345215,"828":-5.004225254058838,"829":0.8866586089134216,"830":1.379394292831421,"831":3.4495716094970703,"832":-0.717473030090332,"833":-3.105407238006592,"834":-1.4319946765899658,"835":-3.728724479675293,"836":0.36362677812576294,"837":-2.024141550064087,"838":0.29873210191726685,"839":-5.8744940757751465,"840":1.5233858823776245,"841":1.1964890956878662,"842":-0.9617651104927063,"843":3.7996976375579834,"844":2.4222702980041504,"845":-0.7393573522567749,"846":-0.3079706132411957,"847":1.8902218341827393,"848":-4.435966968536377,"849":-1.951155662536621,"850":0.17730160057544708,"851":-3.7416114807128906,"852":-0.5134357213973999,"853":-0.7983092665672302,"854":2.2261908054351807,"855":-2.451014995574951,"856":-1.7897056341171265,"857":-0.6149610280990601,"858":-4.632224082946777,"859":-0.5534493923187256,"860":-2.4998958110809326,"861":1.2941553592681885,"862":2.7448372840881348,"863":-0.4192080497741699,"864":3.9735612869262695,"865":2.489741086959839,"866":3.0522408485412598,"867":-2.6272802352905273,"868":-1.669569492340088,"869":0.897498369216919,"870":0.3451034724712372,"871":-1.064416766166687,"872":0.6531801819801331,"873":-0.8433891534805298,"874":0.00445981789380312,"875":0.9908053278923035,"876":-0.4389345347881317,"877":0.47531625628471375,"878":-0.3310844898223877,"879":-0.038219355046749115,"880":-3.6027302742004395,"881":-0.07970239967107773,"882":-0.07388999313116074,"883":3.142263889312744,"884":-3.0988690853118896,"885":3.356247901916504,"886":-0.42118197679519653,"887":-0.835381269454956,"888":1.7843663692474365,"889":-1.0475221872329712,"890":1.17473304271698,"891":0.5222284197807312,"892":-0.7615532279014587,"893":-0.618172824382782,"894":-0.25687718391418457,"895":0.11709398776292801,"896":-1.538752794265747,"897":1.5681928396224976,"898":2.0130090713500977,"899":2.2560293674468994,"900":-3.3550643920898438,"901":-1.8203203678131104,"902":-0.17405596375465393,"903":1.2728184461593628,"904":0.39682236313819885,"905":5.563385009765625,"906":4.070008277893066,"907":0.8329043388366699,"908":-3.188368082046509,"909":0.14827993512153625,"910":-3.9675707817077637,"911":-1.4345322847366333,"912":-1.7735424041748047,"913":0.20829403400421143,"914":0.045176513493061066,"915":-1.313751220703125,"916":-1.3966602087020874,"917":-1.5226571559906006,"918":-0.43856826424598694,"919":-0.22505447268486023,"920":-3.1412506103515625,"921":0.18228621780872345,"922":-6.605736255645752,"923":2.232387065887451,"924":2.4324686527252197,"925":1.6913856267929077,"926":-0.7204228639602661,"927":-0.3141395151615143,"928":-0.6381315588951111,"929":-1.8611427545547485,"930":3.961641311645508,"931":3.7150776386260986,"932":-2.4725632667541504,"933":-2.9030683040618896,"934":-2.067810535430908,"935":4.0107808113098145,"936":-3.2187061309814453,"937":1.1739373207092285,"938":4.426065921783447,"939":-4.426990032196045,"940":0.06183057278394699,"941":0.958405613899231,"942":1.832079291343689,"943":-2.9211785793304443,"944":-8.690077781677246,"945":-1.9785103797912598,"946":2.110973358154297,"947":-0.5424394607543945,"948":-5.923060894012451,"949":4.149173259735107,"950":-1.4789334535598755,"951":-1.9706882238388062,"952":0.6177489161491394,"953":-0.054720137268304825,"954":0.24720481038093567,"955":1.545384168624878,"956":-3.0964324474334717,"957":-2.503037929534912,"958":-1.1625034809112549,"959":-0.9479590058326721,"960":2.162081003189087,"961":-0.21204927563667297,"962":0.48764875531196594,"963":-0.7049958109855652,"964":-2.5041587352752686,"965":-1.5895686149597168,"966":0.3065221309661865,"967":0.8236274123191833,"968":0.5074866414070129,"969":-1.132583498954773,"970":-1.528937578201294,"971":-1.015707015991211,"972":0.5156909227371216,"973":0.07418135553598404,"974":-0.04800199344754219,"975":-1.00527024269104,"976":-0.12210744619369507,"977":4.153604507446289,"978":-4.359798908233643,"979":-0.912818193435669,"980":0.8414566516876221,"981":-4.3495306968688965,"982":3.182676315307617,"983":0.37435320019721985,"984":-0.05668027698993683,"985":1.3103364706039429,"986":-1.619667887687683,"987":-0.8182190656661987,"988":-0.03590270131826401,"989":2.369166612625122,"990":-1.8656818866729736,"991":-0.1543637365102768}},"hiddenLayers":[{"inputMatrix":{"rows":20,"columns":31,"weights":{"0":-1.5981416702270508,"1":3.500661849975586,"2":0.6722841262817383,"3":0.35426223278045654,"4":-0.9653887748718262,"5":-2.984712839126587,"6":-0.7823386192321777,"7":-1.132973313331604,"8":0.7327993512153625,"9":0.07707379013299942,"10":3.3723795413970947,"11":1.735538363456726,"12":1.6264522075653076,"13":3.104762315750122,"14":-0.4028460681438446,"15":-0.06743380427360535,"16":-1.4225999116897583,"17":0.43760424852371216,"18":1.631032943725586,"19":-2.0484073162078857,"20":-0.5244700908660889,"21":-1.902635931968689,"22":-1.3173283338546753,"23":0.42422106862068176,"24":-1.3183705806732178,"25":0.7392737865447998,"26":-2.110896110534668,"27":3.8991684913635254,"28":-0.4775172770023346,"29":2.3550620079040527,"30":0.36859914660453796,"31":1.8352303504943848,"32":-1.633078932762146,"33":-1.6520236730575562,"34":1.4361093044281006,"35":2.424118995666504,"36":-1.7682859897613525,"37":-0.1867389976978302,"38":-0.02510739490389824,"39":-1.3467798233032227,"40":2.1137514114379883,"41":3.1109137535095215,"42":-1.0283846855163574,"43":0.3661954998970032,"44":0.7431860566139221,"45":0.1252964437007904,"46":-0.7350443601608276,"47":-3.190079689025879,"48":0.47651907801628113,"49":-1.6916879415512085,"50":-2.852623224258423,"51":1.318860411643982,"52":-1.9309290647506714,"53":0.29937371611595154,"54":-1.6011276245117188,"55":-3.596768617630005,"56":1.1376144886016846,"57":1.5211479663848877,"58":0.816875159740448,"59":-1.86251699924469,"60":0.7421350479125977,"61":0.8555579781532288,"62":0.6751691699028015,"63":1.2480727434158325,"64":-1.8294168710708618,"65":-1.5600632429122925,"66":-1.8614380359649658,"67":2.747469425201416,"68":1.1773757934570312,"69":0.6726279258728027,"70":1.357007384300232,"71":-3.517012596130371,"72":0.2154877632856369,"73":0.7893680930137634,"74":0.13272695243358612,"75":-1.248374104499817,"76":-2.330038070678711,"77":-1.6186574697494507,"78":2.1989521980285645,"79":0.33264559507369995,"80":-2.3571290969848633,"81":1.7699358463287354,"82":-1.7959293127059937,"83":-0.34032174944877625,"84":0.2925007939338684,"85":0.026878967881202698,"86":0.6298637390136719,"87":0.7820523977279663,"88":0.46178144216537476,"89":-1.798271894454956,"90":1.4464716911315918,"91":1.1475074291229248,"92":-0.1292198747396469,"93":0.7746523022651672,"94":0.8572328090667725,"95":0.4238049387931824,"96":-0.7628287672996521,"97":0.4333612024784088,"98":0.2028741091489792,"99":-1.4525539875030518,"100":0.6863810420036316,"101":-1.8591759204864502,"102":0.8300962448120117,"103":0.35545018315315247,"104":0.0517047755420208,"105":2.448305368423462,"106":-0.34355244040489197,"107":-2.2598514556884766,"108":-4.689088344573975,"109":-0.871545135974884,"110":-3.8933355808258057,"111":-0.3774435818195343,"112":1.3241442441940308,"113":-1.975077509880066,"114":-3.8831918239593506,"115":-1.460253357887268,"116":0.18637290596961975,"117":0.868622362613678,"118":-5.284875869750977,"119":-1.8469325304031372,"120":1.5018953084945679,"121":-1.8569296598434448,"122":0.10839401930570602,"123":0.13511274755001068,"124":0.96812504529953,"125":2.4301249980926514,"126":0.14214211702346802,"127":-1.9023545980453491,"128":0.909044086933136,"129":2.2142844200134277,"130":-1.0657930374145508,"131":-0.008595253340899944,"132":2.7795684337615967,"133":-2.829378366470337,"134":-1.3034281730651855,"135":-0.57459557056427,"136":0.4240628778934479,"137":-4.552210807800293,"138":-3.762550115585327,"139":0.5806317925453186,"140":0.810589611530304,"141":-1.2621811628341675,"142":-2.910207748413086,"143":-0.7780636548995972,"144":0.549383282661438,"145":-0.8921693563461304,"146":-1.4650217294692993,"147":0.5121564269065857,"148":3.160346508026123,"149":-0.8737463355064392,"150":-1.4326667785644531,"151":0.6160457730293274,"152":0.9194044470787048,"153":-0.5367138981819153,"154":-1.0992484092712402,"155":0.9683043956756592,"156":2.8236441612243652,"157":2.607835531234741,"158":-0.5277907252311707,"159":0.3353288769721985,"160":-0.6892746686935425,"161":-2.530998706817627,"162":2.1257917881011963,"163":-1.4055143594741821,"164":0.964343786239624,"165":-1.1958122253417969,"166":0.4947052299976349,"167":-0.39428865909576416,"168":-0.21818122267723083,"169":0.0008798378985375166,"170":2.517021656036377,"171":0.1134772077202797,"172":2.175713539123535,"173":0.6491377353668213,"174":3.14758563041687,"175":-0.5108410716056824,"176":-3.0791893005371094,"177":-2.1719038486480713,"178":1.1480422019958496,"179":1.82620370388031,"180":-3.4975788593292236,"181":-2.402873992919922,"182":1.7219955921173096,"183":2.730886936187744,"184":-1.2434788942337036,"185":1.3666836023330688,"186":1.578251838684082,"187":-1.0554027557373047,"188":-0.33805397152900696,"189":-2.24308180809021,"190":-1.7360408306121826,"191":0.05138462781906128,"192":0.7281032800674438,"193":-0.42920246720314026,"194":-0.24123823642730713,"195":-1.6258652210235596,"196":-1.394762635231018,"197":2.2959606647491455,"198":-0.8255791664123535,"199":-0.37263596057891846,"200":-0.048304568976163864,"201":-1.1574335098266602,"202":0.5795628428459167,"203":0.09510528296232224,"204":-1.346662163734436,"205":3.3291306495666504,"206":-0.10095172375440598,"207":-1.9066585302352905,"208":0.9589788317680359,"209":0.7251293659210205,"210":1.6270337104797363,"211":-0.7730397582054138,"212":-1.1763663291931152,"213":-2.3704512119293213,"214":0.5720019936561584,"215":-0.5271313190460205,"216":0.956762969493866,"217":-1.0345326662063599,"218":2.20072078704834,"219":-2.4627997875213623,"220":2.97346830368042,"221":1.514104962348938,"222":2.016801595687866,"223":-2.917067050933838,"224":0.09242413938045502,"225":1.048669457435608,"226":1.3124744892120361,"227":2.7062487602233887,"228":-1.5207465887069702,"229":0.5257567763328552,"230":-0.10886415094137192,"231":-3.1769285202026367,"232":-2.579103708267212,"233":-1.7481403350830078,"234":0.5013290643692017,"235":-1.828330397605896,"236":-1.8282368183135986,"237":-0.710175633430481,"238":-1.4657453298568726,"239":0.10111114382743835,"240":-0.9913923740386963,"241":-1.5217113494873047,"242":-0.9868547320365906,"243":3.0099198818206787,"244":4.445298671722412,"245":-2.4838879108428955,"246":0.733464777469635,"247":1.5173821449279785,"248":-0.1678634136915207,"249":-0.8578630685806274,"250":-1.1858153343200684,"251":-0.7307303547859192,"252":-0.0003704159753397107,"253":-0.8804980516433716,"254":0.8739107251167297,"255":-0.24706679582595825,"256":-2.3937950134277344,"257":-1.1106175184249878,"258":2.119812488555908,"259":-2.488518476486206,"260":-0.8918067216873169,"261":0.07714102417230606,"262":0.11209293454885483,"263":1.9992549419403076,"264":-0.8924590349197388,"265":0.712555468082428,"266":0.7040502429008484,"267":1.5469011068344116,"268":1.8630787134170532,"269":-2.0287036895751953,"270":0.626097559928894,"271":-2.1238105297088623,"272":-0.6159672141075134,"273":1.7307851314544678,"274":0.5225515961647034,"275":-1.185035228729248,"276":-1.962444543838501,"277":1.5741333961486816,"278":-0.94980388879776,"279":-0.5766239166259766,"280":-3.3152804374694824,"281":0.7040011882781982,"282":0.6317793726921082,"283":0.7177302837371826,"284":1.8349887132644653,"285":0.2029884308576584,"286":-0.3026158809661865,"287":0.12345686554908752,"288":3.3084726333618164,"289":2.4499168395996094,"290":-0.010500543750822544,"291":-1.0774599313735962,"292":1.9753133058547974,"293":0.9156673550605774,"294":2.912590980529785,"295":-2.2991952896118164,"296":1.918895959854126,"297":1.2429187297821045,"298":-1.8464746475219727,"299":0.38244783878326416,"300":1.1838401556015015,"301":0.913068950176239,"302":2.4824962615966797,"303":-2.4715988636016846,"304":0.15357840061187744,"305":1.5906370878219604,"306":1.6230182647705078,"307":-3.9194390773773193,"308":0.0007767849019728601,"309":0.7567302584648132,"310":-3.363450288772583,"311":-0.6613560914993286,"312":-2.959017753601074,"313":1.1882067918777466,"314":-0.4901342988014221,"315":-1.1407166719436646,"316":1.299375295639038,"317":-1.1651531457901,"318":-1.144913911819458,"319":0.998297929763794,"320":-0.9395288228988647,"321":-2.446805238723755,"322":-1.263616919517517,"323":0.6225264668464661,"324":1.1678332090377808,"325":1.0769754648208618,"326":-0.7253074645996094,"327":1.5790139436721802,"328":-0.21964257955551147,"329":0.45494934916496277,"330":2.525888442993164,"331":-2.871797800064087,"332":1.4286458492279053,"333":-1.6352113485336304,"334":-0.16859206557273865,"335":-0.6444290280342102,"336":0.19624167680740356,"337":2.153701066970825,"338":-1.5683517456054688,"339":0.22925370931625366,"340":-1.4603204727172852,"341":2.1802921295166016,"342":-0.5923150777816772,"343":0.4355851113796234,"344":-0.519903302192688,"345":-2.2607123851776123,"346":2.0984983444213867,"347":-2.2170984745025635,"348":0.0019473736174404621,"349":1.551512598991394,"350":-1.8440190553665161,"351":-0.8759947419166565,"352":-0.06068940460681915,"353":-0.01056107971817255,"354":-2.104440927505493,"355":-1.4546573162078857,"356":-0.7471766471862793,"357":3.1768405437469482,"358":-0.4328783452510834,"359":-1.5373432636260986,"360":0.22098714113235474,"361":-1.6000593900680542,"362":2.887474298477173,"363":-0.8114871382713318,"364":1.425168752670288,"365":0.03389362245798111,"366":0.21231839060783386,"367":-0.19294750690460205,"368":0.3804323375225067,"369":4.217398643493652,"370":-0.29317280650138855,"371":0.10628005862236023,"372":-1.1439650058746338,"373":-0.35590386390686035,"374":-1.9732261896133423,"375":0.9038931131362915,"376":-0.6530301570892334,"377":-0.45211583375930786,"378":-1.279119610786438,"379":-0.15028005838394165,"380":0.8810557723045349,"381":-3.454561471939087,"382":-0.014695990830659866,"383":-1.9250324964523315,"384":0.1954350769519806,"385":0.31763651967048645,"386":1.8464268445968628,"387":-1.61678147315979,"388":0.1587926298379898,"389":-2.4828898906707764,"390":2.1460976600646973,"391":1.3786296844482422,"392":-0.8569103479385376,"393":-3.5549020767211914,"394":-0.6847693920135498,"395":-1.178934097290039,"396":7.392226696014404,"397":-1.6226187944412231,"398":1.7544810771942139,"399":2.351776123046875,"400":2.7038607597351074,"401":-0.09379800409078598,"402":1.2748514413833618,"403":-0.19833087921142578,"404":1.3059579133987427,"405":-0.49283817410469055,"406":-1.3015695810317993,"407":1.4420126676559448,"408":1.4541853666305542,"409":0.10629373043775558,"410":-1.786136269569397,"411":1.2122786045074463,"412":-2.275938034057617,"413":-2.7137701511383057,"414":-0.05571356788277626,"415":1.8247179985046387,"416":-3.36924147605896,"417":-1.162611484527588,"418":0.06749037653207779,"419":-0.031787991523742676,"420":-0.019055454060435295,"421":-2.3471615314483643,"422":1.4273872375488281,"423":-0.47761934995651245,"424":2.729936361312866,"425":-0.0662209764122963,"426":-1.2318694591522217,"427":1.4855766296386719,"428":-2.1961541175842285,"429":-0.7425543665885925,"430":-1.3290095329284668,"431":-0.014654655009508133,"432":-0.22505991160869598,"433":0.9487351179122925,"434":0.5445631146430969,"435":-1.591176152229309,"436":0.4352461099624634,"437":-1.2484949827194214,"438":-1.3964548110961914,"439":-0.144435852766037,"440":1.861619472503662,"441":0.5788109302520752,"442":-0.1397639513015747,"443":-0.48738181591033936,"444":0.08303895592689514,"445":-0.12191116809844971,"446":-1.4182196855545044,"447":0.26839545369148254,"448":0.5507233142852783,"449":0.9815720319747925,"450":0.2934548556804657,"451":-0.4868882894515991,"452":-0.8492951989173889,"453":-3.265928268432617,"454":0.5661177635192871,"455":0.43159931898117065,"456":-2.1827993392944336,"457":0.9850534796714783,"458":0.7648853063583374,"459":4.857846736907959,"460":-1.2760299444198608,"461":0.3537922203540802,"462":-0.042515840381383896,"463":-0.9574916362762451,"464":-1.730069875717163,"465":-4.796189308166504,"466":-0.2259017676115036,"467":0.04722661152482033,"468":-1.083659052848816,"469":-1.9010728597640991,"470":-0.6609700918197632,"471":-1.74253511428833,"472":-3.583064556121826,"473":-0.7510021924972534,"474":-0.22642453014850616,"475":-0.535740315914154,"476":0.34449419379234314,"477":-0.6213672161102295,"478":-0.3090793788433075,"479":1.3095802068710327,"480":1.0674930810928345,"481":0.6027680039405823,"482":1.4965314865112305,"483":0.5505123138427734,"484":-0.35201120376586914,"485":-0.16523480415344238,"486":1.214565634727478,"487":2.1951687335968018,"488":-0.25922060012817383,"489":1.0466903448104858,"490":-1.8622419834136963,"491":2.082592010498047,"492":1.1789042949676514,"493":1.1204537153244019,"494":0.7334174513816833,"495":0.9254149794578552,"496":1.3133301734924316,"497":2.3252291679382324,"498":-0.8768312335014343,"499":-0.4286172091960907,"500":-1.02363121509552,"501":0.5916878581047058,"502":-2.550260305404663,"503":-1.2052067518234253,"504":-1.4510740041732788,"505":0.4531661868095398,"506":0.7101354002952576,"507":1.06987464427948,"508":-0.27121031284332275,"509":-1.8627763986587524,"510":0.7177664041519165,"511":-3.00299072265625,"512":-1.375754475593567,"513":-0.9061807990074158,"514":1.4240885972976685,"515":0.3766789734363556,"516":1.3498034477233887,"517":-0.46863293647766113,"518":-0.8956917524337769,"519":-0.21394817531108856,"520":5.267991065979004,"521":-1.1631238460540771,"522":0.6058955192565918,"523":0.8182269930839539,"524":0.03557046875357628,"525":-4.146353721618652,"526":3.083550214767456,"527":-1.358983039855957,"528":1.1899046897888184,"529":-0.5255827307701111,"530":-0.7327432036399841,"531":0.43535828590393066,"532":0.632519006729126,"533":0.3830149173736572,"534":1.6161689758300781,"535":2.9052927494049072,"536":-2.7915899753570557,"537":-2.702955722808838,"538":-0.8171238899230957,"539":-0.700434684753418,"540":-1.1866872310638428,"541":0.218455970287323,"542":1.0634516477584839,"543":-0.7785040140151978,"544":0.4022861421108246,"545":-2.3139710426330566,"546":-1.131636142730713,"547":0.7108800411224365,"548":3.7786691188812256,"549":2.9867568016052246,"550":0.7461738586425781,"551":1.3656587600708008,"552":0.7238715291023254,"553":1.3818821907043457,"554":-2.080339193344116,"555":3.6873066425323486,"556":2.3818087577819824,"557":-1.1474615335464478,"558":2.5742886066436768,"559":-3.398409128189087,"560":2.066904306411743,"561":-0.1668512523174286,"562":0.8781380653381348,"563":-1.1707333326339722,"564":1.6659972667694092,"565":-0.033274777233600616,"566":-0.946367621421814,"567":0.1300666183233261,"568":1.593408465385437,"569":0.9324511885643005,"570":-2.7006113529205322,"571":1.2422195672988892,"572":1.187376618385315,"573":0.49085140228271484,"574":1.5487297773361206,"575":1.1766482591629028,"576":-0.4990695118904114,"577":-0.7174461483955383,"578":-1.8808603286743164,"579":0.7671324610710144,"580":-0.4405975043773651,"581":-2.0524158477783203,"582":-0.6310425996780396,"583":1.4004743099212646,"584":0.5172005891799927,"585":-2.9491517543792725,"586":-0.23013339936733246,"587":1.2165215015411377,"588":-4.50236177444458,"589":-1.0647459030151367,"590":-4.156313896179199,"591":-0.797427237033844,"592":-0.35311728715896606,"593":-2.5502467155456543,"594":-2.1031434535980225,"595":-1.8991291522979736,"596":-0.39084815979003906,"597":-0.6612082123756409,"598":3.3935725688934326,"599":0.47111791372299194,"600":2.6861233711242676,"601":1.346955418586731,"602":3.224099636077881,"603":1.67703115940094,"604":0.12119194865226746,"605":-0.5433139204978943,"606":-0.6094147562980652,"607":1.5598989725112915,"608":-2.360050916671753,"609":2.0946476459503174,"610":-2.166435718536377,"611":1.973828673362732,"612":0.04430533945560455,"613":0.6448162794113159,"614":-0.5542399883270264,"615":0.9962925314903259,"616":3.4377858638763428,"617":0.8923139572143555,"618":0.24513249099254608,"619":2.02197003364563}},"inputHidden":{"rows":20,"columns":20,"weights":{"0":-3.4076879024505615,"1":0.7822273969650269,"2":-2.0612008571624756,"3":-2.618299961090088,"4":1.048480749130249,"5":-1.3390536308288574,"6":-0.28703856468200684,"7":-2.164980888366699,"8":-4.545567989349365,"9":1.941504955291748,"10":1.7680617570877075,"11":2.5756850242614746,"12":0.4333835542201996,"13":4.697330474853516,"14":-0.6855049133300781,"15":-0.8772920370101929,"16":-6.967580318450928,"17":1.9085485935211182,"18":-1.9309078454971313,"19":-1.058702826499939,"20":-3.4510653018951416,"21":0.6272985339164734,"22":-0.10555204749107361,"23":1.7430839538574219,"24":2.3657119274139404,"25":1.2755835056304932,"26":2.4393088817596436,"27":-3.8297245502471924,"28":-3.898426055908203,"29":0.5446041226387024,"30":-0.8316144943237305,"31":0.4135875105857849,"32":-0.6914662718772888,"33":-0.25577348470687866,"34":-1.2800809144973755,"35":2.376270294189453,"36":1.0676088333129883,"37":2.271571636199951,"38":-0.03535642474889755,"39":0.6170760989189148,"40":-1.0409798622131348,"41":0.6185060143470764,"42":1.9108736515045166,"43":1.2878838777542114,"44":1.2964017391204834,"45":0.1444450169801712,"46":-4.126002311706543,"47":0.9755100607872009,"48":-1.7008637189865112,"49":2.9011433124542236,"50":0.3249884843826294,"51":1.2629728317260742,"52":-1.8720390796661377,"53":2.8261678218841553,"54":-1.8092495203018188,"55":3.1120007038116455,"56":-1.217887282371521,"57":1.1894111633300781,"58":-0.03194326534867287,"59":-0.6756895184516907,"60":-1.5862654447555542,"61":0.9852259755134583,"62":2.808004379272461,"63":2.358261823654175,"64":-1.208119511604309,"65":0.05551914870738983,"66":1.1885597705841064,"67":-0.2447921484708786,"68":1.2964550256729126,"69":-1.5645618438720703,"70":-1.1622817516326904,"71":1.167490839958191,"72":-1.6619789600372314,"73":-1.502784013748169,"74":-1.3550056219100952,"75":1.0499019622802734,"76":-0.6028968691825867,"77":3.941776990890503,"78":2.1632814407348633,"79":0.9432135224342346,"80":-0.99922114610672,"81":-3.812519073486328,"82":2.891841173171997,"83":1.6097356081008911,"84":-4.227610111236572,"85":-2.4164934158325195,"86":-0.4788694977760315,"87":2.147388458251953,"88":-0.05535329505801201,"89":-0.9878534078598022,"90":0.5457434058189392,"91":2.5606467723846436,"92":-2.138911247253418,"93":0.2238793969154358,"94":2.0812344551086426,"95":-2.2683117389678955,"96":0.1706632822751999,"97":-0.44176191091537476,"98":-0.8850438594818115,"99":-1.1150048971176147,"100":-3.465869665145874,"101":-1.4217592477798462,"102":2.6542255878448486,"103":1.818482756614685,"104":-4.424736976623535,"105":1.7021640539169312,"106":0.8152509331703186,"107":2.8436081409454346,"108":-3.550819158554077,"109":0.05900038033723831,"110":-0.5778258442878723,"111":-0.8884782195091248,"112":-2.861549139022827,"113":-0.19595251977443695,"114":2.643357992172241,"115":2.471735954284668,"116":-1.9701226949691772,"117":-2.97475528717041,"118":0.4999450743198395,"119":-1.2749650478363037,"120":-3.4857075214385986,"121":-6.106992244720459,"122":-4.165126800537109,"123":3.052635908126831,"124":-0.6565750241279602,"125":0.3693827986717224,"126":-4.97450065612793,"127":1.9518110752105713,"128":1.324007511138916,"129":-4.411033630371094,"130":1.5275741815567017,"131":-3.4142656326293945,"132":-0.6049716472625732,"133":-1.2778639793395996,"134":4.371331214904785,"135":-4.2610883712768555,"136":-3.075913429260254,"137":2.695277214050293,"138":-0.050123609602451324,"139":4.027026653289795,"140":2.673147201538086,"141":-2.64638090133667,"142":-2.3651304244995117,"143":-0.07310865819454193,"144":2.618212938308716,"145":-2.430504083633423,"146":-1.0447114706039429,"147":2.7187163829803467,"148":-2.796745777130127,"149":-0.8660841584205627,"150":-2.3510782718658447,"151":1.2057418823242188,"152":3.1466989517211914,"153":-0.8997851014137268,"154":-3.1887359619140625,"155":0.2609238922595978,"156":-5.675152778625488,"157":1.9191699028015137,"158":5.720167636871338,"159":2.7026326656341553,"160":-2.887814521789551,"161":-3.3572170734405518,"162":-6.897176742553711,"163":-5.5399274826049805,"164":3.3959028720855713,"165":3.9876627922058105,"166":2.58890438079834,"167":5.509468078613281,"168":3.9098434448242188,"169":-4.37599515914917,"170":2.7675507068634033,"171":1.1076256036758423,"172":1.9652196168899536,"173":-0.49913498759269714,"174":1.2048499584197998,"175":-4.3582940101623535,"176":-0.4141889810562134,"177":-4.9600911140441895,"178":0.14654260873794556,"179":1.656578540802002,"180":-0.29312822222709656,"181":2.065361499786377,"182":-1.025987982749939,"183":-3.1830365657806396,"184":-0.17707209289073944,"185":-0.8459360003471375,"186":1.7726401090621948,"187":4.004345417022705,"188":-1.511839509010315,"189":0.8660929203033447,"190":-0.02896031178534031,"191":-1.3536313772201538,"192":5.393238544464111,"193":0.411023885011673,"194":-4.444480895996094,"195":-3.19671630859375,"196":1.2484155893325806,"197":3.710015296936035,"198":1.098924994468689,"199":-1.040996789932251,"200":2.034275531768799,"201":-1.099103569984436,"202":-2.643357992172241,"203":-0.4161359667778015,"204":1.8319034576416016,"205":-2.4651196002960205,"206":0.037231821566820145,"207":-4.363886833190918,"208":6.257051467895508,"209":-0.1534639447927475,"210":1.8362938165664673,"211":-2.1477792263031006,"212":-1.76640784740448,"213":3.994354248046875,"214":-2.5524792671203613,"215":0.07389277964830399,"216":-2.200137138366699,"217":-2.6691596508026123,"218":-3.4512743949890137,"219":-4.718709468841553,"220":-2.087951183319092,"221":1.559025764465332,"222":-3.0673489570617676,"223":3.369581699371338,"224":1.8691067695617676,"225":-2.010248899459839,"226":-1.8518502712249756,"227":0.41966280341148376,"228":1.1831746101379395,"229":4.003439903259277,"230":1.0446909666061401,"231":-4.276869297027588,"232":-3.7153170108795166,"233":-1.962363362312317,"234":-4.000609874725342,"235":3.904520034790039,"236":0.2901361882686615,"237":0.5735877752304077,"238":2.5924863815307617,"239":-2.806581735610962,"240":0.533988893032074,"241":-1.1825735569000244,"242":4.360355377197266,"243":-0.7382225394248962,"244":1.361879587173462,"245":-1.3794413805007935,"246":-1.976430058479309,"247":1.661191701889038,"248":1.9993529319763184,"249":-3.8414080142974854,"250":1.4240529537200928,"251":3.859464406967163,"252":-2.2083938121795654,"253":2.5262506008148193,"254":3.9416542053222656,"255":4.513595104217529,"256":2.879552125930786,"257":0.20641960203647614,"258":-1.056980848312378,"259":-2.573772430419922,"260":1.799250841140747,"261":-3.0303547382354736,"262":-1.4476443529129028,"263":0.3451356589794159,"264":-1.9355823993682861,"265":0.6196578145027161,"266":-3.6605911254882812,"267":-3.7458956241607666,"268":2.1618988513946533,"269":-3.462686061859131,"270":-2.1969153881073,"271":-5.885547161102295,"272":4.112897872924805,"273":-1.7440052032470703,"274":-3.994483470916748,"275":3.9514145851135254,"276":-8.605829238891602,"277":0.9630392789840698,"278":-0.7734320163726807,"279":3.791717529296875,"280":1.675067663192749,"281":0.08959365636110306,"282":2.594632387161255,"283":0.2359008491039276,"284":-5.989363193511963,"285":0.40665900707244873,"286":5.072384357452393,"287":5.366500377655029,"288":-0.780384361743927,"289":-2.218928813934326,"290":-1.7354233264923096,"291":-0.9382186532020569,"292":6.41023588180542,"293":4.161233901977539,"294":-2.146728277206421,"295":2.176880359649658,"296":-0.963627278804779,"297":0.5749987363815308,"298":4.3094072341918945,"299":2.9483702182769775,"300":-4.294474124908447,"301":3.7787179946899414,"302":-0.9691367149353027,"303":-1.490807056427002,"304":-0.3079849183559418,"305":-0.47455111145973206,"306":-0.6744188666343689,"307":-2.0347254276275635,"308":-3.088449239730835,"309":0.5315017700195312,"310":0.6487382650375366,"311":3.072134017944336,"312":-0.5946149230003357,"313":-1.1435002088546753,"314":1.2543954849243164,"315":-1.1852999925613403,"316":-6.465095043182373,"317":-1.120690941810608,"318":0.6779355406761169,"319":-0.2859499454498291,"320":1.7787293195724487,"321":1.3543105125427246,"322":-1.9224553108215332,"323":0.5415184497833252,"324":4.359509468078613,"325":0.6963562369346619,"326":-4.198677062988281,"327":-5.172366142272949,"328":2.2015323638916016,"329":0.07035631686449051,"330":-2.2664763927459717,"331":-1.6319118738174438,"332":-0.9649733901023865,"333":1.0985465049743652,"334":3.3417069911956787,"335":2.598475933074951,"336":1.5455782413482666,"337":0.46118229627609253,"338":0.9164736866950989,"339":-4.580905914306641,"340":0.7878855466842651,"341":-1.6629269123077393,"342":-3.5978760719299316,"343":1.7911728620529175,"344":4.375308513641357,"345":-2.8714568614959717,"346":0.053001709282398224,"347":1.55170476436615,"348":1.7877694368362427,"349":-0.08316504955291748,"350":-3.3276994228363037,"351":-0.13921183347702026,"352":3.992600202560425,"353":-2.137441635131836,"354":-1.202760934829712,"355":0.3734571039676666,"356":-1.1758989095687866,"357":-0.05211467668414116,"358":0.5530568361282349,"359":0.12368565052747726,"360":3.2880141735076904,"361":1.015392780303955,"362":0.5550530552864075,"363":2.0577118396759033,"364":-0.3571942150592804,"365":0.8697097301483154,"366":3.565596580505371,"367":2.081758975982666,"368":2.4667227268218994,"369":1.942124843597412,"370":-1.8205283880233765,"371":1.5843855142593384,"372":3.1707944869995117,"373":-4.523715496063232,"374":0.04464453458786011,"375":3.15930438041687,"376":-0.21968108415603638,"377":2.3360393047332764,"378":-1.381312608718872,"379":-3.5566415786743164,"380":1.794907808303833,"381":2.6865084171295166,"382":1.844480276107788,"383":-0.7236964106559753,"384":0.33372101187705994,"385":1.883968710899353,"386":-0.9114204049110413,"387":-2.436387777328491,"388":-0.3135644793510437,"389":2.0467896461486816,"390":1.3013908863067627,"391":2.1995887756347656,"392":0.711850643157959,"393":1.960098385810852,"394":2.703047752380371,"395":0.3091937303543091,"396":0.07903018593788147,"397":1.2591434717178345,"398":-1.0252360105514526,"399":-2.291858196258545}},"inputBias":{"rows":20,"columns":1,"weights":{"0":-1.8856408596038818,"1":-0.35016173124313354,"2":-0.5029510259628296,"3":-0.0714530199766159,"4":-1.527953028678894,"5":-2.1708016395568848,"6":-3.003025531768799,"7":-0.9177913069725037,"8":-0.3632557690143585,"9":-0.11113844811916351,"10":-1.1742713451385498,"11":-0.8964848518371582,"12":-0.15438956022262573,"13":-0.35414138436317444,"14":-2.3933136463165283,"15":-0.16804394125938416,"16":-1.3604657649993896,"17":0.7125276923179626,"18":-0.7938463687896729,"19":-2.25081205368042}},"forgetMatrix":{"rows":20,"columns":31,"weights":{"0":-0.7662032246589661,"1":-1.3437268733978271,"2":0.12907777726650238,"3":-0.5983576774597168,"4":-0.9584510326385498,"5":0.7145026922225952,"6":-1.4765280485153198,"7":-2.5735268592834473,"8":1.7212132215499878,"9":-0.7571932077407837,"10":1.8768792152404785,"11":2.4111363887786865,"12":-0.9734591841697693,"13":-0.754416286945343,"14":0.1659584492444992,"15":2.866626739501953,"16":1.288800835609436,"17":1.2295928001403809,"18":-0.14424368739128113,"19":2.503598928451538,"20":1.3905891180038452,"21":3.0338070392608643,"22":1.1493208408355713,"23":2.1591851711273193,"24":0.5022252798080444,"25":-0.21475286781787872,"26":-2.338452100753784,"27":-0.23904196918010712,"28":-1.5488795042037964,"29":0.375754714012146,"30":0.33380910754203796,"31":-0.4504176080226898,"32":-0.5561715960502625,"33":-1.696367859840393,"34":-1.7646920680999756,"35":0.35724014043807983,"36":0.13750165700912476,"37":2.6453371047973633,"38":1.1049306392669678,"39":3.2292568683624268,"40":-1.7775933742523193,"41":-2.0780739784240723,"42":-0.7824174165725708,"43":1.065871238708496,"44":-2.9413959980010986,"45":-1.948417067527771,"46":-0.7527974843978882,"47":-1.8816190958023071,"48":-0.008593025617301464,"49":-2.25618314743042,"50":-3.9115638732910156,"51":0.6440248489379883,"52":0.44613897800445557,"53":3.7886314392089844,"54":0.924579381942749,"55":-2.9154844284057617,"56":3.372880458831787,"57":0.8596295714378357,"58":-3.919391632080078,"59":2.342287540435791,"60":1.8419328927993774,"61":-1.9007923603057861,"62":0.5805875062942505,"63":-0.20250321924686432,"64":-1.8867461681365967,"65":2.689757823944092,"66":-0.28822004795074463,"67":-0.47584637999534607,"68":-0.9327334761619568,"69":-0.30943968892097473,"70":-0.21269890666007996,"71":5.370304107666016,"72":0.48589611053466797,"73":-1.6210453510284424,"74":-0.8010634779930115,"75":0.4660854637622833,"76":0.8826848268508911,"77":-1.5503289699554443,"78":-3.651554822921753,"79":3.5489559173583984,"80":1.3680481910705566,"81":-1.0669134855270386,"82":-0.7969768643379211,"83":-0.802716076374054,"84":-1.9763482809066772,"85":-0.4704114496707916,"86":-2.1102938652038574,"87":0.9251824617385864,"88":0.20816893875598907,"89":2.5483036041259766,"90":1.4902946949005127,"91":2.368330478668213,"92":-0.4417489469051361,"93":2.5891332626342773,"94":0.09323874115943909,"95":0.8083859086036682,"96":2.603652238845825,"97":0.6238580942153931,"98":-0.4587843716144562,"99":-0.777372419834137,"100":-2.4624338150024414,"101":-2.0287210941314697,"102":1.614658236503601,"103":3.027336835861206,"104":2.2016332149505615,"105":-0.07087651640176773,"106":1.6164307594299316,"107":2.027446746826172,"108":0.7418239116668701,"109":0.3190387487411499,"110":-0.4877043068408966,"111":3.4930849075317383,"112":0.7495908141136169,"113":2.7307605743408203,"114":0.6234052777290344,"115":-4.050201416015625,"116":2.2717103958129883,"117":0.7224186658859253,"118":-0.5159125328063965,"119":-0.9498768448829651,"120":-1.5220357179641724,"121":-2.3674943447113037,"122":-4.142360210418701,"123":1.0750826597213745,"124":-2.4017741680145264,"125":-1.0311177968978882,"126":0.9256817102432251,"127":-2.4757213592529297,"128":-0.05039680749177933,"129":2.2117316722869873,"130":-1.7143280506134033,"131":-1.1741095781326294,"132":0.12450456619262695,"133":1.0931062698364258,"134":-0.34778138995170593,"135":1.6271694898605347,"136":-0.20981721580028534,"137":-2.062373161315918,"138":2.3659353256225586,"139":4.6263885498046875,"140":0.5593804121017456,"141":0.060963913798332214,"142":-2.0717079639434814,"143":2.7504873275756836,"144":0.20130878686904907,"145":3.09835147857666,"146":1.3935065269470215,"147":2.0091402530670166,"148":0.5310797095298767,"149":-2.2123336791992188,"150":0.18666303157806396,"151":-3.9311861991882324,"152":0.14176949858665466,"153":-1.971381425857544,"154":-0.3881382942199707,"155":-0.7377798557281494,"156":-1.2267431020736694,"157":-1.4286904335021973,"158":2.3769798278808594,"159":-1.6536943912506104,"160":-1.4844774007797241,"161":-1.7761406898498535,"162":-1.1961390972137451,"163":-1.4392184019088745,"164":1.9457420110702515,"165":1.9910576343536377,"166":-1.3901276588439941,"167":1.2736177444458008,"168":1.6816705465316772,"169":0.3183407187461853,"170":-0.545584499835968,"171":1.2262288331985474,"172":0.042284462600946426,"173":2.129164695739746,"174":-0.7273291945457458,"175":1.6497389078140259,"176":-0.8969176411628723,"177":-1.758742094039917,"178":-0.10890159755945206,"179":0.2576226592063904,"180":1.038856029510498,"181":-0.005553451366722584,"182":1.9910073280334473,"183":-0.17221099138259888,"184":0.02004876360297203,"185":1.1385879516601562,"186":-1.5928138494491577,"187":2.319850206375122,"188":2.5890769958496094,"189":1.9422714710235596,"190":0.648777186870575,"191":1.6190814971923828,"192":-0.5918185114860535,"193":0.9317715764045715,"194":1.4723173379898071,"195":-0.8064651489257812,"196":0.2195412814617157,"197":1.8943794965744019,"198":-0.984617292881012,"199":2.4139797687530518,"200":0.4249453842639923,"201":1.0656023025512695,"202":-2.337883710861206,"203":1.6567528247833252,"204":0.13760675489902496,"205":1.7868062257766724,"206":1.7726348638534546,"207":0.8502123355865479,"208":1.3072302341461182,"209":2.8347532749176025,"210":-1.3544055223464966,"211":-2.7799928188323975,"212":3.0092062950134277,"213":0.3202090263366699,"214":-2.67573618888855,"215":-1.1278209686279297,"216":-1.417254090309143,"217":-0.30517053604125977,"218":-0.5846120119094849,"219":0.5358909368515015,"220":0.361782044172287,"221":1.6114916801452637,"222":-0.9068842530250549,"223":1.41908597946167,"224":1.9745839834213257,"225":1.8639655113220215,"226":-1.0413258075714111,"227":-1.045164942741394,"228":-1.0916016101837158,"229":1.0543780326843262,"230":-0.722422182559967,"231":-1.60808527469635,"232":0.9986333250999451,"233":-0.39557626843452454,"234":2.0464513301849365,"235":-2.0976927280426025,"236":-3.289794683456421,"237":-1.8352696895599365,"238":-0.4559165835380554,"239":2.4968209266662598,"240":-1.0128144025802612,"241":-2.555243730545044,"242":0.5062543153762817,"243":0.004182322416454554,"244":2.408616065979004,"245":0.3446335792541504,"246":3.81620717048645,"247":-1.5561883449554443,"248":-0.1505037248134613,"249":-2.618878126144409,"250":-2.4979779720306396,"251":0.3247981667518616,"252":0.6884291172027588,"253":0.09948011487722397,"254":0.8385841846466064,"255":0.22765077650547028,"256":0.16884277760982513,"257":1.0659414529800415,"258":3.609095573425293,"259":-1.3058778047561646,"260":0.3965270519256592,"261":0.8822978734970093,"262":0.8681254982948303,"263":-0.9010381102561951,"264":-1.9882663488388062,"265":0.3772166669368744,"266":0.8971596360206604,"267":-3.0369856357574463,"268":1.681967854499817,"269":-0.19914521276950836,"270":3.1703426837921143,"271":-1.0523117780685425,"272":-1.8855736255645752,"273":2.6862666606903076,"274":2.2838852405548096,"275":-0.07411199808120728,"276":-1.87879478931427,"277":1.4994187355041504,"278":-0.5000998377799988,"279":-0.6613245606422424,"280":-1.9578423500061035,"281":1.188469648361206,"282":-1.0744993686676025,"283":-3.0584540367126465,"284":-0.7270570397377014,"285":3.579505681991577,"286":-2.8555972576141357,"287":-1.7438371181488037,"288":1.6807948350906372,"289":3.110185146331787,"290":0.8981541991233826,"291":-2.2550766468048096,"292":4.6669416427612305,"293":1.5915415287017822,"294":0.0582231767475605,"295":0.5662378072738647,"296":-0.29566022753715515,"297":0.07181201875209808,"298":-1.7126938104629517,"299":0.14858943223953247,"300":0.4538351595401764,"301":-1.9486756324768066,"302":-1.2841053009033203,"303":-0.38936281204223633,"304":4.376359462738037,"305":-0.2860969007015228,"306":0.6755117774009705,"307":-1.7923674583435059,"308":-1.8591949939727783,"309":-2.0606870651245117,"310":0.15790601074695587,"311":1.663476824760437,"312":-0.14011965692043304,"313":0.36632058024406433,"314":2.8364579677581787,"315":-0.3708544671535492,"316":-0.19625374674797058,"317":1.717140793800354,"318":1.4775885343551636,"319":1.2928510904312134,"320":1.9422775506973267,"321":-0.30936866998672485,"322":-2.0730905532836914,"323":2.101207971572876,"324":-1.283144235610962,"325":-0.08097843080759048,"326":-1.9346919059753418,"327":2.1305174827575684,"328":-0.6774982810020447,"329":-2.0132484436035156,"330":0.06821382790803909,"331":1.0509401559829712,"332":-1.7726504802703857,"333":0.603308916091919,"334":-0.6690659523010254,"335":1.8010185956954956,"336":2.1135201454162598,"337":1.5634576082229614,"338":-0.4429461658000946,"339":1.3561054468154907,"340":1.0681620836257935,"341":0.5555252432823181,"342":-0.9390264749526978,"343":-0.41166481375694275,"344":1.7355505228042603,"345":0.7543140649795532,"346":-0.8880274891853333,"347":-0.011897093616425991,"348":0.029531700536608696,"349":-1.457808494567871,"350":2.2412335872650146,"351":2.3869102001190186,"352":-0.44522276520729065,"353":0.33432886004447937,"354":0.7615916728973389,"355":-1.24899423122406,"356":-0.2551562488079071,"357":-1.3795490264892578,"358":-0.27898815274238586,"359":0.05875036492943764,"360":-1.6706876754760742,"361":0.14727367460727692,"362":-2.1155998706817627,"363":-0.03561020642518997,"364":0.8986137509346008,"365":-2.3170313835144043,"366":-0.20255647599697113,"367":2.7883846759796143,"368":3.1030821800231934,"369":-1.6312364339828491,"370":-0.05648317560553551,"371":-1.3142110109329224,"372":0.15958037972450256,"373":-1.8344649076461792,"374":-0.24715057015419006,"375":-0.172612726688385,"376":2.9973304271698,"377":0.03889990970492363,"378":0.2706138789653778,"379":3.485654830932617,"380":1.1854525804519653,"381":4.088488578796387,"382":-0.4731575846672058,"383":-0.9170051217079163,"384":0.20042766630649567,"385":-1.5155086517333984,"386":-3.1361289024353027,"387":-0.34426769614219666,"388":-1.543411135673523,"389":2.5227158069610596,"390":-3.2845399379730225,"391":1.2201082706451416,"392":0.60732102394104,"393":-2.5043861865997314,"394":-0.8013752102851868,"395":-3.796553373336792,"396":-1.8301584720611572,"397":2.075124979019165,"398":-1.7661242485046387,"399":1.8044034242630005,"400":0.7612612843513489,"401":2.0412893295288086,"402":-3.1815528869628906,"403":-0.38109591603279114,"404":-2.5286834239959717,"405":0.16721023619174957,"406":1.901504397392273,"407":1.2021082639694214,"408":-1.5865153074264526,"409":-2.1654014587402344,"410":0.08515226095914841,"411":-0.6948963403701782,"412":0.7783067226409912,"413":0.3305496573448181,"414":1.3170390129089355,"415":-3.411454439163208,"416":4.136089324951172,"417":0.44009941816329956,"418":0.2300143986940384,"419":-1.7979090213775635,"420":1.0889796018600464,"421":1.2847652435302734,"422":-0.4610581696033478,"423":0.24762462079524994,"424":-1.5188120603561401,"425":0.3688783347606659,"426":0.6537070870399475,"427":-1.6816744804382324,"428":0.9658682346343994,"429":2.7720389366149902,"430":1.4929172992706299,"431":-1.9681198596954346,"432":0.6806702613830566,"433":-0.8384275436401367,"434":6.026538848876953,"435":0.010809016413986683,"436":-0.03660869225859642,"437":-2.0698859691619873,"438":2.5876739025115967,"439":0.7998411059379578,"440":-0.6218713521957397,"441":-0.10575442761182785,"442":1.5637017488479614,"443":1.4394431114196777,"444":0.5937909483909607,"445":-0.5941855311393738,"446":2.530148983001709,"447":-1.268383264541626,"448":-3.6382663249969482,"449":0.11292862147092819,"450":-1.9547388553619385,"451":-3.3155579566955566,"452":0.24215534329414368,"453":0.5159105658531189,"454":1.9567614793777466,"455":-2.3128395080566406,"456":-3.5115089416503906,"457":0.0003818886470980942,"458":-1.2647254467010498,"459":-2.0899531841278076,"460":-0.44982925057411194,"461":-0.2603817582130432,"462":-1.6294300556182861,"463":-0.4975818395614624,"464":-1.969122290611267,"465":-1.2088755369186401,"466":-1.1737710237503052,"467":-2.3607115745544434,"468":0.9027032852172852,"469":-0.13515573740005493,"470":-2.749588966369629,"471":-2.353268623352051,"472":-1.7320395708084106,"473":-2.1090049743652344,"474":2.1349594593048096,"475":0.4092957377433777,"476":-0.032867077738046646,"477":-0.9031020402908325,"478":2.5103719234466553,"479":2.503014087677002,"480":1.2482185363769531,"481":-0.20384301245212555,"482":1.966051459312439,"483":1.186784029006958,"484":-0.9462871551513672,"485":0.030445260927081108,"486":0.5845119953155518,"487":-0.6428301334381104,"488":1.091724157333374,"489":-0.3415244519710541,"490":0.34004274010658264,"491":-0.40103840827941895,"492":2.2539360523223877,"493":0.7754994034767151,"494":1.4360926151275635,"495":1.788644790649414,"496":0.896312952041626,"497":0.13509714603424072,"498":-0.32022789120674133,"499":0.019608940929174423,"500":2.4834065437316895,"501":-1.7982227802276611,"502":-0.13416028022766113,"503":-1.6152774095535278,"504":-0.7226089239120483,"505":-1.1038496494293213,"506":2.5109779834747314,"507":-0.27074483036994934,"508":0.6312428116798401,"509":-0.3530738353729248,"510":-0.43981030583381653,"511":0.109500452876091,"512":-2.5260915756225586,"513":0.8376853466033936,"514":1.5060564279556274,"515":-0.09109258651733398,"516":1.8260042667388916,"517":-2.8345606327056885,"518":-1.7403656244277954,"519":-1.0830907821655273,"520":3.7064108848571777,"521":1.6500413417816162,"522":1.6911914348602295,"523":1.6654616594314575,"524":0.9577508568763733,"525":-0.7285135984420776,"526":1.6200960874557495,"527":-3.638697624206543,"528":-4.453797817230225,"529":-3.0825159549713135,"530":0.8121219873428345,"531":-0.7297441363334656,"532":-5.918300628662109,"533":1.0928964614868164,"534":-1.888706922531128,"535":-1.6331042051315308,"536":2.276026725769043,"537":2.0100953578948975,"538":-1.2949010133743286,"539":0.45566412806510925,"540":1.171682357788086,"541":2.756737470626831,"542":-1.1475803852081299,"543":-0.9852601289749146,"544":0.2952365279197693,"545":0.7819270491600037,"546":-2.7766082286834717,"547":1.2188385725021362,"548":0.688080370426178,"549":0.16177593171596527,"550":-2.401859760284424,"551":1.2195936441421509,"552":2.2317943572998047,"553":-1.5281871557235718,"554":0.561869204044342,"555":-0.9816974401473999,"556":-1.5373176336288452,"557":-2.1357336044311523,"558":1.4853237867355347,"559":-1.0460392236709595,"560":-1.4006937742233276,"561":3.412498712539673,"562":-0.6099421977996826,"563":-0.15888774394989014,"564":-0.4394550919532776,"565":-0.14626899361610413,"566":-1.871526837348938,"567":1.746583342552185,"568":3.467583179473877,"569":-3.305163621902466,"570":-1.6510287523269653,"571":1.7985857725143433,"572":-1.447784185409546,"573":0.2285691648721695,"574":-2.9222428798675537,"575":1.2327457666397095,"576":1.0984632968902588,"577":-2.277353286743164,"578":1.308732509613037,"579":-1.7343910932540894,"580":2.4169538021087646,"581":-1.50601327419281,"582":-1.6469684839248657,"583":1.6177608966827393,"584":3.6099977493286133,"585":2.917855978012085,"586":-1.9693739414215088,"587":-2.1275458335876465,"588":-0.6444644331932068,"589":-0.9218069911003113,"590":-0.6993616223335266,"591":-1.6876976490020752,"592":0.982560396194458,"593":0.2313803881406784,"594":1.8673192262649536,"595":3.749479293823242,"596":2.9311959743499756,"597":0.5646523833274841,"598":-1.8055391311645508,"599":-3.0578696727752686,"600":-4.619319915771484,"601":1.362169623374939,"602":-0.9985014200210571,"603":0.43748852610588074,"604":1.0084339380264282,"605":-2.278519868850708,"606":-1.6093182563781738,"607":-0.6033309102058411,"608":-0.38022273778915405,"609":-2.279353141784668,"610":-0.7965618371963501,"611":-0.7434598207473755,"612":-1.7805026769638062,"613":0.35945531725883484,"614":1.0101990699768066,"615":2.0977728366851807,"616":-0.9191396832466125,"617":-0.3035445511341095,"618":0.3496452867984772,"619":0.6066467761993408}},"forgetHidden":{"rows":20,"columns":20,"weights":{"0":-1.363209843635559,"1":3.0629348754882812,"2":0.3564143180847168,"3":2.371002197265625,"4":1.1612299680709839,"5":-0.8441392779350281,"6":0.6557587385177612,"7":0.4252680540084839,"8":-2.9120092391967773,"9":2.0155680179595947,"10":-0.8220166563987732,"11":-1.2448736429214478,"12":0.5535143613815308,"13":-2.1704087257385254,"14":-1.7255582809448242,"15":-1.0547269582748413,"16":-1.4129862785339355,"17":1.6079071760177612,"18":1.5102441310882568,"19":-1.3404722213745117,"20":5.009481906890869,"21":0.9655762314796448,"22":-0.20678094029426575,"23":3.048892021179199,"24":1.3657649755477905,"25":1.5832771062850952,"26":3.1486358642578125,"27":1.3669483661651611,"28":-1.152496099472046,"29":2.6417152881622314,"30":0.7701720595359802,"31":0.035899240523576736,"32":3.358438730239868,"33":1.402046799659729,"34":1.3711342811584473,"35":0.8734598755836487,"36":-1.7470228672027588,"37":5.453018665313721,"38":0.2519157826900482,"39":3.2325778007507324,"40":-0.6838496923446655,"41":-1.8920048475265503,"42":-0.024341171607375145,"43":2.577237844467163,"44":2.533364772796631,"45":0.42661452293395996,"46":1.7921063899993896,"47":2.369389772415161,"48":-0.42120179533958435,"49":0.03352295234799385,"50":1.3636350631713867,"51":-2.8435328006744385,"52":1.566001057624817,"53":2.4994537830352783,"54":0.23418590426445007,"55":0.37918561697006226,"56":0.20857714116573334,"57":-0.4365553557872772,"58":-0.3788066804409027,"59":2.289010763168335,"60":0.8994496464729309,"61":-2.0203192234039307,"62":-2.440056324005127,"63":0.08299870789051056,"64":-0.36729004979133606,"65":2.831794261932373,"66":5.1202921867370605,"67":0.3258686661720276,"68":-0.6056897640228271,"69":1.5039008855819702,"70":1.1039235591888428,"71":-0.31354597210884094,"72":-0.600703239440918,"73":0.24076718091964722,"74":-0.13122333586215973,"75":-0.259669691324234,"76":0.1117866188287735,"77":-1.547081470489502,"78":-2.533827543258667,"79":-0.5270894765853882,"80":-1.5213730335235596,"81":2.131091356277466,"82":-0.8305623531341553,"83":-1.1921308040618896,"84":-0.0019222160335630178,"85":-1.9871320724487305,"86":0.781359851360321,"87":-1.03109610080719,"88":-0.3681258261203766,"89":1.4826838970184326,"90":-3.193524122238159,"91":-1.9441099166870117,"92":1.19304621219635,"93":-0.16808193922042847,"94":-2.0363364219665527,"95":-0.7887447476387024,"96":0.4254920184612274,"97":1.8476345539093018,"98":0.7371304631233215,"99":1.2968215942382812,"100":0.7628898620605469,"101":-0.4402211308479309,"102":1.6479790210723877,"103":-0.6114463210105896,"104":-0.5062130093574524,"105":0.608029305934906,"106":0.0619601346552372,"107":0.2775939106941223,"108":0.4613347053527832,"109":1.834093451499939,"110":-0.30290013551712036,"111":1.6077195405960083,"112":0.4590834081172943,"113":3.5424857139587402,"114":-0.4940555989742279,"115":-1.3638756275177002,"116":-2.3220343589782715,"117":-2.2925949096679688,"118":-1.8603490591049194,"119":-3.3449859619140625,"120":-0.9037914872169495,"121":0.17477448284626007,"122":1.5473054647445679,"123":1.7788200378417969,"124":-2.5516984462738037,"125":0.3573000133037567,"126":0.6986443400382996,"127":0.9353595972061157,"128":-0.22172242403030396,"129":-1.4933300018310547,"130":4.765552997589111,"131":2.1464357376098633,"132":-0.12415476888418198,"133":1.320672631263733,"134":-1.8488386869430542,"135":4.978889465332031,"136":-3.075227975845337,"137":4.152490139007568,"138":0.44938361644744873,"139":5.2820563316345215,"140":1.1689938306808472,"141":-2.0483603477478027,"142":-1.507696509361267,"143":0.844092845916748,"144":-0.6259284019470215,"145":-0.2282012701034546,"146":2.931373119354248,"147":2.025130033493042,"148":0.6334074139595032,"149":-0.58511883020401,"150":-0.28689900040626526,"151":-0.33310839533805847,"152":1.5909624099731445,"153":-0.006585035473108292,"154":1.5468770265579224,"155":-0.23719361424446106,"156":-2.0112133026123047,"157":0.32382866740226746,"158":0.9339235424995422,"159":1.768520474433899,"160":-0.5275512933731079,"161":1.4129433631896973,"162":0.18966224789619446,"163":-0.7506243586540222,"164":0.09088227897882462,"165":1.5317461490631104,"166":1.6724555492401123,"167":-0.20391160249710083,"168":-0.913037896156311,"169":1.0951263904571533,"170":0.1931840181350708,"171":-0.6942874789237976,"172":1.5310487747192383,"173":0.9589378237724304,"174":-2.6231908798217773,"175":-0.7977970242500305,"176":-0.6456612348556519,"177":2.2040934562683105,"178":0.4554722011089325,"179":0.4225893020629883,"180":10.992911338806152,"181":-2.6019814014434814,"182":4.689633846282959,"183":2.278421640396118,"184":-0.08847561478614807,"185":-2.9743432998657227,"186":-0.25169190764427185,"187":-3.590348958969116,"188":1.9832972288131714,"189":1.0812777280807495,"190":-2.1074931621551514,"191":-1.100628137588501,"192":-1.248356819152832,"193":-0.2851497232913971,"194":-0.8261535167694092,"195":1.5553361177444458,"196":0.05163157731294632,"197":-1.6024143695831299,"198":-0.3714178800582886,"199":3.600100040435791,"200":3.0716309547424316,"201":0.8774233460426331,"202":-1.915734887123108,"203":1.3784443140029907,"204":2.356522560119629,"205":1.540609359741211,"206":1.4531664848327637,"207":-0.9693544507026672,"208":2.0365641117095947,"209":4.958317756652832,"210":1.9910482168197632,"211":-0.5009062886238098,"212":2.226886510848999,"213":-2.646883487701416,"214":1.0385109186172485,"215":1.342301607131958,"216":-0.06914170831441879,"217":-2.2328147888183594,"218":0.9197647571563721,"219":0.7868260741233826,"220":-0.15503732860088348,"221":0.42647814750671387,"222":1.2454367876052856,"223":-0.9863154292106628,"224":-0.09832129627466202,"225":0.6639654636383057,"226":0.08502074331045151,"227":-1.1592472791671753,"228":1.1169795989990234,"229":-1.0575311183929443,"230":0.7698066234588623,"231":0.11773274838924408,"232":0.5539184808731079,"233":-1.9148355722427368,"234":-0.6556320786476135,"235":0.05591610446572304,"236":1.4347422122955322,"237":0.6020075082778931,"238":-1.1111112833023071,"239":-1.126761555671692,"240":-1.5416440963745117,"241":2.43626070022583,"242":1.8180322647094727,"243":-1.6212328672409058,"244":0.799282968044281,"245":-1.403380036354065,"246":3.364370584487915,"247":-0.2860088050365448,"248":-1.2903287410736084,"249":1.058908224105835,"250":-1.1874630451202393,"251":0.5724974274635315,"252":2.3387856483459473,"253":2.3092055320739746,"254":-5.700054168701172,"255":0.42667508125305176,"256":4.526453495025635,"257":0.2719382047653198,"258":1.285584807395935,"259":-2.3567707538604736,"260":-1.2891876697540283,"261":1.801325798034668,"262":0.6344985365867615,"263":0.8388160467147827,"264":2.3518474102020264,"265":-0.3882235288619995,"266":1.162341594696045,"267":1.117900013923645,"268":0.36957430839538574,"269":1.2637321949005127,"270":-1.8453235626220703,"271":-0.12859584391117096,"272":0.9438716769218445,"273":-0.6238497495651245,"274":-0.8588289618492126,"275":-2.1282198429107666,"276":-0.15831023454666138,"277":0.6168078184127808,"278":0.16703367233276367,"279":-0.7901334166526794,"280":-0.5059523582458496,"281":2.0119545459747314,"282":-0.43424373865127563,"283":-0.8216758370399475,"284":0.31872695684432983,"285":0.2509682774543762,"286":0.6338737607002258,"287":1.9866408109664917,"288":-1.014331340789795,"289":1.6264054775238037,"290":-1.1045430898666382,"291":-0.5800427198410034,"292":-2.8175480365753174,"293":1.2260223627090454,"294":0.06885955482721329,"295":-0.34371843934059143,"296":0.877079963684082,"297":1.4207417964935303,"298":2.052231788635254,"299":0.6398302316665649,"300":-1.9752482175827026,"301":-0.6680886149406433,"302":0.8292763233184814,"303":1.980906367301941,"304":1.100051999092102,"305":-0.838620662689209,"306":-1.6542552709579468,"307":-0.019504781812429428,"308":3.011249303817749,"309":-1.0234260559082031,"310":-3.252676010131836,"311":0.5558576583862305,"312":1.7792725563049316,"313":-0.11458838731050491,"314":-2.8478362560272217,"315":1.306665062904358,"316":0.028952019289135933,"317":1.112087368965149,"318":1.1456278562545776,"319":-0.3673655092716217,"320":-0.2693595588207245,"321":-0.8176344037055969,"322":-5.939797878265381,"323":0.336862176656723,"324":1.0090575218200684,"325":-0.09614735841751099,"326":-3.6317265033721924,"327":-3.845883846282959,"328":0.6992587447166443,"329":-4.03775691986084,"330":1.125808596611023,"331":-0.4420988857746124,"332":2.1901121139526367,"333":0.794084906578064,"334":0.28326353430747986,"335":-2.0703630447387695,"336":-0.021956268697977066,"337":-1.4821594953536987,"338":0.9954543113708496,"339":1.535237193107605,"340":6.674988746643066,"341":-0.4801536500453949,"342":-3.1550183296203613,"343":-0.3065483868122101,"344":-2.883230686187744,"345":0.37309667468070984,"346":4.257055759429932,"347":4.662228584289551,"348":4.356607437133789,"349":1.3125672340393066,"350":3.7588484287261963,"351":-1.7397854328155518,"352":-0.9272187352180481,"353":-0.16463813185691833,"354":4.188312530517578,"355":1.0775209665298462,"356":-0.3772071599960327,"357":-4.71959924697876,"358":1.0673794746398926,"359":-1.1241858005523682,"360":-1.8951857089996338,"361":2.7468464374542236,"362":-0.22417078912258148,"363":-2.454200506210327,"364":-1.7909293174743652,"365":-0.4640636444091797,"366":-0.8939962387084961,"367":1.467386245727539,"368":-2.659764528274536,"369":1.922898292541504,"370":-1.2901341915130615,"371":0.6423140168190002,"372":1.7381411790847778,"373":2.367243766784668,"374":0.43629753589630127,"375":0.6391732692718506,"376":-2.5431854724884033,"377":2.696601152420044,"378":-3.5569114685058594,"379":-0.702150821685791,"380":0.8216726183891296,"381":-2.1953630447387695,"382":-0.1538635790348053,"383":-1.829923152923584,"384":0.5099499821662903,"385":0.6609287858009338,"386":-1.987154483795166,"387":-0.24969477951526642,"388":2.395756959915161,"389":-4.121347427368164,"390":0.29493021965026855,"391":-0.09837860614061356,"392":0.36068668961524963,"393":1.656059741973877,"394":4.368240833282471,"395":-0.19867968559265137,"396":-6.51859188079834,"397":-0.16647811233997345,"398":-1.2701990604400635,"399":0.33706989884376526}},"forgetBias":{"rows":20,"columns":1,"weights":{"0":0,"1":0,"2":0,"3":0,"4":0,"5":0,"6":0,"7":0,"8":0,"9":0,"10":0,"11":0,"12":0,"13":0,"14":0,"15":0,"16":0,"17":0,"18":0,"19":0}},"outputMatrix":{"rows":20,"columns":31,"weights":{"0":-1.7494875192642212,"1":-0.29965832829475403,"2":0.5450901389122009,"3":0.05787288770079613,"4":3.8865225315093994,"5":-0.15094828605651855,"6":-1.692284345626831,"7":-2.161557912826538,"8":-0.17940206825733185,"9":0.06532102078199387,"10":0.3838435411453247,"11":-1.2083590030670166,"12":2.283674716949463,"13":-2.1155240535736084,"14":-0.8492181897163391,"15":1.0689008235931396,"16":-2.12011981010437,"17":-1.9897170066833496,"18":-0.45823782682418823,"19":-0.7872986793518066,"20":3.7413840293884277,"21":0.34443846344947815,"22":2.053231954574585,"23":0.03891724348068237,"24":-1.1474411487579346,"25":-2.885986328125,"26":1.095782995223999,"27":1.8709665536880493,"28":-4.0822930335998535,"29":-1.0336252450942993,"30":0.3995112180709839,"31":-1.746408462524414,"32":-3.2536206245422363,"33":1.368719220161438,"34":-0.4466680884361267,"35":0.3293052613735199,"36":-0.44967323541641235,"37":-0.3297088146209717,"38":-1.0639556646347046,"39":0.44170936942100525,"40":2.337437629699707,"41":2.71842360496521,"42":0.33771705627441406,"43":2.1451549530029297,"44":-0.22578071057796478,"45":1.2400306463241577,"46":2.2685937881469727,"47":-2.1755013465881348,"48":-0.6640214323997498,"49":-0.34937894344329834,"50":-1.7126059532165527,"51":3.006880044937134,"52":1.6554290056228638,"53":1.3601114749908447,"54":-0.30976030230522156,"55":-4.839786052703857,"56":-1.9832308292388916,"57":2.0240859985351562,"58":-0.3824969232082367,"59":-5.371294021606445,"60":2.3213846683502197,"61":0.6573997735977173,"62":-1.5755304098129272,"63":1.6329481601715088,"64":-1.4666597843170166,"65":1.22777259349823,"66":-0.9518848061561584,"67":-1.0903831720352173,"68":-0.38940414786338806,"69":1.1163032054901123,"70":-0.4515461325645447,"71":0.6808474063873291,"72":-0.3546835780143738,"73":0.0005199572769924998,"74":0.5867271423339844,"75":1.0046180486679077,"76":0.3678359389305115,"77":0.6214490532875061,"78":0.1863362044095993,"79":1.1707510948181152,"80":0.6155849695205688,"81":-1.1761943101882935,"82":1.1825772523880005,"83":1.8898189067840576,"84":1.7706331014633179,"85":-0.5052363872528076,"86":0.43598341941833496,"87":-5.142338275909424,"88":4.284849643707275,"89":1.6046382188796997,"90":5.182727336883545,"91":1.5763429403305054,"92":1.0719897747039795,"93":1.2789530754089355,"94":0.435115784406662,"95":0.9709694385528564,"96":0.17356829345226288,"97":0.30229705572128296,"98":-0.08566395193338394,"99":1.0088447332382202,"100":-0.061223238706588745,"101":-0.5420780777931213,"102":2.5662178993225098,"103":0.18287646770477295,"104":0.7322731614112854,"105":3.208256483078003,"106":2.7089128494262695,"107":0.7630153894424438,"108":-0.8341657519340515,"109":1.9567445516586304,"110":-2.634380340576172,"111":1.6160451173782349,"112":-0.26236492395401,"113":-1.7672768831253052,"114":1.923477053642273,"115":-0.9642560482025146,"116":-0.5460301637649536,"117":-0.17068515717983246,"118":0.2829572260379791,"119":-0.9497895240783691,"120":-0.6220816373825073,"121":2.054462194442749,"122":-1.4963511228561401,"123":0.9463658928871155,"124":0.9745598435401917,"125":2.1851580142974854,"126":-1.4671887159347534,"127":-0.10469523072242737,"128":-1.0345823764801025,"129":0.9239426255226135,"130":0.40544360876083374,"131":2.0370101928710938,"132":-0.43202704191207886,"133":0.3304636776447296,"134":0.42077571153640747,"135":0.8060635924339294,"136":0.41031748056411743,"137":-1.302882432937622,"138":-4.142261981964111,"139":-3.7577028274536133,"140":-0.12251544743776321,"141":-1.844478726387024,"142":-3.1314761638641357,"143":0.7113077044487,"144":0.7358973026275635,"145":-0.18294313549995422,"146":0.17516440153121948,"147":-1.591817855834961,"148":2.123809814453125,"149":-0.029144147410988808,"150":0.7057759761810303,"151":0.9486637711524963,"152":0.9590900540351868,"153":-0.3745328187942505,"154":0.030939843505620956,"155":-2.4453978538513184,"156":-0.3798784613609314,"157":-0.7604568600654602,"158":3.033555507659912,"159":-3.901627540588379,"160":-1.5239694118499756,"161":-0.9151567220687866,"162":-2.778501033782959,"163":-0.28241631388664246,"164":1.1542571783065796,"165":-1.2123380899429321,"166":0.4422920048236847,"167":1.9754868745803833,"168":-0.2638321816921234,"169":2.3929357528686523,"170":-1.1142386198043823,"171":-2.2013933658599854,"172":1.1027392148971558,"173":0.4157223403453827,"174":-0.39253437519073486,"175":1.1142901182174683,"176":-0.3214452862739563,"177":-0.6669379472732544,"178":1.7371233701705933,"179":0.9878962635993958,"180":-1.3356120586395264,"181":0.10572968423366547,"182":0.437453955411911,"183":1.6788012981414795,"184":-0.6506573557853699,"185":-0.612041711807251,"186":-0.35557860136032104,"187":-0.02877911739051342,"188":-0.551311194896698,"189":2.1676998138427734,"190":1.0427719354629517,"191":-0.5508347749710083,"192":-1.3438198566436768,"193":0.09656547755002975,"194":-0.8155317306518555,"195":1.5047301054000854,"196":1.4359338283538818,"197":0.7284165024757385,"198":-1.9539244174957275,"199":2.4080424308776855,"200":2.9436793327331543,"201":1.0400482416152954,"202":-1.922497034072876,"203":0.620422899723053,"204":2.305133581161499,"205":-1.0127032995224,"206":0.43645012378692627,"207":0.9944669604301453,"208":3.3439855575561523,"209":1.321646809577942,"210":-2.0834479331970215,"211":-0.7982781529426575,"212":3.81162428855896,"213":0.7001670002937317,"214":-1.3913297653198242,"215":-0.4200526177883148,"216":0.848551332950592,"217":0.029073260724544525,"218":1.2565332651138306,"219":5.149872779846191,"220":-2.9005584716796875,"221":1.7559089660644531,"222":1.412309169769287,"223":-0.7161902189254761,"224":0.0014940601540729403,"225":1.8172718286514282,"226":-1.9360051155090332,"227":1.581528902053833,"228":3.9605042934417725,"229":0.964654266834259,"230":0.6440222859382629,"231":-3.224012851715088,"232":3.9896395206451416,"233":0.587061882019043,"234":2.2965540885925293,"235":-1.4591352939605713,"236":0.2793932855129242,"237":-0.40385183691978455,"238":1.0156339406967163,"239":1.040348768234253,"240":2.2924423217773438,"241":-1.6022719144821167,"242":-0.7248826622962952,"243":-0.30977004766464233,"244":-1.6725338697433472,"245":-0.8715663552284241,"246":-0.7114006280899048,"247":-0.38181647658348083,"248":0.8287931084632874,"249":0.6635296940803528,"250":2.3174283504486084,"251":0.3972100615501404,"252":0.6857007741928101,"253":-0.407502144575119,"254":-1.4069947004318237,"255":-0.43956056237220764,"256":-0.6931241750717163,"257":1.1097863912582397,"258":2.0627503395080566,"259":1.950597882270813,"260":1.3660500049591064,"261":0.05159061402082443,"262":0.16522124409675598,"263":-0.03934919089078903,"264":-3.5708093643188477,"265":-0.3609897196292877,"266":1.560236930847168,"267":2.53460431098938,"268":4.099471092224121,"269":0.26644912362098694,"270":0.44828158617019653,"271":-0.6803738474845886,"272":-0.19117029011249542,"273":-1.6463111639022827,"274":0.9008684754371643,"275":2.264629602432251,"276":-0.6773586869239807,"277":-3.3037335872650146,"278":0.09436476975679398,"279":-1.3121578693389893,"280":-5.015294075012207,"281":-1.2410955429077148,"282":1.4842346906661987,"283":0.7396634221076965,"284":1.1786593198776245,"285":0.6930782198905945,"286":-1.181257724761963,"287":2.4663259983062744,"288":-2.6036674976348877,"289":-1.1149826049804688,"290":-1.6472570896148682,"291":-0.5952513217926025,"292":1.4931001663208008,"293":0.973109245300293,"294":0.9549097418785095,"295":-1.5581525564193726,"296":-1.4128506183624268,"297":1.0576369762420654,"298":-0.010008507408201694,"299":-0.2647462487220764,"300":1.1877208948135376,"301":2.1522815227508545,"302":-0.87894606590271,"303":0.986562967300415,"304":1.7874504327774048,"305":3.3839962482452393,"306":0.29758232831954956,"307":-2.4913930892944336,"308":0.4282495975494385,"309":-0.8279845118522644,"310":-0.5105557441711426,"311":1.869797945022583,"312":1.827021598815918,"313":-2.304950475692749,"314":-0.8971915245056152,"315":-2.17852520942688,"316":-1.8210755586624146,"317":-0.9677469730377197,"318":-0.5109014511108398,"319":0.45750513672828674,"320":-0.4750783443450928,"321":3.2267725467681885,"322":0.3800572156906128,"323":-0.950241208076477,"324":-1.769932508468628,"325":1.8614944219589233,"326":1.020972728729248,"327":-0.33012640476226807,"328":-0.03545147553086281,"329":1.8089736700057983,"330":3.111602544784546,"331":-1.180545449256897,"332":-2.478562116622925,"333":0.06259830296039581,"334":1.6627744436264038,"335":-1.158271312713623,"336":-1.8245213031768799,"337":1.0957180261611938,"338":-0.20250459015369415,"339":-1.3174232244491577,"340":-0.2935849130153656,"341":-1.397728681564331,"342":0.46108323335647583,"343":-0.05351840704679489,"344":2.6864564418792725,"345":2.627793073654175,"346":0.0032271232921630144,"347":-1.3550752401351929,"348":-0.9983896613121033,"349":0.46350279450416565,"350":1.6133875846862793,"351":1.7409886121749878,"352":1.2854760885238647,"353":1.8892180919647217,"354":1.9624720811843872,"355":-0.9099941849708557,"356":-1.3403959274291992,"357":-4.014327049255371,"358":1.450285792350769,"359":-0.22232303023338318,"360":-0.3130854070186615,"361":1.1760352849960327,"362":-1.4466464519500732,"363":0.331127405166626,"364":0.9273560643196106,"365":0.5361328721046448,"366":0.2982562780380249,"367":0.8716670274734497,"368":2.25866961479187,"369":-0.7898960709571838,"370":1.7323135137557983,"371":0.8540078401565552,"372":1.644353985786438,"373":-1.5591312646865845,"374":-3.1182711124420166,"375":4.212046146392822,"376":-0.46908703446388245,"377":-1.5434496402740479,"378":-1.4421422481536865,"379":1.7879952192306519,"380":-0.26208215951919556,"381":-0.22681289911270142,"382":3.153372049331665,"383":-1.48586905002594,"384":3.5523855686187744,"385":1.3013396263122559,"386":2.0241410732269287,"387":0.16453367471694946,"388":-1.3593684434890747,"389":-0.7480100393295288,"390":1.1118760108947754,"391":0.10428512096405029,"392":1.2599608898162842,"393":-0.2892608642578125,"394":1.3229882717132568,"395":-1.3736234903335571,"396":1.1166366338729858,"397":2.0757784843444824,"398":-0.8616979718208313,"399":0.5329838991165161,"400":-2.5341076850891113,"401":-1.526822805404663,"402":-1.225847840309143,"403":1.3700305223464966,"404":0.6965213418006897,"405":1.1502398252487183,"406":1.2243353128433228,"407":-0.12342232465744019,"408":1.6721638441085815,"409":-0.9810357093811035,"410":-2.2948780059814453,"411":0.03007625602185726,"412":1.2470206022262573,"413":-0.5982365608215332,"414":0.8370218873023987,"415":3.9132955074310303,"416":-1.9455327987670898,"417":-0.7431869506835938,"418":-0.48504140973091125,"419":-1.3667525053024292,"420":0.8542550206184387,"421":2.3376572132110596,"422":3.9011385440826416,"423":2.964749813079834,"424":1.8788549900054932,"425":-1.2134411334991455,"426":-2.815140962600708,"427":2.734882354736328,"428":0.5744692087173462,"429":-1.4598661661148071,"430":-0.29338914155960083,"431":0.8512144684791565,"432":-0.32045978307724,"433":4.65631628036499,"434":0.9014936089515686,"435":1.4719562530517578,"436":1.5798704624176025,"437":0.743667721748352,"438":0.7322409749031067,"439":2.68501353263855,"440":2.0090715885162354,"441":2.6300783157348633,"442":2.135267734527588,"443":-0.43302688002586365,"444":-2.5911951065063477,"445":-1.0248148441314697,"446":-0.3364069163799286,"447":-0.9195823073387146,"448":-2.0920584201812744,"449":0.6276748776435852,"450":-1.316889762878418,"451":3.217947244644165,"452":-1.696373462677002,"453":-0.6370488405227661,"454":-1.1502467393875122,"455":0.5001802444458008,"456":0.7031491994857788,"457":-1.2150331735610962,"458":-2.2917606830596924,"459":0.6774083971977234,"460":0.5105813145637512,"461":-1.630458116531372,"462":1.2481697797775269,"463":-0.3007124364376068,"464":-0.6311005353927612,"465":2.643615245819092,"466":-0.9506638646125793,"467":2.1545515060424805,"468":-1.9231775999069214,"469":1.5755314826965332,"470":-2.3622076511383057,"471":-3.4897124767303467,"472":1.0088412761688232,"473":-2.0099611282348633,"474":-1.0067487955093384,"475":-1.2263938188552856,"476":1.208501935005188,"477":1.575704574584961,"478":-1.439671277999878,"479":-2.4556939601898193,"480":-0.3370203673839569,"481":-1.408630609512329,"482":1.5694619417190552,"483":-2.785376787185669,"484":-0.8189298510551453,"485":1.2147420644760132,"486":-2.057694673538208,"487":0.9966977834701538,"488":0.8534600138664246,"489":1.8411144018173218,"490":-2.022972822189331,"491":-3.352088451385498,"492":0.8209859728813171,"493":0.9022683501243591,"494":0.3869425058364868,"495":0.5631864666938782,"496":-0.9781234264373779,"497":-2.2745304107666016,"498":0.6085889935493469,"499":-0.5094653964042664,"500":0.19963990151882172,"501":3.8561646938323975,"502":0.7652685642242432,"503":-2.362531900405884,"504":2.7692489624023438,"505":0.2787007987499237,"506":2.050706386566162,"507":-0.19971251487731934,"508":1.1072707176208496,"509":0.6397734880447388,"510":1.9149483442306519,"511":-2.437831401824951,"512":-0.5150632262229919,"513":-0.6840819716453552,"514":-0.7445755004882812,"515":-1.7602698802947998,"516":-2.0538506507873535,"517":-0.7361339926719666,"518":0.09423929452896118,"519":-0.938051164150238,"520":-1.567294716835022,"521":1.1252343654632568,"522":3.4165053367614746,"523":-1.236521601676941,"524":-1.6035265922546387,"525":-0.9660738706588745,"526":-1.5979483127593994,"527":0.025784406810998917,"528":-0.6921420097351074,"529":-0.061780232936143875,"530":-0.0029302227776497602,"531":-1.2205514907836914,"532":-0.42858371138572693,"533":1.323850393295288,"534":0.614863932132721,"535":-1.7949138879776,"536":-0.9786936044692993,"537":-0.13320475816726685,"538":-0.4126040041446686,"539":-1.1365793943405151,"540":0.5918434262275696,"541":2.3363494873046875,"542":1.5450440645217896,"543":0.5477725267410278,"544":0.32478004693984985,"545":1.5615124702453613,"546":-2.7657270431518555,"547":0.0684601441025734,"548":-1.669507384300232,"549":0.19324637949466705,"550":1.390531301498413,"551":1.317360758781433,"552":2.431861162185669,"553":1.160482406616211,"554":0.3101622760295868,"555":-0.3037576973438263,"556":1.6501665115356445,"557":-1.1155163049697876,"558":2.6088433265686035,"559":-3.086398124694824,"560":1.3657044172286987,"561":-1.4570918083190918,"562":-0.5787321329116821,"563":-1.645089864730835,"564":1.8235081434249878,"565":-1.7881512641906738,"566":-1.5043010711669922,"567":-0.7052467465400696,"568":0.4701847732067108,"569":0.5164130330085754,"570":0.24800026416778564,"571":1.659346580505371,"572":5.110685348510742,"573":3.9579663276672363,"574":0.3524115979671478,"575":0.9705973267555237,"576":0.004813648294657469,"577":-1.3549273014068604,"578":-0.4424780011177063,"579":-0.7600685358047485,"580":0.6420655846595764,"581":-0.07469821721315384,"582":-0.07461417466402054,"583":1.028244137763977,"584":-2.887449264526367,"585":-0.7480930089950562,"586":-5.061831474304199,"587":0.6972417831420898,"588":-1.9361704587936401,"589":0.319890558719635,"590":0.8234868049621582,"591":-1.4604727029800415,"592":0.2617324888706207,"593":2.53281307220459,"594":1.7902698516845703,"595":-0.49919041991233826,"596":0.22326022386550903,"597":-0.5449290871620178,"598":0.3466828465461731,"599":2.094564437866211,"600":-1.5570521354675293,"601":1.2155698537826538,"602":-0.31617769598960876,"603":-0.4653298258781433,"604":-0.8293673396110535,"605":-2.5541069507598877,"606":3.5559723377227783,"607":-1.3940069675445557,"608":-1.846896767616272,"609":-0.5360760688781738,"610":-0.7296559810638428,"611":-0.6477249264717102,"612":-2.569194793701172,"613":0.2596936821937561,"614":-0.4066098630428314,"615":1.6360830068588257,"616":3.3582088947296143,"617":0.3918135464191437,"618":3.323045015335083,"619":1.0992176532745361}},"outputHidden":{"rows":20,"columns":20,"weights":{"0":2.135767698287964,"1":-0.4887576401233673,"2":-2.2854578495025635,"3":-1.5125941038131714,"4":3.808756113052368,"5":2.5627682209014893,"6":-1.4464327096939087,"7":-2.0541956424713135,"8":0.86777263879776,"9":-1.1530719995498657,"10":0.4990231990814209,"11":3.0181190967559814,"12":1.9407235383987427,"13":-0.043634794652462006,"14":0.8220650553703308,"15":4.006336688995361,"16":2.469759702682495,"17":0.5302248001098633,"18":-0.6580948233604431,"19":2.990236759185791,"20":-2.436894178390503,"21":1.0948885679244995,"22":0.20292262732982635,"23":-0.4361339807510376,"24":2.7763872146606445,"25":-0.4378565549850464,"26":1.7170751094818115,"27":0.5444818735122681,"28":-0.49721765518188477,"29":-0.7479341626167297,"30":1.2785576581954956,"31":-2.124520778656006,"32":2.9918339252471924,"33":-0.020465727895498276,"34":-0.8644827604293823,"35":-6.042881965637207,"36":-1.309739112854004,"37":-4.239093780517578,"38":0.8007076978683472,"39":2.7453575134277344,"40":-0.07914002239704132,"41":2.556323289871216,"42":1.521777868270874,"43":0.6810470223426819,"44":-1.9198631048202515,"45":1.4442999362945557,"46":-0.1478516310453415,"47":2.1630470752716064,"48":0.8604214787483215,"49":-0.23375901579856873,"50":-1.7775896787643433,"51":2.6454570293426514,"52":-1.4800044298171997,"53":1.2344253063201904,"54":-0.050100717693567276,"55":1.0710151195526123,"56":0.12190708518028259,"57":-0.06433401256799698,"58":1.2442899942398071,"59":-1.3367291688919067,"60":9.466413497924805,"61":-3.5130109786987305,"62":1.4524857997894287,"63":0.5696773529052734,"64":2.9169766902923584,"65":4.377341270446777,"66":-1.9973852634429932,"67":2.94958758354187,"68":2.7431554794311523,"69":-1.5416637659072876,"70":4.826901912689209,"71":-3.152515411376953,"72":0.9653980731964111,"73":5.986957550048828,"74":6.778086185455322,"75":1.6061763763427734,"76":0.8056352138519287,"77":0.3839103579521179,"78":-3.7793054580688477,"79":3.582521677017212,"80":0.0833297148346901,"81":0.7584985494613647,"82":2.9026007652282715,"83":5.589877128601074,"84":-2.847142219543457,"85":-6.276732921600342,"86":0.3800239861011505,"87":5.435544013977051,"88":-0.7732706069946289,"89":0.2344949096441269,"90":-2.474609613418579,"91":1.7576549053192139,"92":-2.866065502166748,"93":-0.1589956134557724,"94":1.646164059638977,"95":-2.3158257007598877,"96":-5.884234428405762,"97":0.6219862699508667,"98":0.6749865412712097,"99":0.30345386266708374,"100":2.8777384757995605,"101":-0.2043336033821106,"102":-4.268901824951172,"103":0.5425840020179749,"104":-3.639411687850952,"105":0.12789030373096466,"106":-0.8513059616088867,"107":-5.027113437652588,"108":-0.17973147332668304,"109":-5.0054450035095215,"110":0.2956555485725403,"111":-1.0166233777999878,"112":0.7372521758079529,"113":1.1215754747390747,"114":2.9645426273345947,"115":1.0775350332260132,"116":-5.287491321563721,"117":-0.4940749406814575,"118":1.0147629976272583,"119":-5.543692588806152,"120":-2.871218681335449,"121":-0.8695889115333557,"122":-3.20439076423645,"123":-1.162038803100586,"124":2.3617985248565674,"125":1.2650957107543945,"126":-2.5987331867218018,"127":6.434895992279053,"128":-2.212486982345581,"129":-1.8299729824066162,"130":-1.3434375524520874,"131":1.2325950860977173,"132":2.9612386226654053,"133":-0.9529399275779724,"134":-3.824582576751709,"135":-0.8723430633544922,"136":0.698456883430481,"137":-2.87147855758667,"138":2.965838670730591,"139":7.038585662841797,"140":-2.9360334873199463,"141":1.997187614440918,"142":-2.955679178237915,"143":-2.381258010864258,"144":5.627291679382324,"145":-3.663553476333618,"146":0.07433181256055832,"147":0.413493812084198,"148":1.1987323760986328,"149":0.9505329132080078,"150":-0.4057523012161255,"151":2.2967686653137207,"152":2.1029016971588135,"153":3.9923064708709717,"154":-1.8007599115371704,"155":-1.9245091676712036,"156":-3.8668019771575928,"157":-3.3417415618896484,"158":4.264780521392822,"159":-0.3561945855617523,"160":5.88776969909668,"161":-3.5685768127441406,"162":-5.090884685516357,"163":-1.2863447666168213,"164":-1.2938183546066284,"165":0.7633646130561829,"166":-1.1890902519226074,"167":6.039307594299316,"168":4.232005596160889,"169":-3.4374773502349854,"170":1.4758877754211426,"171":-0.6005470752716064,"172":-0.9862853288650513,"173":-1.5667812824249268,"174":4.8727827072143555,"175":-4.102399826049805,"176":1.0446736812591553,"177":0.7994776964187622,"178":-0.6934829950332642,"179":0.9823348522186279,"180":4.172715663909912,"181":-5.696011543273926,"182":-2.835980176925659,"183":-2.700871706008911,"184":-0.059114500880241394,"185":-4.335721492767334,"186":3.0417728424072266,"187":2.114527463912964,"188":0.894609808921814,"189":-7.534217357635498,"190":-2.4679484367370605,"191":-4.504865646362305,"192":2.8000235557556152,"193":-2.6033408641815186,"194":5.541508197784424,"195":-3.638972282409668,"196":5.165199279785156,"197":-0.16556915640830994,"198":-1.7176597118377686,"199":5.984517574310303,"200":-5.0574049949646,"201":2.00888729095459,"202":0.3240814507007599,"203":1.8693448305130005,"204":3.8001551628112793,"205":-3.4712443351745605,"206":0.07629302889108658,"207":1.7436336278915405,"208":-1.6557536125183105,"209":-1.8688149452209473,"210":-3.386056423187256,"211":-1.2779102325439453,"212":2.7051868438720703,"213":-0.03468700498342514,"214":-0.34956932067871094,"215":-1.6171960830688477,"216":-2.620868682861328,"217":-2.8603694438934326,"218":3.7475836277008057,"219":-6.712328910827637,"220":-2.950307846069336,"221":-1.2838445901870728,"222":-5.897740364074707,"223":2.2251553535461426,"224":3.122610330581665,"225":-6.5898332595825195,"226":-4.1034698486328125,"227":-1.6392040252685547,