{"type":"LSTM","options":{"inputSize":31,"inputRange":31,"hiddenLayers":[20,20],"outputSize":31,"decayRate":0.999,"smoothEps":1e-8,"regc":0.000001,"clipval":5,"maxPredictionLength":100,"dataFormatter":{"indexTable":{"p":0,"r":1,"o":2,"n":3,"u":4,"c":5,"e":6," ":7,"h":8,"i":9,"m":10,"t":11,"b":12,"a":13,"v":14,"f":15,"d":16,"l":17,"s":18,".":19,"”":20,"I":21,"g":22,"w":23,"x":24,"“":25,"W":26,"y":27,",":28,"k":29,"unrecognized":30},"characterTable":{"0":"p","1":"r","2":"o","3":"n","4":"u","5":"c","6":"e","7":" ","8":"h","9":"i","10":"m","11":"t","12":"b","13":"a","14":"v","15":"f","16":"d","17":"l","18":"s","19":".","20":"”","21":"I","22":"g","23":"w","24":"x","25":"“","26":"W","27":"y","28":",","29":"k","30":null},"values":["pronounce him to be an active member of the medical profession.”","I could not help laughing at the ease with which he explained his","process of deduction. “When I hear you give your reasons,” I remarked,","“the thing always appears to me to be so ridiculously simple that I","could easily do it myself, though at each successive instance of your"],"characters":["p","r","o","n","u","c","e"," ","h","i","m","t","b","a","v","f","d","l","s",".","”","I","g","w","x","“","W","y",",","k","unrecognized"],"specialIndexes":[30]}},"input":{"rows":32,"columns":31,"weights":{"0":-0.5472977757453918,"1":0.8677423596382141,"2":-0.42155757546424866,"3":2.0823616981506348,"4":1.8167517185211182,"5":0.5498202443122864,"6":1.1076432466506958,"7":0.4792046844959259,"8":-0.5417604446411133,"9":0.441644549369812,"10":-0.5561749935150146,"11":-2.74633526802063,"12":-0.36289793252944946,"13":-1.1564821004867554,"14":1.0228917598724365,"15":1.7386871576309204,"16":-3.1880104541778564,"17":0.6372583508491516,"18":1.1893900632858276,"19":0.17605912685394287,"20":2.323225975036621,"21":4.137330532073975,"22":0.9835882782936096,"23":-0.9594789147377014,"24":-1.206541657447815,"25":-1.2885020971298218,"26":1.0770207643508911,"27":-1.1156129837036133,"28":-0.44773387908935547,"29":1.3998740911483765,"30":0.5326768159866333,"31":-2.5185370445251465,"32":0.362823486328125,"33":-1.61354660987854,"34":1.1604557037353516,"35":-0.14918243885040283,"36":-0.9713007211685181,"37":-1.380780577659607,"38":-4.4979166984558105,"39":-1.1899036169052124,"40":2.1337106227874756,"41":2.430600881576538,"42":0.4329223930835724,"43":-0.01891968585550785,"44":6.327919960021973,"45":3.927347421646118,"46":-0.20762744545936584,"47":-2.6678407192230225,"48":-0.5618501305580139,"49":-1.5201407670974731,"50":-0.5656738877296448,"51":0.026166407391428947,"52":0.17711548507213593,"53":-0.13993984460830688,"54":0.48689842224121094,"55":-4.235383033752441,"56":-1.890663981437683,"57":0.6831883192062378,"58":4.045594215393066,"59":-2.977703094482422,"60":-1.5082244873046875,"61":4.013425827026367,"62":0.43981823325157166,"63":0.7981021404266357,"64":-1.27152681350708,"65":-0.10248849540948868,"66":2.213397741317749,"67":2.6131834983825684,"68":-0.2149001508951187,"69":0.83653324842453,"70":1.5857455730438232,"71":1.688079833984375,"72":0.7573165893554688,"73":0.973075270652771,"74":2.656921863555908,"75":2.3461625576019287,"76":-4.057192802429199,"77":-4.445697784423828,"78":3.1193430423736572,"79":-2.669581174850464,"80":-2.801731824874878,"81":0.20365644991397858,"82":-4.672928333282471,"83":-2.46618390083313,"84":-1.5263948440551758,"85":-1.402037262916565,"86":-1.734999656677246,"87":2.464106559753418,"88":-0.7135463953018188,"89":0.8504406809806824,"90":-1.772943377494812,"91":2.224886178970337,"92":-1.8988171815872192,"93":0.5787191987037659,"94":0.5367918014526367,"95":-1.6109753847122192,"96":-0.445244163274765,"97":1.2732635736465454,"98":0.9787812829017639,"99":-0.21061010658740997,"100":-0.8907555341720581,"101":-0.246301531791687,"102":0.004809812642633915,"103":5.3022332191467285,"104":-0.7278810739517212,"105":2.3122575283050537,"106":1.1530052423477173,"107":0.9849420785903931,"108":-0.7486374378204346,"109":0.06024209037423134,"110":-0.6686922907829285,"111":0.7603369355201721,"112":-1.6287007331848145,"113":-1.861989140510559,"114":-3.2954604625701904,"115":-0.9241684675216675,"116":0.5630056262016296,"117":0.7716261148452759,"118":-1.5595258474349976,"119":-0.34639644622802734,"120":0.6131747961044312,"121":-2.667802095413208,"122":0.3819330930709839,"123":1.2560702562332153,"124":-2.214061975479126,"125":1.1782777309417725,"126":0.7284531593322754,"127":0.9309732913970947,"128":0.9484495520591736,"129":0.7921396493911743,"130":-0.2660892903804779,"131":1.968729019165039,"132":1.9253734350204468,"133":-0.9236008524894714,"134":-2.670088052749634,"135":-1.7484186887741089,"136":-2.95877742767334,"137":0.46220991015434265,"138":-0.5808176398277283,"139":1.815045952796936,"140":1.5830142498016357,"141":-1.0319918394088745,"142":1.4184080362319946,"143":0.2417125254869461,"144":-1.69251549243927,"145":-0.369219571352005,"146":1.887013554573059,"147":2.0703117847442627,"148":-1.03339421749115,"149":-1.1903022527694702,"150":0.8782259225845337,"151":-2.060788154602051,"152":0.14381593465805054,"153":2.2419233322143555,"154":-0.46270862221717834,"155":2.1383719444274902,"156":2.3465874195098877,"157":0.5809090733528137,"158":-0.20688608288764954,"159":0.7486987709999084,"160":1.8958687782287598,"161":3.2212257385253906,"162":1.4744385480880737,"163":2.6167526245117188,"164":0.017808914184570312,"165":0.5838673114776611,"166":-1.4629549980163574,"167":-1.4370001554489136,"168":0.9153226017951965,"169":-2.7235281467437744,"170":-5.634304046630859,"171":4.869569778442383,"172":-4.571133136749268,"173":-0.7565107345581055,"174":1.486302137374878,"175":-2.3155641555786133,"176":-0.12472967058420181,"177":-4.119165420532227,"178":-0.18291456997394562,"179":-0.8774142265319824,"180":3.9040770530700684,"181":-2.154132127761841,"182":-3.6850390434265137,"183":0.334921270608902,"184":-3.068359375,"185":-5.613888740539551,"186":4.057645797729492,"187":1.7960045337677002,"188":-0.07109110802412033,"189":0.965523362159729,"190":2.634749412536621,"191":-5.486052513122559,"192":1.0852932929992676,"193":2.269484281539917,"194":-5.228607654571533,"195":1.6453219652175903,"196":2.079730749130249,"197":-0.15686753392219543,"198":0.0775093361735344,"199":0.664210855960846,"200":-0.013370942324399948,"201":0.9490854740142822,"202":0.978115439414978,"203":0.12775756418704987,"204":2.029935121536255,"205":-0.5864885449409485,"206":4.265044689178467,"207":-1.6772445440292358,"208":-0.35808050632476807,"209":-2.8973653316497803,"210":0.4909331798553467,"211":0.7849322557449341,"212":-1.7244579792022705,"213":1.9972647428512573,"214":-3.75986909866333,"215":0.6296992301940918,"216":-1.0106959342956543,"217":2.6079938411712646,"218":-0.8346361517906189,"219":1.7841657400131226,"220":0.3406910002231598,"221":2.2233541011810303,"222":0.694802463054657,"223":-2.072216510772705,"224":0.7188464999198914,"225":0.3164413571357727,"226":-3.470822334289551,"227":-0.2422100156545639,"228":1.6797255277633667,"229":1.7918788194656372,"230":-1.0918858051300049,"231":0.6404889225959778,"232":0.8957884311676025,"233":0.6326488852500916,"234":-4.162022590637207,"235":-0.31414979696273804,"236":2.646998405456543,"237":0.786304771900177,"238":2.820984125137329,"239":-0.9272689819335938,"240":1.584722876548767,"241":3.4695804119110107,"242":-1.748871922492981,"243":-2.7984354496002197,"244":0.6536157131195068,"245":0.0006261330563575029,"246":-3.211759090423584,"247":0.10054724663496017,"248":1.608783483505249,"249":-1.9251822233200073,"250":-1.8539385795593262,"251":0.8205087780952454,"252":-3.1704635620117188,"253":-1.267992377281189,"254":0.006050776224583387,"255":-0.5981277823448181,"256":-2.207517385482788,"257":-0.451561838388443,"258":2.4824233055114746,"259":-2.041703701019287,"260":1.2179784774780273,"261":1.5863146781921387,"262":2.4873855113983154,"263":-2.9815075397491455,"264":0.7363868951797485,"265":-2.5500214099884033,"266":1.9272665977478027,"267":-0.48356005549430847,"268":-2.6298935413360596,"269":-4.3689866065979,"270":0.5893166661262512,"271":-0.4314560890197754,"272":2.2926220893859863,"273":0.7040395140647888,"274":0.23103375732898712,"275":-0.5449273586273193,"276":-0.8555866479873657,"277":-2.7017745971679688,"278":-1.1504586935043335,"279":0.3311420977115631,"280":1.824916124343872,"281":2.648916482925415,"282":0.9930080771446228,"283":5.68994665145874,"284":1.1617319583892822,"285":1.7368334531784058,"286":-0.2942041754722595,"287":-0.20673038065433502,"288":1.2685866355895996,"289":1.662009358406067,"290":-0.47545188665390015,"291":-2.0832338333129883,"292":1.4254510402679443,"293":0.235251784324646,"294":5.6328511238098145,"295":-1.2068804502487183,"296":0.5661317706108093,"297":0.38704508543014526,"298":-2.7310965061187744,"299":-0.7093940377235413,"300":0.5665376782417297,"301":-2.4216747283935547,"302":0.7632423639297485,"303":-4.389430046081543,"304":0.37693673372268677,"305":4.004607200622559,"306":1.902984380722046,"307":-2.1863110065460205,"308":0.39150065183639526,"309":-0.2933916449546814,"310":1.4123948812484741,"311":-1.4098118543624878,"312":-1.1149505376815796,"313":0.3784419596195221,"314":-2.788783311843872,"315":-3.1488637924194336,"316":1.9381407499313354,"317":0.323752224445343,"318":-3.243726968765259,"319":-0.6355913877487183,"320":-0.32102248072624207,"321":0.82403564453125,"322":-2.5730631351470947,"323":1.0914297103881836,"324":2.8223941326141357,"325":0.40941500663757324,"326":0.982713520526886,"327":-1.026275396347046,"328":3.6613245010375977,"329":2.7246572971343994,"330":0.4557225704193115,"331":-6.658402442932129,"332":-2.024287462234497,"333":0.8258532881736755,"334":2.690882921218872,"335":-0.07513774186372757,"336":-2.5502710342407227,"337":-1.9711964130401611,"338":-0.5771529674530029,"339":-0.17962875962257385,"340":-2.632488489151001,"341":1.8328630924224854,"342":-4.117062568664551,"343":0.5340717434883118,"344":-2.673790454864502,"345":0.8462547063827515,"346":-1.3908333778381348,"347":2.2778918743133545,"348":-3.5478086471557617,"349":-3.809887409210205,"350":3.3277604579925537,"351":1.2718042135238647,"352":-0.5492191910743713,"353":-5.368738651275635,"354":0.12376120686531067,"355":6.403857231140137,"356":1.5178475379943848,"357":3.225902557373047,"358":-1.1697231531143188,"359":3.161008834838867,"360":-3.5983598232269287,"361":0.7923972010612488,"362":-0.7751101851463318,"363":-3.621335744857788,"364":-1.0314462184906006,"365":0.5171055197715759,"366":3.395216703414917,"367":0.38258638978004456,"368":-0.027931297197937965,"369":-2.845452070236206,"370":-0.6228086948394775,"371":1.4709043502807617,"372":-0.5477291345596313,"373":0.5082352757453918,"374":-0.2584173083305359,"375":1.0143041610717773,"376":1.5433366298675537,"377":1.7490707635879517,"378":1.7667860984802246,"379":4.083219051361084,"380":0.8473189473152161,"381":1.4657381772994995,"382":2.807497501373291,"383":-0.9863308072090149,"384":-1.6031184196472168,"385":2.4389376640319824,"386":0.7330654263496399,"387":1.6456762552261353,"388":-0.42074596881866455,"389":1.8208305835723877,"390":-1.3766086101531982,"391":-0.7668170928955078,"392":-1.1181539297103882,"393":1.6334376335144043,"394":1.4444358348846436,"395":-2.360197067260742,"396":-4.583174705505371,"397":4.056820392608643,"398":1.8405232429504395,"399":-2.209432601928711,"400":-1.3452030420303345,"401":1.7865854501724243,"402":-1.9567030668258667,"403":2.589656114578247,"404":-0.30486205220222473,"405":1.81356942653656,"406":0.9625687599182129,"407":2.1298539638519287,"408":1.4608738422393799,"409":-1.3194124698638916,"410":0.1357617825269699,"411":3.360032081604004,"412":0.9538796544075012,"413":-1.1418386697769165,"414":3.2564616203308105,"415":5.428632736206055,"416":-1.7857818603515625,"417":-4.203973293304443,"418":-3.246802806854248,"419":-1.9535728693008423,"420":-3.183505058288574,"421":-0.028170952573418617,"422":3.7823407649993896,"423":-2.6170082092285156,"424":4.119540214538574,"425":-3.46150803565979,"426":-0.16844096779823303,"427":-1.522510051727295,"428":0.06651163846254349,"429":-3.089042901992798,"430":-5.106846332550049,"431":-1.0792549848556519,"432":-2.035531520843506,"433":-5.39585018157959,"434":0.6391682624816895,"435":-1.0246940851211548,"436":0.3995896577835083,"437":-0.9350441694259644,"438":-2.5889673233032227,"439":-0.7438188195228577,"440":-0.187763050198555,"441":-3.4529623985290527,"442":0.696135401725769,"443":-2.5077826976776123,"444":-1.737296462059021,"445":0.9267156720161438,"446":-0.014653356745839119,"447":-0.22081880271434784,"448":0.8452622294425964,"449":0.11888720840215683,"450":2.3495092391967773,"451":-0.4012335240840912,"452":-1.5063492059707642,"453":-1.6326005458831787,"454":-2.7680747509002686,"455":0.8775359392166138,"456":0.1399487853050232,"457":0.2916885018348694,"458":0.7344669103622437,"459":0.6799614429473877,"460":-0.7163957357406616,"461":-1.1190582513809204,"462":0.8910885453224182,"463":0.5080552101135254,"464":-1.0306718349456787,"465":-2.420015573501587,"466":-0.44243323802948,"467":-7.173998832702637,"468":1.8546440601348877,"469":1.22100830078125,"470":-3.5488460063934326,"471":-6.24783182144165,"472":-1.2314742803573608,"473":-4.456004619598389,"474":1.3462177515029907,"475":4.038472652435303,"476":-5.460949897766113,"477":-2.7238762378692627,"478":3.178131103515625,"479":-3.2911672592163086,"480":-6.517250061035156,"481":-2.5542850494384766,"482":2.5513064861297607,"483":-1.2576839923858643,"484":-5.929876327514648,"485":1.7070244550704956,"486":-5.016608715057373,"487":-0.21434514224529266,"488":-4.858829975128174,"489":-0.13949128985404968,"490":-3.530641794204712,"491":0.3565289080142975,"492":5.094109535217285,"493":-0.165202334523201,"494":8.715603828430176,"495":3.796511650085449,"496":1.2096906900405884,"497":-4.498608589172363,"498":-2.505908966064453,"499":-0.23365440964698792,"500":2.9032301902770996,"501":1.2827033996582031,"502":1.815335988998413,"503":-0.5980304479598999,"504":0.26201754808425903,"505":0.6697340607643127,"506":-0.3951733708381653,"507":-3.7945175170898438,"508":-1.1841917037963867,"509":-1.4266362190246582,"510":0.9896537661552429,"511":0.8825603723526001,"512":-3.868736743927002,"513":2.680851459503174,"514":-1.2654869556427002,"515":-0.7288079261779785,"516":0.5706794261932373,"517":1.354685664176941,"518":-0.8315980434417725,"519":-1.4837079048156738,"520":-1.8596867322921753,"521":1.628111481666565,"522":-0.8508631587028503,"523":-1.0822677612304688,"524":-5.529842853546143,"525":-0.7749788761138916,"526":0.23084017634391785,"527":-0.06802502274513245,"528":1.0770111083984375,"529":-2.3674449920654297,"530":1.903642177581787,"531":1.0112698078155518,"532":-1.0674463510513306,"533":-0.3462144732475281,"534":4.724122047424316,"535":0.1611066311597824,"536":0.16646914184093475,"537":-0.2570631802082062,"538":0.6028953790664673,"539":-0.8978053331375122,"540":1.1881539821624756,"541":-2.0856282711029053,"542":-2.566049814224243,"543":-1.2424894571304321,"544":1.3686057329177856,"545":0.1566828489303589,"546":0.1671922206878662,"547":-0.7762322425842285,"548":-1.1588232517242432,"549":0.5408234000205994,"550":-1.3781592845916748,"551":-0.16288959980010986,"552":3.0991837978363037,"553":1.2594574689865112,"554":0.17412711679935455,"555":1.4541658163070679,"556":3.289879322052002,"557":1.6206163167953491,"558":3.086585521697998,"559":1.5741389989852905,"560":1.7674199342727661,"561":2.5156443119049072,"562":1.3379894495010376,"563":-0.6888635754585266,"564":1.9266250133514404,"565":1.3541591167449951,"566":-2.2723309993743896,"567":2.3931174278259277,"568":3.4746556282043457,"569":0.027715029194951057,"570":-6.164523601531982,"571":4.2296247482299805,"572":2.563361406326294,"573":0.9652041792869568,"574":5.113522529602051,"575":-0.1732795089483261,"576":3.4419968128204346,"577":-1.0039210319519043,"578":-3.4288434982299805,"579":0.4005929231643677,"580":-1.9568114280700684,"581":3.661994218826294,"582":-3.034412145614624,"583":0.5985810160636902,"584":-1.1560660600662231,"585":1.3565123081207275,"586":0.719297468662262,"587":-2.3840508460998535,"588":-6.152740478515625,"589":0.38422891497612,"590":-0.043582670390605927,"591":-0.5825039148330688,"592":-0.13893325626850128,"593":-0.20029349625110626,"594":-0.9901280999183655,"595":0.9003177285194397,"596":2.197871208190918,"597":0.6940107941627502,"598":0.6684857606887817,"599":-2.7329959869384766,"600":-2.437711000442505,"601":-1.5971577167510986,"602":-3.879352331161499,"603":-3.60726261138916,"604":-1.6134587526321411,"605":-0.2822561264038086,"606":0.03358734771609306,"607":-1.7876635789871216,"608":-0.3481718599796295,"609":-0.7849347591400146,"610":-0.13300545513629913,"611":-0.25810176134109497,"612":-0.18033398687839508,"613":-0.1446986347436905,"614":-0.11039671301841736,"615":-1.5949201583862305,"616":0.21482008695602417,"617":1.6727697849273682,"618":3.352450132369995,"619":-0.8483291268348694,"620":-0.5779173970222473,"621":-0.13115429878234863,"622":-1.4601950645446777,"623":-3.9465019702911377,"624":1.5117119550704956,"625":1.3393795490264893,"626":0.853979766368866,"627":1.4225770235061646,"628":-0.13114556670188904,"629":-3.259420394897461,"630":-4.138608455657959,"631":-1.7226715087890625,"632":1.6481622457504272,"633":-3.2568821907043457,"634":0.06883904337882996,"635":0.16311095654964447,"636":0.13779258728027344,"637":5.578397750854492,"638":-2.106750965118408,"639":2.979586601257324,"640":0.9449243545532227,"641":-1.991886854171753,"642":3.5522546768188477,"643":-6.070774555206299,"644":-0.36037155985832214,"645":-0.41409778594970703,"646":4.428323745727539,"647":-4.813981056213379,"648":7.2959089279174805,"649":3.6822304725646973,"650":1.0914947986602783,"651":-2.0926833152770996,"652":-4.173018455505371,"653":0.8192524909973145,"654":2.012106418609619,"655":3.6821365356445312,"656":1.950438141822815,"657":1.6477246284484863,"658":3.657140016555786,"659":1.4100655317306519,"660":2.5218451023101807,"661":2.5078694820404053,"662":-1.528303623199463,"663":0.6594762206077576,"664":0.46252894401550293,"665":2.479342222213745,"666":6.649185657501221,"667":-3.8129754066467285,"668":-0.11646698415279388,"669":1.5024693012237549,"670":-0.6092326641082764,"671":7.3263139724731445,"672":-0.14714956283569336,"673":0.7019561529159546,"674":1.1542503833770752,"675":-2.426361560821533,"676":0.6612967848777771,"677":0.7986972332000732,"678":-1.7714660167694092,"679":-2.815528392791748,"680":0.96784508228302,"681":-2.2070865631103516,"682":4.4001240730285645,"683":2.58804988861084,"684":2.2220263481140137,"685":-2.4742331504821777,"686":5.614005088806152,"687":-0.7162026762962341,"688":-0.38971924781799316,"689":-1.3124052286148071,"690":0.1233304962515831,"691":-2.670719861984253,"692":0.660004198551178,"693":1.012094259262085,"694":5.10202169418335,"695":0.016259992495179176,"696":2.3405420780181885,"697":2.0782761573791504,"698":-3.297823905944824,"699":-0.09806686639785767,"700":3.721846103668213,"701":2.1868908405303955,"702":-2.1344027519226074,"703":-0.6082572340965271,"704":-2.3347063064575195,"705":-0.9522562026977539,"706":3.4540748596191406,"707":-1.0329889059066772,"708":-6.730786323547363,"709":-0.8765410780906677,"710":-4.530571460723877,"711":1.4059937000274658,"712":3.531487226486206,"713":3.3197877407073975,"714":0.8648467659950256,"715":-4.973189353942871,"716":-3.020141363143921,"717":2.4696457386016846,"718":1.229394555091858,"719":1.711717963218689,"720":5.560822010040283,"721":1.1347739696502686,"722":-3.0314295291900635,"723":1.4054419994354248,"724":-5.150649070739746,"725":-2.4875128269195557,"726":-2.3630032539367676,"727":-4.367532253265381,"728":-1.6122872829437256,"729":-2.3014700412750244,"730":-1.9021869897842407,"731":-3.3828766345977783,"732":-0.5373572707176208,"733":-0.5880700945854187,"734":-2.8971004486083984,"735":-0.7072011232376099,"736":-3.0910446643829346,"737":0.13884113729000092,"738":3.792048692703247,"739":1.4597060680389404,"740":-0.025345776230096817,"741":0.25262001156806946,"742":-0.6893190145492554,"743":0.03126855567097664,"744":-1.0164324045181274,"745":-2.7870185375213623,"746":-1.215904951095581,"747":1.4477888345718384,"748":1.066237449645996,"749":0.4955686628818512,"750":-1.6337891817092896,"751":-1.2474666833877563,"752":-0.6893450021743774,"753":1.413250207901001,"754":5.384751319885254,"755":-1.7889997959136963,"756":-1.0751150846481323,"757":2.295295000076294,"758":2.5238218307495117,"759":2.175323486328125,"760":-0.5023016333580017,"761":2.1648941040039062,"762":0.7519791126251221,"763":0.39253631234169006,"764":2.1665432453155518,"765":-0.47137123346328735,"766":0.1120484471321106,"767":-1.6878553628921509,"768":-1.7867019176483154,"769":-0.1616448014974594,"770":1.3786276578903198,"771":1.7790050506591797,"772":-2.494431734085083,"773":0.7619053721427917,"774":-0.20946307480335236,"775":-1.2424249649047852,"776":0.06943825632333755,"777":4.1762003898620605,"778":-0.7951900959014893,"779":-3.90303111076355,"780":0.8005228042602539,"781":-2.183413028717041,"782":-2.238896369934082,"783":5.216514587402344,"784":-1.9827473163604736,"785":-0.2160872220993042,"786":2.8647758960723877,"787":-0.9637609720230103,"788":-0.4997095465660095,"789":1.2066867351531982,"790":0.8637627363204956,"791":0.2221786379814148,"792":-0.623787522315979,"793":0.06360478699207306,"794":-0.18529915809631348,"795":-0.6239373087882996,"796":3.008019208908081,"797":1.5062669515609741,"798":2.3544669151306152,"799":0.7997504472732544,"800":-3.060351848602295,"801":1.0159374475479126,"802":-0.021790027618408203,"803":-0.8478426933288574,"804":-2.8311474323272705,"805":-0.2586885392665863,"806":4.470946788787842,"807":1.2891064882278442,"808":1.9640306234359741,"809":-1.0896594524383545,"810":2.2948954105377197,"811":-0.35537317395210266,"812":0.8216530680656433,"813":2.1412696838378906,"814":-1.6123557090759277,"815":0.6891458630561829,"816":3.4746851921081543,"817":1.4221575260162354,"818":-0.732038140296936,"819":2.1988468170166016,"820":-0.6150916814804077,"821":2.8674750328063965,"822":4.18991231918335,"823":-2.242544651031494,"824":1.7264320850372314,"825":1.9328365325927734,"826":-3.448139190673828,"827":-7.377190589904785,"828":-5.004497051239014,"829":0.8867095708847046,"830":1.3794758319854736,"831":3.4497618675231934,"832":-0.7175137996673584,"833":-3.105583906173706,"834":-1.4320762157440186,"835":-3.7289419174194336,"836":0.3636471629142761,"837":-1.384805679321289,"838":-0.348894864320755,"839":-5.270900726318359,"840":0.7113474011421204,"841":0.6697765588760376,"842":-0.9716528654098511,"843":3.8959827423095703,"844":2.4266536235809326,"845":-0.7816619873046875,"846":-0.8904769420623779,"847":1.7675405740737915,"848":-4.596735954284668,"849":-2.5307655334472656,"850":0.035997577011585236,"851":-3.6532061100006104,"852":-0.38845276832580566,"853":-0.28646519780158997,"854":2.3342528343200684,"855":-2.798560857772827,"856":-2.4697744846343994,"857":-1.1162083148956299,"858":-4.4791975021362305,"859":-0.7862364649772644,"860":-2.3833208084106445,"861":1.8114148378372192,"862":3.326080560684204,"863":-1.1155552864074707,"864":3.9491188526153564,"865":2.546379566192627,"866":3.013604164123535,"867":-3.3558497428894043,"868":-1.6696646213531494,"869":0.8975493311882019,"870":0.34512385725975037,"871":-1.0644779205322266,"872":0.6532175540924072,"873":-0.8434367179870605,"874":0.004460083320736885,"875":0.9908630847930908,"876":-0.4389600157737732,"877":0.4753434360027313,"878":-0.3311031758785248,"879":-0.03822147846221924,"880":-3.6029341220855713,"881":-0.079707071185112,"882":-0.07389423996210098,"883":3.1424405574798584,"884":-3.099045753479004,"885":3.356438159942627,"886":-0.4212057590484619,"887":-0.8354288339614868,"888":1.7844682931900024,"889":-1.0475833415985107,"890":1.174800992012024,"891":0.522258996963501,"892":-0.7615973949432373,"893":-0.618206799030304,"894":-0.25689247250556946,"895":0.1171007826924324,"896":-1.5388411283493042,"897":1.5682811737060547,"898":2.013117790222168,"899":2.298121213912964,"900":-3.6354005336761475,"901":-1.114707589149475,"902":-0.7707987427711487,"903":1.688894271850586,"904":0.19774895906448364,"905":5.316278457641602,"906":3.7984728813171387,"907":1.197328805923462,"908":-3.26094388961792,"909":0.17816561460494995,"910":-3.85508131980896,"911":-1.4516929388046265,"912":-1.6089071035385132,"913":0.2552001178264618,"914":0.3536192774772644,"915":-1.493285059928894,"916":-1.4850136041641235,"917":-1.2403620481491089,"918":-0.45312073826789856,"919":-0.693791389465332,"920":-3.7488560676574707,"921":0.5764663815498352,"922":-6.329357624053955,"923":1.3974952697753906,"924":2.1285653114318848,"925":1.790191888809204,"926":-0.9954251050949097,"927":-0.9853699803352356,"928":-0.11864209175109863,"929":-1.4232279062271118,"930":3.9618723392486572,"931":3.7152950763702393,"932":-2.4726991653442383,"933":-2.903231382369995,"934":-2.0679328441619873,"935":4.010998249053955,"936":-3.2188963890075684,"937":1.1740052700042725,"938":4.4263105392456055,"939":-4.427234649658203,"940":0.0618341825902462,"941":0.9584599733352661,"942":1.8321812152862549,"943":-2.92134165763855,"944":-8.690567016601562,"945":-1.9786258935928345,"946":2.111095666885376,"947":-0.5424700379371643,"948":-5.923387050628662,"949":4.149417877197266,"950":-1.4790149927139282,"951":-1.9708037376403809,"952":0.6177828907966614,"953":-0.05472332239151001,"954":0.2472192496061325,"955":1.545472502708435,"956":-3.096609115600586,"957":-2.503173828125,"958":-1.1625714302062988,"959":-0.9480133652687073,"960":2.162203311920166,"961":-0.21206116676330566,"962":0.4876759350299835,"963":-0.7050365805625916,"964":-2.5043082237243652,"965":-1.589656949043274,"966":0.3065391182899475,"967":0.8236749768257141,"968":0.5075172185897827,"969":-1.132651448249817,"970":-1.529025912284851,"971":-1.0157681703567505,"972":0.5157214999198914,"973":0.07418560236692429,"974":-0.04800475388765335,"975":-1.0053246021270752,"976":-0.12211424112319946,"977":4.153849124908447,"978":-4.360043525695801,"979":-0.9128691554069519,"980":0.8415042161941528,"981":-4.349775314331055,"982":3.1828529834747314,"983":0.37437528371810913,"984":-0.056683462113142014,"985":1.3104112148284912,"986":-1.6197630167007446,"987":-0.8182666301727295,"988":-0.03590482473373413,"989":2.36930251121521,"990":-1.865790605545044,"991":-0.1543722301721573}},"hiddenLayers":[{"inputMatrix":{"rows":20,"columns":31,"weights":{"0":-2.0797014236450195,"1":3.9206583499908447,"2":0.5514379739761353,"3":0.7865033745765686,"4":-0.5042142868041992,"5":-2.4809625148773193,"6":-0.4818834960460663,"7":-0.6402819752693176,"8":0.5867388844490051,"9":0.4880993962287903,"10":2.866724729537964,"11":1.3090170621871948,"12":1.1726975440979004,"13":2.925403118133545,"14":-0.06423233449459076,"15":0.39099451899528503,"16":-1.6632359027862549,"17":0.572265088558197,"18":2.1220808029174805,"19":-1.9018728733062744,"20":-0.3199053108692169,"21":-1.5997052192687988,"22":-0.8234297037124634,"23":0.3050660789012909,"24":-1.8079229593276978,"25":0.349389910697937,"26":-1.6141046285629272,"27":3.4463794231414795,"28":-0.9705692529678345,"29":2.8411529064178467,"30":0.5674892663955688,"31":1.597660779953003,"32":-1.2776423692703247,"33":-1.3028589487075806,"34":1.7057832479476929,"35":2.8254036903381348,"36":-1.4694894552230835,"37":0.11798286437988281,"38":0.26277849078178406,"39":-1.0359450578689575,"40":2.3573224544525146,"41":2.811537027359009,"42":-1.3216813802719116,"43":0.14204952120780945,"44":1.0553573369979858,"45":-0.08557521551847458,"46":-0.39079639315605164,"47":-2.9322400093078613,"48":0.16200894117355347,"49":-1.3209961652755737,"50":-3.1304070949554443,"51":0.9736379384994507,"52":-1.6442095041275024,"53":0.5709463953971863,"54":-1.3076797723770142,"55":-3.8507020473480225,"56":0.8070688843727112,"57":1.7234368324279785,"58":0.49136120080947876,"59":-2.24996280670166,"60":1.0742236375808716,"61":0.6155991554260254,"62":-0.18560895323753357,"63":1.4411542415618896,"64":-1.5638870000839233,"65":-1.2867363691329956,"66":-1.5434304475784302,"67":3.1622884273529053,"68":1.296881914138794,"69":0.8596596717834473,"70":1.6558542251586914,"71":-3.0433061122894287,"72":-0.664333164691925,"73":0.16980604827404022,"74":-0.22942093014717102,"75":-1.0443766117095947,"76":-2.2117345333099365,"77":-1.280436635017395,"78":2.5304129123687744,"79":-0.06993983685970306,"80":-2.0412955284118652,"81":1.394576907157898,"82":-2.0858242511749268,"83":-0.034220051020383835,"84":0.5612124800682068,"85":0.40138712525367737,"86":0.1332043707370758,"87":0.6362370848655701,"88":0.7571315169334412,"89":-2.3791074752807617,"90":1.0688607692718506,"91":1.423864483833313,"92":-0.36053329706192017,"93":1.355833649635315,"94":1.3204041719436646,"95":0.9211381077766418,"96":-0.2115185558795929,"97":0.9152134656906128,"98":-0.21342186629772186,"99":-0.916687548160553,"100":1.1126108169555664,"101":-2.3899481296539307,"102":1.3437089920043945,"103":0.9328879117965698,"104":-0.30821579694747925,"105":1.802522897720337,"106":0.2698546051979065,"107":-1.6899571418762207,"108":-4.229526519775391,"109":-0.23427589237689972,"110":-4.320974349975586,"111":0.20399712026119232,"112":0.8661023378372192,"113":-2.5969653129577637,"114":-3.463595390319824,"115":-1.9781136512756348,"116":0.7743664383888245,"117":0.3163152039051056,"118":-4.836865425109863,"119":-2.3152880668640137,"120":2.01242733001709,"121":-1.4640001058578491,"122":-0.43450069427490234,"123":-0.5232253074645996,"124":0.9658361077308655,"125":2.4337546825408936,"126":0.1436072736978531,"127":-1.9020437002182007,"128":0.9088772535324097,"129":2.214449167251587,"130":-1.0703719854354858,"131":-0.01207364909350872,"132":2.778909683227539,"133":-2.8265180587768555,"134":-1.3041377067565918,"135":-0.5722700357437134,"136":0.42553091049194336,"137":-4.55200719833374,"138":-3.7627689838409424,"139":0.5811136960983276,"140":0.8105013966560364,"141":-1.2610588073730469,"142":-2.9088568687438965,"143":-0.7775387167930603,"144":0.5507014393806458,"145":-0.8873688578605652,"146":-1.464479923248291,"147":0.5177475214004517,"148":3.158414602279663,"149":-0.8769494891166687,"150":-1.4336795806884766,"151":0.6160122156143188,"152":0.9198517203330994,"153":-0.5356906652450562,"154":-1.0977468490600586,"155":0.7899625301361084,"156":2.7697501182556152,"157":2.82382869720459,"158":-0.4495397210121155,"159":0.5342880487442017,"160":-0.5723519325256348,"161":-1.817039966583252,"162":2.052434206008911,"163":-1.1811468601226807,"164":0.6713533401489258,"165":-1.5230016708374023,"166":0.6660926342010498,"167":-0.5745636224746704,"168":-0.3785923719406128,"169":-0.21067054569721222,"170":2.794699192047119,"171":0.15272898972034454,"172":2.353991985321045,"173":0.4492857754230499,"174":3.2277286052703857,"175":-0.2693043053150177,"176":-2.7358274459838867,"177":-2.029256582260132,"178":0.9358456134796143,"179":1.6559069156646729,"180":-3.2045187950134277,"181":-2.0222277641296387,"182":1.583175778388977,"183":2.8792524337768555,"184":-1.0337721109390259,"185":1.2709039449691772,"186":1.424999475479126,"187":-0.8899731636047363,"188":-0.07155986875295639,"189":-2.0438122749328613,"190":-1.3516414165496826,"191":0.37782594561576843,"192":1.150423288345337,"193":-0.35161298513412476,"194":-0.12052041292190552,"195":-1.1211621761322021,"196":-1.4015942811965942,"197":2.0448896884918213,"198":-1.0123190879821777,"199":0.04125072434544563,"200":-0.10674236714839935,"201":-0.8805171847343445,"202":0.8600208759307861,"203":-0.18020640313625336,"204":-0.973259687423706,"205":2.792253255844116,"206":-0.3917093575000763,"207":-1.6760047674179077,"208":1.0804907083511353,"209":0.9740447998046875,"210":1.385337471961975,"211":-1.022962212562561,"212":-0.9021007418632507,"213":-2.5132436752319336,"214":-0.00526134530082345,"215":-0.332211434841156,"216":0.7907297015190125,"217":-0.13301117718219757,"218":1.568432092666626,"219":-1.8516845703125,"220":2.765120029449463,"221":0.9756223559379578,"222":1.2711392641067505,"223":-2.1682851314544678,"224":0.022830363363027573,"225":0.8601659536361694,"226":1.5860759019851685,"227":2.848026990890503,"228":-1.4410209655761719,"229":0.04708287492394447,"230":-0.24554204940795898,"231":-3.193277359008789,"232":-3.4206700325012207,"233":-1.8946726322174072,"234":0.5220765471458435,"235":-2.063599109649658,"236":-2.5611960887908936,"237":-1.2280250787734985,"238":-1.5405769348144531,"239":-0.784403383731842,"240":-0.48900100588798523,"241":-2.1091861724853516,"242":-0.20350389182567596,"243":2.1895534992218018,"244":4.5917863845825195,"245":-1.8135039806365967,"246":0.6173702478408813,"247":0.8468474745750427,"248":0.2572534680366516,"249":-1.2495594024658203,"250":-0.6105967164039612,"251":-0.4965556859970093,"252":0.6353859305381775,"253":-0.31608375906944275,"254":0.3879591226577759,"255":0.26631125807762146,"256":-1.6740409135818481,"257":-1.5646165609359741,"258":1.384149432182312,"259":-1.9527556896209717,"260":-0.4520995616912842,"261":-0.5721393823623657,"262":0.25798770785331726,"263":2.770141124725342,"264":-0.7323565483093262,"265":0.2708781957626343,"266":0.2007899135351181,"267":2.0830934047698975,"268":2.603680372238159,"269":-1.4017640352249146,"270":0.2444986253976822,"271":-1.6058636903762817,"272":-0.17074471712112427,"273":1.228089690208435,"274":0.01330588199198246,"275":-0.898777961730957,"276":-1.9051553010940552,"277":1.1787747144699097,"278":-0.11208784580230713,"279":-0.029582669958472252,"280":-3.8360166549682617,"281":0.21709474921226501,"282":0.8209248781204224,"283":0.16185465455055237,"284":1.318984031677246,"285":-0.023927826434373856,"286":-0.9818859696388245,"287":-0.4498586058616638,"288":3.2121946811676025,"289":3.0195207595825195,"290":-0.275657594203949,"291":-0.4165250360965729,"292":2.322110176086426,"293":1.3993619680404663,"294":2.363008499145508,"295":-2.209479808807373,"296":1.542056679725647,"297":1.5620732307434082,"298":-2.1572580337524414,"299":0.05511026456952095,"300":0.6704828143119812,"301":1.053629755973816,"302":1.7531590461730957,"303":-1.9177939891815186,"304":0.7703668475151062,"305":1.651694893836975,"306":1.5465675592422485,"307":-4.227161407470703,"308":-0.5869976878166199,"309":0.47396859526634216,"310":-3.014224052429199,"311":-0.9847553372383118,"312":-2.638593912124634,"313":0.8158378005027771,"314":-0.15101021528244019,"315":-0.8423177003860474,"316":0.9827021956443787,"317":-0.7870949506759644,"318":-1.3883687257766724,"319":0.6576886177062988,"320":-0.7298725247383118,"321":-2.1746695041656494,"322":-0.9629594683647156,"323":0.20325930416584015,"324":1.3830797672271729,"325":1.3714275360107422,"326":-1.0495872497558594,"327":1.2341163158416748,"328":0.04286637157201767,"329":0.7961664199829102,"330":2.8309340476989746,"331":-2.5379841327667236,"332":1.0039920806884766,"333":-1.3042807579040527,"334":0.1692255139350891,"335":-0.9836792945861816,"336":-0.17945338785648346,"337":1.8382761478424072,"338":-1.8456662893295288,"339":-0.035274989902973175,"340":-1.1623586416244507,"341":1.8862183094024658,"342":-0.8971636295318604,"343":0.1887461096048355,"344":-0.20421117544174194,"345":-1.9508155584335327,"346":1.7911065816879272,"347":-1.9649982452392578,"348":0.3073965311050415,"349":1.2489250898361206,"350":-2.1451895236968994,"351":-0.5896833539009094,"352":-0.30086570978164673,"353":-0.29136717319488525,"354":-1.779793381690979,"355":-1.72486412525177,"356":-1.073203206062317,"357":2.8599812984466553,"358":-0.1461472511291504,"359":-1.8077857494354248,"360":-0.05464329570531845,"361":-1.903687596321106,"362":2.6352107524871826,"363":-1.1118934154510498,"364":1.1394243240356445,"365":0.3202211558818817,"366":0.4938415288925171,"367":-0.48374176025390625,"368":0.6349816918373108,"369":4.501543045043945,"370":-0.005914872512221336,"371":-0.14706085622310638,"372":-1.179061770439148,"373":-0.4978114068508148,"374":-1.7968076467514038,"375":0.7210299372673035,"376":-0.704168438911438,"377":-0.11789703369140625,"378":-0.9358087778091431,"379":-0.1665409356355667,"380":1.2660037279129028,"381":-3.3596904277801514,"382":0.11099248379468918,"383":-1.4756526947021484,"384":0.35141628980636597,"385":0.23720130324363708,"386":1.5852699279785156,"387":-1.6222002506256104,"388":0.6344086527824402,"389":-3.0609238147735596,"390":1.5910083055496216,"391":1.673287272453308,"392":-0.9695829749107361,"393":-3.4808638095855713,"394":-1.038099765777588,"395":-1.3437131643295288,"396":7.148250579833984,"397":-1.3681257963180542,"398":1.419184923171997,"399":2.2089436054229736,"400":2.4265687465667725,"401":-0.05419401824474335,"402":0.5337924957275391,"403":-0.19869378209114075,"404":1.3061600923538208,"405":-0.4927089214324951,"406":-1.301028847694397,"407":1.4423258304595947,"408":1.4542763233184814,"409":0.10664558410644531,"410":-1.7860344648361206,"411":1.212291955947876,"412":-2.2759692668914795,"413":-2.715160846710205,"414":-0.05635443329811096,"415":1.8242285251617432,"416":-3.3698935508728027,"417":-1.1625301837921143,"418":0.06806916743516922,"419":-0.032622676342725754,"420":-0.01877795159816742,"421":-2.347142457962036,"422":1.4277775287628174,"423":-0.4766899049282074,"424":2.7318661212921143,"425":-0.06583093851804733,"426":-1.232184886932373,"427":1.485209584236145,"428":-2.1963016986846924,"429":-0.7423117756843567,"430":-1.329553484916687,"431":-0.014206294901669025,"432":-0.22469192743301392,"433":0.9487599730491638,"434":0.319954514503479,"435":-0.7135164141654968,"436":0.4156176745891571,"437":-0.22346793115139008,"438":-0.9556213617324829,"439":-0.11436539888381958,"440":1.5281790494918823,"441":0.49476358294487,"442":-0.26166975498199463,"443":-0.6606603264808655,"444":0.28969594836235046,"445":0.11702239513397217,"446":-1.1991888284683228,"447":0.5151312351226807,"448":0.7395746111869812,"449":1.111464500427246,"450":0.20363986492156982,"451":0.4120844900608063,"452":-0.6202368140220642,"453":-2.3554511070251465,"454":0.8340530395507812,"455":0.8828202486038208,"456":-1.8006649017333984,"457":0.4083606004714966,"458":0.9476266503334045,"459":5.189059257507324,"460":-1.0047169923782349,"461":-0.044787123799324036,"462":-0.16115866601467133,"463":-1.1400543451309204,"464":-1.4160840511322021,"465":-5.050198554992676,"466":0.04104997590184212,"467":-0.058556828647851944,"468":-0.6935477256774902,"469":-1.5856921672821045,"470":-0.44067510962486267,"471":-1.8862102031707764,"472":-3.2250800132751465,"473":-1.098484754562378,"474":0.07131349295377731,"475":-0.15593621134757996,"476":0.25509390234947205,"477":-0.3511407971382141,"478":-0.21521469950675964,"479":0.9835636019706726,"480":1.0422592163085938,"481":0.33962947130203247,"482":1.9388999938964844,"483":0.9479914307594299,"484":-0.10429062694311142,"485":0.14304031431674957,"486":1.0911201238632202,"487":2.4966793060302734,"488":-0.1441105455160141,"489":0.7208071351051331,"490":-2.1000356674194336,"491":2.4560394287109375,"492":1.4267945289611816,"493":0.777021586894989,"494":0.6218477487564087,"495":1.1625558137893677,"496":1.3139816522598267,"497":1.6872659921646118,"498":-0.907611608505249,"499":-0.4335532784461975,"500":-1.0168684720993042,"501":0.5854200720787048,"502":-3.071892738342285,"503":-1.8541673421859741,"504":-1.50005304813385,"505":0.4701867401599884,"506":0.7139200568199158,"507":1.0602846145629883,"508":-0.6447862386703491,"509":-1.7809312343597412,"510":1.3601473569869995,"511":-2.5220322608947754,"512":-1.328515887260437,"513":-0.8774723410606384,"514":1.4562644958496094,"515":0.30986344814300537,"516":1.3513611555099487,"517":-0.4792555272579193,"518":-0.5944380164146423,"519":-0.27439913153648376,"520":5.257753849029541,"521":-1.0262420177459717,"522":0.6195567846298218,"523":0.8208274245262146,"524":0.01974773220717907,"525":-3.5419602394104004,"526":2.498947858810425,"527":-1.2993580102920532,"528":1.7928818464279175,"529":0.12996980547904968,"530":-0.3655717074871063,"531":1.1861144304275513,"532":0.5152826905250549,"533":0.8790472745895386,"534":1.7607264518737793,"535":2.535965919494629,"536":-2.1445908546447754,"537":-2.193023681640625,"538":-1.0874332189559937,"539":-1.1094939708709717,"540":-0.6726114749908447,"541":0.45097920298576355,"542":1.8094944953918457,"543":-0.4419744312763214,"544":0.3686895966529846,"545":-1.9644575119018555,"546":-1.813289999961853,"547":0.23376694321632385,"548":4.22090482711792,"549":2.3654286861419678,"550":0.9563410878181458,"551":0.558746874332428,"552":1.046604037284851,"553":1.5518527030944824,"554":-1.5020464658737183,"555":3.646793842315674,"556":2.108163356781006,"557":-0.95829176902771,"558":2.7498433589935303,"559":-2.730499267578125,"560":2.9935481548309326,"561":-0.928287148475647,"562":1.6457006931304932,"563":-0.29444319009780884,"564":1.095177173614502,"565":0.7659000754356384,"566":-0.19345325231552124,"567":-0.2781140208244324,"568":0.8259917497634888,"569":1.876936674118042,"570":-2.543623685836792,"571":0.28657782077789307,"572":1.2844228744506836,"573":1.1406081914901733,"574":0.8551324009895325,"575":0.8923214673995972,"576":-0.6591594815254211,"577":0.16022232174873352,"578":-1.4516617059707642,"579":1.5025547742843628,"580":-1.3238219022750854,"581":-1.175598382949829,"582":-0.38460248708724976,"583":0.5091184377670288,"584":-0.15355101227760315,"585":-1.9749019145965576,"586":-0.09165336191654205,"587":0.9555963277816772,"588":-3.784956693649292,"589":-1.677022933959961,"590":-4.41980504989624,"591":-0.7226694822311401,"592":0.03150782734155655,"593":-2.3067684173583984,"594":-2.4271504878997803,"595":-1.262043833732605,"596":-0.47138655185699463,"597":-1.0355255603790283,"598":3.1018757820129395,"599":0.8363009095191956,"600":2.246049642562866,"601":0.5353759527206421,"602":3.5136139392852783,"603":1.4893018007278442,"604":0.061915550380945206,"605":-0.9261486530303955,"606":-0.07066766917705536,"607":1.3289378881454468,"608":-2.6810202598571777,"609":1.7618085145950317,"610":-2.0188446044921875,"611":1.6114044189453125,"612":0.0833301767706871,"613":0.8719874024391174,"614":0.10125396400690079,"615":0.5857093930244446,"616":3.902804136276245,"617":1.2356376647949219,"618":0.7085127234458923,"619":1.8135908842086792}},"inputHidden":{"rows":20,"columns":20,"weights":{"0":-3.3033649921417236,"1":0.677764892578125,"2":-2.0613231658935547,"3":-2.724078416824341,"4":1.0485920906066895,"5":-1.5310618877410889,"6":-0.28704074025154114,"7":-2.1691622734069824,"8":-4.439105033874512,"9":1.94168221950531,"10":1.9163049459457397,"11":2.5758345127105713,"12":0.5379733443260193,"13":4.697602272033691,"14":-0.6856571435928345,"15":-0.8773429989814758,"16":-7.072469234466553,"17":1.9029173851013184,"18":-2.0404775142669678,"19":-0.9542454481124878,"20":-3.138056993484497,"21":0.31412482261657715,"22":-0.10555803775787354,"23":1.4192591905593872,"24":2.365847587585449,"25":1.3016985654830933,"26":2.4398245811462402,"27":-3.8325552940368652,"28":-3.5860064029693604,"29":0.5421603918075562,"30":-0.8315141797065735,"31":0.4136112928390503,"32":-0.36567237973213196,"33":-0.2557887136936188,"34":-1.2801376581192017,"35":2.376405715942383,"36":0.7440261244773865,"37":1.958220362663269,"38":-0.35073745250701904,"39":0.9315170645713806,"40":-0.4190312623977661,"41":-0.039892442524433136,"42":1.9109768867492676,"43":1.1178828477859497,"44":1.303054928779602,"45":0.28504234552383423,"46":-4.125718116760254,"47":0.9486290216445923,"48":-0.9615515470504761,"49":2.8825628757476807,"50":0.1880754828453064,"51":1.260537028312683,"52":-1.5561881065368652,"53":2.868112802505493,"54":-1.8227307796478271,"55":3.1122121810913086,"56":-1.840011715888977,"57":1.3492202758789062,"58":-0.21491485834121704,"59":-0.05382845550775528,"60":-1.5914770364761353,"61":0.9902851581573486,"62":2.808487892150879,"63":2.7016947269439697,"64":-0.8779805302619934,"65":0.06504475325345993,"66":1.1886277198791504,"67":-0.5562307834625244,"68":1.2904224395751953,"69":-1.259131908416748,"70":-1.158096432685852,"71":1.176106572151184,"72":-1.357715129852295,"73":-1.4699276685714722,"74":-0.9514518976211548,"75":1.0486711263656616,"76":-0.5978971123695374,"77":3.559725522994995,"78":2.410198450088501,"79":0.9324167370796204,"80":-0.9992313981056213,"81":-3.812777042388916,"82":2.8920042514801025,"83":1.6098296642303467,"84":-4.227855205535889,"85":-2.416635513305664,"86":-0.4788966774940491,"87":2.1475086212158203,"88":-0.0553036667406559,"89":-0.9879000782966614,"90":0.5458177328109741,"91":2.5607962608337402,"92":-2.1389989852905273,"93":0.22388695180416107,"94":2.081355333328247,"95":-2.2684476375579834,"96":0.17067262530326843,"97":-0.4412185251712799,"98":-0.8843365907669067,"99":-1.1151152849197388,"100":-3.3031020164489746,"101":-1.6358211040496826,"102":2.6723296642303467,"103":1.71172034740448,"104":-4.473453998565674,"105":1.7022299766540527,"106":0.8149282932281494,"107":3.1602206230163574,"108":-3.42170786857605,"109":-0.2564062476158142,"110":-1.1446243524551392,"111":-0.8909233808517456,"112":-3.0188324451446533,"113":-0.23924849927425385,"114":2.964015245437622,"115":2.471874952316284,"116":-1.9697126150131226,"117":-2.6474997997283936,"118":0.9564429521560669,"119":-0.7078132629394531,"120":-3.1679158210754395,"121":-6.433140277862549,"122":-4.162865161895752,"123":2.7704102993011475,"124":-0.6572573184967041,"125":0.6371139287948608,"126":-4.974646091461182,"127":1.9005327224731445,"128":1.6795611381530762,"129":-4.296255111694336,"130":1.6169077157974243,"131":-3.414395809173584,"132":-0.2624424397945404,"133":-1.2737345695495605,"134":4.378591060638428,"135":-4.261334419250488,"136":-3.3724148273468018,"137":2.3564367294311523,"138":-0.4484940469264984,"139":4.25297737121582,"140":2.3127918243408203,"141":-2.21694016456604,"142":-2.6603803634643555,"143":0.6296746730804443,"144":2.668867349624634,"145":-2.43117618560791,"146":-1.3693429231643677,"147":2.983816385269165,"148":-3.4444103240966797,"149":-0.7912588715553284,"150":-2.451998472213745,"151":1.165802001953125,"152":3.01183819770813,"153":-0.8598343729972839,"154":-2.87772798538208,"155":0.2539691627025604,"156":-5.540618419647217,"157":1.4061980247497559,"158":5.431094169616699,"159":2.3357419967651367,"160":-2.9471194744110107,"161":-3.508155107498169,"162":-6.397349834442139,"163":-6.153756618499756,"164":2.6930317878723145,"165":2.541238784790039,"166":2.533358097076416,"167":4.853470802307129,"168":3.9119229316711426,"169":-3.982163190841675,"170":2.26818585395813,"171":1.7784875631332397,"172":1.7675960063934326,"173":-0.7345903515815735,"174":1.0165947675704956,"175":-4.425500869750977,"176":0.1715669482946396,"177":-4.590179920196533,"178":-0.1306803673505783,"179":1.1580109596252441,"180":-0.7722389101982117,"181":1.8540304899215698,"182":-0.7098364233970642,"183":-2.4939353466033936,"184":-0.5332679748535156,"185":-0.8273533582687378,"186":1.7727596759796143,"187":4.353720188140869,"188":-1.9425780773162842,"189":0.8186479806900024,"190":-0.013286051340401173,"191":-1.3505001068115234,"192":5.277070045471191,"193":0.09478680789470673,"194":-4.074852466583252,"195":-3.1968908309936523,"196":1.9806902408599854,"197":3.4952054023742676,"198":1.576581358909607,"199":-1.7715728282928467,"200":2.357776403427124,"201":-1.4231501817703247,"202":-2.6160075664520264,"203":-0.11209602653980255,"204":1.8320143222808838,"205":-2.4650938510894775,"206":-0.01367025263607502,"207":-4.209663391113281,"208":6.602429389953613,"209":-0.24847684800624847,"210":2.1614248752593994,"211":-2.1479015350341797,"212":-1.4633595943450928,"213":3.9945971965789795,"214":-2.5650877952575684,"215":0.07111617177724838,"216":-2.4979248046875,"217":-2.8373138904571533,"218":-3.7695319652557373,"219":-5.035202503204346,"220":-2.0305063724517822,"221":1.2552846670150757,"222":-3.0675249099731445,"223":3.3524351119995117,"224":1.868919014930725,"225":-1.993050217628479,"226":-1.8519588708877563,"227":0.41968923807144165,"228":1.4870272874832153,"229":3.6998281478881836,"230":1.0620797872543335,"231":-4.277113914489746,"232":-3.702954053878784,"233":-1.6586716175079346,"234":-4.000712871551514,"235":3.904737710952759,"236":0.2901529371738434,"237":0.873563289642334,"238":2.5744478702545166,"239":-2.8067448139190674,"240":0.5088933706283569,"241":-0.9695025682449341,"242":4.360599994659424,"243":-0.3918798565864563,"244":1.1137079000473022,"245":-1.6251736879348755,"246":-1.9769147634506226,"247":1.6612865924835205,"248":1.7729012966156006,"249":-3.8284075260162354,"250":0.9584149122238159,"251":3.8596696853637695,"252":-2.7643511295318604,"253":2.2818779945373535,"254":3.949044704437256,"255":4.513840198516846,"256":2.892857551574707,"257":0.41357916593551636,"258":-0.6518298983573914,"259":-2.361710548400879,"260":1.7992058992385864,"261":-3.0303795337677,"262":-1.4477258920669556,"263":0.3450995981693268,"264":-1.9356911182403564,"265":0.619691789150238,"266":-3.660794973373413,"267":-3.7461130619049072,"268":2.161841630935669,"269":-3.4628894329071045,"270":-2.197187900543213,"271":-5.885873317718506,"272":4.113009452819824,"273":-1.7441071271896362,"274":-3.9947144985198975,"275":3.951645612716675,"276":-8.606318473815918,"277":0.9632124304771423,"278":-0.7734295129776001,"279":3.791938304901123,"280":1.9809333086013794,"281":-0.19021745026111603,"282":2.7775628566741943,"283":0.5626235604286194,"284":-5.954691410064697,"285":1.0192207098007202,"286":4.172059059143066,"287":6.186942100524902,"288":-0.24478276073932648,"289":-2.0670125484466553,"290":-1.165984034538269,"291":-0.9426559209823608,"292":6.307774543762207,"293":3.8586275577545166,"294":-2.1212968826293945,"295":2.184316396713257,"296":-0.7358461618423462,"297":0.7952535152435303,"298":3.416987419128418,"299":3.1976287364959717,"300":-3.2196855545043945,"301":3.7799758911132812,"302":-1.115898847579956,"303":-1.1944540739059448,"304":0.08809329569339752,"305":-0.4746983051300049,"306":-0.6743246912956238,"307":-2.0322422981262207,"308":-3.130251407623291,"309":0.43156489729881287,"310":0.6487520933151245,"311":2.9450178146362305,"312":-0.527104377746582,"313":-1.164857268333435,"314":1.4600377082824707,"315":-1.185387134552002,"316":-6.465023994445801,"317":-0.34108978509902954,"318":0.6766074299812317,"319":-0.40008485317230225,"320":2.083282470703125,"321":1.050234079360962,"322":-1.9225420951843262,"323":0.21546943485736847,"324":4.413747787475586,"325":0.6948568820953369,"326":-4.1112961769104,"327":-4.868191242218018,"328":2.8222768306732178,"329":-0.5507587790489197,"330":-2.267796516418457,"331":-1.6374425888061523,"332":-0.5807878375053406,"333":1.0986076593399048,"334":3.656348705291748,"335":2.59812331199646,"336":1.1133105754852295,"337":0.4621971547603607,"338":1.4895939826965332,"339":-4.635117530822754,"340":0.7888928055763245,"341":-2.4725728034973145,"342":-3.742682933807373,"343":2.3534979820251465,"344":4.218902587890625,"345":-2.6157143115997314,"346":0.2925161123275757,"347":1.8307665586471558,"348":1.7774467468261719,"349":-0.5545253753662109,"350":-2.8530914783477783,"351":-0.9276153445243835,"352":4.384878158569336,"353":-1.8288297653198242,"354":-0.35341164469718933,"355":0.39412635564804077,"356":-1.00789213180542,"357":0.45563557744026184,"358":1.4793775081634521,"359":0.12739942967891693,"360":2.7757339477539062,"361":-0.14745444059371948,"362":0.8721131086349487,"363":0.8957492709159851,"364":0.2643168866634369,"365":0.5541903972625732,"366":3.5712363719940186,"367":2.169529438018799,"368":2.476252794265747,"369":0.9464550614356995,"370":-2.2840678691864014,"371":1.8854471445083618,"372":4.077698707580566,"373":-4.189659595489502,"374":1.0228971242904663,"375":3.035656213760376,"376":-0.5356630682945251,"377":2.5575921535491943,"378":-0.36713895201683044,"379":-2.9449853897094727,"380":1.5769745111465454,"381":2.5716733932495117,"382":1.8445746898651123,"383":-1.27876877784729,"384":0.30684494972229004,"385":1.7562899589538574,"386":-0.9110867977142334,"387":-2.1906511783599854,"388":-0.2567272186279297,"389":1.6636550426483154,"390":1.1818344593048096,"391":2.1997108459472656,"392":0.8265593647956848,"393":2.258113145828247,"394":2.7403347492218018,"395":0.3092098534107208,"396":-0.23418034613132477,"397":1.6122723817825317,"398":-1.1816480159759521,"399":-2.2559657096862793}},"inputBias":{"rows":20,"columns":1,"weights":{"0":-1.5771409273147583,"1":-0.3503419756889343,"2":-0.5007243156433105,"3":-0.07145717740058899,"4":-1.5276602506637573,"5":-2.170470952987671,"6":-3.003218650817871,"7":-0.918292760848999,"8":-0.4411028027534485,"9":-0.11946188658475876,"10":-1.1743392944335938,"11":-0.9178503155708313,"12":-0.1543155163526535,"13":-0.3538830578327179,"14":-2.387711524963379,"15":-0.1680406928062439,"16":-1.3594748973846436,"17":0.712568461894989,"18":-0.7853052616119385,"19":-2.2509350776672363}},"forgetMatrix":{"rows":20,"columns":31,"weights":{"0":-0.9454479217529297,"1":-1.2626371383666992,"2":0.1294981837272644,"3":-0.5471373200416565,"4":-0.9958726763725281,"5":0.7114709615707397,"6":-1.3736692667007446,"7":-2.592210531234741,"8":1.7707535028457642,"9":-0.5328683257102966,"10":1.8541332483291626,"11":2.3091185092926025,"12":-1.1444854736328125,"13":-0.6265761852264404,"14":0.15469428896903992,"15":2.863098382949829,"16":1.2963677644729614,"17":1.40676748752594,"18":-0.12282276153564453,"19":2.27231502532959,"20":1.2702298164367676,"21":2.9409549236297607,"22":1.1741529703140259,"23":2.1299803256988525,"24":0.2722145915031433,"25":-0.139348104596138,"26":-2.181525468826294,"27":-0.24472931027412415,"28":-1.5759714841842651,"29":0.5531908869743347,"30":0.3193794786930084,"31":-0.25989872217178345,"32":-0.14500318467617035,"33":-1.3218190670013428,"34":-1.3845449686050415,"35":0.7344130873680115,"36":0.5502557158470154,"37":3.0263803005218506,"38":0.7558217644691467,"39":2.9295568466186523,"40":-1.4057596921920776,"41":-1.7069035768508911,"42":-0.7551157474517822,"43":0.6936333775520325,"44":-2.5771987438201904,"45":-2.2506909370422363,"46":-0.37514108419418335,"47":-2.2945926189422607,"48":0.38805344700813293,"49":-1.9218566417694092,"50":-4.2970733642578125,"51":0.2693611979484558,"52":0.8814751505851746,"53":3.42600154876709,"54":1.3058104515075684,"55":-3.2900731563568115,"56":3.237805128097534,"57":1.2454276084899902,"58":-3.5518996715545654,"59":1.975651502609253,"60":2.2184629440307617,"61":-1.4565242528915405,"62":0.5203752517700195,"63":-0.17566384375095367,"64":-1.8887817859649658,"65":2.743460178375244,"66":-0.3125233054161072,"67":-0.43555229902267456,"68":-1.0179717540740967,"69":-0.43377721309661865,"70":-0.2517361342906952,"71":5.355393409729004,"72":0.6320406198501587,"73":-1.4609348773956299,"74":-0.6739861369132996,"75":0.6699988842010498,"76":1.0680004358291626,"77":-1.4720759391784668,"78":-3.6040124893188477,"79":3.550565242767334,"80":1.478285789489746,"81":-1.0234593152999878,"82":-0.706626832485199,"83":-0.7633346915245056,"84":-1.9349346160888672,"85":-0.4972095787525177,"86":-2.061159133911133,"87":0.9206278920173645,"88":0.34647080302238464,"89":2.5671162605285645,"90":1.4043748378753662,"91":2.175351142883301,"92":-0.35270974040031433,"93":1.9136478900909424,"94":0.6293768286705017,"95":0.21717233955860138,"96":3.0916647911071777,"97":0.9460852146148682,"98":0.048325665295124054,"99":0.03001783788204193,"100":-1.8863831758499146,"101":-1.545951247215271,"102":2.4106411933898926,"103":3.769651412963867,"104":1.488276481628418,"105":-0.86159348487854,"106":2.4194366931915283,"107":2.5205821990966797,"108":1.2151942253112793,"109":-0.17282812297344208,"110":0.3284204304218292,"111":2.9504969120025635,"112":0.014650702476501465,"113":2.079145908355713,"114":0.9761122465133667,"115":-3.3744266033172607,"116":1.4431966543197632,"117":-0.1981155425310135,"118":0.37568187713623047,"119":-0.13497644662857056,"120":-2.214576482772827,"121":-3.00026798248291,"122":-3.3255624771118164,"123":0.38574910163879395,"124":-2.0935299396514893,"125":-1.3436825275421143,"126":1.2357677221298218,"127":-2.7860403060913086,"128":-0.21300897002220154,"129":1.9048411846160889,"130":-1.4124292135238647,"131":-0.8835858106613159,"132":0.42812609672546387,"133":0.8249561786651611,"134":-0.6395687460899353,"135":1.339453935623169,"136":-0.505121648311615,"137":-2.3336753845214844,"138":2.0891687870025635,"139":4.323272705078125,"140":0.2618064880371094,"141":-0.25527408719062805,"142":-2.3684093952178955,"143":2.4426419734954834,"144":-0.09942370653152466,"145":2.783155918121338,"146":1.0810534954071045,"147":2.32646107673645,"148":0.2537165582180023,"149":-1.9337546825408936,"150":-0.10856007784605026,"151":-4.236054420471191,"152":0.44508105516433716,"153":-1.69576096534729,"154":-0.6895544528961182,"155":-0.7378893494606018,"156":-1.2266993522644043,"157":-1.4286761283874512,"158":2.3771145343780518,"159":-1.653589129447937,"160":-1.4843789339065552,"161":-1.776389479637146,"162":-1.1962412595748901,"163":-1.4391125440597534,"164":1.9459145069122314,"165":1.9912166595458984,"166":-1.39023756980896,"167":1.2738813161849976,"168":1.6817188262939453,"169":0.31820017099380493,"170":-0.545620322227478,"171":1.2262073755264282,"172":0.04233034700155258,"173":2.1290743350982666,"174":-0.7275201678276062,"175":1.6498327255249023,"176":-0.896517276763916,"177":-1.7586915493011475,"178":-0.10898389667272568,"179":0.2574465870857239,"180":1.0388983488082886,"181":-0.005368050653487444,"182":1.991273045539856,"183":-0.17220546305179596,"184":0.020037056878209114,"185":1.1388022899627686,"186":-1.3512531518936157,"187":2.478111743927002,"188":2.8260815143585205,"189":1.7523173093795776,"190":0.41912490129470825,"191":1.5107038021087646,"192":-0.3528936505317688,"193":1.1801682710647583,"194":1.7252321243286133,"195":-1.0300493240356445,"196":0.08108466863632202,"197":2.0733871459960938,"198":-0.738509476184845,"199":2.2315101623535156,"200":0.24193520843982697,"201":0.8781736493110657,"202":-2.1742007732391357,"203":1.4736950397491455,"204":-0.11563429981470108,"205":1.7341269254684448,"206":1.567278504371643,"207":1.1019201278686523,"208":1.0783318281173706,"209":3.041771411895752,"210":-1.1558691263198853,"211":-3.021299362182617,"212":2.7647757530212402,"213":0.10587088018655777,"214":-2.4729630947113037,"215":-1.3549176454544067,"216":-1.1816316843032837,"217":-0.29596254229545593,"218":-0.5341913104057312,"219":0.5400291681289673,"220":0.4264810085296631,"221":1.729860782623291,"222":-0.9002499580383301,"223":1.4341001510620117,"224":2.1087820529937744,"225":1.801546573638916,"226":-0.9282447695732117,"227":-0.9408579468727112,"228":-1.1140469312667847,"229":0.9991043210029602,"230":-0.6660293340682983,"231":-1.610983967781067,"232":0.9981509447097778,"233":-0.4372207224369049,"234":2.0537595748901367,"235":-2.0022122859954834,"236":-3.2394673824310303,"237":-1.7563645839691162,"238":-0.48389241099357605,"239":2.4912469387054443,"240":-0.9665595293045044,"241":-2.596771717071533,"242":0.4724714457988739,"243":0.019773392006754875,"244":2.487696409225464,"245":0.32466018199920654,"246":3.771833896636963,"247":-1.569917917251587,"248":-0.6283706426620483,"249":-2.1422624588012695,"250":-2.0150623321533203,"251":-0.14569106698036194,"252":1.1720900535583496,"253":0.5818920135498047,"254":1.1234159469604492,"255":0.6267760396003723,"256":0.6486985087394714,"257":1.4506314992904663,"258":3.129011392593384,"259":-0.8230364918708801,"260":-0.06732836365699768,"261":0.4042656421661377,"262":0.38774073123931885,"263":-0.4175618588924408,"264":-2.459317445755005,"265":0.860506534576416,"266":0.4180101454257965,"267":-2.573721170425415,"268":2.165499687194824,"269":0.2843974232673645,"270":2.706481695175171,"271":-0.6646062731742859,"272":-2.3687596321105957,"273":2.225264072418213,"274":1.8575433492660522,"275":0.4008435308933258,"276":-1.4262999296188354,"277":1.980075716972351,"278":-0.02154129557311535,"279":-0.5159611701965332,"280":-2.0142064094543457,"281":1.6149020195007324,"282":-0.6010228395462036,"283":-2.604444980621338,"284":-0.21188119053840637,"285":3.2534680366516113,"286":-2.3001091480255127,"287":-1.2624804973602295,"288":1.3282307386398315,"289":2.660552978515625,"290":0.9697127938270569,"291":-2.198491334915161,"292":4.531383514404297,"293":1.6882431507110596,"294":0.5737068057060242,"295":1.1024411916732788,"296":-0.6933678388595581,"297":0.18827670812606812,"298":-1.4221941232681274,"299":0.13489171862602234,"300":0.7411820888519287,"301":-1.9815016984939575,"302":-0.7646452784538269,"303":-0.18619690835475922,"304":3.9367587566375732,"305":-0.4761471152305603,"306":0.6416656374931335,"307":-1.9429588317871094,"308":-1.9903905391693115,"309":-2.2375986576080322,"310":0.15792499482631683,"311":1.6635594367980957,"312":-0.14013049006462097,"313":0.36632412672042847,"314":2.8366105556488037,"315":-0.37087592482566833,"316":-0.19623629748821259,"317":1.7172852754592896,"318":1.477699637413025,"319":1.2929248809814453,"320":1.9423154592514038,"321":-0.3094504475593567,"322":-2.0732624530792236,"323":2.1012136936187744,"324":-1.2833166122436523,"325":-0.0810173973441124,"326":-1.9348137378692627,"327":2.130636215209961,"328":-0.6775951385498047,"329":-2.013371706008911,"330":0.06818345189094543,"331":1.0509920120239258,"332":-1.7727642059326172,"333":0.6033591628074646,"334":-0.6691107749938965,"335":1.8011184930801392,"336":2.113590717315674,"337":1.563536286354065,"338":-0.4429266154766083,"339":1.35627281665802,"340":1.068190336227417,"341":0.5555558204650879,"342":-0.9390808343887329,"343":-0.41168859601020813,"344":1.7356524467468262,"345":0.7543582320213318,"346":-0.8880784511566162,"347":-0.011897782795131207,"348":0.029533399268984795,"349":-1.4578900337219238,"350":2.2413558959960938,"351":2.3870460987091064,"352":-0.44524824619293213,"353":0.33434754610061646,"354":0.7616358399391174,"355":-1.249062180519104,"356":-0.255171537399292,"357":-1.3796305656433105,"358":-0.27900344133377075,"359":0.058753762394189835,"360":-1.6707828044891357,"361":0.1472821682691574,"362":-2.115722179412842,"363":-0.035612329840660095,"364":0.8986647129058838,"365":-2.317167282104492,"366":-0.20256836712360382,"367":2.7885477542877197,"368":3.1032588481903076,"369":-1.6313315629959106,"370":-0.05648636072874069,"371":-1.3142857551574707,"372":0.24982963502407074,"373":-2.243539810180664,"374":-0.9714149832725525,"375":-0.48903578519821167,"376":2.245671510696411,"377":-0.7542473673820496,"378":1.0478917360305786,"379":3.8951053619384766,"380":0.4628497064113617,"381":3.396545171737671,"382":-0.34702610969543457,"383":-1.0214641094207764,"384":-0.44460561871528625,"385":-0.8309630155563354,"386":-2.4540865421295166,"387":-0.021961737424135208,"388":-0.848368227481842,"389":2.5702762603759766,"390":-2.5483484268188477,"391":1.2906641960144043,"392":0.8322154879570007,"393":-3.30049729347229,"394":-0.903183102607727,"395":-3.1203315258026123,"396":-1.0284453630447388,"397":2.2507898807525635,"398":-1.8973209857940674,"399":1.7571913003921509,"400":0.6458225846290588,"401":2.5021250247955322,"402":-3.222662925720215,"403":-0.3811635673046112,"404":-2.5287716388702393,"405":0.16729797422885895,"406":1.901583194732666,"407":1.2022998332977295,"408":-1.586551547050476,"409":-2.1655240058898926,"410":0.08517233282327652,"411":-0.6948603987693787,"412":0.778367817401886,"413":0.33047980070114136,"414":1.3171910047531128,"415":-3.411696434020996,"416":4.1362714767456055,"417":0.4400366246700287,"418":0.23014576733112335,"419":-1.7980403900146484,"420":1.0891369581222534,"421":1.2847700119018555,"422":-0.4610603451728821,"423":0.24773579835891724,"424":-1.5187335014343262,"425":0.368876188993454,"426":0.65375816822052,"427":-1.68185293674469,"428":0.965894877910614,"429":2.772188425064087,"430":1.4930299520492554,"431":-1.9682093858718872,"432":0.6808049082756042,"433":-0.8384442925453186,"434":6.026949882507324,"435":0.010786845348775387,"436":-0.03671731799840927,"437":-2.070033550262451,"438":2.5877315998077393,"439":0.7997226119041443,"440":-0.6217672824859619,"441":-0.10542663186788559,"442":1.5639173984527588,"443":1.439602017402649,"444":0.5933520197868347,"445":-0.5946131944656372,"446":2.530040740966797,"447":-1.2690932750701904,"448":-3.639054298400879,"449":0.11264514923095703,"450":-1.954870343208313,"451":-3.3157453536987305,"452":0.24186411499977112,"453":0.5158838033676147,"454":1.9567210674285889,"455":-2.312988519668579,"456":-3.51173734664917,"457":0.00034172291634604335,"458":-1.264795184135437,"459":-2.0900800228118896,"460":-0.450141966342926,"461":-0.26039254665374756,"462":-1.6292295455932617,"463":-0.4970630407333374,"464":-1.9693872928619385,"465":-1.2117321491241455,"466":-1.1758359670639038,"467":-2.3621819019317627,"468":0.9042558073997498,"469":-0.13880902528762817,"470":-2.7494821548461914,"471":-2.3529253005981445,"472":-1.7310020923614502,"473":-2.109386682510376,"474":2.137239456176758,"475":0.4090963304042816,"476":-0.03335874527692795,"477":-0.9068569540977478,"478":2.5107390880584717,"479":2.501777172088623,"480":1.2470381259918213,"481":-0.2013806700706482,"482":1.9664316177368164,"483":1.184090256690979,"484":-0.9481279850006104,"485":0.0316711887717247,"486":0.5851441025733948,"487":-0.6414755582809448,"488":1.0922154188156128,"489":-0.3441178798675537,"490":0.3409968912601471,"491":-0.39624324440956116,"492":2.2544467449188232,"493":0.7785372734069824,"494":1.435418725013733,"495":1.7861143350601196,"496":0.5724564790725708,"497":0.10887037217617035,"498":-0.3320813775062561,"499":-0.08464572578668594,"500":2.4835915565490723,"501":-1.8564589023590088,"502":-0.15816247463226318,"503":-1.487595796585083,"504":-0.4904272258281708,"505":-1.1516895294189453,"506":2.470076560974121,"507":-0.6710556149482727,"508":0.6487839221954346,"509":-0.40353554487228394,"510":-0.08591795712709427,"511":0.10906174033880234,"512":-2.4528675079345703,"513":0.7175226807594299,"514":1.2813262939453125,"515":-0.07971940189599991,"516":1.91481351852417,"517":-2.949924945831299,"518":-1.7267520427703857,"519":-1.169196605682373,"520":3.709425687789917,"521":2.0427379608154297,"522":1.6872175931930542,"523":1.6366440057754517,"524":0.9821009039878845,"525":-0.869592010974884,"526":1.2482023239135742,"527":-3.5002033710479736,"528":-4.5446882247924805,"529":-2.49875545501709,"530":1.0918303728103638,"531":-1.1930017471313477,"532":-5.808028697967529,"533":1.5123522281646729,"534":-2.187061309814453,"535":-1.5126309394836426,"536":2.290153741836548,"537":1.6931909322738647,"538":-1.4252426624298096,"539":0.3440171778202057,"540":1.2436693906784058,"541":2.628495454788208,"542":-0.9213317036628723,"543":-0.4521712064743042,"544":0.6455351710319519,"545":0.36072614789009094,"546":-3.141460418701172,"547":0.9351901412010193,"548":1.5184378623962402,"549":-0.5652532577514648,"550":-2.1537511348724365,"551":0.5425606966018677,"552":1.9441179037094116,"553":-1.9661030769348145,"554":0.5525628328323364,"555":-1.1292307376861572,"556":-1.0872329473495483,"557":-2.448608875274658,"558":1.9311054944992065,"559":-1.5358995199203491,"560":-1.878312349319458,"561":3.43749737739563,"562":-1.156868815422058,"563":-0.6922624707221985,"564":0.07041066139936447,"565":0.28288841247558594,"566":-2.408003330230713,"567":1.2843947410583496,"568":3.0408074855804443,"569":-2.9108240604400635,"570":-2.1939570903778076,"571":2.201319456100464,"572":-0.9333189129829407,"573":0.44617655873298645,"574":-2.4549450874328613,"575":0.833920419216156,"576":1.6497524976730347,"577":-1.7630962133407593,"578":1.368588924407959,"579":-2.3934578895568848,"580":1.906543493270874,"581":-1.039943814277649,"582":-1.1049565076828003,"583":1.9754846096038818,"584":3.0759003162384033,"585":2.4047913551330566,"586":-2.3479163646698,"587":-1.8034640550613403,"588":-1.16624915599823,"589":-0.13856714963912964,"590":-0.6127766370773315,"591":-1.7682042121887207,"592":1.0125197172164917,"593":0.3790737986564636,"594":1.1858859062194824,"595":3.771298408508301,"596":3.603161334991455,"597":-0.03843129798769951,"598":-1.7449358701705933,"599":-2.8115949630737305,"600":-4.662370681762695,"601":1.5041834115982056,"602":-1.5354816913604736,"603":0.4999944269657135,"604":0.9921661019325256,"605":-1.630835771560669,"606":-1.6345107555389404,"607":-0.3479664921760559,"608":0.1508394032716751,"609":-2.0320935249328613,"610":-0.9652881026268005,"611":-0.7726839780807495,"612":-2.481187582015991,"613":0.8296444416046143,"614":0.9371570944786072,"615":1.4227014780044556,"616":-0.8367707133293152,"617":-0.4973950982093811,"618":0.369165301322937,"619":0.6354807019233704}},"forgetHidden":{"rows":20,"columns":20,"weights":{"0":-1.3940154314041138,"1":3.094484567642212,"2":0.35648882389068604,"3":2.3614907264709473,"4":1.1612979173660278,"5":-0.8382696509361267,"6":0.655811607837677,"7":0.37780335545539856,"8":-2.951516628265381,"9":2.0677599906921387,"10":-0.8219978213310242,"11":-1.2449415922164917,"12":0.5692667961120605,"13":-2.1705310344696045,"14":-1.7702528238296509,"15":-1.0547881126403809,"16":-1.3953925371170044,"17":1.6559314727783203,"18":1.5323691368103027,"19":-1.3640135526657104,"20":5.019085884094238,"21":0.5940527319908142,"22":-0.20675548911094666,"23":3.0486788749694824,"24":1.3658397197723389,"25":1.5832973718643188,"26":3.1327013969421387,"27":1.7275782823562622,"28":-1.1433744430541992,"29":2.273676633834839,"30":0.7702162265777588,"31":0.03590122237801552,"32":3.7284088134765625,"33":1.4021283388137817,"34":1.732435703277588,"35":0.8735108375549316,"36":-1.7554574012756348,"37":5.45058536529541,"38":0.2557816505432129,"39":3.242079496383667,"40":-0.6838875412940979,"41":-1.892109990119934,"42":-0.07649339735507965,"43":2.5773866176605225,"44":2.5812182426452637,"45":0.42663830518722534,"46":1.8020685911178589,"47":2.3598549365997314,"48":-0.4212256669998169,"49":0.03351728990674019,"50":1.363709807395935,"51":-2.843695640563965,"52":1.566089391708374,"53":2.4995899200439453,"54":0.24706660211086273,"55":0.37920770049095154,"56":0.20858894288539886,"57":-0.41658705472946167,"58":-0.3788359761238098,"59":2.2891457080841064,"60":0.8986949920654297,"61":-2.0307469367980957,"62":-2.440192222595215,"63":-0.3892085552215576,"64":-0.2957398593425751,"65":3.4497623443603516,"66":5.109605312347412,"67":0.32591044902801514,"68":-0.6050271987915039,"69":0.8830062747001648,"70":1.7038294076919556,"71":-0.3875458836555481,"72":-0.061053916811943054,"73":0.2220877856016159,"74":-0.13222944736480713,"75":-0.25968414545059204,"76":0.3864513337612152,"77":-0.9779924750328064,"78":-2.718656063079834,"79":-0.5276899337768555,"80":-1.2120416164398193,"81":2.131213665008545,"82":-0.8352711200714111,"83":-0.8827162384986877,"84":-0.30671682953834534,"85":-1.9872397184371948,"86":0.7814040184020996,"87":-1.0312424898147583,"88":-0.35215437412261963,"89":1.4827873706817627,"90":-3.1936757564544678,"91":-1.944265365600586,"92":0.8852406144142151,"93":-0.47596535086631775,"94":-1.7356045246124268,"95":-0.788788914680481,"96":0.4255158007144928,"97":1.8335309028625488,"98":0.7373530864715576,"99":1.2968963384628296,"100":0.7628849744796753,"101":-0.44019758701324463,"102":1.6480741500854492,"103":-0.6114802956581116,"104":-0.50624018907547,"105":0.6080415844917297,"106":0.06193356588482857,"107":0.27760690450668335,"108":0.4613111913204193,"109":1.8342550992965698,"110":-0.30291712284088135,"111":1.6078078746795654,"112":0.45906758308410645,"113":3.542689561843872,"114":-0.4941328763961792,"115":-1.3639503717422485,"116":-2.3221287727355957,"117":-2.292767286300659,"118":-1.8605173826217651,"119":-3.3452253341674805,"120":-0.9038425087928772,"121":0.17478470504283905,"122":1.547393798828125,"123":2.0301334857940674,"124":-2.5518479347229004,"125":0.3572942316532135,"126":0.6628373861312866,"127":0.9354139566421509,"128":-0.35087525844573975,"129":-1.2410248517990112,"130":4.765824794769287,"131":2.1465580463409424,"132":-0.37539711594581604,"133":1.3207473754882812,"134":-1.8489474058151245,"135":4.979166507720947,"136":-2.8241641521453857,"137":4.15762186050415,"138":0.20246703922748566,"139":5.28235387802124,"140":1.179106593132019,"141":-2.059842109680176,"142":-1.5409027338027954,"143":0.8456458449363708,"144":-0.5862858295440674,"145":-0.22821401059627533,"146":2.931730270385742,"147":2.0295827388763428,"148":0.6434859037399292,"149":-0.5968276262283325,"150":-0.28691592812538147,"151":-0.3351501226425171,"152":1.5910515785217285,"153":-0.00658557191491127,"154":1.5664209127426147,"155":-0.23720957338809967,"156":-2.013658285140991,"157":0.3424837291240692,"158":0.9349062442779541,"159":1.7686223983764648,"160":-1.0087330341339111,"161":1.4546315670013428,"162":0.18973112106323242,"163":-0.7722170352935791,"164":0.09116555005311966,"165":1.5318328142166138,"166":1.6725443601608276,"167":-0.25394362211227417,"168":-1.3942312002182007,"169":1.1369798183441162,"170":0.1938815861940384,"171":-0.694328248500824,"172":1.8454986810684204,"173":0.6445637941360474,"174":-2.665018081665039,"175":-0.7978411912918091,"176":-0.6457803249359131,"177":2.246405839920044,"178":0.604541540145874,"179":0.4220261871814728,"180":11.452836990356445,"181":-3.055161476135254,"182":4.68990421295166,"183":2.0344948768615723,"184":-0.08853320777416229,"185":-2.9745047092437744,"186":-0.24905610084533691,"187":-3.3207855224609375,"188":2.4646592140197754,"189":0.6287292838096619,"190":-2.1076295375823975,"191":-1.1008552312850952,"192":-0.9891789555549622,"193":-0.28565385937690735,"194":-0.5573069453239441,"195":1.555424451828003,"196":-0.4057048559188843,"197":-2.014627695083618,"198":-0.15522050857543945,"199":4.059847354888916,"200":3.0718154907226562,"201":0.877476155757904,"202":-1.9158436059951782,"203":1.3785309791564941,"204":2.3566465377807617,"205":1.540697693824768,"206":1.453257441520691,"207":-0.9694088101387024,"208":2.036684036254883,"209":4.958579063415527,"210":1.99116849899292,"211":-0.5009334683418274,"212":2.22700572013855,"213":-2.6470448970794678,"214":1.038572072982788,"215":1.3423763513565063,"216":-0.06915436685085297,"217":-2.232936382293701,"218":0.9198207259178162,"219":0.7868722677230835,"220":-0.15504582226276398,"221":0.42650192975997925,"222":1.2455047369003296,"223":-0.9863731861114502,"224":-0.09832681715488434,"225":0.6640028357505798,"226":0.08502541482448578,"227":-1.1593152284622192,"228":1.117040753364563,"229":-1.0575922727584839,"230":0.7698507905006409,"231":0.11773954331874847,"232":0.5539490580558777,"233":-1.9149442911148071,"234":-0.6556694507598877,"235":0.05591928958892822,"236":1.434823751449585,"237":0.602041482925415,"238":-1.1111724376678467,"239":-1.1268227100372314,"240":-0.9904881715774536,"241":1.8850682973861694,"242":1.8181337118148804,"243":-1.3229233026504517,"244":0.8002209067344666,"245":-1.0946136713027954,"246":3.677215814590454,"247":-0.14940714836120605,"248":-0.9293220639228821,"249":0.5745421051979065,"250":-0.9439154863357544,"251":0.5725314021110535,"252":2.497149705886841,"253":2.309891939163208,"254":-5.210658550262451,"255":0.42669886350631714,"256":4.391665935516357,"257":0.7500935196876526,"258":1.9759067296981812,"259":-1.8558902740478516,"260":-1.2892886400222778,"261":1.8014277219772339,"262":0.6345359086990356,"263":0.8388515114784241,"264":2.3519835472106934,"265":-0.3882456123828888,"266":1.1624095439910889,"267":1.1179611682891846,"268":0.3695682883262634,"269":1.263806939125061,"270":-1.8454254865646362,"271":-0.1286034882068634,"272":0.9439532160758972,"273":-0.62391197681427,"274":-0.8588765263557434,"275":-2.1283421516418457,"276":-0.15831957757472992,"277":0.6168417930603027,"278":0.16705656051635742,"279":-0.790177583694458,"280":-0.505983829498291,"281":2.0120656490325928,"282":-0.4341511130332947,"283":-0.8217313885688782,"284":0.3187404274940491,"285":0.25097978115081787,"286":0.6339111328125,"287":1.986863613128662,"288":-1.014393925666809,"289":1.6263967752456665,"290":-1.1046042442321777,"291":-0.5800688862800598,"292":-2.8177175521850586,"293":1.2260903120040894,"294":0.06895891577005386,"295":-0.3437388241291046,"296":0.8771307468414307,"297":1.4206695556640625,"298":2.052225351333618,"299":0.6398669481277466,"300":-1.9753634929656982,"301":-0.6681259274482727,"302":0.8293238878250122,"303":1.981465458869934,"304":1.1001070737838745,"305":-0.8386655449867249,"306":-1.654356598854065,"307":-0.01950584352016449,"308":3.0114245414733887,"309":-1.0234870910644531,"310":-3.2528610229492188,"311":0.5558882355690002,"312":1.7788501977920532,"313":-0.11459995806217194,"314":-2.847999334335327,"315":1.3069788217544556,"316":0.029475746676325798,"317":1.1121478080749512,"318":1.1462093591690063,"319":-0.36738598346710205,"320":-0.5852593183517456,"321":-0.501796543598175,"322":-5.940124034881592,"323":0.17988912761211395,"324":1.0091118812561035,"325":-0.10239889472723007,"326":-3.6317954063415527,"327":-3.846130132675171,"328":0.3834179937839508,"329":-3.721827268600464,"330":1.1258697509765625,"331":-0.4421243667602539,"332":2.0858511924743652,"333":0.7941290736198425,"334":0.2832169234752655,"335":-2.070363998413086,"336":0.08243943750858307,"337":-1.1658605337142944,"338":1.1007803678512573,"339":1.2195039987564087,"340":6.672884464263916,"341":-0.4822680950164795,"342":-2.721017837524414,"343":-0.02212636172771454,"344":-2.153867721557617,"345":0.09090971946716309,"346":4.259916305541992,"347":4.789905071258545,"348":4.195712089538574,"349":0.8910800218582153,"350":3.484502077102661,"351":-1.4902633428573608,"352":-0.9274911880493164,"353":-0.16987818479537964,"354":4.639072418212891,"355":1.077579140663147,"356":-0.3847799301147461,"357":-3.980923891067505,"358":0.5747363567352295,"359":-1.373982310295105,"360":-1.5623705387115479,"361":2.4140801429748535,"362":-0.22418352961540222,"363":-2.166017532348633,"364":-1.7910274267196655,"365":-0.45113131403923035,"366":-0.5941423177719116,"367":1.7103593349456787,"368":-2.3267767429351807,"369":1.5801265239715576,"370":-1.2902064323425293,"371":0.6423513889312744,"372":2.0628135204315186,"373":2.367379665374756,"374":0.46793249249458313,"375":0.6392106413841248,"376":-2.867898941040039,"377":3.014997959136963,"378":-3.313119411468506,"379":-0.36926111578941345,"380":0.7297124266624451,"381":-2.1034786701202393,"382":-0.1538720577955246,"383":-1.251198172569275,"384":0.5099805593490601,"385":0.6534173488616943,"386":-1.9875901937484741,"387":-0.249780535697937,"388":1.8906687498092651,"389":-3.8043134212493896,"390":0.8361836671829224,"391":-0.09838413447141647,"392":-0.22870369255542755,"393":1.6561548709869385,"394":4.3683953285217285,"395":-0.19869035482406616,"396":-6.201823711395264,"397":0.42204955220222473,"398":-1.0667616128921509,"399":-0.16433562338352203}},"forgetBias":{"rows":20,"columns":1,"weights":{"0":0,"1":0,"2":0,"3":0,"4":0,"5":0,"6":0,"7":0,"8":0,"9":0,"10":0,"11":0,"12":0,"13":0,"14":0,"15":0,"16":0,"17":0,"18":0,"19":0}},"outputMatrix":{"rows":20,"columns":31,"weights":{"0":-1.5417803525924683,"1":-0.5383415222167969,"2":0.29735618829727173,"3":-0.1740473210811615,"4":3.6669681072235107,"5":-0.3791504502296448,"6":-1.648413062095642,"7":-2.384498119354248,"8":-0.3902372717857361,"9":-0.10368141531944275,"10":0.6065659523010254,"11":-0.9979828000068665,"12":2.4740214347839355,"13":-2.3580870628356934,"14":-0.9731979370117188,"15":0.8470921516418457,"16":-2.3598084449768066,"17":-1.7394709587097168,"18":-0.6825848817825317,"19":-0.5319003462791443,"20":3.965994358062744,"21":0.13167287409305573,"22":1.8414372205734253,"23":-0.17465800046920776,"24":-0.9263493418693542,"25":-2.6668941974639893,"26":0.878975510597229,"27":2.0978546142578125,"28":-3.8421308994293213,"29":-1.225640892982483,"30":0.6103482246398926,"31":-0.8677451014518738,"32":-3.4535696506500244,"33":0.6939327716827393,"34":-0.42529061436653137,"35":0.604824423789978,"36":-0.8894830346107483,"37":-0.3638557195663452,"38":-0.7718940377235413,"39":0.7777680158615112,"40":1.8147332668304443,"41":2.87378191947937,"42":0.5903530120849609,"43":1.7889411449432373,"44":-0.42044147849082947,"45":1.0256271362304688,"46":1.753542423248291,"47":-2.857707977294922,"48":-0.3734983205795288,"49":-0.6064174175262451,"50":-1.7593867778778076,"51":2.692230463027954,"52":1.0271426439285278,"53":1.5916023254394531,"54":-1.1526284217834473,"55":-3.9553720951080322,"56":-1.362212061882019,"57":2.341222047805786,"58":-0.09525750577449799,"59":-4.931572914123535,"60":2.4212100505828857,"61":0.931122362613678,"62":-1.1090723276138306,"63":0.8131815791130066,"64":-0.9877737760543823,"65":0.5343971252441406,"66":-1.3155807256698608,"67":-1.4476096630096436,"68":-0.6962237358093262,"69":0.8590269684791565,"70":-0.07674922794103622,"71":0.5231599807739258,"72":-0.723213255405426,"73":0.32043811678886414,"74":0.303788423538208,"75":0.7957796454429626,"76":0.7529247999191284,"77":0.07241450250148773,"78":0.34103497862815857,"79":0.5909394025802612,"80":0.28425151109695435,"81":-1.5187513828277588,"82":0.7484561204910278,"83":2.2079837322235107,"84":2.0664923191070557,"85":0.42839285731315613,"86":0.7246156334877014,"87":-4.871493816375732,"88":3.9248313903808594,"89":0.6510061025619507,"90":5.515625,"91":1.8126463890075684,"92":0.7444754242897034,"93":1.9405343532562256,"94":0.6361244916915894,"95":0.7092806696891785,"96":-0.3320730924606323,"97":0.07188867032527924,"98":-0.9380283951759338,"99":1.4219475984573364,"100":-0.593842089176178,"101":-1.1037119626998901,"102":2.7487728595733643,"103":-0.13487476110458374,"104":0.6815618276596069,"105":2.480851650238037,"106":2.2531211376190186,"107":0.19241765141487122,"108":-1.1184637546539307,"109":1.407619833946228,"110":-3.229719877243042,"111":1.7905620336532593,"112":-0.2883257269859314,"113":-1.9341363906860352,"114":1.1835983991622925,"115":-0.9920788407325745,"116":-0.2689138650894165,"117":-0.04474112391471863,"118":-0.22503995895385742,"119":-1.0952180624008179,"120":-0.4731893241405487,"121":2.1406874656677246,"122":-1.6793767213821411,"123":0.5631610155105591,"124":0.609635055065155,"125":2.426863670349121,"126":-1.381095051765442,"127":-0.15094126760959625,"128":-1.3945856094360352,"129":0.43413951992988586,"130":0.2763396203517914,"131":1.2439534664154053,"132":-1.0356686115264893,"133":0.6550561189651489,"134":-0.16774623095989227,"135":0.7642232179641724,"136":0.6426798701286316,"137":-0.8871661424636841,"138":-4.4019293785095215,"139":-4.147956848144531,"140":0.7118527293205261,"141":-1.5495989322662354,"142":-3.240917682647705,"143":0.8339006304740906,"144":0.8473638892173767,"145":0.002634732984006405,"146":-0.7324365973472595,"147":-1.5642483234405518,"148":1.8106359243392944,"149":-0.19811753928661346,"150":0.48258569836616516,"151":1.0978673696517944,"152":1.703059196472168,"153":-0.30753666162490845,"154":-0.10367795079946518,"155":-2.2719380855560303,"156":-0.33059316873550415,"157":-0.26467204093933105,"158":2.716622829437256,"159":-3.253143787384033,"160":-1.557699203491211,"161":-0.9940571188926697,"162":-3.4035584926605225,"163":-0.27974259853363037,"164":1.7445454597473145,"165":-0.28382980823516846,"166":-0.14470332860946655,"167":2.1128299236297607,"168":-0.1075754389166832,"169":2.401618242263794,"170":-1.1585054397583008,"171":-2.179579734802246,"172":1.036670207977295,"173":0.4193645417690277,"174":-1.0245627164840698,"175":0.7752143740653992,"176":-0.5903043150901794,"177":-0.682167649269104,"178":1.222432017326355,"179":0.7903662323951721,"180":-1.5158756971359253,"181":0.45002612471580505,"182":0.2458961009979248,"183":1.4691026210784912,"184":-1.2466681003570557,"185":-0.02169768698513508,"186":-0.38549479842185974,"187":0.03912641853094101,"188":-0.4232155978679657,"189":2.1589882373809814,"190":1.0381757020950317,"191":-0.3916778862476349,"192":-0.8101903200149536,"193":0.06598837673664093,"194":-0.7984767556190491,"195":1.5644930601119995,"196":1.4392215013504028,"197":0.8753880858421326,"198":-1.9909056425094604,"199":2.3552281856536865,"200":2.94964861869812,"201":1.0340321063995361,"202":-2.0227420330047607,"203":0.6887475252151489,"204":2.266685962677002,"205":-1.0481191873550415,"206":0.4790451228618622,"207":0.9302821755409241,"208":3.3946754932403564,"209":1.3608964681625366,"210":-2.183145761489868,"211":-0.8772413730621338,"212":3.880967378616333,"213":0.8163049221038818,"214":-1.4573274850845337,"215":-0.43506062030792236,"216":0.953397274017334,"217":0.5502766966819763,"218":0.3732958436012268,"219":4.870402812957764,"220":-3.2765860557556152,"221":1.3468095064163208,"222":0.8629372119903564,"223":-0.4196451008319855,"224":0.3726308345794678,"225":1.9686610698699951,"226":-1.6849524974822998,"227":1.1665904521942139,"228":3.4231061935424805,"229":0.48276737332344055,"230":0.25664809346199036,"231":-3.7290194034576416,"232":3.5309293270111084,"233":0.2697744369506836,"234":1.8707400560379028,"235":-1.8755155801773071,"236":-0.033834125846624374,"237":-0.5648462772369385,"238":0.47580552101135254,"239":0.5179826021194458,"240":2.7621424198150635,"241":-1.3340619802474976,"242":-1.0882700681686401,"243":-0.943030059337616,"244":-1.1587642431259155,"245":-0.44184422492980957,"246":-0.20440421998500824,"247":-0.7347540855407715,"248":0.6773425936698914,"249":0.6905640959739685,"250":2.4822094440460205,"251":0.7772149443626404,"252":0.3399575650691986,"253":-0.7788258194923401,"254":-0.9717534184455872,"255":0.24350589513778687,"256":-0.4261707067489624,"257":1.1166523694992065,"258":1.2273188829421997,"259":2.6591947078704834,"260":0.9284020066261292,"261":-0.06652343273162842,"262":-0.10242331773042679,"263":0.8043252825737,"264":-3.6631357669830322,"265":-0.1465960294008255,"266":1.2906662225723267,"267":2.9690442085266113,"268":4.971721649169922,"269":0.5842387080192566,"270":0.6261472702026367,"271":-0.6546141505241394,"272":-0.44473645091056824,"273":-2.1044068336486816,"274":1.0959731340408325,"275":1.8377000093460083,"276":-0.6008800268173218,"277":-2.2621846199035645,"278":-0.30498558282852173,"279":-1.6608405113220215,"280":-4.248196601867676,"281":-0.5168266296386719,"282":1.0756839513778687,"283":1.3161466121673584,"284":1.6785598993301392,"285":1.737405776977539,"286":-0.19483405351638794,"287":2.783181667327881,"288":-1.4891374111175537,"289":-1.426743745803833,"290":-1.151374340057373,"291":-1.48114812374115,"292":1.1305772066116333,"293":0.654329240322113,"294":1.5177620649337769,"295":-1.902034044265747,"296":-0.9802882671356201,"297":0.7207217216491699,"298":0.3020278513431549,"299":0.06839596480131149,"300":1.6353912353515625,"301":1.2109904289245605,"302":0.18393677473068237,"303":0.2977859079837799,"304":1.4856337308883667,"305":2.438286066055298,"306":1.1336158514022827,"307":-1.7582584619522095,"308":0.7417441010475159,"309":-0.4358725845813751,"310":-0.19816496968269348,"311":1.84209406375885,"312":1.260184407234192,"313":-2.568286657333374,"314":-0.9138156771659851,"315":-1.6411062479019165,"316":-2.225886821746826,"317":-1.6173945665359497,"318":-0.8275373578071594,"319":0.6454258561134338,"320":-0.44335615634918213,"321":2.4131317138671875,"322":0.5869097709655762,"323":-0.5722112059593201,"324":-1.0608371496200562,"325":1.224045991897583,"326":0.8432536721229553,"327":-0.7600979208946228,"328":0.4237881898880005,"329":1.4436012506484985,"330":2.57684588432312,"331":-1.62259840965271,"332":-2.7894580364227295,"333":0.461954802274704,"334":2.3681156635284424,"335":-1.188403606414795,"336":-1.4333322048187256,"337":1.261185884475708,"338":-0.3895062804222107,"339":-1.24742591381073,"340":-0.19467507302761078,"341":-1.1873573064804077,"342":0.16865232586860657,"343":0.36011719703674316,"344":2.9503865242004395,"345":2.724377155303955,"346":0.28090953826904297,"347":-1.7974228858947754,"348":-0.8323830962181091,"349":0.5975468754768372,"350":1.9821299314498901,"351":1.3498907089233398,"352":1.604811668395996,"353":2.0879645347595215,"354":1.7876094579696655,"355":-0.7770302891731262,"356":-1.3938755989074707,"357":-4.144914627075195,"358":1.2091642618179321,"359":-0.3566000461578369,"360":-0.08523592352867126,"361":1.1433069705963135,"362":-1.1510865688323975,"363":0.3066636323928833,"364":0.7541437149047852,"365":0.22089487314224243,"366":0.4455825984477997,"367":0.8518117666244507,"368":1.9990105628967285,"369":-1.233848214149475,"370":1.4015320539474487,"371":0.9959272742271423,"372":1.0642948150634766,"373":-1.055971384048462,"374":-2.4156219959259033,"375":3.4626262187957764,"376":-0.020600413903594017,"377":-1.1013119220733643,"378":-2.19879412651062,"379":0.899437427520752,"380":0.25414547324180603,"381":-0.17233695089817047,"382":2.859041452407837,"383":-1.7905508279800415,"384":4.180665493011475,"385":0.4166888892650604,"386":1.5044153928756714,"387":0.3705613613128662,"388":-2.1553056240081787,"389":-0.7255237698554993,"390":0.6454868912696838,"391":-0.4489037096500397,"392":1.6783219575881958,"393":0.3047308027744293,"394":1.8785117864608765,"395":-1.4122928380966187,"396":0.871397078037262,"397":1.1218597888946533,"398":-0.3592817783355713,"399":1.2732768058776855,"400":-1.5472323894500732,"401":-2.4462978839874268,"402":-0.43279674649238586,"403":1.4782171249389648,"404":0.6060255169868469,"405":1.0446422100067139,"406":1.2971503734588623,"407":-0.27763429284095764,"408":1.5800600051879883,"409":-1.0077295303344727,"410":-2.3318498134613037,"411":-0.10927851498126984,"412":1.2393654584884644,"413":-0.4449230134487152,"414":0.7491394281387329,"415":3.975757598876953,"416":-1.8209384679794312,"417":-0.5859671831130981,"418":-0.6374017596244812,"419":-1.3328179121017456,"420":0.7340009808540344,"421":2.469620943069458,"422":3.8517415523529053,"423":2.840001344680786,"424":1.695995807647705,"425":-1.1537429094314575,"426":-2.821024179458618,"427":2.8445069789886475,"428":0.5972666144371033,"429":-1.4152878522872925,"430":-0.3363458812236786,"431":0.8017040491104126,"432":-0.4816783666610718,"433":4.61062479019165,"434":1.2596702575683594,"435":0.32891255617141724,"436":1.827192783355713,"437":0.4999585747718811,"438":0.38962292671203613,"439":2.2330868244171143,"440":1.6510037183761597,"441":2.067512035369873,"442":2.6000494956970215,"443":-0.8656371831893921,"444":-2.765820026397705,"445":-0.8322412371635437,"446":-0.5931720733642578,"447":-0.8642252087593079,"448":-1.0948410034179688,"449":1.6473886966705322,"450":-0.8552711009979248,"451":2.962063789367676,"452":-2.319176197052002,"453":-1.2831699848175049,"454":-1.6300413608551025,"455":0.8338128328323364,"456":0.9658172726631165,"457":-1.6469005346298218,"458":-2.319871425628662,"459":1.2260242700576782,"460":0.1724424511194229,"461":-1.9527400732040405,"462":1.327699065208435,"463":0.9882411956787109,"464":-1.1426708698272705,"465":2.491041421890259,"466":-0.7854193449020386,"467":1.9236602783203125,"468":-1.6940943002700806,"469":1.7684698104858398,"470":-2.074101686477661,"471":-3.4766945838928223,"472":1.307618260383606,"473":-2.176054000854492,"474":-0.7479200959205627,"475":-0.9881414175033569,"476":0.9314692616462708,"477":1.6555023193359375,"478":-1.1781601905822754,"479":-2.523312568664551,"480":-0.2620016038417816,"481":-1.6221363544464111,"482":1.7537822723388672,"483":-2.5224809646606445,"484":-0.6604113578796387,"485":1.4348784685134888,"486":-2.1470367908477783,"487":1.0617831945419312,"488":0.22507813572883606,"489":1.5107972621917725,"490":-2.1101481914520264,"491":-3.1471917629241943,"492":0.9496718645095825,"493":0.6981602311134338,"494":0.3694414496421814,"495":0.6919626593589783,"496":-1.308508038520813,"497":-1.9679527282714844,"498":0.9296681880950928,"499":-0.8148843050003052,"500":0.5084042549133301,"501":4.170910358428955,"502":0.9200357794761658,"503":-2.045976161956787,"504":3.0932955741882324,"505":0.5678090453147888,"506":1.707816243171692,"507":0.1179380863904953,"508":0.7691887021064758,"509":0.3155088722705841,"510":1.5961064100265503,"511":-2.118588447570801,"512":-0.8364306092262268,"513":-0.3713211715221405,"514":-1.0684211254119873,"515":-1.4217349290847778,"516":-1.7309819459915161,"517":-0.41169705986976624,"518":-0.20803552865982056,"519":-0.6393313407897949,"520":-1.8843879699707031,"521":0.852442741394043,"522":3.1424808502197266,"523":-0.9493008852005005,"524":-1.264494776725769,"525":-0.6484835743904114,"526":-1.2968976497650146,"527":-0.35671332478523254,"528":-0.37524160742759705,"529":-0.7123998403549194,"530":0.327974408864975,"531":-0.6586990356445312,"532":-0.8936628699302673,"533":2.240328073501587,"534":1.000502109527588,"535":-1.841225028038025,"536":-0.3122912645339966,"537":-0.7689787149429321,"538":-0.9984223246574402,"539":-2.0713155269622803,"540":-0.05076449736952782,"541":1.8956903219223022,"542":1.2776603698730469,"543":-0.0936586782336235,"544":1.2335668802261353,"545":1.5802135467529297,"546":-2.572431802749634,"547":0.1749028116464615,"548":-1.7105050086975098,"549":0.7764524817466736,"550":1.0930371284484863,"551":0.20825937390327454,"552":2.2447822093963623,"553":1.3925185203552246,"554":-0.3030374348163605,"555":0.35692650079727173,"556":2.316692352294922,"557":-1.2248022556304932,"558":2.5484490394592285,"559":-3.8609282970428467,"560":1.0836278200149536,"561":-0.8965440392494202,"562":-0.3338283896446228,"563":-1.8000880479812622,"564":1.6718980073928833,"565":-1.0434807538986206,"566":-1.426343321800232,"567":-1.396203637123108,"568":0.2199687957763672,"569":0.5268840193748474,"570":0.3800629675388336,"571":1.3009564876556396,"572":4.897597789764404,"573":3.992948532104492,"574":0.42189091444015503,"575":0.8616048097610474,"576":-0.7874315977096558,"577":-1.0528547763824463,"578":-0.22236080467700958,"579":-0.7883707284927368,"580":0.2938539385795593,"581":-0.2116348147392273,"582":0.8157445788383484,"583":1.0703742504119873,"584":-3.68129563331604,"585":-0.26054126024246216,"586":-4.09185266494751,"587":0.6575524210929871,"588":-2.1000680923461914,"589":-0.3031545877456665,"590":0.41381728649139404,"591":-0.9840710163116455,"592":0.08902163803577423,"593":2.2060165405273438,"594":2.4089605808258057,"595":-0.8702667355537415,"596":-0.09899566322565079,"597":0.08312567323446274,"598":-0.07512828707695007,"599":1.5080779790878296,"600":-1.553791880607605,"601":0.4001857042312622,"602":-0.5151546597480774,"603":-0.6158257722854614,"604":-0.9963898658752441,"605":-2.8148674964904785,"606":3.041041851043701,"607":-1.6931415796279907,"608":-1.652967095375061,"609":-1.1248869895935059,"610":-0.25309354066848755,"611":0.06322339922189713,"612":-1.955993413925171,"613":-0.42761895060539246,"614":-1.0333929061889648,"615":2.3035688400268555,"616":2.7774200439453125,"617":0.8441219925880432,"618":3.190697193145752,"619":1.48798668384552}},"outputHidden":{"rows":20,"columns":20,"weights":{"0":1.899001121520996,"1":-0.25189685821533203,"2":-2.2855937480926514,"3":-1.2833211421966553,"4":3.8090906143188477,"5":2.3115317821502686,"6":-1.44651460647583,"7":-2.0526909828186035,"8":0.6259509921073914,"9":-1.1531915664672852,"10":0.49862584471702576,"11":3.0182957649230957,"12":1.7040866613388062,"13":-0.043637439608573914,"14":0.8219679594039917,"15":4.006554126739502,"16":2.7065436840057373,"17":0.7424478530883789,"18":-0.426485151052475,"19":2.7539947032928467,"20":-2.4479401111602783,"21":1.105832576751709,"22":0.20300094783306122,"23":-0.25625911355018616,"24":2.7530293464660645,"25":-0.12446805834770203,"26":1.7172069549560547,"27":0.5451326370239258,"28":-0.2711300849914551,"29":-1.045375108718872,"30":1.578236699104309,"31":-2.124643087387085,"32":3.1042745113372803,"33":-0.02047347091138363,"34":-0.8353497982025146,"35":-6.0432353019714355,"36":-1.302217960357666,"37":-4.515084266662598,"38":0.9994779825210571,"39":2.746875762939453,"40":0.33226609230041504,"41":2.445488929748535,"42":1.3235052824020386,"43":1.5784199237823486,"44":-1.6609445810317993,"45":1.424971342086792,"46":0.47147223353385925,"47":2.204009771347046,"48":0.7541469931602478,"49":-0.4892148971557617,"50":-1.7979263067245483,"51":2.3408143520355225,"52":-0.5433053970336914,"53":1.1006793975830078,"54":0.3849729001522064,"55":1.0709633827209473,"56":-0.7952121496200562,"57":-0.2632274329662323,"58":0.9549446702003479,"59":-1.6430583000183105,"60":9.20236873626709,"61":-3.672651529312134,"62":1.9892014265060425,"63":0.8869659900665283,"64":2.112726926803589,"65":3.5646023750305176,"66":-2.7657008171081543,"67":3.178640127182007,"68":1.901759386062622,"69":-1.526930809020996,"70":4.260325908660889,"71":-1.6937015056610107,"72":1.2911787033081055,"73":5.21730899810791,"74":7.636922836303711,"75":0.6852691769599915,"76":1.6301687955856323,"77":-0.5206796526908875,"78":-4.46367073059082,"79":3.112070322036743,"80":-0.4488525688648224,"81":1.217435359954834,"82":2.8041112422943115,"83":5.285589694976807,"84":-2.8124277591705322,"85":-5.204982280731201,"86":0.5830382108688354,"87":5.003331184387207,"88":-1.310328483581543,"89":0.6771583557128906,"90":-2.1937034130096436,"91":1.7320626974105835,"92":-2.149972438812256,"93":-0.48095089197158813,"94":1.1332287788391113,"95":-1.899844765663147,"96":-5.5269975662231445,"97":1.5406721830368042,"98":0.013172812759876251,"99":-0.09447337687015533,"100":2.813462734222412,"101":-0.1378844827413559,"102":-4.275525093078613,"103":0.12091133743524551,"104":-3.2951388359069824,"105":0.44353023171424866,"106":-0.5893045663833618,"107":-4.9665422439575195,"108":-0.1852022111415863,"109":-4.648850917816162,"110":1.1230393648147583,"111":-1.0585522651672363,"112":0.9883714914321899,"113":1.1458768844604492,"114":2.6356723308563232,"115":1.0775960683822632,"116":-5.32041072845459,"117":-0.5060952305793762,"118":0.5668501853942871,"119":-6.196268081665039,"120":-3.608509063720703,"121":-0.8802896738052368,"122":-3.1373798847198486,"123":-0.6953890919685364,"124":1.8998875617980957,"125":1.2655565738677979,"126":-2.58648943901062,"127":6.223757743835449,"128":-2.798264980316162,"129":-1.8041542768478394,"130":-1.33243727684021,"131":1.2172071933746338,"132":2.5183115005493164,"133":-1.3894307613372803,"134":-3.7981820106506348,"135":-0.9852182865142822,"136":0.6918277740478516,"137":-1.871161699295044,"138":2.5170586109161377,"139":7.118775844573975,"140":-2.727476119995117,"141":1.2911877632141113,"142":-2.7389729022979736,"143":-2.0080862045288086,"144":4.902760028839111,"145":-4.151008129119873,"146":0.006412324029952288,"147":0.11887098848819733,"148":0.5364323258399963,"149":1.304484486579895,"150":-1.057672142982483,"151":2.2607789039611816,"152":1.5899691581726074,"153":2.956723928451538,"154":-1.7561652660369873,"155":-1.931684136390686,"156":-4.1157941818237305,"157":-3.0064125061035156,"158":4.794792652130127,"159":1.697871208190918,"160":5.260871410369873,"161":-3.0992848873138428,"162":-4.767714977264404,"163":-1.8984342813491821,"164":-1.6217418909072876,"165":1.0727167129516602,"166":-0.8881177306175232,"167":4.914744853973389,"168":3.605346918106079,"169":-2.4818475246429443,"170":1.1600273847579956,"171":-0.598312497138977,"172":-1.139256477355957,"173":-1.8920410871505737,"174":4.823068618774414,"175":-4.092206001281738,"176":1.3125903606414795,"177":0.7722200751304626,"178":-0.49556055665016174,"179":1.2873742580413818,"180":4.226574420928955,"181":-5.406472682952881,"182":-2.6087284088134766,"183":-2.4634361267089844,"184":-0.11078504472970963,"185":-4.334474086761475,"186":3.0858614444732666,"187":1.5031191110610962,"188":0.931484580039978,"189":-7.045454025268555,"190":-1.4380216598510742,"191":-4.4687418937683105,"192":3.4033830165863037,"193":-2.514220952987671,"194":5.82348108291626,"195":-3.622765302658081,"196":5.1756720542907715,"197":-1.049126148223877,"198":-1.9637176990509033,"199":5.752144813537598,"200":-4.559665679931641,"201":1.5027461051940918,"202":0.3513467013835907,"203":2.334432601928711,"204":3.801941394805908,"205":-3.4750020503997803,"206":-0.14462000131607056,"207":2.011997699737549,"208":-1.21774160861969,"209":-1.87447988986969,"210":-3.015592098236084,"211":-1.2779849767684937,"212":3.1632540225982666,"213":-0.034452151507139206,"214":-0.2381969541311264,"215":-1.6201753616333008,"216":-2.827925205230713,"217":-3.268409252166748,"218":3.747732162475586,"219":-6.545224666595459,"220":-2.9063990116119385,"221":-1.2411656379699707,"222":-5.900413513183594,"223":1.915369987487793,"224":3.1352851390838623,"225":-6.590191841125488,"226":-4.100735664367676,