{"type":"LSTM","options":{"inputSize":31,"inputRange":31,"hiddenLayers":[20,20],"outputSize":31,"decayRate":0.999,"smoothEps":1e-8,"regc":0.000001,"clipval":5,"maxPredictionLength":100,"dataFormatter":{"indexTable":{"p":0,"r":1,"o":2,"n":3,"u":4,"c":5,"e":6," ":7,"h":8,"i":9,"m":10,"t":11,"b":12,"a":13,"v":14,"f":15,"d":16,"l":17,"s":18,".":19,"”":20,"I":21,"g":22,"w":23,"x":24,"“":25,"W":26,"y":27,",":28,"k":29,"unrecognized":30},"characterTable":{"0":"p","1":"r","2":"o","3":"n","4":"u","5":"c","6":"e","7":" ","8":"h","9":"i","10":"m","11":"t","12":"b","13":"a","14":"v","15":"f","16":"d","17":"l","18":"s","19":".","20":"”","21":"I","22":"g","23":"w","24":"x","25":"“","26":"W","27":"y","28":",","29":"k","30":null},"values":["pronounce him to be an active member of the medical profession.”","I could not help laughing at the ease with which he explained his","process of deduction. “When I hear you give your reasons,” I remarked,","“the thing always appears to me to be so ridiculously simple that I","could easily do it myself, though at each successive instance of your"],"characters":["p","r","o","n","u","c","e"," ","h","i","m","t","b","a","v","f","d","l","s",".","”","I","g","w","x","“","W","y",",","k","unrecognized"],"specialIndexes":[30]}},"input":{"rows":32,"columns":31,"weights":{"0":0.16741281747817993,"1":0.09343300759792328,"2":-1.7268707752227783,"3":2.006744146347046,"4":2.0417466163635254,"5":0.97654789686203,"6":1.1463576555252075,"7":-0.4463219940662384,"8":-0.24713696539402008,"9":1.3538391590118408,"10":-0.8236702680587769,"11":-3.4559669494628906,"12":-0.12142642587423325,"13":-2.2416632175445557,"14":1.2389041185379028,"15":0.9831337332725525,"16":-2.9217355251312256,"17":-0.26505082845687866,"18":1.2734546661376953,"19":1.0481597185134888,"20":1.461368441581726,"21":4.525943279266357,"22":2.3895068168640137,"23":-1.4652684926986694,"24":-1.382412075996399,"25":-2.064995765686035,"26":2.270211935043335,"27":-1.630621075630188,"28":-0.4639475345611572,"29":1.540700078010559,"30":0.7653576135635376,"31":-2.4982149600982666,"32":-0.6284019351005554,"33":-0.6175096035003662,"34":-0.4734407365322113,"35":-0.06293904036283493,"36":-0.5576199889183044,"37":-2.3612143993377686,"38":-5.767695426940918,"39":-0.7550817131996155,"40":1.4898412227630615,"41":1.356563925743103,"42":0.797982394695282,"43":2.212528705596924,"44":6.35896635055542,"45":2.969956874847412,"46":-1.5386959314346313,"47":-2.619331121444702,"48":-1.1167551279067993,"49":-3.4713094234466553,"50":-1.385982871055603,"51":-0.35442617535591125,"52":0.9875621795654297,"53":-0.4171549379825592,"54":-0.06483689695596695,"55":-2.006840467453003,"56":-2.6376218795776367,"57":-0.22014915943145752,"58":5.422271251678467,"59":-3.7741963863372803,"60":-1.8119274377822876,"61":4.707943916320801,"62":0.21387742459774017,"63":0.9144230484962463,"64":-1.3165357112884521,"65":-0.21463584899902344,"66":1.7386258840560913,"67":1.7715266942977905,"68":-0.45743227005004883,"69":-0.5722187161445618,"70":1.457855463027954,"71":1.301308274269104,"72":0.5945646166801453,"73":1.3928028345108032,"74":3.3986692428588867,"75":2.680791139602661,"76":-3.4173076152801514,"77":-5.066413879394531,"78":3.457188606262207,"79":-3.685805320739746,"80":-3.2800238132476807,"81":1.125256061553955,"82":-5.314770698547363,"83":-2.107203483581543,"84":-1.7544151544570923,"85":-1.8647416830062866,"86":-0.3254174590110779,"87":1.9362472295761108,"88":-1.4684317111968994,"89":0.9835283160209656,"90":-1.2280197143554688,"91":2.0369932651519775,"92":-1.8269292116165161,"93":0.940263032913208,"94":1.9664252996444702,"95":-1.27451753616333,"96":-0.10911773890256882,"97":2.158421277999878,"98":1.8733701705932617,"99":-1.503534197807312,"100":0.3582572340965271,"101":1.1235030889511108,"102":-0.5608026385307312,"103":5.354761123657227,"104":-0.3345547020435333,"105":1.4479371309280396,"106":-1.0005519390106201,"107":-0.6403499245643616,"108":0.11230966448783875,"109":-1.7309893369674683,"110":-0.16869162023067474,"111":-0.32457756996154785,"112":-0.23464860022068024,"113":-0.7654496431350708,"114":-3.6301848888397217,"115":0.5981640815734863,"116":-0.092803955078125,"117":0.10448020696640015,"118":-1.8421276807785034,"119":1.8186287879943848,"120":1.6043956279754639,"121":-3.57393217086792,"122":0.4416913688182831,"123":2.1471774578094482,"124":-2.315464973449707,"125":1.3386284112930298,"126":0.11134722828865051,"127":1.0113303661346436,"128":1.8682581186294556,"129":1.1027485132217407,"130":-0.9529134035110474,"131":1.804375410079956,"132":3.2267727851867676,"133":-1.3586475849151611,"134":-2.911395311355591,"135":-0.5096617937088013,"136":-2.3473026752471924,"137":0.6522361040115356,"138":-0.7888327240943909,"139":1.1187430620193481,"140":1.354898452758789,"141":-1.5552494525909424,"142":1.695818543434143,"143":1.0761563777923584,"144":-1.5362868309020996,"145":0.05778788775205612,"146":2.108196496963501,"147":2.097399950027466,"148":-0.28346356749534607,"149":-1.5090686082839966,"150":1.084852695465088,"151":-1.4289571046829224,"152":0.571785032749176,"153":2.0211832523345947,"154":0.10757279396057129,"155":1.761305809020996,"156":1.632523536682129,"157":0.2547934055328369,"158":-0.26674216985702515,"159":0.4907291531562805,"160":1.6832371950149536,"161":3.145113229751587,"162":0.5828700065612793,"163":2.7170331478118896,"164":0.44272154569625854,"165":0.5246659517288208,"166":-1.3049273490905762,"167":-1.2439665794372559,"168":1.0955488681793213,"169":-2.60964035987854,"170":-6.247809410095215,"171":4.85198450088501,"172":-5.396299362182617,"173":-1.0009984970092773,"174":1.7218259572982788,"175":-2.614764451980591,"176":0.37067165970802307,"177":-4.6236677169799805,"178":-0.8253921270370483,"179":-0.5769273042678833,"180":3.592100143432617,"181":-2.6554183959960938,"182":-3.2914135456085205,"183":0.41227418184280396,"184":-2.91214656829834,"185":-5.097374439239502,"186":4.301825523376465,"187":2.1521544456481934,"188":0.5529517531394958,"189":0.9285404086112976,"190":2.8300154209136963,"191":-5.44318962097168,"192":0.7634570002555847,"193":2.926252841949463,"194":-5.454413890838623,"195":1.7806106805801392,"196":2.186903238296509,"197":0.44910892844200134,"198":0.3912453353404999,"199":0.23030991852283478,"200":-0.17533282935619354,"201":1.1961067914962769,"202":1.1021937131881714,"203":0.6344574689865112,"204":1.953794240951538,"205":-0.148365780711174,"206":4.896649360656738,"207":-1.3570168018341064,"208":-0.3392464518547058,"209":-2.6373820304870605,"210":0.2801078259944916,"211":1.1902199983596802,"212":-2.301392078399658,"213":1.843382716178894,"214":-3.7952048778533936,"215":0.5465973019599915,"216":-1.0256540775299072,"217":1.6872551441192627,"218":1.3360669612884521,"219":-0.46675774455070496,"220":0.27304807305336,"221":0.6850122213363647,"222":-2.388274908065796,"223":1.1495760679244995,"224":0.749695897102356,"225":-1.060601830482483,"226":-0.7340792417526245,"227":-2.848080635070801,"228":0.3854385316371918,"229":-1.1018445491790771,"230":1.1743993759155273,"231":-1.0760273933410645,"232":3.2880678176879883,"233":-1.4415711164474487,"234":-1.4568017721176147,"235":1.978533148765564,"236":1.6101467609405518,"237":1.00208580493927,"238":2.3338992595672607,"239":-1.6762999296188354,"240":0.17509451508522034,"241":2.5161263942718506,"242":-0.725642740726471,"243":-6.032599925994873,"244":0.17510686814785004,"245":0.5822591185569763,"246":0.35595688223838806,"247":1.0046823024749756,"248":0.40487655997276306,"249":1.60713791847229,"250":-0.20070956647396088,"251":0.39593827724456787,"252":-4.0817461013793945,"253":-2.0735743045806885,"254":-1.396579623222351,"255":0.5534764528274536,"256":-3.58903431892395,"257":-0.7787777185440063,"258":1.5134133100509644,"259":1.5593997240066528,"260":1.6074833869934082,"261":-0.9793034791946411,"262":0.833092212677002,"263":-4.146761417388916,"264":2.4192681312561035,"265":-0.3144126236438751,"266":-0.007183451671153307,"267":0.5033981204032898,"268":-1.4669067859649658,"269":-5.540482521057129,"270":-0.4500202238559723,"271":0.15954454243183136,"272":1.837214708328247,"273":-1.7030645608901978,"274":-0.49174201488494873,"275":-1.75550377368927,"276":3.4922192096710205,"277":-1.5278713703155518,"278":0.5634799599647522,"279":-0.38806119561195374,"280":2.108079671859741,"281":2.219228982925415,"282":1.4392558336257935,"283":5.923471927642822,"284":1.416073203086853,"285":1.2353862524032593,"286":-0.09132717549800873,"287":0.09379716962575912,"288":1.601645588874817,"289":1.6534850597381592,"290":-0.7307183742523193,"291":-2.293506145477295,"292":1.4222911596298218,"293":-0.14763127267360687,"294":5.451265811920166,"295":-1.2091516256332397,"296":0.5607049465179443,"297":0.5858199596405029,"298":-2.1814277172088623,"299":-0.04573420435190201,"300":1.4959031343460083,"301":-2.423114776611328,"302":1.251221776008606,"303":-4.806187152862549,"304":-0.3347320258617401,"305":4.3034467697143555,"306":2.0393905639648438,"307":-1.5727699995040894,"308":0.33970290422439575,"309":0.011352342553436756,"310":0.23485472798347473,"311":-1.534833550453186,"312":-2.566333532333374,"313":0.5791252255439758,"314":-3.2905056476593018,"315":-2.6825056076049805,"316":2.284457206726074,"317":-0.44069376587867737,"318":-2.7698683738708496,"319":-0.8120629787445068,"320":-1.0789278745651245,"321":-0.13741905987262726,"322":-2.949427604675293,"323":1.360909342765808,"324":2.491766929626465,"325":0.26194411516189575,"326":1.0127016305923462,"327":-0.6800927519798279,"328":3.5609567165374756,"329":1.9507378339767456,"330":-0.14842770993709564,"331":-7.322817802429199,"332":-2.268965721130371,"333":2.1309401988983154,"334":3.886418342590332,"335":0.39288344979286194,"336":-2.9655637741088867,"337":-1.619240164756775,"338":-0.2502250373363495,"339":0.4073258638381958,"340":-1.5591896772384644,"341":3.2022597789764404,"342":-4.620812892913818,"343":-0.3896612823009491,"344":-1.533563256263733,"345":1.9561100006103516,"346":0.2992899715900421,"347":1.8473948240280151,"348":-3.3795387744903564,"349":-3.4954819679260254,"350":2.580319404602051,"351":2.6830368041992188,"352":-1.1292285919189453,"353":-4.556151866912842,"354":-0.3756905496120453,"355":7.790994167327881,"356":0.05740780010819435,"357":2.3151657581329346,"358":-1.1402422189712524,"359":2.6439592838287354,"360":-4.380781650543213,"361":0.11050775647163391,"362":0.2888031005859375,"363":-3.0953590869903564,"364":-2.007220983505249,"365":0.45205777883529663,"366":2.9920754432678223,"367":1.9649494886398315,"368":0.25194093585014343,"369":-2.407691478729248,"370":-0.8230634927749634,"371":2.503588914871216,"372":-0.7608217597007751,"373":1.6851379871368408,"374":-2.308655023574829,"375":1.8601716756820679,"376":2.70906400680542,"377":1.594848871231079,"378":-0.029826516285538673,"379":4.549450397491455,"380":1.945454716682434,"381":2.289020299911499,"382":0.4017591178417206,"383":-0.7962337732315063,"384":-1.114121437072754,"385":0.3507218658924103,"386":0.07065953314304352,"387":0.34332403540611267,"388":-0.6943743228912354,"389":0.742571234703064,"390":-1.1174166202545166,"391":1.6903753280639648,"392":-1.8128654956817627,"393":0.1439986675977707,"394":2.7447144985198975,"395":-2.8743884563446045,"396":-5.254207611083984,"397":1.3484152555465698,"398":2.6168148517608643,"399":-1.0180015563964844,"400":-0.16595155000686646,"401":3.712963581085205,"402":-0.33060145378112793,"403":3.014766216278076,"404":-0.21188151836395264,"405":0.759509265422821,"406":0.25202977657318115,"407":1.4936842918395996,"408":0.49706101417541504,"409":-0.905221164226532,"410":0.7787428498268127,"411":2.482919692993164,"412":0.2281123250722885,"413":-1.9510555267333984,"414":2.7907662391662598,"415":5.117729663848877,"416":-2.524160623550415,"417":-3.6521778106689453,"418":-2.569573163986206,"419":-1.3442476987838745,"420":-3.510671854019165,"421":0.858669638633728,"422":4.593753337860107,"423":-2.8808951377868652,"424":4.683511257171631,"425":-3.3515923023223877,"426":-0.4094613194465637,"427":-2.1483116149902344,"428":-0.9507736563682556,"429":-3.7204158306121826,"430":-5.9344024658203125,"431":-0.07569538056850433,"432":-2.3159687519073486,"433":-5.353020668029785,"434":-1.047293782234192,"435":0.7402022480964661,"436":1.1673568487167358,"437":-0.08262979984283447,"438":-1.4154400825500488,"439":0.2586575746536255,"440":0.543097972869873,"441":-0.16897641122341156,"442":-1.2477527856826782,"443":-0.6682834029197693,"444":-2.421452283859253,"445":0.865066647529602,"446":-0.7465642094612122,"447":-1.9206031560897827,"448":1.171782374382019,"449":1.3347129821777344,"450":0.5581353306770325,"451":3.2167563438415527,"452":-0.6573678851127625,"453":-3.281856060028076,"454":-0.12070488184690475,"455":0.07380475103855133,"456":0.3985758423805237,"457":1.4876540899276733,"458":-0.6167688965797424,"459":0.33113929629325867,"460":-0.42177969217300415,"461":-0.891338586807251,"462":2.2081363201141357,"463":3.4897947311401367,"464":-0.36077821254730225,"465":-2.3283002376556396,"466":-0.5297353863716125,"467":-7.0885396003723145,"468":3.5264642238616943,"469":1.2064478397369385,"470":-3.503495693206787,"471":-7.0106916427612305,"472":-1.0384478569030762,"473":-4.899298191070557,"474":1.1766787767410278,"475":6.237011432647705,"476":-4.645927906036377,"477":-1.930393934249878,"478":4.756745338439941,"479":-2.327643871307373,"480":-5.973569869995117,"481":-3.725614309310913,"482":3.2320504188537598,"483":-0.9777821898460388,"484":-4.890838146209717,"485":1.9740923643112183,"486":-3.3481976985931396,"487":0.745799720287323,"488":-3.5739357471466064,"489":-0.6025327444076538,"490":-3.513455867767334,"491":0.8781784772872925,"492":5.137441158294678,"493":0.5893067717552185,"494":8.774290084838867,"495":4.412217140197754,"496":0.7961747646331787,"497":-6.624938011169434,"498":-2.3423171043395996,"499":0.05716608837246895,"500":3.282345771789551,"501":1.3492449522018433,"502":2.210286855697632,"503":-0.8755170106887817,"504":1.0468031167984009,"505":-0.1919999122619629,"506":-0.14793352782726288,"507":-3.4914743900299072,"508":-0.33161523938179016,"509":-1.3830941915512085,"510":0.987788736820221,"511":0.31320029497146606,"512":-3.520381212234497,"513":2.782442092895508,"514":-1.1085331439971924,"515":-0.15677595138549805,"516":-0.21801486611366272,"517":1.028343915939331,"518":-1.4837572574615479,"519":-0.20230892300605774,"520":-3.3174192905426025,"521":2.7045786380767822,"522":-0.1731787919998169,"523":-1.8005534410476685,"524":-5.491418361663818,"525":-2.487464189529419,"526":0.8448858261108398,"527":-0.7204104065895081,"528":0.8640115857124329,"529":-2.403597593307495,"530":2.32393741607666,"531":1.7933636903762817,"532":-0.14657948911190033,"533":-1.0753848552703857,"534":3.5573084354400635,"535":0.8974376916885376,"536":0.17128971219062805,"537":0.08798467367887497,"538":0.8197046518325806,"539":-0.2312285453081131,"540":1.0516880750656128,"541":-2.157433271408081,"542":-3.508885383605957,"543":-0.8872499465942383,"544":1.5381097793579102,"545":0.77293860912323,"546":1.118394136428833,"547":-1.3431978225708008,"548":-1.6536096334457397,"549":0.7099711298942566,"550":-1.5155161619186401,"551":-0.7995148301124573,"552":2.225268602371216,"553":1.6830101013183594,"554":0.7503448724746704,"555":1.6159528493881226,"556":3.8104562759399414,"557":2.647991418838501,"558":1.982913851737976,"559":2.3591458797454834,"560":2.869025468826294,"561":1.0046550035476685,"562":1.9226055145263672,"563":-0.6740639805793762,"564":1.2778276205062866,"565":1.0324537754058838,"566":-2.26469349861145,"567":1.969653844833374,"568":4.625400066375732,"569":0.9066051244735718,"570":-4.778234481811523,"571":2.3203952312469482,"572":0.8658176064491272,"573":2.2815475463867188,"574":5.990160942077637,"575":1.2945570945739746,"576":2.07916522026062,"577":-1.8798898458480835,"578":-3.437685966491699,"579":0.8242318630218506,"580":-1.5777697563171387,"581":4.536535739898682,"582":-2.5627448558807373,"583":-0.050500690937042236,"584":-1.4425513744354248,"585":0.1789511889219284,"586":2.3366458415985107,"587":-1.1389439105987549,"588":-6.3443193435668945,"589":-0.1178070604801178,"590":-0.1950591653585434,"591":-0.841167151927948,"592":-0.0996892899274826,"593":-0.08589152991771698,"594":-0.7212108969688416,"595":-0.4999716877937317,"596":1.8540843725204468,"597":0.677595317363739,"598":-0.3443745970726013,"599":-3.535837173461914,"600":-0.5376914739608765,"601":-0.47349366545677185,"602":-2.176464796066284,"603":-3.078418254852295,"604":-0.7303616404533386,"605":0.6976277232170105,"606":-0.2897503972053528,"607":0.10792811959981918,"608":-1.1190181970596313,"609":0.31017154455184937,"610":1.296021580696106,"611":1.7925165891647339,"612":0.0028167343698441982,"613":1.4555193185806274,"614":-1.1895623207092285,"615":0.8611873984336853,"616":0.9944198727607727,"617":3.6255691051483154,"618":3.960369110107422,"619":0.7289175391197205,"620":-0.5226454138755798,"621":-0.48115283250808716,"622":-0.6472053527832031,"623":-6.1406569480896,"624":2.6804420948028564,"625":3.411349058151245,"626":-0.15402372181415558,"627":0.16756591200828552,"628":1.1458221673965454,"629":-4.342813491821289,"630":-3.179370880126953,"631":-0.6939275860786438,"632":3.0042102336883545,"633":-4.4488205909729,"634":-0.6376613974571228,"635":-0.18567901849746704,"636":0.7368831634521484,"637":4.328360557556152,"638":-3.3392598628997803,"639":3.628100633621216,"640":0.11937030404806137,"641":-0.898059070110321,"642":3.124218463897705,"643":-6.591541290283203,"644":-1.1758655309677124,"645":-1.7133281230926514,"646":3.4874267578125,"647":-5.117992877960205,"648":6.942713260650635,"649":2.1902644634246826,"650":2.9302902221679688,"651":-2.3127079010009766,"652":-7.557934284210205,"653":2.210951089859009,"654":0.8345349431037903,"655":3.2217190265655518,"656":2.0495524406433105,"657":3.2292258739471436,"658":3.7097811698913574,"659":3.8063089847564697,"660":1.6927837133407593,"661":0.608080267906189,"662":-1.08173668384552,"663":1.3998137712478638,"664":-4.826944351196289,"665":1.92741060256958,"666":8.151657104492188,"667":-1.8901939392089844,"668":-2.002805233001709,"669":1.1957441568374634,"670":0.9394704699516296,"671":8.222110748291016,"672":0.803918182849884,"673":-0.047007590532302856,"674":2.8350112438201904,"675":-1.7083712816238403,"676":3.5333781242370605,"677":-0.34898585081100464,"678":-4.074685573577881,"679":-2.969017505645752,"680":-0.6591787934303284,"681":-3.9110405445098877,"682":5.17376708984375,"683":1.0289870500564575,"684":2.4284472465515137,"685":-1.1431511640548706,"686":6.6561055183410645,"687":-1.035290241241455,"688":-0.10885082185268402,"689":-1.3746492862701416,"690":0.2248198240995407,"691":-2.6166422367095947,"692":2.7920584678649902,"693":0.0031668373849242926,"694":5.893861770629883,"695":0.7007936239242554,"696":4.346874237060547,"697":3.206779956817627,"698":-3.982760429382324,"699":-1.7028485536575317,"700":5.5348801612854,"701":2.899503707885742,"702":-1.103015661239624,"703":1.5553810596466064,"704":-0.5732643604278564,"705":-1.4033539295196533,"706":4.608832359313965,"707":-2.040539264678955,"708":-4.54505729675293,"709":-0.10723410546779633,"710":-5.794553279876709,"711":0.4855596721172333,"712":1.7017641067504883,"713":2.85176944732666,"714":2.197401762008667,"715":-4.929111957550049,"716":-3.828105926513672,"717":2.6247191429138184,"718":1.100722312927246,"719":2.2941036224365234,"720":4.50734806060791,"721":0.19124260544776917,"722":-1.9230958223342896,"723":0.17716729640960693,"724":-4.059790134429932,"725":-3.580933094024658,"726":-2.9996676445007324,"727":-6.072428226470947,"728":-2.286665201187134,"729":-1.630900502204895,"730":-1.009530782699585,"731":-3.290126085281372,"732":0.7734041810035706,"733":-1.2848557233810425,"734":-3.7273776531219482,"735":-1.582213282585144,"736":-2.6463782787323,"737":-0.46920567750930786,"738":2.552015781402588,"739":1.5000813007354736,"740":-0.5698112845420837,"741":1.153954029083252,"742":0.38670772314071655,"743":1.2165637016296387,"744":-1.0422933101654053,"745":-3.007202386856079,"746":-0.7633752822875977,"747":0.7336479425430298,"748":1.12966787815094,"749":0.029885556548833847,"750":-1.569214940071106,"751":-1.284558892250061,"752":-0.7301633954048157,"753":1.9733760356903076,"754":5.644417762756348,"755":-1.2375479936599731,"756":-0.995930016040802,"757":1.2788079977035522,"758":3.100621223449707,"759":2.731182098388672,"760":0.4648614823818207,"761":2.137434959411621,"762":0.30728644132614136,"763":1.1148887872695923,"764":1.635270595550537,"765":-0.34646904468536377,"766":-0.5657148957252502,"767":-2.037205934524536,"768":-2.1242072582244873,"769":0.28246811032295227,"770":0.7468434572219849,"771":1.5199612379074097,"772":-2.863656520843506,"773":0.6746213436126709,"774":-0.4793473780155182,"775":-1.2392480373382568,"776":0.06925955414772034,"777":4.164763450622559,"778":-0.7931250929832458,"779":-3.892864942550659,"780":0.7984578013420105,"781":-2.17769455909729,"782":-2.233177900314331,"783":5.202536106109619,"784":-1.9773465394973755,"785":-0.2155298888683319,"786":2.8571512699127197,"787":-0.9612194299697876,"788":-0.498359352350235,"789":1.20350980758667,"790":0.8615388870239258,"791":0.22158296406269073,"792":-0.6221990585327148,"793":0.06342608481645584,"794":-0.18482261896133423,"795":-0.6223488450050354,"796":2.9997591972351074,"797":1.5021369457244873,"798":2.3481130599975586,"799":0.797685444355011,"800":-3.0520918369293213,"801":1.013100504875183,"802":-0.021730460226535797,"803":-0.8456188440322876,"804":-2.8235228061676025,"805":-0.25797373056411743,"806":4.45950984954834,"807":1.285611867904663,"808":1.9589475393295288,"809":-1.086800217628479,"810":2.288541555404663,"811":-0.35442009568214417,"812":0.8194292187690735,"813":2.1355512142181396,"814":-1.6080092191696167,"815":0.6872397065162659,"816":3.4651544094085693,"817":1.4183452129364014,"818":-0.730131983757019,"819":2.1931283473968506,"820":-0.6135032176971436,"821":2.8598504066467285,"822":4.178475379943848,"823":-2.236826181411743,"824":1.7219843864440918,"825":1.9277534484863281,"826":-3.439243793487549,"827":-7.358129024505615,"828":-4.9917893409729,"829":0.8843268752098083,"830":1.3756635189056396,"831":3.440866470336914,"832":-0.7156076431274414,"833":-3.0973238945007324,"834":-1.4282639026641846,"835":-3.718775749206543,"836":0.3626940846443176,"837":-2.439598321914673,"838":1.3795017004013062,"839":-2.505613088607788,"840":3.5794360637664795,"841":-1.6936864852905273,"842":-0.3216186761856079,"843":2.766275644302368,"844":2.5561041831970215,"845":2.2151854038238525,"846":-3.809670925140381,"847":-3.1920974254608154,"848":-3.570554494857788,"849":-2.8647663593292236,"850":0.3285515308380127,"851":-2.4620511531829834,"852":2.3490710258483887,"853":1.9727972745895386,"854":5.68908166885376,"855":-1.3345351219177246,"856":-2.8774945735931396,"857":0.01488641370087862,"858":-1.8159624338150024,"859":-1.0310347080230713,"860":4.540398597717285,"861":2.164797067642212,"862":-1.066530466079712,"863":2.5298008918762207,"864":4.563233375549316,"865":7.203627109527588,"866":3.6335296630859375,"867":-1.9990370273590088,"868":-1.098569631576538,"869":1.252054214477539,"870":1.1320027112960815,"871":-1.4925086498260498,"872":-1.0705281496047974,"873":-1.5533370971679688,"874":-0.07159534841775894,"875":0.6788402199745178,"876":-0.7946577072143555,"877":0.6968280076980591,"878":-0.4172722101211548,"879":1.3340458869934082,"880":-3.020709991455078,"881":0.712010383605957,"882":0.16697563230991364,"883":3.7051072120666504,"884":-3.162562847137451,"885":4.475437641143799,"886":0.6048977971076965,"887":0.25332024693489075,"888":2.6293258666992188,"889":-2.0130858421325684,"890":0.9182791113853455,"891":-1.1548489332199097,"892":-0.6138187646865845,"893":-1.1341395378112793,"894":-1.1617928743362427,"895":-0.13293004035949707,"896":-1.4880961179733276,"897":1.4773532152175903,"898":3.235055685043335,"899":1.2643375396728516,"900":-4.334354400634766,"901":-0.5194887518882751,"902":0.3863271176815033,"903":2.368401288986206,"904":-0.04780298471450806,"905":4.689233779907227,"906":3.502863883972168,"907":2.2372801303863525,"908":-5.0730061531066895,"909":-0.5190950036048889,"910":-4.678802013397217,"911":-1.8178212642669678,"912":-0.9204393625259399,"913":1.2041654586791992,"914":0.9436407089233398,"915":-1.5568255186080933,"916":-1.0004607439041138,"917":-0.851157009601593,"918":-1.0709388256072998,"919":-0.9952732920646667,"920":-2.9711215496063232,"921":1.4911004304885864,"922":-5.449593544006348,"923":1.505232334136963,"924":3.136781692504883,"925":0.5532627105712891,"926":-2.3303487300872803,"927":-1.3025656938552856,"928":0.18594589829444885,"929":-2.226719856262207,"930":3.281745672225952,"931":2.7127201557159424,"932":-1.3663984537124634,"933":-2.1316940784454346,"934":-1.1298028230667114,"935":3.0210952758789062,"936":-2.1873319149017334,"937":2.1808297634124756,"938":5.409139156341553,"939":-5.5160908699035645,"940":-1.003545880317688,"941":-0.08600599318742752,"942":2.8358209133148193,"943":-4.155874729156494,"944":-9.655604362487793,"945":-0.8944571018218994,"946":1.5156102180480957,"947":0.43949559330940247,"948":-6.875310897827148,"949":3.1515657901763916,"950":-2.5074830055236816,"951":-2.7454164028167725,"952":1.603115200996399,"953":-1.1537326574325562,"954":-0.764154314994812,"955":2.4615981578826904,"956":-3.2183852195739746,"957":-1.5218936204910278,"958":-0.015815895050764084,"959":0.027352349832654,"960":1.157798171043396,"961":0.896641194820404,"962":1.8563576936721802,"963":0.5124979615211487,"964":-2.3919408321380615,"965":-2.8865201473236084,"966":-0.2115119993686676,"967":-0.4813244342803955,"968":0.3136068284511566,"969":-1.3684289455413818,"970":-1.2183836698532104,"971":-1.174586534500122,"972":1.925069808959961,"973":1.1044551134109497,"974":-0.7282292246818542,"975":-2.5654678344726562,"976":0.48035404086112976,"977":4.468414306640625,"978":-2.9259135723114014,"979":-0.6602006554603577,"980":0.8955157995223999,"981":-1.8354510068893433,"982":3.694671392440796,"983":-0.9643730521202087,"984":-0.303737610578537,"985":1.6323057413101196,"986":-2.794234037399292,"987":-1.769292950630188,"988":-0.42126938700675964,"989":4.388924598693848,"990":-2.633388042449951,"991":1.0504909753799438}},"hiddenLayers":[{"inputMatrix":{"rows":20,"columns":31,"weights":{"0":-1.7775102853775024,"1":3.211198329925537,"2":0.7220174074172974,"3":0.5835305452346802,"4":-1.2584178447723389,"5":-2.0783820152282715,"6":-1.1871163845062256,"7":-1.5522505044937134,"8":1.4021025896072388,"9":0.48248961567878723,"10":3.8242416381835938,"11":1.5863584280014038,"12":1.906033992767334,"13":3.3933653831481934,"14":0.2563864290714264,"15":-0.42138993740081787,"16":-1.088726282119751,"17":-0.005081694107502699,"18":1.5217074155807495,"19":-2.2570078372955322,"20":-0.9593448042869568,"21":-2.1568284034729004,"22":-1.0395535230636597,"23":0.13120989501476288,"24":-2.0298821926116943,"25":0.9906746745109558,"26":-1.1137155294418335,"27":3.596022129058838,"28":-0.6049785017967224,"29":2.3911924362182617,"30":-0.14275255799293518,"31":1.1496999263763428,"32":-1.4082894325256348,"33":-1.3553831577301025,"34":1.836425542831421,"35":2.431774377822876,"36":-2.357571601867676,"37":0.19545362889766693,"38":0.7821491956710815,"39":-1.7087565660476685,"40":2.849534511566162,"41":2.3383731842041016,"42":-0.9694324135780334,"43":-0.2829645872116089,"44":1.3422691822052002,"45":-0.4859096109867096,"46":-0.5337520837783813,"47":-2.730600357055664,"48":0.3248631954193115,"49":-1.8629258871078491,"50":-3.7107338905334473,"51":1.5644714832305908,"52":-1.65268075466156,"53":1.1360950469970703,"54":-0.9297550320625305,"55":-4.273986339569092,"56":0.9018908143043518,"57":1.8085763454437256,"58":0.7122324705123901,"59":-2.099660634994507,"60":0.9276251196861267,"61":0.4797030985355377,"62":-0.1754799783229828,"63":1.2750779390335083,"64":-1.07733154296875,"65":-1.2089745998382568,"66":-1.5641615390777588,"67":2.5139577388763428,"68":1.0982040166854858,"69":0.7664417028427124,"70":2.06630539894104,"71":-3.1431961059570312,"72":-0.9946151375770569,"73":0.5993790626525879,"74":-0.4753827452659607,"75":-0.14793971180915833,"76":-2.0866081714630127,"77":-1.2366538047790527,"78":2.482002019882202,"79":0.3880336880683899,"80":-1.7669755220413208,"81":1.2779548168182373,"82":-2.486325979232788,"83":0.1826782077550888,"84":1.35366952419281,"85":0.6800327897071838,"86":0.28122252225875854,"87":1.5369009971618652,"88":0.49930763244628906,"89":-2.5109643936157227,"90":1.7820000648498535,"91":2.2771530151367188,"92":-0.5796125531196594,"93":1.7373555898666382,"94":1.5416830778121948,"95":0.6308973431587219,"96":-0.21391823887825012,"97":1.0694804191589355,"98":-1.238589882850647,"99":-0.6154342889785767,"100":1.200930118560791,"101":-2.541289806365967,"102":2.1249773502349854,"103":1.3124792575836182,"104":0.4691886603832245,"105":1.5425328016281128,"106":0.38511812686920166,"107":-1.833788275718689,"108":-4.70458984375,"109":-0.6978394985198975,"110":-3.5827889442443848,"111":0.3668941259384155,"112":0.869194507598877,"113":-2.6481475830078125,"114":-3.384507179260254,"115":-2.2006189823150635,"116":0.2947539985179901,"117":0.421690970659256,"118":-4.234978675842285,"119":-3.025254249572754,"120":2.8290727138519287,"121":-0.8673754930496216,"122":-0.4378906786441803,"123":-0.5169509053230286,"124":0.8603598475456238,"125":1.1814560890197754,"126":1.5851165056228638,"127":-1.9220268726348877,"128":0.3503325283527374,"129":1.928496241569519,"130":0.1710532158613205,"131":-0.5005051493644714,"132":2.6076102256774902,"133":-2.932051420211792,"134":-2.5324835777282715,"135":-0.42227819561958313,"136":-1.0494439601898193,"137":-4.440342903137207,"138":-4.084228515625,"139":1.5614181756973267,"140":0.1278286874294281,"141":-0.4644022583961487,"142":-2.346737861633301,"143":-0.4574199318885803,"144":1.6920974254608154,"145":0.055473871529102325,"146":-0.6356123089790344,"147":1.1907471418380737,"148":2.7591474056243896,"149":-0.12534768879413605,"150":-0.8840211629867554,"151":0.24416515231132507,"152":1.388401985168457,"153":-0.860715925693512,"154":-1.1088130474090576,"155":0.19895705580711365,"156":1.4367575645446777,"157":3.083601474761963,"158":0.8873055577278137,"159":1.2201027870178223,"160":-0.09348296374082565,"161":-0.9736743569374084,"162":2.0415687561035156,"163":0.8795981407165527,"164":-0.6325786113739014,"165":-2.036085367202759,"166":0.7979028224945068,"167":-1.24114990234375,"168":0.8908982872962952,"169":-1.6279337406158447,"170":3.715409755706787,"171":-1.7004539966583252,"172":2.0636203289031982,"173":-0.1695767641067505,"174":4.911224365234375,"175":1.394338846206665,"176":-1.8564249277114868,"177":-2.700896739959717,"178":1.3417888879776,"179":0.8242415189743042,"180":-1.9851168394088745,"181":-2.173025131225586,"182":2.4996531009674072,"183":2.095705509185791,"184":-0.7029220461845398,"185":0.9767513871192932,"186":0.7848381996154785,"187":-0.8231322169303894,"188":0.5913510322570801,"189":-1.9984208345413208,"190":-1.942962408065796,"191":0.11658570915460587,"192":1.4149324893951416,"193":-0.0052876961417496204,"194":0.1432105302810669,"195":-1.7080711126327515,"196":-1.484054446220398,"197":2.3310463428497314,"198":-1.553823471069336,"199":-0.16647204756736755,"200":-0.39867740869522095,"201":-0.25334036350250244,"202":1.171722650527954,"203":0.18869878351688385,"204":-1.0555520057678223,"205":2.9755208492279053,"206":0.15140843391418457,"207":-1.4789323806762695,"208":1.6988271474838257,"209":1.154955506324768,"210":1.2030969858169556,"211":-1.1281754970550537,"212":-0.7051713466644287,"213":-3.0042622089385986,"214":0.20730695128440857,"215":0.5202736854553223,"216":0.44105491042137146,"217":0.8607260584831238,"218":2.0908069610595703,"219":-1.2317123413085938,"220":2.7142372131347656,"221":1.8261241912841797,"222":0.8826709389686584,"223":-0.9461191296577454,"224":0.03672637417912483,"225":-0.1015411987900734,"226":2.8606646060943604,"227":4.139091968536377,"228":-0.9409795999526978,"229":-0.4366062879562378,"230":0.15542903542518616,"231":-2.470578193664551,"232":-3.9578499794006348,"233":-1.5381401777267456,"234":0.23824982345104218,"235":-2.6438560485839844,"236":-2.7148280143737793,"237":-1.5700324773788452,"238":-1.5082178115844727,"239":-2.0287656784057617,"240":-0.39266785979270935,"241":-2.3450310230255127,"242":0.7069055438041687,"243":0.8578998446464539,"244":5.047407150268555,"245":-1.3689652681350708,"246":-0.46714285016059875,"247":0.20077945291996002,"248":0.27948302030563354,"249":-1.0817680358886719,"250":-0.09224598109722137,"251":-0.4043513238430023,"252":-0.08867984265089035,"253":0.35931041836738586,"254":1.5303107500076294,"255":-0.17947249114513397,"256":-0.851797342300415,"257":-0.4421507716178894,"258":2.0824291706085205,"259":-3.093153953552246,"260":-0.9418779611587524,"261":-0.42408668994903564,"262":0.9034884572029114,"263":1.9244744777679443,"264":-0.2442084699869156,"265":1.6684041023254395,"266":0.6637395620346069,"267":0.3737485408782959,"268":1.0964558124542236,"269":-2.3626885414123535,"270":0.18652397394180298,"271":-2.3191416263580322,"272":-0.7298837304115295,"273":2.301252603530884,"274":1.1545852422714233,"275":-1.431882619857788,"276":-2.8537228107452393,"277":1.8267780542373657,"278":-1.2179442644119263,"279":1.2327028512954712,"280":-2.6022422313690186,"281":-0.36285868287086487,"282":-0.27071046829223633,"283":-0.9482413530349731,"284":0.2025323361158371,"285":-0.7272140979766846,"286":0.5867220163345337,"287":-1.8942925930023193,"288":5.84239387512207,"289":4.658318996429443,"290":-1.352138638496399,"291":1.5346781015396118,"292":1.0144387483596802,"293":1.8135415315628052,"294":0.7333080172538757,"295":-1.5572433471679688,"296":1.5541695356369019,"297":1.4323344230651855,"298":-2.9041659832000732,"299":-1.0792350769042969,"300":-0.5642041563987732,"301":0.3227120339870453,"302":-0.6629230380058289,"303":-1.462404727935791,"304":-0.12810726463794708,"305":1.3304740190505981,"306":0.657903790473938,"307":-2.8516664505004883,"308":-2.0484328269958496,"309":0.7178189754486084,"310":-4.013681888580322,"311":-1.856510877609253,"312":-2.408458948135376,"313":1.9365015029907227,"314":-0.2875669300556183,"315":-0.4655234217643738,"316":1.5355173349380493,"317":-0.9622223973274231,"318":-0.1891743689775467,"319":1.856650948524475,"320":-0.6495999097824097,"321":-2.0858469009399414,"322":-1.1780807971954346,"323":0.20878633856773376,"324":0.7962838411331177,"325":1.5463134050369263,"326":-1.3339605331420898,"327":2.117363929748535,"328":-0.8310810923576355,"329":0.9927394390106201,"330":3.181929349899292,"331":-2.2253472805023193,"332":1.2853822708129883,"333":-2.3290865421295166,"334":-1.1426399946212769,"335":0.020715001970529556,"336":1.3970807790756226,"337":1.5266754627227783,"338":-2.2206685543060303,"339":-0.3585469424724579,"340":-1.9913703203201294,"341":2.763979434967041,"342":-1.1541721820831299,"343":0.3016367554664612,"344":-0.48088884353637695,"345":-2.2922141551971436,"346":1.7883942127227783,"347":-1.4003946781158447,"348":0.1530040204524994,"349":0.5888264179229736,"350":-2.0440096855163574,"351":-0.07897559553384781,"352":-0.004312638659030199,"353":0.3696284294128418,"354":-1.9593898057937622,"355":-1.6151741743087769,"356":-1.0928850173950195,"357":3.1035826206207275,"358":-0.386629581451416,"359":-2.717857599258423,"360":-0.6394004225730896,"361":-1.7105118036270142,"362":2.815645933151245,"363":-1.8453633785247803,"364":1.1343687772750854,"365":0.6544883251190186,"366":0.5061792731285095,"367":-0.9139367938041687,"368":0.6531120538711548,"369":4.105279445648193,"370":-0.16475249826908112,"371":-0.4381570518016815,"372":-1.551331639289856,"373":0.10053075104951859,"374":-1.9478263854980469,"375":0.8306260108947754,"376":-0.5240371227264404,"377":-0.8184364438056946,"378":-1.5201942920684814,"379":-0.12814129889011383,"380":1.327235221862793,"381":-3.5589284896850586,"382":-0.2606734335422516,"383":0.21261587738990784,"384":0.15419860184192657,"385":0.9756982922554016,"386":1.0921143293380737,"387":-1.727479338645935,"388":-0.7434647083282471,"389":-3.539579391479492,"390":1.4602441787719727,"391":2.5082054138183594,"392":-1.1889618635177612,"393":-2.7759714126586914,"394":-0.996651828289032,"395":-0.8238832950592041,"396":6.942173004150391,"397":-2.3711941242218018,"398":1.6109639406204224,"399":2.8430368900299072,"400":2.87837290763855,"401":0.09932228922843933,"402":2.0782408714294434,"403":-1.056854009628296,"404":1.7714142799377441,"405":-0.4627073407173157,"406":-2.6197617053985596,"407":2.1913013458251953,"408":1.181747555732727,"409":-0.39366820454597473,"410":-1.8738484382629395,"411":0.6014085412025452,"412":-1.7731897830963135,"413":-2.4235668182373047,"414":0.4775746762752533,"415":1.54947030544281,"416":-2.8568594455718994,"417":-0.9423481225967407,"418":0.7149834632873535,"419":-0.9740691184997559,"420":0.3524579405784607,"421":-2.2647287845611572,"422":0.36943867802619934,"423":0.08409084379673004,"424":2.818601608276367,"425":0.22704365849494934,"426":0.10259122401475906,"427":1.2518494129180908,"428":-3.20511794090271,"429":-1.5621914863586426,"430":-0.9114706516265869,"431":-1.3875516653060913,"432":1.0335471630096436,"433":2.2847650051116943,"434":-0.45219555497169495,"435":-0.5655325651168823,"436":0.1750912219285965,"437":1.06877601146698,"438":-0.3209807574748993,"439":1.1219589710235596,"440":1.3261613845825195,"441":1.2156809568405151,"442":-0.22795502841472626,"443":0.6838070750236511,"444":2.0126118659973145,"445":-0.8395193815231323,"446":-0.9620725512504578,"447":2.134690761566162,"448":1.5182698965072632,"449":1.5354217290878296,"450":-0.5298649668693542,"451":0.7241909503936768,"452":0.014389986172318459,"453":-1.8325985670089722,"454":1.8376522064208984,"455":1.2157399654388428,"456":-1.5242356061935425,"457":-0.5758019089698792,"458":0.5266925096511841,"459":5.61641788482666,"460":-0.15495237708091736,"461":-0.07787258923053741,"462":-1.9250068664550781,"463":-1.0050950050354004,"464":-0.919796884059906,"465":-4.0607404708862305,"466":0.26871201395988464,"467":-0.08579378575086594,"468":-0.4822647273540497,"469":-0.26304492354393005,"470":1.2246843576431274,"471":-0.6507635116577148,"472":-4.994078636169434,"473":-0.9116970896720886,"474":-0.40889137983322144,"475":0.6759710907936096,"476":0.0626455545425415,"477":0.9991822838783264,"478":0.8895561099052429,"479":2.2622556686401367,"480":1.409582495689392,"481":-1.304624319076538,"482":1.6637836694717407,"483":1.9245305061340332,"484":-0.4229084849357605,"485":-0.6947126984596252,"486":0.4317578375339508,"487":1.3677352666854858,"488":-1.0498602390289307,"489":1.021547794342041,"490":-2.5736472606658936,"491":2.3294668197631836,"492":1.846990704536438,"493":-0.4991952180862427,"494":0.9600515365600586,"495":1.4826462268829346,"496":1.333876132965088,"497":1.8581558465957642,"498":-1.429408073425293,"499":-0.01782665215432644,"500":-0.6490727663040161,"501":0.7903956770896912,"502":-2.126706838607788,"503":-1.2324968576431274,"504":-2.1747357845306396,"505":0.469999760389328,"506":0.44383373856544495,"507":0.49290356040000916,"508":-0.20083580911159515,"509":-1.7230664491653442,"510":0.8036770224571228,"511":-2.3389811515808105,"512":-1.7293641567230225,"513":-0.954085111618042,"514":2.0506324768066406,"515":0.8231835961341858,"516":1.766097068786621,"517":-0.939130425453186,"518":-0.9811285138130188,"519":-0.2696135342121124,"520":4.890073776245117,"521":-1.1099200248718262,"522":-0.2991124987602234,"523":1.2329661846160889,"524":-0.4582688510417938,"525":-4.161728382110596,"526":2.76832914352417,"527":-1.3526015281677246,"528":0.48694008588790894,"529":0.7757031917572021,"530":0.45631924271583557,"531":0.8537434339523315,"532":0.6789058446884155,"533":1.0584946870803833,"534":0.9443126320838928,"535":2.3761868476867676,"536":-2.3191497325897217,"537":-2.458198308944702,"538":-1.4677823781967163,"539":0.07485505938529968,"540":-0.5536919832229614,"541":1.0647841691970825,"542":2.351714611053467,"543":0.7692592740058899,"544":0.03211827948689461,"545":-1.923775553703308,"546":-2.220754861831665,"547":0.5595119595527649,"548":5.135924816131592,"549":2.37007212638855,"550":1.412882924079895,"551":1.5181936025619507,"552":0.1566561609506607,"553":1.3123723268508911,"554":-1.3501651287078857,"555":2.6964452266693115,"556":2.3409805297851562,"557":-2.0123939514160156,"558":2.2844974994659424,"559":-2.461031198501587,"560":3.3964977264404297,"561":-1.1533094644546509,"562":2.555260181427002,"563":0.10673977434635162,"564":0.7158340215682983,"565":1.0083913803100586,"566":-0.19098706543445587,"567":-0.23595082759857178,"568":0.38830018043518066,"569":2.4103915691375732,"570":-3.2531521320343018,"571":0.02622988075017929,"572":1.083601951599121,"573":1.828176736831665,"574":0.08323541283607483,"575":1.2889294624328613,"576":-0.8187038898468018,"577":0.7367439270019531,"578":-0.7379271388053894,"579":1.8764866590499878,"580":-1.0873780250549316,"581":-0.5734938383102417,"582":-0.7778382301330566,"583":-0.8597813844680786,"584":-0.12960325181484222,"585":-1.2472541332244873,"586":0.4641420245170593,"587":1.5887113809585571,"588":-2.1324877738952637,"589":-2.134169816970825,"590":-4.333081245422363,"591":0.2246406376361847,"592":0.9611427783966064,"593":-2.7655341625213623,"594":-3.0569405555725098,"595":-1.905083417892456,"596":-0.28327974677085876,"597":-0.5076060891151428,"598":3.8579442501068115,"599":0.44119033217430115,"600":3.727978467941284,"601":0.42053481936454773,"602":3.431091547012329,"603":0.5610470175743103,"604":0.3033856451511383,"605":-0.8437880873680115,"606":0.9036346673965454,"607":1.5846751928329468,"608":-1.7415307760238647,"609":2.251422643661499,"610":-2.09078049659729,"611":1.9128310680389404,"612":-0.8211069107055664,"613":-0.27219530940055847,"614":0.9385839104652405,"615":1.7585729360580444,"616":3.5391387939453125,"617":2.0660059452056885,"618":0.07389259338378906,"619":1.544325828552246}},"inputHidden":{"rows":20,"columns":20,"weights":{"0":-3.9534387588500977,"1":0.5506238341331482,"2":-1.5181832313537598,"3":-3.194383144378662,"4":0.5359014868736267,"5":-1.8635189533233643,"6":0.38942933082580566,"7":-2.0227267742156982,"8":-4.07809591293335,"9":2.444843053817749,"10":1.8574103116989136,"11":2.2454006671905518,"12":1.2351034879684448,"13":5.535915851593018,"14":-0.2765328586101532,"15":-0.2429579496383667,"16":-7.464237213134766,"17":1.840592861175537,"18":-0.17581512033939362,"19":-1.4502191543579102,"20":-3.4760994911193848,"21":0.40744748711586,"22":-0.05145841836929321,"23":1.659843921661377,"24":2.8258800506591797,"25":1.6967862844467163,"26":2.476271867752075,"27":-3.5045394897460938,"28":-3.846857786178589,"29":0.5374977588653564,"30":-0.828618049621582,"31":0.41274720430374146,"32":-0.6416656374931335,"33":-0.8510913252830505,"34":-0.89524906873703,"35":2.578850269317627,"36":1.3190395832061768,"37":1.8710439205169678,"38":0.09611284732818604,"39":1.0704295635223389,"40":-0.1482028216123581,"41":-0.35636603832244873,"42":3.255126953125,"43":0.9654560685157776,"44":1.1478447914123535,"45":-0.05716503784060478,"46":-3.9388461112976074,"47":1.3579552173614502,"48":-0.39403361082077026,"49":2.7689948081970215,"50":2.59250545501709,"51":1.9860249757766724,"52":-1.4422129392623901,"53":3.570216178894043,"54":-1.4803141355514526,"55":2.362203598022461,"56":-1.9248223304748535,"57":0.5205681920051575,"58":-1.3344144821166992,"59":1.6527329683303833,"60":-1.7211474180221558,"61":0.7829075455665588,"62":2.1496500968933105,"63":2.1476495265960693,"64":-0.608169674873352,"65":-0.3428744077682495,"66":1.4217280149459839,"67":-0.026136983186006546,"68":1.3827656507492065,"69":-1.2591640949249268,"70":-1.6527074575424194,"71":1.2316734790802002,"72":-1.2149242162704468,"73":-1.4517176151275635,"74":-0.5257682800292969,"75":1.2040303945541382,"76":-0.7550205588340759,"77":2.4236247539520264,"78":1.8335726261138916,"79":0.9226135611534119,"80":-3.159320592880249,"81":-3.1042232513427734,"82":2.807833433151245,"83":2.088421583175659,"84":-2.482952833175659,"85":-2.1913938522338867,"86":0.06969991326332092,"87":0.5936775207519531,"88":-1.299660086631775,"89":0.7704805135726929,"90":0.5553478598594666,"91":2.3416974544525146,"92":-2.499480962753296,"93":-0.115758016705513,"94":0.8038384318351746,"95":-3.1917476654052734,"96":1.447365164756775,"97":0.7293806076049805,"98":-0.4955262541770935,"99":-1.6364030838012695,"100":-4.047713756561279,"101":-0.8296773433685303,"102":-0.005131120793521404,"103":0.8420414924621582,"104":-0.9939160943031311,"105":-0.2857309877872467,"106":-1.45963454246521,"107":2.683701515197754,"108":-3.422574758529663,"109":-0.19791769981384277,"110":-2.0977609157562256,"111":-2.2690584659576416,"112":-2.5736935138702393,"113":0.4061586856842041,"114":2.3325841426849365,"115":0.8039514422416687,"116":0.09132352471351624,"117":-1.3343219757080078,"118":2.1581153869628906,"119":0.2057107388973236,"120":-3.1789588928222656,"121":-6.209890842437744,"122":-4.683310031890869,"123":3.605595827102661,"124":-0.9799421429634094,"125":0.44753021001815796,"126":-5.116722583770752,"127":1.4886387586593628,"128":1.1941794157028198,"129":-4.137750625610352,"130":1.3861992359161377,"131":-3.3015568256378174,"132":-0.9873417615890503,"133":-2.151306390762329,"134":4.265103340148926,"135":-3.9323394298553467,"136":-2.143284797668457,"137":2.740769386291504,"138":-0.6997691988945007,"139":3.9548428058624268,"140":2.0444347858428955,"141":-2.0305302143096924,"142":-1.6225521564483643,"143":-0.6531652212142944,"144":2.3095710277557373,"145":-2.8828682899475098,"146":-1.3393936157226562,"147":3.170074224472046,"148":-3.2786548137664795,"149":0.0754116103053093,"150":-1.2179478406906128,"151":1.1516636610031128,"152":3.5627684593200684,"153":0.8087145686149597,"154":-2.2482283115386963,"155":0.9717397689819336,"156":-5.9931111335754395,"157":1.136607050895691,"158":6.447421550750732,"159":2.1209843158721924,"160":-2.2003884315490723,"161":-1.2319841384887695,"162":-5.631842136383057,"163":-5.936854362487793,"164":2.8837809562683105,"165":1.9982690811157227,"166":2.141328811645508,"167":4.221003532409668,"168":2.64353084564209,"169":-2.783362627029419,"170":2.6805036067962646,"171":0.8960468769073486,"172":0.6314546465873718,"173":-1.3895511627197266,"174":-1.4314453601837158,"175":-3.2147927284240723,"176":-0.22692812979221344,"177":-4.320377349853516,"178":-0.3205720782279968,"179":-0.05278903618454933,"180":0.22130100429058075,"181":1.5336161851882935,"182":-1.6136999130249023,"183":-2.1660079956054688,"184":-1.6524838209152222,"185":-2.029510259628296,"186":2.2822532653808594,"187":5.658491611480713,"188":-0.6338323354721069,"189":3.0026941299438477,"190":1.017703652381897,"191":0.6680777072906494,"192":5.916432857513428,"193":2.9267642498016357,"194":-5.594397068023682,"195":-5.818550109863281,"196":3.163607597351074,"197":0.10471862554550171,"198":2.2965965270996094,"199":-1.7843101024627686,"200":1.514548659324646,"201":-0.5800146460533142,"202":-3.8400163650512695,"203":-0.7030843496322632,"204":1.8687496185302734,"205":-2.609654664993286,"206":0.12446026504039764,"207":-4.56630802154541,"208":5.822166919708252,"209":0.5463814735412598,"210":0.6907371282577515,"211":-2.15035343170166,"212":-3.768606424331665,"213":4.172292232513428,"214":-2.872023820877075,"215":1.678337812423706,"216":-0.46279004216194153,"217":-1.6821593046188354,"218":-3.60115385055542,"219":-4.568936824798584,"220":-1.3614094257354736,"221":0.8871681094169617,"222":-2.694636106491089,"223":3.924527645111084,"224":2.022709846496582,"225":-2.3439579010009766,"226":-1.8923306465148926,"227":1.1467363834381104,"228":1.4035797119140625,"229":3.954766035079956,"230":1.139996886253357,"231":-4.160539627075195,"232":-4.13458776473999,"233":-0.9085861444473267,"234":-4.469782829284668,"235":3.9167215824127197,"236":0.6274290680885315,"237":1.1367825269699097,"238":3.357593059539795,"239":-3.0673582553863525,"240":-1.3483840227127075,"241":-3.1267306804656982,"242":3.1256210803985596,"243":-2.05434250831604,"244":3.434077024459839,"245":-1.287721037864685,"246":-1.4152764081954956,"247":1.6255499124526978,"248":2.0061159133911133,"249":-3.8630776405334473,"250":0.14149487018585205,"251":3.921870231628418,"252":-1.7209172248840332,"253":4.0675048828125,"254":4.168125152587891,"255":2.5200488567352295,"256":2.9291460514068604,"257":-0.041427332907915115,"258":-1.952077865600586,"259":-0.2945082187652588,"260":1.5959664583206177,"261":-3.675468921661377,"262":-1.2965184450149536,"263":-0.04626284912228584,"264":-1.958762764930725,"265":0.7267374396324158,"266":-3.4736573696136475,"267":-3.772113561630249,"268":2.518977165222168,"269":-4.281068325042725,"270":-2.1753079891204834,"271":-5.82009220123291,"272":4.191901206970215,"273":-1.136816382408142,"274":-4.321674346923828,"275":7.716563701629639,"276":-9.344453811645508,"277":-0.0056477682664990425,"278":-0.8937859535217285,"279":4.562346935272217,"280":2.958956480026245,"281":-1.7713394165039062,"282":5.122262001037598,"283":1.9934451580047607,"284":-3.5932655334472656,"285":1.0852577686309814,"286":1.7351298332214355,"287":7.878101348876953,"288":0.0039786286652088165,"289":-1.9793752431869507,"290":-0.1299901157617569,"291":0.5840160250663757,"292":5.902635097503662,"293":3.240570545196533,"294":-4.280121326446533,"295":1.4612876176834106,"296":-0.7068276405334473,"297":1.078253984451294,"298":3.637173891067505,"299":2.0682201385498047,"300":-3.1238832473754883,"301":3.5085785388946533,"302":-1.6317312717437744,"303":-0.3873084485530853,"304":-0.5166134238243103,"305":0.2444770783185959,"306":-1.168489694595337,"307":-2.707881450653076,"308":-2.8073906898498535,"309":0.0901942253112793,"310":0.08897692710161209,"311":0.5407477021217346,"312":-0.8045705556869507,"313":-1.2328178882598877,"314":0.30002522468566895,"315":-0.46102434396743774,"316":-5.092897415161133,"317":0.4041423499584198,"318":0.833021879196167,"319":-2.0613455772399902,"320":1.3768560886383057,"321":1.6755784749984741,"322":-2.0510246753692627,"323":1.139836072921753,"324":4.699016571044922,"325":0.4862077832221985,"326":-5.078802108764648,"327":-5.170348167419434,"328":2.2506933212280273,"329":-0.03356379643082619,"330":-2.471238374710083,"331":-1.973222017288208,"332":-0.6194174289703369,"333":0.2570549249649048,"334":3.3325703144073486,"335":1.9103277921676636,"336":2.255359411239624,"337":0.4776161015033722,"338":1.063288927078247,"339":-3.558202028274536,"340":0.4083159267902374,"341":-2.715787649154663,"342":-4.569343090057373,"343":5.1622819900512695,"344":6.009860515594482,"345":-2.5132923126220703,"346":-0.13782177865505219,"347":2.2312793731689453,"348":2.555088996887207,"349":1.4609674215316772,"350":-1.9362115859985352,"351":-1.4427940845489502,"352":4.220028877258301,"353":-1.9154107570648193,"354":-2.3377575874328613,"355":3.3145687580108643,"356":0.3840831518173218,"357":0.9889165759086609,"358":0.8014562129974365,"359":1.2267926931381226,"360":1.908203125,"361":-0.9019470810890198,"362":-0.26709023118019104,"363":0.23704253137111664,"364":0.6163848638534546,"365":0.5563766360282898,"366":4.663862705230713,"367":2.5959062576293945,"368":2.329482316970825,"369":-0.18669015169143677,"370":-2.40297269821167,"371":2.0058865547180176,"372":4.051380157470703,"373":-4.03388786315918,"374":1.9205853939056396,"375":3.057743787765503,"376":-0.8192917704582214,"377":1.4573136568069458,"378":-1.2524011135101318,"379":-2.8620195388793945,"380":1.510661244392395,"381":2.4923603534698486,"382":2.506347179412842,"383":-0.7120450139045715,"384":0.29383090138435364,"385":0.21248793601989746,"386":-2.0019993782043457,"387":-2.5145556926727295,"388":-1.2627812623977661,"389":2.7613775730133057,"390":-0.1271858513355255,"391":2.2616665363311768,"392":0.74239581823349,"393":2.587202787399292,"394":1.635756254196167,"395":0.055968523025512695,"396":-0.0014692696277052164,"397":2.8536038398742676,"398":-1.0941160917282104,"399":-2.5987319946289062}},"inputBias":{"rows":20,"columns":1,"weights":{"0":-1.875920057296753,"1":-0.3493683636188507,"2":-0.5359137058258057,"3":-0.07125861942768097,"4":-1.5235306024551392,"5":-2.1749632358551025,"6":-2.9950873851776123,"7":-0.9159106612205505,"8":-0.44094860553741455,"9":0.5223463177680969,"10":-1.1711623668670654,"11":-0.9143044948577881,"12":-0.15365169942378998,"13":-0.3549899458885193,"14":-4.163994312286377,"15":-0.1676100194454193,"16":-1.3991506099700928,"17":0.710662305355072,"18":-0.7908031940460205,"19":-2.2454216480255127}},"forgetMatrix":{"rows":20,"columns":31,"weights":{"0":-0.42540034651756287,"1":-1.3838343620300293,"2":0.4554286003112793,"3":-0.2769596576690674,"4":-0.38009533286094666,"5":1.169255018234253,"6":-0.6849661469459534,"7":-1.469411015510559,"8":1.9605571031570435,"9":0.060886237770318985,"10":1.1832475662231445,"11":1.8272258043289185,"12":-2.2819602489471436,"13":-0.2998538613319397,"14":0.07997521013021469,"15":3.823235034942627,"16":1.1573539972305298,"17":1.3815231323242188,"18":0.265422523021698,"19":1.894737958908081,"20":1.22294282913208,"21":4.070580959320068,"22":0.5862330794334412,"23":2.564722776412964,"24":-0.4280664324760437,"25":0.08435894548892975,"26":-2.2974252700805664,"27":-0.5723708271980286,"28":-1.7399308681488037,"29":0.14323414862155914,"30":0.9730393886566162,"31":0.05407712236046791,"32":-0.3059847056865692,"33":-1.4127004146575928,"34":-0.9938696622848511,"35":1.3535079956054688,"36":0.9556049704551697,"37":3.6319804191589355,"38":0.4345729351043701,"39":3.2399470806121826,"40":-1.512770414352417,"41":-1.5392827987670898,"42":-1.142835259437561,"43":0.9543943405151367,"44":-2.620962381362915,"45":-2.044295072555542,"46":-0.5821415781974792,"47":-1.9985854625701904,"48":0.07628118991851807,"49":-1.5400859117507935,"50":-4.125880718231201,"51":-0.05316833779215813,"52":1.2867628335952759,"53":2.9263460636138916,"54":1.10944664478302,"55":-3.310091495513916,"56":3.5490970611572266,"57":1.8521044254302979,"58":-3.588486433029175,"59":2.2333991527557373,"60":1.8915401697158813,"61":-1.7848155498504639,"62":0.8552682399749756,"63":-0.49309104681015015,"64":-2.104818344116211,"65":3.1377832889556885,"66":0.8696012496948242,"67":0.12044519186019897,"68":-1.5924288034439087,"69":0.10536454617977142,"70":0.5863158106803894,"71":6.684093952178955,"72":1.2599204778671265,"73":-2.0325372219085693,"74":0.2905837893486023,"75":1.2424765825271606,"76":0.12212275713682175,"77":-1.9542951583862305,"78":-4.653369426727295,"79":3.2181365489959717,"80":1.2893528938293457,"81":-0.14861102402210236,"82":0.26447904109954834,"83":-0.9729387760162354,"84":-2.2462337017059326,"85":-1.0419420003890991,"86":-2.4901223182678223,"87":1.157420039176941,"88":0.8234841227531433,"89":3.418369770050049,"90":0.3669329583644867,"91":1.6277397871017456,"92":0.4477759897708893,"93":2.6402194499969482,"94":0.7844569087028503,"95":-0.18711738288402557,"96":2.0380351543426514,"97":0.685139536857605,"98":-0.06598406285047531,"99":-0.6853898763656616,"100":-1.0035371780395508,"101":-1.699593424797058,"102":3.5136630535125732,"103":4.599503517150879,"104":0.9368425011634827,"105":0.23949286341667175,"106":1.507379174232483,"107":3.30106520652771,"108":0.092514768242836,"109":0.546537458896637,"110":0.02057357132434845,"111":2.302812099456787,"112":-0.33839571475982666,"113":0.7782982587814331,"114":0.7753447890281677,"115":-3.8162944316864014,"116":0.07559805363416672,"117":-0.2478364259004593,"118":0.08337768167257309,"119":0.045377012342214584,"120":-3.7846264839172363,"121":-3.0039453506469727,"122":-4.441882610321045,"123":-0.6900724768638611,"124":-1.9221372604370117,"125":-1.2821818590164185,"126":1.2633626461029053,"127":-2.951232433319092,"128":-0.3754829466342926,"129":1.9581515789031982,"130":-1.514580249786377,"131":-1.0474222898483276,"132":0.4545094072818756,"133":0.607006847858429,"134":-0.5960919260978699,"135":1.4512358903884888,"136":-0.3810056746006012,"137":-2.4050543308258057,"138":1.9081698656082153,"139":4.248775005340576,"140":0.3533947467803955,"141":-0.3120576739311218,"142":-2.4707326889038086,"143":2.523254871368408,"144":-0.0705355554819107,"145":2.685713052749634,"146":0.953324019908905,"147":2.4369394779205322,"148":0.4322701096534729,"149":-1.932273030281067,"150":-0.33645200729370117,"151":-4.26812219619751,"152":0.3550766706466675,"153":-1.9401646852493286,"154":-0.6065577864646912,"155":-0.623432993888855,"156":-0.7624607086181641,"157":-1.444165587425232,"158":2.690681219100952,"159":-1.5682964324951172,"160":-1.284114956855774,"161":-2.596362352371216,"162":-1.9464561939239502,"163":-0.7804211378097534,"164":1.1788825988769531,"165":1.643202304840088,"166":-1.4949939250946045,"167":1.4435065984725952,"168":1.9346086978912354,"169":0.6468954086303711,"170":-0.9121817946434021,"171":1.0201817750930786,"172":-0.81376713514328,"173":1.2905168533325195,"174":-1.2230607271194458,"175":0.9724060893058777,"176":-0.801175594329834,"177":-1.7007808685302734,"178":-0.4495372176170349,"179":1.0105220079421997,"180":0.8231952786445618,"181":0.29664576053619385,"182":2.2355916500091553,"183":0.01437379140406847,"184":0.5018174052238464,"185":1.3614956140518188,"186":-2.1891815662384033,"187":1.0201172828674316,"188":3.1334288120269775,"189":2.2002127170562744,"190":-0.39107105135917664,"191":0.9952288866043091,"192":0.17487721145153046,"193":1.0331811904907227,"194":2.1584713459014893,"195":-1.7503114938735962,"196":-0.8796157836914062,"197":2.3492743968963623,"198":-0.9203993082046509,"199":2.0182485580444336,"200":-0.2286461889743805,"201":0.7750561237335205,"202":-3.0262115001678467,"203":1.8496674299240112,"204":-0.7899071574211121,"205":2.2950289249420166,"206":2.4104793071746826,"207":1.759325623512268,"208":1.3148328065872192,"209":2.189150094985962,"210":-1.2710314989089966,"211":-2.3652803897857666,"212":2.8690474033355713,"213":-0.8116194605827332,"214":-1.8525406122207642,"215":-1.5936466455459595,"216":-1.3656994104385376,"217":-0.022181762382388115,"218":-0.2347411811351776,"219":0.21721769869327545,"220":0.059578873217105865,"221":1.3095831871032715,"222":-0.5987187027931213,"223":1.0960599184036255,"224":2.3159377574920654,"225":2.1159720420837402,"226":-1.2531192302703857,"227":-1.2604962587356567,"228":-0.707754373550415,"229":1.2950016260147095,"230":-0.9923918843269348,"231":-1.827309250831604,"232":0.7178913950920105,"233":-0.19479042291641235,"234":1.97200608253479,"235":-2.328672170639038,"236":-2.9367666244506836,"237":-1.99758780002594,"238":-0.8586682081222534,"239":3.021758794784546,"240":-1.9760279655456543,"241":-2.1333413124084473,"242":0.7649232745170593,"243":-0.2660682499408722,"244":2.145576238632202,"245":-0.08462293446063995,"246":3.5876104831695557,"247":-1.1450612545013428,"248":-0.49069586396217346,"249":-2.3507158756256104,"250":-2.713139533996582,"251":0.16718445718288422,"252":0.8069277405738831,"253":0.7507874369621277,"254":1.367852807044983,"255":0.47498658299446106,"256":-0.26707547903060913,"257":1.443732500076294,"258":3.3854756355285645,"259":-1.4705841541290283,"260":0.2092072069644928,"261":1.3981820344924927,"262":0.6187204122543335,"263":-1.1456115245819092,"264":-1.861194372177124,"265":0.26692402362823486,"266":0.397181898355484,"267":-3.6196210384368896,"268":1.8872712850570679,"269":-0.3897610604763031,"270":2.991957902908325,"271":-0.32561105489730835,"272":-2.207462787628174,"273":2.3409106731414795,"274":2.0913827419281006,"275":0.2060178816318512,"276":-1.8762245178222656,"277":1.7885692119598389,"278":-0.19932718575000763,"279":0.7804083824157715,"280":-1.7691925764083862,"281":0.6187227964401245,"282":1.6182066202163696,"283":-2.026106595993042,"284":1.0158865451812744,"285":2.742950201034546,"286":0.44390353560447693,"287":-1.1818538904190063,"288":-0.37089741230010986,"289":2.570361375808716,"290":1.890949010848999,"291":-1.2848005294799805,"292":2.8544256687164307,"293":5.041238784790039,"294":0.8603492975234985,"295":2.186122179031372,"296":-0.47383129596710205,"297":-1.1403347253799438,"298":-1.0892281532287598,"299":-1.9992711544036865,"300":0.2658487558364868,"301":-0.05103382468223572,"302":-0.5965071320533752,"303":-0.08240189403295517,"304":4.374265670776367,"305":-1.2621670961380005,"306":-0.11862833797931671,"307":-1.3074193000793457,"308":-0.2885332703590393,"309":-2.5690200328826904,"310":-0.062069524079561234,"311":1.5495284795761108,"312":-0.1767963171005249,"313":0.3601781129837036,"314":2.7187271118164062,"315":-0.1241253912448883,"316":-0.27487242221832275,"317":1.510711908340454,"318":1.611889362335205,"319":1.4536361694335938,"320":2.3261117935180664,"321":-0.35035669803619385,"322":-1.9346003532409668,"323":2.065870523452759,"324":-1.1726645231246948,"325":-0.41213446855545044,"326":-1.8079211711883545,"327":2.331573724746704,"328":-0.8518469333648682,"329":-2.3045482635498047,"330":-0.1621585637331009,"331":0.7093920707702637,"332":-1.7066620588302612,"333":0.5246379375457764,"334":-1.0057073831558228,"335":1.9026439189910889,"336":2.612386703491211,"337":1.4560085535049438,"338":-0.6262816786766052,"339":1.3597371578216553,"340":0.9010647535324097,"341":0.5588870644569397,"342":-0.9407636523246765,"343":-0.410312294960022,"344":1.7412350177764893,"345":0.7585150003433228,"346":-0.868514358997345,"347":-0.031054534018039703,"348":-0.0020269493106752634,"349":-1.4536662101745605,"350":2.223362684249878,"351":2.414245128631592,"352":-0.41827037930488586,"353":0.37168875336647034,"354":0.803760290145874,"355":-1.20357346534729,"356":-0.2627814710140228,"357":-1.353687047958374,"358":-0.30309826135635376,"359":0.07590049505233765,"360":-1.6562821865081787,"361":0.1367138773202896,"362":-2.0922234058380127,"363":-0.038066230714321136,"364":0.8940441608428955,"365":-2.30729603767395,"366":-0.19743399322032928,"367":2.8048856258392334,"368":3.0929882526397705,"369":-1.6366251707077026,"370":-0.10523178428411484,"371":-1.315246820449829,"372":-0.18292255699634552,"373":-1.9672443866729736,"374":-0.010843269526958466,"375":-0.5726916790008545,"376":2.5584585666656494,"377":-0.504115879535675,"378":0.5613676309585571,"379":4.357216835021973,"380":0.6986111998558044,"381":4.223381042480469,"382":-0.386222779750824,"383":-0.3484005331993103,"384":-0.47576186060905457,"385":-1.2757951021194458,"386":-3.4833056926727295,"387":-0.3466774821281433,"388":-1.2828686237335205,"389":3.1809189319610596,"390":-2.5914053916931152,"391":1.6687006950378418,"392":1.2728381156921387,"393":-2.5245916843414307,"394":-0.43646857142448425,"395":-3.1743321418762207,"396":-1.7537118196487427,"397":2.2896668910980225,"398":-1.76297926902771,"399":1.7548176050186157,"400":0.6330096125602722,"401":1.7849467992782593,"402":-2.626981735229492,"403":-0.390430212020874,"404":-2.522752285003662,"405":0.18559642136096954,"406":1.8984230756759644,"407":1.2553606033325195,"408":-1.5936816930770874,"409":-2.1907947063446045,"410":0.08479728549718857,"411":-0.6760919094085693,"412":0.7757951617240906,"413":0.36586326360702515,"414":1.3205177783966064,"415":-3.363633632659912,"416":4.062342166900635,"417":0.4048462212085724,"418":0.2648535966873169,"419":-1.8428620100021362,"420":1.0695364475250244,"421":1.2586641311645508,"422":-0.4393044412136078,"423":0.2997758984565735,"424":-1.5232542753219604,"425":0.39046967029571533,"426":0.6454852819442749,"427":-1.6856707334518433,"428":0.9385067820549011,"429":2.7855308055877686,"430":1.5147790908813477,"431":-2.0262677669525146,"432":0.649673342704773,"433":-0.8600040078163147,"434":5.679253101348877,"435":-0.5272295475006104,"436":-0.3096330463886261,"437":-2.471661329269409,"438":2.537167549133301,"439":0.9899685382843018,"440":-0.4130929410457611,"441":-0.04386071488261223,"442":2.2199769020080566,"443":1.1171585321426392,"444":-0.1669256091117859,"445":-2.0524394512176514,"446":2.840817451477051,"447":-2.1416847705841064,"448":-4.956288814544678,"449":-0.6074296832084656,"450":-2.488877296447754,"451":-3.527785062789917,"452":-0.3551160991191864,"453":0.29096782207489014,"454":2.6348371505737305,"455":-1.194448471069336,"456":-3.1980199813842773,"457":-0.3427232801914215,"458":-0.8816300630569458,"459":-2.6138463020324707,"460":0.2472439557313919,"461":-0.20865894854068756,"462":-1.6442508697509766,"463":0.4443120062351227,"464":-1.2410520315170288,"465":-1.2280079126358032,"466":-1.2495067119598389,"467":-2.8381054401397705,"468":0.8245397806167603,"469":-0.5970950722694397,"470":-2.333432674407959,"471":-2.6064746379852295,"472":-2.4543793201446533,"473":-1.7754855155944824,"474":2.458841562271118,"475":1.4310991764068604,"476":-0.9103475213050842,"477":0.4001195430755615,"478":2.3935914039611816,"479":3.8516125679016113,"480":0.13722014427185059,"481":0.10293614119291306,"482":1.7386760711669922,"483":1.4392842054367065,"484":-1.7596681118011475,"485":-1.1813571453094482,"486":-0.5710307359695435,"487":-0.9864417314529419,"488":0.18942949175834656,"489":-0.28179559111595154,"490":0.4347456693649292,"491":-0.18712583184242249,"492":1.5350223779678345,"493":-0.1508098691701889,"494":1.3034350872039795,"495":1.0743471384048462,"496":0.8765801787376404,"497":-0.492119699716568,"498":-0.0865965411067009,"499":-0.588358461856842,"500":2.7752604484558105,"501":-1.3365825414657593,"502":-0.00706682913005352,"503":-1.5328972339630127,"504":-0.892413854598999,"505":-1.1544898748397827,"506":2.6827640533447266,"507":-0.756549060344696,"508":0.7927815318107605,"509":-0.5085597038269043,"510":0.3992047607898712,"511":0.45630812644958496,"512":-2.64323353767395,"513":1.2272175550460815,"514":1.194260597229004,"515":-0.07364004850387573,"516":1.5826855897903442,"517":-3.0750789642333984,"518":-2.266045331954956,"519":-1.6152782440185547,"520":3.7895026206970215,"521":2.219804525375366,"522":1.3310974836349487,"523":1.3109723329544067,"524":0.7579379677772522,"525":-0.9872331619262695,"526":1.5492199659347534,"527":-2.234159231185913,"528":-3.0822432041168213,"529":-2.109600782394409,"530":-0.6934540867805481,"531":0.14137202501296997,"532":-4.51131010055542,"533":1.0069949626922607,"534":-3.4131176471710205,"535":-1.8544514179229736,"536":-0.2992527186870575,"537":2.400695323944092,"538":-1.2142482995986938,"539":2.10056471824646,"540":0.09811803698539734,"541":3.3375909328460693,"542":-0.7838868498802185,"543":0.250370591878891,"544":-0.47578224539756775,"545":0.8858842849731445,"546":-3.0072591304779053,"547":-1.4523088932037354,"548":-0.0830136314034462,"549":0.5070756077766418,"550":-0.6916723847389221,"551":2.203725576400757,"552":-0.5889990329742432,"553":-1.897589921951294,"554":0.4060048758983612,"555":-1.4559358358383179,"556":-1.218753457069397,"557":-1.9204438924789429,"558":2.231365203857422,"559":-0.8637707233428955,"560":-2.3701608180999756,"561":3.6794121265411377,"562":-1.830453872680664,"563":-1.7068290710449219,"564":0.1770385056734085,"565":1.1738317012786865,"566":-3.4543349742889404,"567":1.2433924674987793,"568":2.897747278213501,"569":-2.6060237884521484,"570":-2.2628798484802246,"571":1.5959348678588867,"572":-0.6270261406898499,"573":0.16890095174312592,"574":-1.9904683828353882,"575":0.654266893863678,"576":1.7258708477020264,"577":-1.2133976221084595,"578":1.5318256616592407,"579":-3.2932944297790527,"580":1.1242347955703735,"581":-0.8139898180961609,"582":-0.40924182534217834,"583":1.3171268701553345,"584":2.2435824871063232,"585":1.5462446212768555,"586":-2.2610652446746826,"587":-1.9622714519500732,"588":-1.0893744230270386,"589":0.26072388887405396,"590":0.2546118199825287,"591":-1.7006433010101318,"592":0.338263601064682,"593":0.7565644979476929,"594":1.7652713060379028,"595":4.654384613037109,"596":3.2430083751678467,"597":0.8769177198410034,"598":-2.4433813095092773,"599":-2.730773687362671,"600":-4.635495662689209,"601":1.8345273733139038,"602":-1.5739141702651978,"603":1.0437794923782349,"604":1.1840349435806274,"605":-1.7274130582809448,"606":-2.0281424522399902,"607":0.2714618146419525,"608":0.025788944214582443,"609":-2.3985612392425537,"610":-1.028570294380188,"611":-1.227068305015564,"612":-1.6924587488174438,"613":1.0665580034255981,"614":0.798026442527771,"615":1.159143090248108,"616":-0.8424860835075378,"617":-0.7723531723022461,"618":0.37424173951148987,"619":0.7518317103385925}},"forgetHidden":{"rows":20,"columns":20,"weights":{"0":-0.07232806086540222,"1":2.6076340675354004,"2":0.3538057506084442,"3":3.045428991317749,"4":1.1581062078475952,"5":-0.9278160929679871,"6":0.6976180672645569,"7":1.3104945421218872,"8":-1.9538952112197876,"9":1.5787705183029175,"10":-1.1362967491149902,"11":-1.2417479753494263,"12":0.4743410646915436,"13":-2.4569485187530518,"14":-0.6739048361778259,"15":-0.8349190950393677,"16":-1.6717121601104736,"17":1.5590784549713135,"18":1.7352532148361206,"19":-0.9823644757270813,"20":4.090469837188721,"21":0.8306971192359924,"22":-0.14308340847492218,"23":3.3547630310058594,"24":1.362336277961731,"25":1.5613163709640503,"26":2.9365665912628174,"27":1.6430866718292236,"28":-1.4729342460632324,"29":2.5178780555725098,"30":-0.00688888831064105,"31":0.03585769608616829,"32":3.390394687652588,"33":1.3801963329315186,"34":2.301791191101074,"35":1.176956295967102,"36":-1.433413028717041,"37":5.349908828735352,"38":1.045163869857788,"39":3.241352081298828,"40":-0.06827069073915482,"41":-2.551218271255493,"42":-1.1647610664367676,"43":2.924104928970337,"44":3.982729911804199,"45":2.2119598388671875,"46":3.794628858566284,"47":3.591585159301758,"48":0.25122150778770447,"49":-0.6440489888191223,"50":1.3600471019744873,"51":-2.596627712249756,"52":1.4033409357070923,"53":2.1041297912597656,"54":2.2811925411224365,"55":-0.08067795634269714,"56":0.7482815384864807,"57":-0.6545916795730591,"58":-2.53281831741333,"59":1.6917144060134888,"60":0.9352036118507385,"61":-4.185396671295166,"62":-3.1566758155822754,"63":0.8621855974197388,"64":-4.156153678894043,"65":3.446756362915039,"66":5.1434807777404785,"67":-0.005300444550812244,"68":-0.3129580318927765,"69":1.6187666654586792,"70":1.9773483276367188,"71":-3.526618480682373,"72":1.4817837476730347,"73":-2.966313600540161,"74":-2.1564791202545166,"75":-1.4851789474487305,"76":-2.1096444129943848,"77":-1.4254646301269531,"78":-3.996943712234497,"79":2.5752270221710205,"80":-1.2087516784667969,"81":2.125382900238037,"82":-0.8028069734573364,"83":-0.7915562987327576,"84":-0.2591466009616852,"85":-1.9818450212478638,"86":0.7793390154838562,"87":-1.007781982421875,"88":-0.35119959712028503,"89":1.4889971017837524,"90":-3.185415744781494,"91":-1.9411451816558838,"92":0.8486665487289429,"93":-0.47426000237464905,"94":-1.7500953674316406,"95":-0.7868670225143433,"96":0.45697981119155884,"97":1.756179928779602,"98":0.7430278062820435,"99":1.293378472328186,"100":0.7839983701705933,"101":-0.41215261816978455,"102":0.9992640018463135,"103":-0.8943842649459839,"104":-1.1235008239746094,"105":0.7440528869628906,"106":0.040857575833797455,"107":0.21474750339984894,"108":0.4812888205051422,"109":1.7378555536270142,"110":-0.2671607434749603,"111":1.5981037616729736,"112":0.9206029772758484,"113":3.553194284439087,"114":-0.494777649641037,"115":-1.335720181465149,"116":-1.8129358291625977,"117":-2.372896432876587,"118":-1.731974720954895,"119":-2.7032666206359863,"120":-0.2959630489349365,"121":0.20796258747577667,"122":-1.0439356565475464,"123":2.3432583808898926,"124":-2.5173816680908203,"125":0.9542866349220276,"126":0.8537963032722473,"127":0.4863895773887634,"128":-0.38169267773628235,"129":-0.8597456812858582,"130":3.9437127113342285,"131":2.140486001968384,"132":-0.6988462805747986,"133":1.923276424407959,"134":-2.4581916332244873,"135":6.099289417266846,"136":-2.4996867179870605,"137":6.7609758377075195,"138":0.36954620480537415,"139":4.950793743133545,"140":0.50925612449646,"141":-1.590505838394165,"142":-1.193739414215088,"143":1.310057520866394,"144":-0.9120132327079773,"145":-0.2349124252796173,"146":2.7824923992156982,"147":2.39369797706604,"148":0.07489662617444992,"149":-0.9130853414535522,"150":-0.28579166531562805,"151":-0.33428940176963806,"152":1.59420645236969,"153":0.19855472445487976,"154":1.8555854558944702,"155":-0.067040354013443,"156":-1.9588741064071655,"157":0.07827398926019669,"158":0.6791982650756836,"159":1.9100958108901978,"160":-0.40663570165634155,"161":1.4863779544830322,"162":0.13944359123706818,"163":-0.3563030958175659,"164":0.09007243812084198,"165":1.833228588104248,"166":1.0952260494232178,"167":-0.45273035764694214,"168":-1.0064256191253662,"169":0.5870189666748047,"170":-0.11499514430761337,"171":-0.6924437880516052,"172":1.9020934104919434,"173":0.42787548899650574,"174":-2.455076217651367,"175":-0.7968059778213501,"176":-0.6332049369812012,"177":1.2755595445632935,"178":0.9970893263816833,"179":0.7389902472496033,"180":11.536556243896484,"181":-4.98527717590332,"182":1.3278462886810303,"183":0.9032320380210876,"184":-2.216285467147827,"185":-5.5887346267700195,"186":-0.4276101291179657,"187":-1.458708643913269,"188":3.671501636505127,"189":-3.8745851516723633,"190":-3.3290202617645264,"191":-0.3744129240512848,"192":0.5011523365974426,"193":-0.21288661658763885,"194":2.345149040222168,"195":3.431694269180298,"196":-1.7270702123641968,"197":-3.118401050567627,"198":-0.7894885540008545,"199":4.371809959411621,"200":2.9539966583251953,"201":0.9490680694580078,"202":-1.9107632637023926,"203":1.2621499300003052,"204":2.350292682647705,"205":1.5365674495697021,"206":1.4634608030319214,"207":-0.9668653607368469,"208":1.9550023078918457,"209":4.928839206695557,"210":1.8944873809814453,"211":-0.4996415972709656,"212":2.2205164432525635,"213":-2.6391141414642334,"214":1.035712718963623,"215":1.3381538391113281,"216":-0.08992936462163925,"217":-2.148475408554077,"218":1.007002830505371,"219":0.8014876842498779,"220":-0.15463164448738098,"221":0.42539551854133606,"222":1.2448300123214722,"223":-0.9786269068717957,"224":-0.09424198418855667,"225":0.6622470021247864,"226":0.08481280505657196,"227":-1.1561075448989868,"228":1.114162802696228,"229":-1.050235629081726,"230":0.7677857875823975,"231":0.1116858497262001,"232":0.5494710206985474,"233":-1.9098786115646362,"234":-0.6574177145957947,"235":0.05575479194521904,"236":1.4340356588363647,"237":0.6071205139160156,"238":-1.1066538095474243,"239":-1.1239633560180664,"240":-2.182244300842285,"241":2.0955731868743896,"242":1.9520994424819946,"243":-1.4006192684173584,"244":-1.401615858078003,"245":1.3789689540863037,"246":2.899264097213745,"247":-0.14822348952293396,"248":-2.4098050594329834,"249":0.8889880180358887,"250":0.265882283449173,"251":0.5702217817306519,"252":2.3893351554870605,"253":1.3156529664993286,"254":-5.2613019943237305,"255":1.3699462413787842,"256":5.844014644622803,"257":1.7165368795394897,"258":2.0177488327026367,"259":-1.7133275270462036,"260":-1.2534819841384888,"261":1.799885869026184,"262":0.6338647603988647,"263":0.8374963402748108,"264":2.344524383544922,"265":-0.383766233921051,"266":1.1552377939224243,"267":1.1421407461166382,"268":0.36302754282951355,"269":1.3001857995986938,"270":-1.84334135055542,"271":-0.12824584543704987,"272":0.9407421946525574,"273":-0.5747181177139282,"274":-0.8623470067977905,"275":-2.1222426891326904,"276":-0.15711934864521027,"277":0.6316403746604919,"278":0.17057479918003082,"279":-0.7917190194129944,"280":0.07285629212856293,"281":1.3247402906417847,"282":-0.6083873510360718,"283":-0.39064404368400574,"284":0.4996209442615509,"285":0.33730611205101013,"286":0.5637969970703125,"287":2.9562549591064453,"288":-0.83510422706604,"289":1.3769911527633667,"290":-1.1611638069152832,"291":-0.2008531093597412,"292":-2.221388101577759,"293":1.6467400789260864,"294":-0.20740346610546112,"295":-0.8821929097175598,"296":0.2675016522407532,"297":1.7286431789398193,"298":2.0832736492156982,"299":0.4547184109687805,"300":-0.8441973328590393,"301":-0.329427033662796,"302":2.1302335262298584,"303":-0.5873699188232422,"304":2.251823902130127,"305":-0.7928321957588196,"306":-1.3926483392715454,"307":-0.048003699630498886,"308":3.1777446269989014,"309":-1.7727004289627075,"310":-2.620317220687866,"311":0.4878908395767212,"312":1.758612036705017,"313":-0.9811061024665833,"314":-2.8013718128204346,"315":1.3351579904556274,"316":-0.938012421131134,"317":1.8030427694320679,"318":1.1511677503585815,"319":-0.47554081678390503,"320":-0.20463956892490387,"321":-0.24533873796463013,"322":-4.899206638336182,"323":0.6598920822143555,"324":-0.013313092291355133,"325":0.03868506848812103,"326":-3.938142776489258,"327":-5.22745418548584,"328":-0.04290920868515968,"329":-4.176532745361328,"330":0.8703947067260742,"331":-0.430851548910141,"332":2.296879529953003,"333":-0.36285462975502014,"334":-1.135290265083313,"335":-0.9433246850967407,"336":0.35880205035209656,"337":-0.6768530607223511,"338":1.7660249471664429,"339":1.1809724569320679,"340":5.634798049926758,"341":-4.652925491333008,"342":0.4436323940753937,"343":-0.17835378646850586,"344":2.513772487640381,"345":3.1305246353149414,"346":0.9157259464263916,"347":5.687644004821777,"348":5.382552146911621,"349":-0.7205343246459961,"350":5.2163920402526855,"351":-1.5341581106185913,"352":-0.6586750745773315,"353":1.39878249168396,"354":8.202014923095703,"355":0.9346769452095032,"356":-0.16505716741085052,"357":-3.700331926345825,"358":2.2539074420928955,"359":-0.6341256499290466,"360":-1.0233877897262573,"361":1.696869969367981,"362":-0.6733611226081848,"363":-2.8303463459014893,"364":-1.3965890407562256,"365":-0.3953818082809448,"366":-0.6361826658248901,"367":2.230120897293091,"368":-1.8081320524215698,"369":1.091554045677185,"370":-1.009189248085022,"371":0.6403138041496277,"372":1.3804858922958374,"373":2.537566900253296,"374":0.6958122849464417,"375":1.0625455379486084,"376":-2.8201518058776855,"377":4.389388561248779,"378":-3.1240339279174805,"379":0.22741611301898956,"380":1.1942884922027588,"381":-2.4297990798950195,"382":0.3151451647281647,"383":-1.1859588623046875,"384":0.6121427416801453,"385":0.7936412692070007,"386":-2.029907703399658,"387":-0.24911977350711823,"388":2.2534079551696777,"389":-4.157426834106445,"390":0.45005711913108826,"391":0.19986563920974731,"392":0.33435291051864624,"393":1.654657244682312,"394":4.375581741333008,"395":-1.1389585733413696,"396":-6.125522613525391,"397":0.7910416126251221,"398":-0.7366793155670166,"399":0.22854718565940857}},"forgetBias":{"rows":20,"columns":1,"weights":{"0":0,"1":0,"2":0,"3":0,"4":0,"5":0,"6":0,"7":0,"8":0,"9":0,"10":0,"11":0,"12":0,"13":0,"14":0,"15":0,"16":0,"17":0,"18":0,"19":0}},"outputMatrix":{"rows":20,"columns":31,"weights":{"0":-1.527042031288147,"1":-0.6136866807937622,"2":0.8184831738471985,"3":-0.45008978247642517,"4":3.522050619125366,"5":-1.3354755640029907,"6":-1.673353672027588,"7":-1.949763298034668,"8":-0.7967735528945923,"9":0.32523584365844727,"10":-0.07529090344905853,"11":-0.3844929039478302,"12":1.728445291519165,"13":-2.7079358100891113,"14":-1.6819252967834473,"15":1.4224096536636353,"16":-2.474689483642578,"17":-1.5615448951721191,"18":-0.9857418537139893,"19":0.1339147835969925,"20":5.222803592681885,"21":0.9714874029159546,"22":2.00869083404541,"23":-0.000053038191254017875,"24":-0.8184614181518555,"25":-2.368893623352051,"26":0.31795379519462585,"27":1.879510521888733,"28":-3.039431095123291,"29":-1.9246960878372192,"30":0.3799801468849182,"31":-0.747102677822113,"32":-3.4494147300720215,"33":0.9339761137962341,"34":-0.593683660030365,"35":0.28837063908576965,"36":-0.5680302977561951,"37":-0.5571131706237793,"38":-0.9666355848312378,"39":0.6301572322845459,"40":1.8556782007217407,"41":2.7147419452667236,"42":0.9145540595054626,"43":2.0515687465667725,"44":-0.45220285654067993,"45":1.1266311407089233,"46":1.9548358917236328,"47":-2.431817054748535,"48":-0.5851308703422546,"49":-1.1111395359039307,"50":-1.90286386013031,"51":3.1737120151519775,"52":1.7695746421813965,"53":1.0136001110076904,"54":-0.5319488644599915,"55":-3.795781135559082,"56":-1.5986273288726807,"57":1.8534313440322876,"58":0.0022515796590596437,"59":-5.126871109008789,"60":2.28910231590271,"61":0.775118887424469,"62":-3.267925262451172,"63":-0.10380508750677109,"64":0.7039690017700195,"65":1.9167556762695312,"66":-0.4019087553024292,"67":1.0704231262207031,"68":-1.6735185384750366,"69":-1.7804579734802246,"70":0.2506212890148163,"71":-1.4322694540023804,"72":0.7277736067771912,"73":3.090073347091675,"74":2.2170891761779785,"75":3.257147789001465,"76":1.6798797845840454,"77":1.2544327974319458,"78":-0.6927188038825989,"79":1.3165122270584106,"80":2.6708085536956787,"81":0.741295337677002,"82":1.6765581369400024,"83":2.916025400161743,"84":-0.11492238193750381,"85":0.6697370409965515,"86":0.09992749243974686,"87":-0.9961526393890381,"88":4.464560031890869,"89":-0.2628341317176819,"90":3.6965067386627197,"91":-0.06911209225654602,"92":1.0306668281555176,"93":1.825240969657898,"94":-0.520189642906189,"95":0.6983523368835449,"96":0.8230577111244202,"97":-0.2745992839336395,"98":-0.7806956768035889,"99":0.5886977314949036,"100":-0.8383746147155762,"101":-1.9515348672866821,"102":2.6425509452819824,"103":0.6503037214279175,"104":0.8863901495933533,"105":2.956155300140381,"106":2.530604362487793,"107":0.7420702576637268,"108":-0.8826695680618286,"109":1.6927539110183716,"110":-3.827270746231079,"111":1.455322504043579,"112":-0.27107003331184387,"113":-1.3564733266830444,"114":0.8362409472465515,"115":-0.41614246368408203,"116":0.3165631890296936,"117":0.07884755730628967,"118":-0.41582828760147095,"119":-0.4070315659046173,"120":-0.21287468075752258,"121":1.492936611175537,"122":-2.571593999862671,"123":0.867443323135376,"124":-0.019567912444472313,"125":2.984372615814209,"126":-1.5464870929718018,"127":-0.34962692856788635,"128":-1.914882779121399,"129":0.4882119297981262,"130":0.48920923471450806,"131":0.7948142886161804,"132":-1.4590845108032227,"133":1.1574820280075073,"134":0.8368051648139954,"135":0.45373988151550293,"136":0.6476264595985413,"137":-0.30496662855148315,"138":-5.093764305114746,"139":-5.0541486740112305,"140":0.5150695443153381,"141":-1.1399829387664795,"142":-2.589581251144409,"143":0.6131066083908081,"144":0.8130194544792175,"145":-0.2541278302669525,"146":-0.7055405974388123,"147":-1.9591786861419678,"148":1.1915878057479858,"149":-0.01167332660406828,"150":0.9090951085090637,"151":1.0053939819335938,"152":1.7729562520980835,"153":-0.17405684292316437,"154":0.40021151304244995,"155":-3.3174965381622314,"156":1.2575868368148804,"157":-1.3412812948226929,"158":2.3091509342193604,"159":-4.334168434143066,"160":-1.2043899297714233,"161":-0.44436752796173096,"162":-3.416257619857788,"163":-0.18329836428165436,"164":1.016175627708435,"165":-0.36892178654670715,"166":0.11290601640939713,"167":2.3941359519958496,"168":0.38520729541778564,"169":2.3328235149383545,"170":-0.9922871589660645,"171":-2.5995688438415527,"172":2.1681644916534424,"173":-0.17756374180316925,"174":-1.3459432125091553,"175":0.4019368886947632,"176":-2.1182522773742676,"177":-0.31575316190719604,"178":2.446500778198242,"179":1.0570601224899292,"180":-2.587378978729248,"181":0.36987805366516113,"182":0.9362567067146301,"183":0.45988908410072327,"184":-0.3775644600391388,"185":-0.03555135428905487,"186":-0.8017349243164062,"187":0.5156576037406921,"188":-0.22521348297595978,"189":2.036608934402466,"190":1.6777621507644653,"191":0.4528561234474182,"192":-1.2564469575881958,"193":1.1818220615386963,"194":-0.15167486667633057,"195":3.4611589908599854,"196":1.475129246711731,"197":0.9111811518669128,"198":-2.180114269256592,"199":2.0967042446136475,"200":2.2883851528167725,"201":1.1932854652404785,"202":-3.025592803955078,"203":0.9105619192123413,"204":1.8142451047897339,"205":0.46880486607551575,"206":0.948855996131897,"207":1.1141775846481323,"208":2.5176479816436768,"209":0.677852988243103,"210":-2.8369455337524414,"211":-1.2248961925506592,"212":3.8806982040405273,"213":1.5037364959716797,"214":-1.9594998359680176,"215":-0.36302149295806885,"216":1.4756827354431152,"217":-0.20074090361595154,"218":-0.46393677592277527,"219":5.4301838874816895,"220":-2.9679393768310547,"221":0.47939568758010864,"222":0.9547259211540222,"223":-1.0968695878982544,"224":-1.1253087520599365,"225":1.4755361080169678,"226":-2.336437225341797,"227":0.6447990536689758,"228":4.707226276397705,"229":0.3781215250492096,"230":0.5324064493179321,"231":-3.2388358116149902,"232":3.9132256507873535,"233":-0.1641845554113388,"234":2.772688865661621,"235":-1.398381233215332,"236":0.8982903361320496,"237":-0.07274429500102997,"238":1.129729151725769,"239":0.8682882189750671,"240":2.940354347229004,"241":-0.36190807819366455,"242":0.7255599498748779,"243":-0.4698162376880646,"244":-2.4946460723876953,"245":-0.0764252245426178,"246":-0.5532670021057129,"247":-0.3219430446624756,"248":0.3394237756729126,"249":0.08433018624782562,"250":3.590404748916626,"251":1.2883630990982056,"252":-0.056243203580379486,"253":-1.562954068183899,"254":-0.824697732925415,"255":0.04509875178337097,"256":-0.6151272654533386,"257":1.8342317342758179,"258":0.9183215498924255,"259":3.5851526260375977,"260":0.9798091053962708,"261":0.13896797597408295,"262":-0.8146427273750305,"263":1.317550539970398,"264":-2.370513439178467,"265":0.40976062417030334,"266":1.267654538154602,"267":3.479726791381836,"268":5.958095073699951,"269":1.1387196779251099,"270":1.414561152458191,"271":-1.3637056350708008,"272":-0.6106571555137634,"273":-1.2985122203826904,"274":1.330146312713623,"275":1.0776724815368652,"276":-0.31796568632125854,"277":-2.889897584915161,"278":-1.5426260232925415,"279":0.4728611409664154,"280":-2.5979199409484863,"281":-2.6534135341644287,"282":0.087952621281147,"283":-0.04617767035961151,"284":0.7962655425071716,"285":1.1282312870025635,"286":-0.20899420976638794,"287":1.4224072694778442,"288":-2.533113479614258,"289":-0.40848636627197266,"290":-2.1048312187194824,"291":0.20904099941253662,"292":0.5154111385345459,"293":2.6922237873077393,"294":-0.6340956091880798,"295":-0.8487033843994141,"296":-1.4795664548873901,"297":0.7060848474502563,"298":-1.1141233444213867,"299":-2.629528045654297,"300":0.09773766994476318,"301":1.149029016494751,"302":-1.0088979005813599,"303":1.6916548013687134,"304":1.7812366485595703,"305":1.9357677698135376,"306":-1.3108614683151245,"307":-1.7705069780349731,"308":-0.7885479927062988,"309":-0.3349776864051819,"310":-0.9502753019332886,"311":1.3587217330932617,"312":1.9238483905792236,"313":-1.7811529636383057,"314":-1.1525123119354248,"315":-2.401742696762085,"316":-2.6638200283050537,"317":-1.7699400186538696,"318":-0.9263399243354797,"319":1.807161569595337,"320":-0.40835124254226685,"321":2.8294432163238525,"322":-0.3524165451526642,"323":0.665567934513092,"324":-0.5569429993629456,"325":2.13639760017395,"326":0.7063515186309814,"327":0.04495095834136009,"328":0.19451144337654114,"329":2.969886541366577,"330":3.671804904937744,"331":-1.0142087936401367,"332":-2.4070322513580322,"333":-0.08443877846002579,"334":1.4766095876693726,"335":-0.6422458291053772,"336":-1.73051917552948,"337":1.6004868745803833,"338":-0.4241313934326172,"339":-1.5131107568740845,"340":-0.24636748433113098,"341":-2.071169376373291,"342":0.6637222766876221,"343":0.35289886593818665,"344":3.284520387649536,"345":3.004053831100464,"346":0.5837803483009338,"347":-1.2555351257324219,"348":-0.9997487664222717,"349":-0.49130570888519287,"350":2.266357421875,"351":1.6166574954986572,"352":1.174975872039795,"353":1.915770173072815,"354":2.6215879917144775,"355":-0.8530663251876831,"356":-1.1453804969787598,"357":-4.247988700866699,"358":2.0199873447418213,"359":-0.9194987416267395,"360":0.11942126601934433,"361":1.7036923170089722,"362":-1.3163353204727173,"363":0.39409297704696655,"364":-0.9098806977272034,"365":0.5488107800483704,"366":0.9179795980453491,"367":1.4080636501312256,"368":1.6759055852890015,"369":-1.5980700254440308,"370":1.9155430793762207,"371":1.0178200006484985,"372":1.7516611814498901,"373":-1.3580470085144043,"374":-2.9249372482299805,"375":2.9680919647216797,"376":-0.675998330116272,"377":-1.6251022815704346,"378":-1.7245244979858398,"379":0.7810267210006714,"380":-0.91843181848526,"381":-0.6015215516090393,"382":2.7576823234558105,"383":-1.2666785717010498,"384":4.068882942199707,"385":0.36068829894065857,"386":1.9530234336853027,"387":0.3840443789958954,"388":-1.4228286743164062,"389":-1.8041136264801025,"390":1.074069619178772,"391":0.19149772822856903,"392":2.378408670425415,"393":-0.071151502430439,"394":0.7982026934623718,"395":-0.7024967074394226,"396":1.329293131828308,"397":-0.026308558881282806,"398":-0.9722687602043152,"399":0.5812336802482605,"400":-1.9819316864013672,"401":-3.240004777908325,"402":-0.8855003118515015,"403":0.5830451846122742,"404":1.3329471349716187,"405":1.8108398914337158,"406":0.6447080373764038,"407":-1.0185352563858032,"408":1.040769338607788,"409":-1.9071578979492188,"410":-2.833665132522583,"411":-1.6642040014266968,"412":2.770155191421509,"413":-0.5923592448234558,"414":1.6306325197219849,"415":3.8680732250213623,"416":-1.390550136566162,"417":-0.44400274753570557,"418":-0.09928800910711288,"419":-0.8434672355651855,"420":1.0335502624511719,"421":1.8170961141586304,"422":4.332773208618164,"423":3.0789730548858643,"424":2.050032377243042,"425":-1.4284818172454834,"426":-2.0375876426696777,"427":1.7769287824630737,"428":0.7860711216926575,"429":-3.4235126972198486,"430":-0.5972692966461182,"431":0.889999270439148,"432":-1.5807868242263794,"433":4.245043754577637,"434":0.9282755851745605,"435":0.9498578310012817,"436":1.4686369895935059,"437":1.089194893836975,"438":1.3303570747375488,"439":2.449676275253296,"440":0.7874734401702881,"441":3.5568599700927734,"442":3.3421308994293213,"443":0.7034666538238525,"444":-1.8433880805969238,"445":-1.4340134859085083,"446":-0.3391982316970825,"447":-0.20935259759426117,"448":-2.0806703567504883,"449":0.8380389213562012,"450":-1.30076265335083,"451":2.2774555683135986,"452":-2.627037763595581,"453":-0.20107223093509674,"454":-0.8023467063903809,"455":0.07531848549842834,"456":-0.08181560039520264,"457":-2.7946839332580566,"458":-3.4488494396209717,"459":1.3443323373794556,"460":-0.9287058711051941,"461":-0.5699971914291382,"462":-0.019366662949323654,"463":0.5908625721931458,"464":-0.7917675375938416,"465":2.2661056518554688,"466":-0.4927018880844116,"467":1.2062991857528687,"468":-1.7168740034103394,"469":3.0448341369628906,"470":-0.6178224682807922,"471":-3.277851104736328,"472":1.1909832954406738,"473":-2.369321584701538,"474":-0.4550205171108246,"475":-0.4332141578197479,"476":0.5215999484062195,"477":1.8001625537872314,"478":-0.5575506091117859,"479":-2.5602848529815674,"480":-0.5769352912902832,"481":-3.805101156234741,"482":1.1290674209594727,"483":-2.012610673904419,"484":0.14863914251327515,"485":1.5644296407699585,"486":-2.671046733856201,"487":-0.0667610689997673,"488":-0.6074961423873901,"489":1.5533313751220703,"490":-3.4895522594451904,"491":-2.819735050201416,"492":2.466458320617676,"493":-0.3837602734565735,"494":0.6748892664909363,"495":2.0509846210479736,"496":1.5650514364242554,"497":-2.7821266651153564,"498":1.635642170906067,"499":-0.43397805094718933,"500":1.0492388010025024,"501":1.4572077989578247,"502":-1.8163882493972778,"503":1.1487778425216675,"504":0.0017997354734688997,"505":-1.8557696342468262,"506":1.18820059299469,"507":0.4437894821166992,"508":1.9294253587722778,"509":-1.3063896894454956,"510":1.9961575269699097,"511":-1.1016908884048462,"512":0.6059815287590027,"513":-3.122551441192627,"514":-0.7648823261260986,"515":0.5714383721351624,"516":0.1624261438846588,"517":0.9062731862068176,"518":0.2953559458255768,"519":0.9435504078865051,"520":1.0213719606399536,"521":-1.8062225580215454,"522":0.32163169980049133,"523":1.2515639066696167,"524":0.4810786545276642,"525":-3.5030126571655273,"526":1.5524189472198486,"527":-0.5508267283439636,"528":0.9374844431877136,"529":-0.35672295093536377,"530":1.840261697769165,"531":-0.26506155729293823,"532":-0.02344214729964733,"533":0.5446863174438477,"534":3.0092129707336426,"535":-1.6270369291305542,"536":1.5701032876968384,"537":-0.10687671601772308,"538":-2.8098349571228027,"539":-2.222703218460083,"540":-0.33385026454925537,"541":-0.0737183466553688,"542":-0.07180891931056976,"543":-0.21996749937534332,"544":0.6759240031242371,"545":2.2763001918792725,"546":-0.6660010814666748,"547":1.380621075630188,"548":-2.9833381175994873,"549":0.5414003133773804,"550":0.06190597265958786,"551":-0.8663235306739807,"552":0.6359862685203552,"553":1.7688922882080078,"554":0.21784214675426483,"555":-0.286861777305603,"556":0.9059492349624634,"557":-0.2521096169948578,"558":2.5759201049804688,"559":-2.8860385417938232,"560":0.3677213788032532,"561":-1.1118444204330444,"562":-2.200806140899658,"563":-1.7965832948684692,"564":0.367765337228775,"565":-0.6583484411239624,"566":-2.428797483444214,"567":-1.364396572113037,"568":1.4198331832885742,"569":1.0023599863052368,"570":0.8980388641357422,"571":0.29261985421180725,"572":5.50449800491333,"573":3.05157470703125,"574":0.3255421221256256,"575":1.3625938892364502,"576":-0.9923483729362488,"577":-0.9999160170555115,"578":-0.8708041310310364,"579":-2.013756275177002,"580":1.05642569065094,"581":-0.3787442743778229,"582":2.0586161613464355,"583":0.42853155732154846,"584":-3.9254133701324463,"585":-0.5519924163818359,"586":-4.320307731628418,"587":0.5778505206108093,"588":-1.839843511581421,"589":0.45867860317230225,"590":-0.12363177537918091,"591":-1.7622579336166382,"592":1.3502132892608643,"593":3.597790241241455,"594":3.496925115585327,"595":-0.5949574112892151,"596":-1.7444891929626465,"597":-0.12866652011871338,"598":-0.057081256061792374,"599":2.728257656097412,"600":-2.0542526245117188,"601":1.3544799089431763,"602":0.8729041814804077,"603":0.2840462028980255,"604":-1.2029166221618652,"605":-1.832060694694519,"606":2.110121488571167,"607":-1.1927491426467896,"608":-0.44778910279273987,"609":-1.4619423151016235,"610":0.4022514224052429,"611":-2.0614874362945557,"612":-3.089909315109253,"613":-0.22377459704875946,"614":0.39771342277526855,"615":3.053765058517456,"616":3.0192952156066895,"617":0.5499380826950073,"618":1.489970326423645,"619":1.0782443284988403}},"outputHidden":{"rows":20,"columns":20,"weights":{"0":1.5890878438949585,"1":-1.6818406581878662,"2":-3.3133630752563477,"3":-1.3280192613601685,"4":4.159309387207031,"5":2.5201597213745117,"6":-1.728315830230713,"7":-1.086551308631897,"8":0.6512988805770874,"9":-1.0743211507797241,"10":1.0320990085601807,"11":3.163172721862793,"12":1.7275015115737915,"13":0.4743972420692444,"14":1.722704291343689,"15":4.259941577911377,"16":2.7493839263916016,"17":-2.9732987880706787,"18":-0.3106955289840698,"19":3.9922685623168945,"20":-3.289395570755005,"21":0.936219334602356,"22":0.6127178072929382,"23":0.5922033190727234,"24":3.1690590381622314,"25":0.36736273765563965,"26":1.5897217988967896,"27":1.1896650791168213,"28":0.02205665409564972,"29":-0.3346078395843506,"30":-1.848920226097107,"31":-2.049011707305908,"32":3.812915086746216,"33":0.7442581653594971,"34":-1.270768642425537,"35":-6.126214981079102,"36":-0.1851809173822403,"37":-4.063642978668213,"38":1.6601852178573608,"39":2.312082052230835,"40":-0.03745672106742859,"41":2.7975778579711914,"42":1.0102360248565674,"43":2.418954849243164,"44":-1.1748470067977905,"45":1.2037651538848877,"46":1.1933737993240356,"47":-0.9914649128913879,"48":-0.08244368433952332,"49":2.663198947906494,"50":-0.4752998352050781,"51":2.3783814907073975,"52":-0.059768013656139374,"53":4.033218860626221,"54":-1.8483281135559082,"55":2.1551880836486816,"56":-1.117688775062561,"57":0.22454704344272614,"58":1.620680332183838,"59":-2.2804431915283203,"60":10.341872215270996,"61":-4.834507942199707,"62":0.3235597014427185,"63":-0.13766425848007202,"64":-0.2466505616903305,"65":3.3831896781921387,"66":-3.8350279331207275,"67":3.7163753509521484,"68":3.0372443199157715,"69":-1.548172116279602,"70":3.435669183731079,"71":-1.667001724243164,"72":2.747093439102173,"73":7.2168145179748535,"74":5.266368389129639,"75":1.1562951803207397,"76":2.0241427421569824,"77":-0.762556254863739,"78":-2.903874635696411,"79":2.586134672164917,"80":-1.053046703338623,"81":1.5521308183670044,"82":2.486283302307129,"83":4.904712200164795,"84":-2.457612991333008,"85":-5.099971294403076,"86":0.49537909030914307,"87":5.121580123901367,"88":-1.70309579372406,"89":1.059280514717102,"90":-1.8428152799606323,"91":1.7387901544570923,"92":-1.9599977731704712,"93":0.4123121500015259,"94":0.7442355751991272,"95":-2.169058322906494,"96":-5.230770111083984,"97":2.1343586444854736,"98":0.19455991685390472,"99":-0.36372488737106323,"100":3.2254486083984375,"101":-0.5216127038002014,"102":-3.254692554473877,"103":0.7468176484107971,"104":-2.8601174354553223,"105":1.2390704154968262,"106":-0.7702811360359192,"107":-5.229462623596191,"108":-0.3342062532901764,"109":-4.574889183044434,"110":1.843117117881775,"111":-1.0724238157272339,"112":0.3108159005641937,"113":0.638393223285675,"114":1.8705003261566162,"115":1.2723380327224731,"116":-4.1914448738098145,"117":-0.19666104018688202,"118":0.20908676087856293,"119":-5.3919291496276855,"120":-2.8805246353149414,"121":-0.6806252598762512,"122":-3.8338828086853027,"123":-0.648616373538971,"124":2.223665714263916,"125":0.9246395230293274,"126":-3.0266292095184326,"127":6.391383171081543,"128":-2.670943021774292,"129":-1.9103481769561768,"130":-1.156270146369934,"131":0.9580591320991516,"132":1.0442991256713867,"133":-0.9683853983879089,"134":-4.4568328857421875,"135":1.7800590991973877,"136":0.5431488156318665,"137":-1.9211759567260742,"138":2.588841438293457,"139":6.25111198425293,"140":-1.5833457708358765,"141":2.1826372146606445,"142":-2.0846102237701416,"143":-0.7011280059814453,"144":5.322123050689697,"145":-5.462839603424072,"146":-0.3467574417591095,"147":0.26407015323638916,"148":0.2884807586669922,"149":1.6794755458831787,"150":0.01274933572858572,"151":1.8989850282669067,"152":0.4525720775127411,"153":2.1359288692474365,"154":-1.3125054836273193,"155":0.9529147148132324,"156":-2.7528367042541504,"157":-2.9167778491973877,"158":4.618807792663574,"159":0.6825968027114868,"160":2.745213747024536,"161":-1.8440951108932495,"162":-5.144717693328857,"163":-4.185262680053711,"164":-1.5909298658370972,"165":-0.5253438949584961,"166":-0.999384343624115,"167":3.1980648040771484,"168":1.7321125268936157,"169":-3.42883038520813,"170":-3.005601406097412,"171":-0.2865052819252014,"172":-1.6073813438415527,"173":-1.6358381509780884,"174":4.5817437171936035,"175":-5.017582893371582,"176":-0.39420363306999207,"177":1.5498857498168945,"178":2.118860960006714,"179":1.6947392225265503,"180":3.650156021118164,"181":-8.355517387390137,"182":-2.6564736366271973,"183":-5.618938446044922,"184":0.5731435418128967,"185":-4.1190505027771,"186":0.10003222525119781,"187":1.7536216974258423,"188":2.312847137451172,"189":-11.0137939453125,"190":-2.3327901363372803,"191":-1.439031720161438,"192":4.644623279571533,"193":-0.9818356037139893,"194":7.677046775817871,"195":-4.198521137237549,"196":3.1758501529693604,"197":-1.7685908079147339,"198":-2.956611156463623,"199":8.560858726501465,"200":-4.043515682220459,"201":1.8395490646362305,"202":0.10199650377035141,"203":3.760162830352783,"204":2.749732494354248,"205":-3.6702470779418945,"206":0.1838437169790268,"207":1.4411765336990356,"208":-1.7495354413986206,"209":-1.4974615573883057,"210":-3.7780094146728516,"211":-1.6299420595169067,"212":2.0364456176757812,"213":-0.39813748002052307,"214":-0.5615217089653015,"215":-1.948785424232483,"216":-2.729391098022461,"217":-3.7978460788726807,"218":4.076086521148682,"219":-6.302433013916016,"220":-4.754191875457764,"221":-1.9562954902648926,"222":-6.453555107116699,"223":0.9552251100540161,"224":2.7543423175811768,"225":-6.895309925079346,"226":-3.296823263168335,"227":-1.6267012357711792,"228":-1.619297981262207,"229":1.914193868637085,"230":0.5829435586929321,"231":-1.8523585796356201,"232":-1.0407086610794067,