{"type":"LSTM","options":{"inputSize":31,"inputRange":31,"hiddenLayers":[20,20],"outputSize":31,"decayRate":0.999,"smoothEps":1e-8,"regc":0.000001,"clipval":5,"maxPredictionLength":100,"dataFormatter":{"indexTable":{"p":0,"r":1,"o":2,"n":3,"u":4,"c":5,"e":6," ":7,"h":8,"i":9,"m":10,"t":11,"b":12,"a":13,"v":14,"f":15,"d":16,"l":17,"s":18,".":19,"”":20,"I":21,"g":22,"w":23,"x":24,"“":25,"W":26,"y":27,",":28,"k":29,"unrecognized":30},"characterTable":{"0":"p","1":"r","2":"o","3":"n","4":"u","5":"c","6":"e","7":" ","8":"h","9":"i","10":"m","11":"t","12":"b","13":"a","14":"v","15":"f","16":"d","17":"l","18":"s","19":".","20":"”","21":"I","22":"g","23":"w","24":"x","25":"“","26":"W","27":"y","28":",","29":"k","30":null},"values":["pronounce him to be an active member of the medical profession.”","I could not help laughing at the ease with which he explained his","process of deduction. “When I hear you give your reasons,” I remarked,","“the thing always appears to me to be so ridiculously simple that I","could easily do it myself, though at each successive instance of your"],"characters":["p","r","o","n","u","c","e"," ","h","i","m","t","b","a","v","f","d","l","s",".","”","I","g","w","x","“","W","y",",","k","unrecognized"],"specialIndexes":[30]}},"input":{"rows":32,"columns":31,"weights":{"0":0.41081690788269043,"1":0.5908153057098389,"2":0.5180332064628601,"3":0.488560289144516,"4":2.7288978099823,"5":1.0467547178268433,"6":0.6615486741065979,"7":0.08686580508947372,"8":-0.4278601408004761,"9":-0.37307050824165344,"10":-0.4055975079536438,"11":-2.065854787826538,"12":-0.17665700614452362,"13":-1.4960196018218994,"14":0.42938166856765747,"15":1.9797221422195435,"16":-2.6534554958343506,"17":0.19729451835155487,"18":0.4624623656272888,"19":1.63927161693573,"20":3.165065288543701,"21":5.4994306564331055,"22":1.2720906734466553,"23":-1.3086704015731812,"24":-1.6539984941482544,"25":-1.9012978076934814,"26":0.5197824835777283,"27":-2.1253256797790527,"28":0.019472774118185043,"29":0.19769883155822754,"30":0.6813428401947021,"31":-3.170163631439209,"32":-1.2931866645812988,"33":-0.036350395530462265,"34":2.5664095878601074,"35":3.0933315753936768,"36":-1.071669578552246,"37":-0.3968788683414459,"38":-2.2278554439544678,"39":-0.5929595232009888,"40":3.607196807861328,"41":2.005674362182617,"42":-0.31683290004730225,"43":1.308160424232483,"44":7.80063009262085,"45":3.434875249862671,"46":-0.2794943153858185,"47":-1.3406203985214233,"48":1.420299768447876,"49":-3.5403268337249756,"50":1.5700913667678833,"51":-1.5757176876068115,"52":1.2288761138916016,"53":1.402131199836731,"54":-2.5872693061828613,"55":-5.691768646240234,"56":-2.1102733612060547,"57":0.060937054455280304,"58":2.759795904159546,"59":-3.230410099029541,"60":0.23061099648475647,"61":1.553982138633728,"62":1.2725492715835571,"63":0.20506888628005981,"64":-0.6824521422386169,"65":-0.9832740426063538,"66":1.5087462663650513,"67":2.6427040100097656,"68":0.1631736010313034,"69":1.905469536781311,"70":1.6817376613616943,"71":0.618415117263794,"72":0.5658666491508484,"73":1.2587087154388428,"74":3.0901737213134766,"75":2.3083362579345703,"76":-3.6888692378997803,"77":-4.070155620574951,"78":2.8093106746673584,"79":-2.8499374389648438,"80":-4.122925281524658,"81":-0.3021252751350403,"82":-4.511435031890869,"83":-1.6672719717025757,"84":-2.235053062438965,"85":-0.8937101364135742,"86":-1.0735646486282349,"87":2.894040107727051,"88":-1.9485877752304077,"89":1.6747896671295166,"90":-1.9154207706451416,"91":1.4031404256820679,"92":-2.2065508365631104,"93":-0.17347416281700134,"94":3.4360790252685547,"95":-1.6078907251358032,"96":-0.31154030561447144,"97":2.4747400283813477,"98":1.0244808197021484,"99":-1.1574513912200928,"100":1.265989899635315,"101":-0.10805446654558182,"102":0.5889061093330383,"103":4.15850305557251,"104":-1.8601535558700562,"105":1.4469263553619385,"106":-1.4268637895584106,"107":-0.8795703649520874,"108":-1.8534159660339355,"109":-0.9529311060905457,"110":-1.046520709991455,"111":1.027919054031372,"112":0.5392717123031616,"113":0.4159117639064789,"114":-1.7476602792739868,"115":-0.7424350380897522,"116":1.3538671731948853,"117":-0.8420273065567017,"118":-2.2006325721740723,"119":1.2393877506256104,"120":2.1247212886810303,"121":0.2903614044189453,"122":0.02794645167887211,"123":4.969043254852295,"124":-3.043929100036621,"125":1.532413125038147,"126":1.8064812421798706,"127":1.6569520235061646,"128":2.1760475635528564,"129":1.9171497821807861,"130":-0.02700791135430336,"131":1.8671183586120605,"132":3.0220837593078613,"133":0.15660087764263153,"134":-1.5401601791381836,"135":-2.17144513130188,"136":-2.1563987731933594,"137":0.6966137290000916,"138":-0.44130709767341614,"139":2.3057005405426025,"140":1.5278820991516113,"141":-1.2208681106567383,"142":1.849452257156372,"143":-0.4196263551712036,"144":-1.714380145072937,"145":0.1258285492658615,"146":2.2808656692504883,"147":2.3953909873962402,"148":-2.234245777130127,"149":-1.3034316301345825,"150":2.0288326740264893,"151":-1.222298264503479,"152":-1.1886451244354248,"153":1.952473521232605,"154":-0.12064175307750702,"155":2.8174028396606445,"156":2.4242184162139893,"157":1.540750503540039,"158":0.9966585040092468,"159":0.9793422818183899,"160":2.251814842224121,"161":3.4270668029785156,"162":1.071514368057251,"163":2.3719704151153564,"164":0.39914560317993164,"165":0.6848912239074707,"166":-1.14262056350708,"167":-1.5273264646530151,"168":1.4212567806243896,"169":-3.1423494815826416,"170":-5.542815208435059,"171":5.254146575927734,"172":-4.1745991706848145,"173":-0.7186598777770996,"174":1.3195796012878418,"175":-2.8270504474639893,"176":-0.6422122120857239,"177":-4.443941593170166,"178":0.05018005892634392,"179":-1.1723103523254395,"180":3.8964426517486572,"181":-2.470773458480835,"182":-4.038860321044922,"183":0.17407973110675812,"184":-3.46355938911438,"185":-4.897467136383057,"186":5.217118263244629,"187":2.8062851428985596,"188":0.10073424875736237,"189":0.33489713072776794,"190":2.4776318073272705,"191":-5.660691738128662,"192":1.9555357694625854,"193":2.9060399532318115,"194":-6.822073459625244,"195":2.7432076930999756,"196":2.646693229675293,"197":0.5167839527130127,"198":0.2998352646827698,"199":1.7102196216583252,"200":0.91978520154953,"201":-0.09512478858232498,"202":1.9189022779464722,"203":-0.11291372030973434,"204":2.977062702178955,"205":-0.9313626289367676,"206":3.1404292583465576,"207":-1.8459296226501465,"208":-1.4245840311050415,"209":-3.300506591796875,"210":0.16163727641105652,"211":1.6748905181884766,"212":-2.6871206760406494,"213":1.323108196258545,"214":-2.661909580230713,"215":0.27576860785484314,"216":-0.3618006706237793,"217":2.1615242958068848,"218":-0.4516211450099945,"219":0.9125564098358154,"220":-0.7960281372070312,"221":2.0295608043670654,"222":0.281667023897171,"223":-1.365600347518921,"224":0.3904804587364197,"225":0.036569949239492416,"226":-4.23992395401001,"227":-0.5304955840110779,"228":0.905798614025116,"229":1.2235901355743408,"230":-1.62578547000885,"231":0.4408620297908783,"232":2.5514914989471436,"233":0.14249353110790253,"234":-2.2002315521240234,"235":0.5670271515846252,"236":2.8822507858276367,"237":1.7894065380096436,"238":1.2669157981872559,"239":0.03123888000845909,"240":2.033313751220703,"241":2.6409246921539307,"242":-1.2896440029144287,"243":-2.1127750873565674,"244":1.076438546180725,"245":-1.1067569255828857,"246":-1.4774198532104492,"247":-0.013403656892478466,"248":0.151558980345726,"249":-1.0621488094329834,"250":-2.75559663772583,"251":0.5235429406166077,"252":-1.5030229091644287,"253":0.2586802840232849,"254":0.4166928827762604,"255":-0.6042925119400024,"256":-1.789286732673645,"257":0.06346741318702698,"258":3.2305960655212402,"259":-3.835181951522827,"260":2.9919049739837646,"261":0.004291881807148457,"262":2.6015594005584717,"263":-2.6420235633850098,"264":-0.059684738516807556,"265":-1.8425527811050415,"266":1.2372674942016602,"267":-2.276709794998169,"268":-2.9266340732574463,"269":-4.846667766571045,"270":0.10122685879468918,"271":-0.16184170544147491,"272":1.9716416597366333,"273":1.0957626104354858,"274":0.968435525894165,"275":0.48666128516197205,"276":-0.822902262210846,"277":-0.8509864211082458,"278":-0.5864875316619873,"279":0.3464553952217102,"280":0.8655130863189697,"281":2.1797125339508057,"282":0.03955414518713951,"283":6.674012660980225,"284":0.6945032477378845,"285":2.3823652267456055,"286":-0.9954070448875427,"287":-0.14805299043655396,"288":0.7860258221626282,"289":0.8683375120162964,"290":-0.754569411277771,"291":-0.556679904460907,"292":1.125096321105957,"293":-0.00515685323625803,"294":5.463907718658447,"295":-1.0813367366790771,"296":1.200959324836731,"297":-1.0406303405761719,"298":-2.826416015625,"299":-1.3432732820510864,"300":0.03685671463608742,"301":-3.0724000930786133,"302":0.04571705684065819,"303":-4.568287372589111,"304":1.1016089916229248,"305":3.987597703933716,"306":1.6669139862060547,"307":-2.3468706607818604,"308":1.6422778367996216,"309":0.8746742010116577,"310":1.7326105833053589,"311":-0.8612249493598938,"312":-0.7360953092575073,"313":0.3718433976173401,"314":-3.2793681621551514,"315":-3.767200231552124,"316":2.167299747467041,"317":-0.007135767489671707,"318":-3.548783302307129,"319":0.2997969388961792,"320":0.13800033926963806,"321":0.533361554145813,"322":-1.60736083984375,"323":0.9166643023490906,"324":2.8406081199645996,"325":-0.8264283537864685,"326":2.013723850250244,"327":-0.7483789920806885,"328":3.990647792816162,"329":1.6404005289077759,"330":-0.4625599980354309,"331":-6.397528171539307,"332":-2.3673202991485596,"333":0.7191860675811768,"334":1.8580576181411743,"335":0.05003735423088074,"336":-2.6004257202148438,"337":-2.6863348484039307,"338":0.3114098012447357,"339":-0.7170675992965698,"340":-1.2047061920166016,"341":2.91811466217041,"342":-4.277403354644775,"343":1.159661889076233,"344":-1.9700514078140259,"345":0.9351970553398132,"346":-1.7470983266830444,"347":2.1238245964050293,"348":-2.7258107662200928,"349":-4.093173980712891,"350":3.5496058464050293,"351":2.329022169113159,"352":-0.7029374837875366,"353":-4.901235580444336,"354":0.6818288564682007,"355":6.515970230102539,"356":2.2541310787200928,"357":2.57578444480896,"358":-1.2511389255523682,"359":3.4824724197387695,"360":-2.770502805709839,"361":0.9303961396217346,"362":0.23591524362564087,"363":-2.5782675743103027,"364":-1.627323865890503,"365":0.37590155005455017,"366":4.2189836502075195,"367":0.19797620177268982,"368":0.3238372504711151,"369":-3.991051435470581,"370":-0.7789749503135681,"371":1.5300071239471436,"372":-0.7367318272590637,"373":0.3322182893753052,"374":-1.1126381158828735,"375":1.3953988552093506,"376":1.2843674421310425,"377":1.120614767074585,"378":1.9379199743270874,"379":4.216780185699463,"380":0.4183461368083954,"381":2.2704784870147705,"382":2.3127405643463135,"383":-1.6512750387191772,"384":-2.3724942207336426,"385":1.8687878847122192,"386":1.2525148391723633,"387":0.4824467897415161,"388":-0.05206486955285072,"389":1.7417668104171753,"390":-0.5826268196105957,"391":-0.7761198282241821,"392":-0.755017101764679,"393":2.221198558807373,"394":0.5115719437599182,"395":-2.5711305141448975,"396":-4.1044182777404785,"397":4.312601089477539,"398":1.6603426933288574,"399":-0.5906091928482056,"400":-0.6609922647476196,"401":2.835644006729126,"402":-0.9420756697654724,"403":3.2464873790740967,"404":0.16572563350200653,"405":1.7370500564575195,"406":0.5319089889526367,"407":1.2738382816314697,"408":0.23318737745285034,"409":-1.8522975444793701,"410":0.07186780124902725,"411":1.910138726234436,"412":1.5738025903701782,"413":-1.6398684978485107,"414":4.489163875579834,"415":4.055367469787598,"416":-1.6996370553970337,"417":-3.7324137687683105,"418":-3.162389039993286,"419":-2.3361525535583496,"420":-2.723569631576538,"421":1.1863250732421875,"422":5.070777893066406,"423":-0.9585326910018921,"424":3.64652419090271,"425":-5.3492279052734375,"426":1.4277275800704956,"427":-0.13561689853668213,"428":-0.5785539150238037,"429":-4.040087699890137,"430":-5.110143661499023,"431":0.4018727242946625,"432":-2.898371458053589,"433":-5.203566074371338,"434":1.1827925443649292,"435":-0.34335803985595703,"436":0.0808461457490921,"437":-1.4299147129058838,"438":-2.9333598613739014,"439":-1.4419467449188232,"440":1.4855258464813232,"441":-2.8983592987060547,"442":0.6645395159721375,"443":-1.1647998094558716,"444":-1.455887794494629,"445":0.7054840326309204,"446":-0.703900933265686,"447":-0.8177244663238525,"448":-0.23889285326004028,"449":0.88812255859375,"450":2.1953744888305664,"451":0.37529054284095764,"452":-2.017547845840454,"453":-0.9474337100982666,"454":-2.1645445823669434,"455":-1.324953317642212,"456":-1.378288984298706,"457":-1.4051620960235596,"458":1.1422709226608276,"459":1.5548979043960571,"460":-1.1110392808914185,"461":-1.4245091676712036,"462":1.5525810718536377,"463":0.3677646815776825,"464":-1.754316806793213,"465":-3.486508846282959,"466":-1.0439784526824951,"467":-7.536305904388428,"468":2.6482577323913574,"469":1.1050753593444824,"470":-3.1582648754119873,"471":-5.778180122375488,"472":-1.6841180324554443,"473":-3.877390146255493,"474":0.6985613703727722,"475":2.9052467346191406,"476":-5.8648481369018555,"477":-3.6338555812835693,"478":3.463771104812622,"479":-2.8366811275482178,"480":-5.911527633666992,"481":-2.8287062644958496,"482":1.9177367687225342,"483":-0.2653454542160034,"484":-6.783596038818359,"485":2.517860174179077,"486":-4.188897132873535,"487":0.06587986648082733,"488":-3.4915261268615723,"489":0.5810894966125488,"490":-2.479076862335205,"491":0.8615641593933105,"492":5.852723121643066,"493":-0.5404871702194214,"494":9.681285858154297,"495":2.768326997756958,"496":1.8060170412063599,"497":-4.743485927581787,"498":-2.267157793045044,"499":-0.4272606670856476,"500":2.8934030532836914,"501":0.7974701523780823,"502":1.765444040298462,"503":-1.0646052360534668,"504":-0.35787349939346313,"505":0.6932392120361328,"506":0.15622997283935547,"507":-3.589402675628662,"508":-0.828087568283081,"509":-1.5337165594100952,"510":0.7610791325569153,"511":1.7681457996368408,"512":-4.273400783538818,"513":2.656644821166992,"514":-0.4653339684009552,"515":-0.8873357176780701,"516":1.1130969524383545,"517":0.8253989815711975,"518":-1.3876819610595703,"519":-1.5882803201675415,"520":-1.6506237983703613,"521":1.981714129447937,"522":-0.7869874835014343,"523":-0.5822283029556274,"524":-5.574843406677246,"525":-1.6546200513839722,"526":0.5902292132377625,"527":0.6952127814292908,"528":0.04186016693711281,"529":-1.51206636428833,"530":0.8824949264526367,"531":0.542928159236908,"532":-2.0582401752471924,"533":-0.14747919142246246,"534":5.511250019073486,"535":-1.0012527704238892,"536":-0.09049852192401886,"537":0.2598569393157959,"538":0.7432277202606201,"539":-0.5814609527587891,"540":1.9390819072723389,"541":-1.4713343381881714,"542":-0.44305652379989624,"543":-1.8232589960098267,"544":1.3637267351150513,"545":-0.20338769257068634,"546":-0.9908020496368408,"547":0.02379508502781391,"548":-1.1575177907943726,"549":0.5163629651069641,"550":-1.5642719268798828,"551":0.24480248987674713,"552":3.1366219520568848,"553":0.5312100648880005,"554":1.2978322505950928,"555":1.6970279216766357,"556":3.4077517986297607,"557":1.291709542274475,"558":1.8340860605239868,"559":2.4046177864074707,"560":3.184049606323242,"561":1.3685808181762695,"562":2.086219310760498,"563":0.592087984085083,"564":3.8532867431640625,"565":0.5729001760482788,"566":-1.7505261898040771,"567":2.7255895137786865,"568":2.6187961101531982,"569":0.6757163405418396,"570":-7.4734883308410645,"571":4.123707294464111,"572":0.5150693655014038,"573":-0.07077206671237946,"574":4.291374206542969,"575":1.0929642915725708,"576":2.782855749130249,"577":-1.6741726398468018,"578":-4.177350044250488,"579":0.6638780832290649,"580":-3.3702051639556885,"581":4.183128356933594,"582":-4.046739101409912,"583":0.24280181527137756,"584":-0.2729427218437195,"585":2.0574934482574463,"586":1.1285585165023804,"587":-2.2832932472229004,"588":-6.010935306549072,"589":1.3715983629226685,"590":-0.9466164708137512,"591":0.46036452054977417,"592":-0.7253169417381287,"593":-0.1468144655227661,"594":-0.12368036806583405,"595":1.2030242681503296,"596":0.8323540091514587,"597":0.36424046754837036,"598":-0.5857346057891846,"599":-3.0637526512145996,"600":-2.9871814250946045,"601":-2.1848859786987305,"602":-4.394502639770508,"603":-2.4180068969726562,"604":-0.17861025035381317,"605":0.4237675070762634,"606":-1.2958834171295166,"607":-0.2592680752277374,"608":-1.078752040863037,"609":-1.2232648134231567,"610":-0.09232529997825623,"611":-1.4399217367172241,"612":1.6774412393569946,"613":-0.7841637134552002,"614":0.19370095431804657,"615":-2.453313112258911,"616":-1.3296369314193726,"617":0.5551396608352661,"618":2.194502830505371,"619":-1.478073000907898,"620":-0.6639689207077026,"621":0.5103470087051392,"622":-2.2924628257751465,"623":-2.889080286026001,"624":1.191856026649475,"625":2.1726014614105225,"626":1.112815260887146,"627":0.6583548784255981,"628":0.2654050290584564,"629":-2.5688726902008057,"630":-3.6562278270721436,"631":-1.8478590250015259,"632":1.6338939666748047,"633":-3.591935396194458,"634":0.16833001375198364,"635":0.08133044838905334,"636":0.38746368885040283,"637":4.441680908203125,"638":-1.5742114782333374,"639":3.32653546333313,"640":1.0262832641601562,"641":-1.302189826965332,"642":3.3464763164520264,"643":-7.002912521362305,"644":-0.6429222226142883,"645":0.18315662443637848,"646":4.7175068855285645,"647":-5.2428107261657715,"648":7.498649597167969,"649":3.6624929904937744,"650":1.5015625953674316,"651":-0.6188751459121704,"652":-5.638463020324707,"653":1.2362529039382935,"654":2.876333236694336,"655":3.2425901889801025,"656":1.6022212505340576,"657":1.038943886756897,"658":2.7778501510620117,"659":0.38748055696487427,"660":3.4597198963165283,"661":3.3306171894073486,"662":-0.9587528109550476,"663":1.0566173791885376,"664":1.221341609954834,"665":3.7006492614746094,"666":5.5665202140808105,"667":-2.475365400314331,"668":-1.2670835256576538,"669":2.3649752140045166,"670":0.48090317845344543,"671":5.320835113525391,"672":-1.0213208198547363,"673":-0.11092348396778107,"674":-0.43278783559799194,"675":-3.324096441268921,"676":-0.24492251873016357,"677":0.13925997912883759,"678":-1.1033726930618286,"679":-3.8270461559295654,"680":-0.20822162926197052,"681":-1.2470492124557495,"682":3.9834952354431152,"683":2.7414567470550537,"684":1.3532062768936157,"685":-2.0086991786956787,"686":4.634851455688477,"687":-1.5156466960906982,"688":0.8455535173416138,"689":-2.1924400329589844,"690":-1.229470133781433,"691":-2.9256200790405273,"692":1.5726639032363892,"693":-0.24526798725128174,"694":4.926877975463867,"695":0.4779543876647949,"696":3.6957626342773438,"697":2.214258909225464,"698":-3.6396195888519287,"699":0.21532489359378815,"700":5.609548568725586,"701":0.7697937488555908,"702":-1.6455464363098145,"703":-1.324907660484314,"704":-1.8320112228393555,"705":-1.6036401987075806,"706":3.8515548706054688,"707":-1.0043787956237793,"708":-6.775008201599121,"709":-1.4529258012771606,"710":-5.051753520965576,"711":1.8400518894195557,"712":4.569654941558838,"713":2.527312755584717,"714":1.0600446462631226,"715":-4.509626388549805,"716":-2.8776304721832275,"717":3.4039835929870605,"718":1.6873773336410522,"719":1.1834089756011963,"720":6.140505790710449,"721":1.9260897636413574,"722":-3.2687370777130127,"723":-0.2785443067550659,"724":-5.131033420562744,"725":-0.83542799949646,"726":-3.3180556297302246,"727":-5.0278754234313965,"728":-1.5122933387756348,"729":-2.3456811904907227,"730":-1.8644227981567383,"731":-3.8757660388946533,"732":-0.3746083974838257,"733":-1.092279076576233,"734":-2.1875975131988525,"735":0.19154728949069977,"736":-2.77301287651062,"737":-0.4573829770088196,"738":3.3798561096191406,"739":0.7179976105690002,"740":-1.6093605756759644,"741":0.7916258573532104,"742":-0.35651838779449463,"743":0.23531578481197357,"744":-0.5181776881217957,"745":-2.3988797664642334,"746":-0.9770460724830627,"747":2.3927249908447266,"748":2.872375249862671,"749":0.9266899824142456,"750":-0.11086549609899521,"751":-0.44210731983184814,"752":-0.5408613681793213,"753":1.6896331310272217,"754":4.859983921051025,"755":-3.8451318740844727,"756":-0.07843892276287079,"757":2.6043474674224854,"758":1.9157342910766602,"759":2.022775411605835,"760":-0.03968716785311699,"761":1.4690375328063965,"762":0.49723637104034424,"763":-0.7744299173355103,"764":0.9609875082969666,"765":-0.37215402722358704,"766":-0.41917508840560913,"767":-3.1308791637420654,"768":-2.795142412185669,"769":0.7464001774787903,"770":1.7440375089645386,"771":1.5831726789474487,"772":-1.5889763832092285,"773":1.396190881729126,"774":0.632828414440155,"775":-2.498204231262207,"776":2.00882625579834,"777":2.4406473636627197,"778":1.363409161567688,"779":-3.5497612953186035,"780":2.1740267276763916,"781":-1.8383312225341797,"782":-0.20778709650039673,"783":7.6591877937316895,"784":-3.777777910232544,"785":0.27595990896224976,"786":2.7354397773742676,"787":0.9880760312080383,"788":-0.6147386431694031,"789":-0.27730879187583923,"790":2.634119749069214,"791":1.7756404876708984,"792":-0.12933394312858582,"793":-2.507035255432129,"794":0.581998348236084,"795":1.2449955940246582,"796":6.510432243347168,"797":3.9350273609161377,"798":0.2853325307369232,"799":-0.02249416522681713,"800":-3.7501649856567383,"801":1.7569764852523804,"802":-2.2352347373962402,"803":0.757460355758667,"804":-1.6382293701171875,"805":0.6213999390602112,"806":4.007508754730225,"807":1.4628931283950806,"808":2.679271936416626,"809":-1.6271227598190308,"810":3.4330713748931885,"811":0.1621074378490448,"812":0.6519781351089478,"813":0.09467469155788422,"814":-1.7780225276947021,"815":1.265315055847168,"816":3.936245918273926,"817":2.4510459899902344,"818":-0.7458434104919434,"819":1.938382863998413,"820":-0.6579427719116211,"821":0.9397664666175842,"822":3.9000754356384277,"823":-2.4704506397247314,"824":2.113233804702759,"825":2.608243227005005,"826":-3.1813254356384277,"827":-7.802813529968262,"828":-5.230859756469727,"829":0.7353428602218628,"830":0.1431286782026291,"831":2.426065683364868,"832":1.066245198249817,"833":-2.7553417682647705,"834":-2.1180827617645264,"835":-3.828341007232666,"836":1.404327392578125,"837":-2.0173513889312744,"838":0.2976711392402649,"839":-5.854123592376709,"840":1.5178688764572144,"841":1.1922452449798584,"842":-0.9583700299263,"843":3.7861173152923584,"844":2.4137825965881348,"845":-0.7368110418319702,"846":-0.3069096505641937,"847":1.8834316730499268,"848":-4.420689105987549,"849":-1.9443655014038086,"850":0.1766650229692459,"851":-3.7280311584472656,"852":-0.5115259885787964,"853":-0.7955507636070251,"854":2.2185518741607666,"855":-2.4425272941589355,"856":-1.7833398580551147,"857":-0.6128391027450562,"858":-4.615248680114746,"859":-0.5515396595001221,"860":-2.491408109664917,"861":1.2894871234893799,"862":2.7352488040924072,"863":-0.4177227020263672,"864":3.959132194519043,"865":2.4812533855438232,"866":3.0412068367004395,"867":-2.61794376373291,"868":-1.5290021896362305,"869":-0.15898537635803223,"870":-0.6868168115615845,"871":0.053395528346300125,"872":1.6013782024383545,"873":-0.7890271544456482,"874":0.18927563726902008,"875":1.086172342300415,"876":-0.5935037136077881,"877":0.5974612832069397,"878":1.0438591241836548,"879":-0.5532569289207458,"880":-2.7167019844055176,"881":0.13115450739860535,"882":0.35765156149864197,"883":3.1379873752593994,"884":-3.0841870307922363,"885":3.7320971488952637,"886":0.3501255214214325,"887":-0.07202871888875961,"888":2.3536276817321777,"889":-0.04880095273256302,"890":0.8759453892707825,"891":0.13564586639404297,"892":-0.31201422214508057,"893":-0.021356284618377686,"894":-0.6762460470199585,"895":0.4726293087005615,"896":-0.006116419564932585,"897":2.419234037399292,"898":1.2766367197036743,"899":1.5193703174591064,"900":-2.028439998626709,"901":-2.30033016204834,"902":-1.3215467929840088,"903":-0.34188053011894226,"904":-0.9767824411392212,"905":6.889070510864258,"906":4.434602737426758,"907":-0.25183606147766113,"908":-4.626434326171875,"909":-0.06905005872249603,"910":-4.561280727386475,"911":-2.0834803581237793,"912":-1.3552824258804321,"913":1.3902515172958374,"914":3.3164710998535156,"915":-1.5502992868423462,"916":0.6482236385345459,"917":-0.2474721074104309,"918":-2.1889076232910156,"919":1.7028602361679077,"920":-3.577486038208008,"921":0.22820092737674713,"922":-4.666325092315674,"923":5.782822608947754,"924":4.956234455108643,"925":1.3635066747665405,"926":-0.32283636927604675,"927":-0.5954737067222595,"928":0.6923595666885376,"929":-4.336365699768066,"930":4.21342134475708,"931":4.300358772277832,"932":-3.415146827697754,"933":-2.1078591346740723,"934":-1.8851672410964966,"935":3.715613842010498,"936":-3.462167978286743,"937":1.517442226409912,"938":4.041611671447754,"939":-5.041232585906982,"940":-0.3106468617916107,"941":0.44890594482421875,"942":2.0400948524475098,"943":-3.209298610687256,"944":-9.03738021850586,"945":-1.8246878385543823,"946":2.013336658477783,"947":-0.09932514280080795,"948":-5.152103900909424,"949":4.673395156860352,"950":-1.1826395988464355,"951":-1.927682876586914,"952":0.8413663506507874,"953":0.0074899159371852875,"954":0.4113505780696869,"955":0.8815750479698181,"956":-3.343942403793335,"957":-2.1112353801727295,"958":-1.0299468040466309,"959":-0.23090563714504242,"960":2.874746799468994,"961":-0.47489815950393677,"962":-0.680433988571167,"963":-0.5073855519294739,"964":-2.7404932975769043,"965":-1.9985600709915161,"966":0.3167074918746948,"967":1.2080769538879395,"968":0.47004812955856323,"969":-0.9342637062072754,"970":-0.17599959671497345,"971":-0.26949790120124817,"972":-0.26834481954574585,"973":0.7205330729484558,"974":0.5396859049797058,"975":-0.7569213509559631,"976":-1.4914435148239136,"977":3.400562047958374,"978":-5.7387003898620605,"979":-1.3462138175964355,"980":1.1366252899169922,"981":-4.562810897827148,"982":2.7913551330566406,"983":0.823850691318512,"984":-0.9453701376914978,"985":1.0355641841888428,"986":-1.5396816730499268,"987":-1.1829988956451416,"988":-0.8571689128875732,"989":2.380746603012085,"990":-1.5812948942184448,"991":-0.5814584493637085}},"hiddenLayers":[{"inputMatrix":{"rows":20,"columns":31,"weights":{"0":-1.5546879768371582,"1":3.260775327682495,"2":0.6185668110847473,"3":0.14582261443138123,"4":-0.9114887118339539,"5":-3.1772356033325195,"6":-1.0615078210830688,"7":-1.3321667909622192,"8":0.640048086643219,"9":-0.09353043884038925,"10":3.5602309703826904,"11":1.779571771621704,"12":1.70221745967865,"13":2.8956007957458496,"14":0.42611125111579895,"15":-0.060193680226802826,"16":-1.6879680156707764,"17":0.7651083469390869,"18":1.4299911260604858,"19":-2.05751633644104,"20":-0.5060552358627319,"21":-2.0704030990600586,"22":-1.6154890060424805,"23":0.30368244647979736,"24":-1.2807273864746094,"25":1.1005710363388062,"26":-2.080986976623535,"27":4.2250518798828125,"28":-0.3707192540168762,"29":2.2608158588409424,"30":0.52552330493927,"31":1.939018726348877,"32":-1.3835426568984985,"33":-1.4251718521118164,"34":1.4303489923477173,"35":2.648993968963623,"36":-1.635461449623108,"37":-0.07439195364713669,"38":-0.22185492515563965,"39":-1.4730064868927002,"40":1.8505481481552124,"41":2.9857561588287354,"42":-1.2290655374526978,"43":0.4065455198287964,"44":0.6012195944786072,"45":0.36838075518608093,"46":-0.5480900406837463,"47":-3.3527870178222656,"48":0.5758447051048279,"49":-1.3477383852005005,"50":-2.6938509941101074,"51":1.471501111984253,"52":-1.6571919918060303,"53":0.45294347405433655,"54":-1.7445238828659058,"55":-3.717806100845337,"56":0.9417247176170349,"57":1.4169527292251587,"58":0.6422067880630493,"59":-2.450815200805664,"60":1.144788146018982,"61":1.1871756315231323,"62":0.14974036812782288,"63":1.823874592781067,"64":-1.875385046005249,"65":-0.6090463995933533,"66":-1.4656256437301636,"67":2.9850258827209473,"68":1.1101419925689697,"69":1.2880133390426636,"70":2.367671251296997,"71":-3.722463607788086,"72":0.0003405967727303505,"73":0.9058846831321716,"74":-1.232022762298584,"75":-0.3706347346305847,"76":-2.144742012023926,"77":-1.0090091228485107,"78":2.0507311820983887,"79":0.9048776626586914,"80":-2.845371961593628,"81":0.6954783201217651,"82":-2.7821474075317383,"83":0.19052691757678986,"84":1.8684048652648926,"85":-0.4581902027130127,"86":0.7176847457885742,"87":1.4024404287338257,"88":1.5210692882537842,"89":-2.3192293643951416,"90":0.903276801109314,"91":2.009737014770508,"92":-0.4551208019256592,"93":0.3833305835723877,"94":-0.5092734694480896,"95":0.3629133701324463,"96":-0.7285162210464478,"97":0.46433788537979126,"98":0.35463130474090576,"99":-1.610357642173767,"100":0.2088422030210495,"101":-2.139740228652954,"102":1.111171007156372,"103":0.47037699818611145,"104":-0.03933165222406387,"105":3.0210788249969482,"106":-0.2269119918346405,"107":-1.4070454835891724,"108":-4.621176719665527,"109":-0.7863366007804871,"110":-3.7440829277038574,"111":-0.3380689322948456,"112":1.7200521230697632,"113":-1.7641706466674805,"114":-3.441176414489746,"115":-1.3982549905776978,"116":0.31032657623291016,"117":0.42919236421585083,"118":-5.904392719268799,"119":-1.7450660467147827,"120":1.7118185758590698,"121":-2.2492995262145996,"122":0.010336007922887802,"123":0.2346658855676651,"124":0.5776853561401367,"125":1.5048460960388184,"126":0.7431676983833313,"127":-1.7244716882705688,"128":0.15938888490200043,"129":2.0085654258728027,"130":0.04690513387322426,"131":0.08929221332073212,"132":3.297032117843628,"133":-3.1584818363189697,"134":-3.0063793659210205,"135":0.34172964096069336,"136":0.0252991933375597,"137":-4.707233428955078,"138":-3.9384567737579346,"139":1.1696122884750366,"140":1.4539225101470947,"141":-1.6181575059890747,"142":-3.257812976837158,"143":-0.5508936643600464,"144":0.8327707052230835,"145":0.30510997772216797,"146":-0.9796918034553528,"147":0.23648245632648468,"148":3.110572338104248,"149":-0.5056788325309753,"150":-1.7732607126235962,"151":-0.3691290616989136,"152":1.0474812984466553,"153":-0.8613002300262451,"154":-2.2320759296417236,"155":0.6363294124603271,"156":2.8960912227630615,"157":2.2284743785858154,"158":-0.504936933517456,"159":0.28274667263031006,"160":-0.8968759179115295,"161":-3.1102616786956787,"162":3.1344804763793945,"163":-1.6811928749084473,"164":2.115787982940674,"165":-0.6263348460197449,"166":-0.06032579019665718,"167":0.07806215435266495,"168":-0.002483370015397668,"169":0.24921095371246338,"170":2.1060569286346436,"171":-0.39467284083366394,"172":1.9815326929092407,"173":0.973187267780304,"174":3.2595832347869873,"175":-0.7015554904937744,"176":-3.58160138130188,"177":-2.00461483001709,"178":1.5832124948501587,"179":1.9473670721054077,"180":-4.137599945068359,"181":-2.548163652420044,"182":1.6505542993545532,"183":2.491225242614746,"184":-1.3671021461486816,"185":2.304004430770874,"186":1.1914950609207153,"187":-1.3491708040237427,"188":-0.8978838324546814,"189":-1.6432515382766724,"190":-2.8131580352783203,"191":0.28813856840133667,"192":1.0072236061096191,"193":-0.792699933052063,"194":0.03737778589129448,"195":-2.2940847873687744,"196":-1.6790499687194824,"197":1.9042704105377197,"198":-0.31512677669525146,"199":-1.1409660577774048,"200":0.6043033003807068,"201":-2.220473527908325,"202":1.1456693410873413,"203":-0.326805979013443,"204":-1.574060082435608,"205":3.8623292446136475,"206":-0.8507916331291199,"207":-2.1875405311584473,"208":1.3821518421173096,"209":0.6027814149856567,"210":2.064525604248047,"211":-1.059057593345642,"212":-0.5655599236488342,"213":-2.7847890853881836,"214":0.9977832436561584,"215":-0.9327757954597473,"216":-0.13253886997699738,"217":-1.63884699344635,"218":1.7985540628433228,"219":-2.724778413772583,"220":2.599874258041382,"221":1.0216808319091797,"222":2.1394989490509033,"223":-2.793564796447754,"224":0.02619771659374237,"225":1.5189505815505981,"226":0.11028502136468887,"227":2.1197097301483154,"228":-1.8832056522369385,"229":0.855902910232544,"230":-0.007898826152086258,"231":-3.234590768814087,"232":-2.711616039276123,"233":-0.28139427304267883,"234":-1.117348074913025,"235":-2.153717279434204,"236":-1.5324064493179321,"237":-1.1047110557556152,"238":-1.0965625047683716,"239":0.6147289872169495,"240":-1.0902657508850098,"241":-1.029874324798584,"242":-1.3914598226547241,"243":3.4831628799438477,"244":4.159336090087891,"245":-2.088578939437866,"246":1.0707205533981323,"247":1.5115379095077515,"248":0.46665140986442566,"249":-1.2269716262817383,"250":-0.543171226978302,"251":-1.0008153915405273,"252":1.013107419013977,"253":-0.02912587672472,"254":0.09600184857845306,"255":0.6144371628761292,"256":-2.7776169776916504,"257":-1.336933970451355,"258":2.8201470375061035,"259":-1.9180198907852173,"260":-0.37523552775382996,"261":-0.24946801364421844,"262":0.5278635025024414,"263":2.64154052734375,"264":-0.5863580703735352,"265":0.03345353901386261,"266":1.1956807374954224,"267":2.0468854904174805,"268":2.3328113555908203,"269":-1.2488218545913696,"270":0.3858290910720825,"271":-1.1700533628463745,"272":-0.4440760612487793,"273":0.8180398344993591,"274":-0.09577184915542603,"275":-0.29598167538642883,"276":-1.6292563676834106,"277":0.8866004943847656,"278":-1.1640177965164185,"279":-1.0507087707519531,"280":-3.513552665710449,"281":0.8273953795433044,"282":0.3046490252017975,"283":0.9888432621955872,"284":1.6696794033050537,"285":-0.09235799312591553,"286":-1.1857661008834839,"287":-0.014905603602528572,"288":3.8686203956604004,"289":2.317308187484741,"290":0.03283773362636566,"291":-1.5815620422363281,"292":1.9478530883789062,"293":0.5681811571121216,"294":2.997101306915283,"295":-2.241633892059326,"296":2.2309086322784424,"297":0.8061997890472412,"298":-1.8999533653259277,"299":1.128284215927124,"300":1.368930459022522,"301":-0.0529388003051281,"302":2.4887948036193848,"303":-3.3054826259613037,"304":-0.6585121154785156,"305":0.9543809294700623,"306":1.7078624963760376,"307":-4.472223281860352,"308":0.14812657237052917,"309":0.9140393137931824,"310":-3.5652568340301514,"311":-1.9708034992218018,"312":-2.1457982063293457,"313":1.1161222457885742,"314":-1.5666208267211914,"315":-1.1324697732925415,"316":1.4714418649673462,"317":-0.8207713961601257,"318":-0.6056227087974548,"319":0.4435575306415558,"320":-2.2156009674072266,"321":-3.3136210441589355,"322":-2.1962201595306396,"323":0.07661125808954239,"324":0.8101321458816528,"325":0.00667570810765028,"326":-1.1909217834472656,"327":0.8350490927696228,"328":-1.2198532819747925,"329":1.0666066408157349,"330":1.9380592107772827,"331":-2.3732779026031494,"332":2.0671651363372803,"333":-0.35665345191955566,"334":-0.44536519050598145,"335":-0.5137251615524292,"336":-0.01742272824048996,"337":0.9134949445724487,"338":-0.6133162975311279,"339":0.22304069995880127,"340":-1.7216423749923706,"341":2.390723943710327,"342":0.1413431018590927,"343":-0.08219486474990845,"344":-0.25774285197257996,"345":-1.9199092388153076,"346":2.073641300201416,"347":-1.751936674118042,"348":0.9504560828208923,"349":1.7845909595489502,"350":-1.900436520576477,"351":-0.6970046758651733,"352":0.12817485630512238,"353":0.08143110573291779,"354":-1.8236368894577026,"355":-1.65451979637146,"356":-0.880744993686676,"357":3.3232388496398926,"358":-0.6457833647727966,"359":-1.822655200958252,"360":0.10922791063785553,"361":-1.5619615316390991,"362":2.7696423530578613,"363":-1.1144007444381714,"364":0.838729977607727,"365":-0.19719110429286957,"366":0.7094517350196838,"367":-0.6338552832603455,"368":0.566636860370636,"369":4.14602518081665,"370":0.2709609568119049,"371":-0.04475267603993416,"372":-0.8469962477684021,"373":-0.4226258099079132,"374":-2.2575552463531494,"375":1.0595310926437378,"376":-0.7259217500686646,"377":-0.6527436375617981,"378":-1.848838210105896,"379":0.10457029193639755,"380":0.8535597920417786,"381":-4.013585090637207,"382":-0.18351933360099792,"383":-1.7359402179718018,"384":0.013623672537505627,"385":0.48422810435295105,"386":1.5126228332519531,"387":-1.9873310327529907,"388":0.015375161543488503,"389":-2.4695017337799072,"390":1.790311574935913,"391":1.5685819387435913,"392":-1.5743117332458496,"393":-3.7460620403289795,"394":-0.5440219044685364,"395":-1.2447623014450073,"396":7.990608215332031,"397":-1.297358751296997,"398":2.536344051361084,"399":2.421497344970703,"400":3.3785338401794434,"401":-0.035268209874629974,"402":1.6161861419677734,"403":0.6350356340408325,"404":2.094865560531616,"405":-1.2362529039382935,"406":-1.7777447700500488,"407":2.2857961654663086,"408":2.030586004257202,"409":-0.6912534236907959,"410":-1.7999180555343628,"411":0.41875624656677246,"412":-1.4805833101272583,"413":-1.794756531715393,"414":-0.7625901103019714,"415":2.722769021987915,"416":-2.573961019515991,"417":-0.4225529730319977,"418":-0.8449609875679016,"419":-0.6237874031066895,"420":0.4469324052333832,"421":-1.5077813863754272,"422":0.6817842721939087,"423":-1.2616052627563477,"424":1.8603733777999878,"425":-0.7736338973045349,"426":-0.460784912109375,"427":2.060856819152832,"428":-3.062302589416504,"429":-1.045022964477539,"430":-0.4930880665779114,"431":-0.8449390530586243,"432":-0.6421697735786438,"433":1.7880610227584839,"434":1.1775081157684326,"435":-1.6529655456542969,"436":0.010040916502475739,"437":-0.5458143353462219,"438":-1.4173297882080078,"439":-0.4419650137424469,"440":1.1670703887939453,"441":0.5660144686698914,"442":0.26932018995285034,"443":-0.28271549940109253,"444":-0.011360128410160542,"445":0.04611792787909508,"446":-1.5426273345947266,"447":0.7161202430725098,"448":0.05561460927128792,"449":0.26484575867652893,"450":0.3982848525047302,"451":-0.5473151206970215,"452":-0.9363781213760376,"453":-3.957101345062256,"454":-0.391277939081192,"455":-0.0938800573348999,"456":-2.0815138816833496,"457":0.20404694974422455,"458":0.48162683844566345,"459":5.4290924072265625,"460":-0.22608156502246857,"461":0.8768746256828308,"462":0.48779210448265076,"463":-0.9786617755889893,"464":-1.7401089668273926,"465":-5.086282730102539,"466":-0.218308687210083,"467":0.47917813062667847,"468":-0.5590351223945618,"469":-1.810641884803772,"470":-0.5683786869049072,"471":-1.8345593214035034,"472":-4.255629062652588,"473":-0.5900227427482605,"474":-0.32649683952331543,"475":-1.2456378936767578,"476":1.1286439895629883,"477":-0.6047815084457397,"478":-0.016086632385849953,"479":1.4197971820831299,"480":1.560933232307434,"481":0.558861494064331,"482":1.5897493362426758,"483":0.32755759358406067,"484":-0.14985857903957367,"485":0.47497469186782837,"486":1.4696489572525024,"487":2.4165291786193848,"488":-0.6296632289886475,"489":1.0382336378097534,"490":-0.6939648389816284,"491":2.2610340118408203,"492":1.0779378414154053,"493":1.3007174730300903,"494":0.7583500146865845,"495":0.8532285690307617,"496":1.6978329420089722,"497":0.9173031449317932,"498":-0.10817836225032806,"499":0.5102806091308594,"500":-0.8879438638687134,"501":0.3163034915924072,"502":-3.020885467529297,"503":-1.6759761571884155,"504":-1.4285385608673096,"505":1.525934100151062,"506":0.3736860454082489,"507":1.5336294174194336,"508":0.0989285260438919,"509":-2.5274581909179688,"510":1.3282438516616821,"511":-2.7235939502716064,"512":-1.4484703540802002,"513":-0.8127999305725098,"514":3.000498056411743,"515":0.6006089448928833,"516":1.6224278211593628,"517":-0.3781261146068573,"518":-1.2198063135147095,"519":0.4741016924381256,"520":5.064894676208496,"521":-0.25934526324272156,"522":0.4394218921661377,"523":0.5931316614151001,"524":-0.35899412631988525,"525":-3.9547133445739746,"526":2.5991296768188477,"527":-1.705987811088562,"528":1.473233938217163,"529":-1.096883773803711,"530":-0.8169673681259155,"531":-0.31032925844192505,"532":-0.04826885461807251,"533":0.07669977843761444,"534":1.2358150482177734,"535":2.3333487510681152,"536":-1.965979814529419,"537":-2.5498135089874268,"538":-0.3015982508659363,"539":-1.1206189393997192,"540":-1.4612817764282227,"541":0.21072910726070404,"542":0.7412155866622925,"543":-0.4919896125793457,"544":1.07406485080719,"545":-2.830213785171509,"546":-1.6855186223983765,"547":0.09481590986251831,"548":4.283835411071777,"549":2.9539034366607666,"550":-0.15587595105171204,"551":0.7802572250366211,"552":0.18944238126277924,"553":1.7780848741531372,"554":-1.7213854789733887,"555":3.946643114089966,"556":2.553678512573242,"557":-0.7373459339141846,"558":3.997267484664917,"559":-1.893890380859375,"560":0.19453877210617065,"561":-1.3463326692581177,"562":1.8406487703323364,"563":-0.5632485151290894,"564":-0.22823598980903625,"565":0.5265514850616455,"566":-2.0677196979522705,"567":1.1550822257995605,"568":3.4495973587036133,"569":-0.6882885694503784,"570":-1.0466159582138062,"571":1.2168670892715454,"572":1.5325425863265991,"573":-0.5828995704650879,"574":1.0342485904693604,"575":1.2752618789672852,"576":0.7453527450561523,"577":-2.4288463592529297,"578":-2.6324565410614014,"579":-0.938856303691864,"580":-1.7838573455810547,"581":-1.2932252883911133,"582":-0.3963565528392792,"583":0.037582360208034515,"584":0.12466975301504135,"585":-1.1482398509979248,"586":-1.3481948375701904,"587":1.7529646158218384,"588":-2.8697926998138428,"589":-1.2304097414016724,"590":-3.623181104660034,"591":-0.5982890725135803,"592":-0.6074579358100891,"593":-2.355339288711548,"594":-1.206588625907898,"595":-2.106818437576294,"596":-1.0420379638671875,"597":0.3362887501716614,"598":3.7918272018432617,"599":1.2087180614471436,"600":1.643927812576294,"601":1.22954523563385,"602":2.108442783355713,"603":1.9355056285858154,"604":0.01118461973965168,"605":-0.5504929423332214,"606":-0.6010945439338684,"607":3.0087172985076904,"608":-1.572727084159851,"609":2.3228299617767334,"610":-1.712040901184082,"611":1.6092171669006348,"612":0.5914814472198486,"613":0.3245813548564911,"614":-0.9854841232299805,"615":0.8967509865760803,"616":3.0835156440734863,"617":0.6810489296913147,"618":-0.02955530397593975,"619":2.0806503295898438}},"inputHidden":{"rows":20,"columns":20,"weights":{"0":-3.0575921535491943,"1":0.31828051805496216,"2":-2.427525520324707,"3":-2.1579511165618896,"4":1.5823702812194824,"5":-1.6503585577011108,"6":-0.2827589511871338,"7":-1.8561629056930542,"8":-4.626734733581543,"9":2.5845682621002197,"10":1.6352192163467407,"11":1.7916104793548584,"12":0.039189208298921585,"13":4.4061198234558105,"14":-1.7183010578155518,"15":-0.602496862411499,"16":-6.801946640014648,"17":1.9276102781295776,"18":-1.5240956544876099,"19":-1.1645151376724243,"20":-3.456308126449585,"21":0.6319490671157837,"22":-0.03259023651480675,"23":1.2337943315505981,"24":2.4654321670532227,"25":1.2582459449768066,"26":2.4321651458740234,"27":-3.8133957386016846,"28":-3.911768913269043,"29":0.04653836041688919,"30":-0.8425324559211731,"31":0.38826480507850647,"32":-0.12446197867393494,"33":-0.25669482350349426,"34":-1.2713027000427246,"35":2.3674464225769043,"36":0.48648393154144287,"37":2.288933277130127,"38":-0.6703919172286987,"39":0.5969759821891785,"40":-1.2930095195770264,"41":0.5901028513908386,"42":2.102749824523926,"43":1.2048431634902954,"44":0.2840335965156555,"45":-0.07334797829389572,"46":-4.004593849182129,"47":2.3889451026916504,"48":-1.6348109245300293,"49":2.826990842819214,"50":0.13579091429710388,"51":1.5797572135925293,"52":-2.5570409297943115,"53":2.9486961364746094,"54":-2.00809907913208,"55":2.698607921600342,"56":0.7416053414344788,"57":0.7756674289703369,"58":0.5043808221817017,"59":-0.8172581791877747,"60":-1.8653857707977295,"61":1.112777590751648,"62":2.6736035346984863,"63":2.7284507751464844,"64":-0.8430679440498352,"65":0.13492996990680695,"66":1.184301495552063,"67":-0.5344346165657043,"68":1.1247801780700684,"69":-1.2154405117034912,"70":-1.0019704103469849,"71":0.8407106995582581,"72":-0.44927021861076355,"73":-1.4967749118804932,"74":-1.6906172037124634,"75":1.046210765838623,"76":-0.43578729033470154,"77":4.444704055786133,"78":2.2005157470703125,"79":0.5728416442871094,"80":-0.9273284077644348,"81":-2.445174217224121,"82":1.8706707954406738,"83":1.5641577243804932,"84":-5.299169063568115,"85":-2.6783769130706787,"86":-0.6398355960845947,"87":1.5122947692871094,"88":0.08944027870893478,"89":0.04413915053009987,"90":0.43994131684303284,"91":3.679997444152832,"92":-2.695081949234009,"93":0.37724199891090393,"94":2.658303737640381,"95":-2.2586915493011475,"96":0.8300296664237976,"97":-0.09815806150436401,"98":0.061159487813711166,"99":-0.9047623872756958,"100":-3.7885308265686035,"101":-2.018502712249756,"102":2.1849160194396973,"103":1.209734320640564,"104":-4.013963222503662,"105":1.4680120944976807,"106":0.3769451081752777,"107":2.5186314582824707,"108":-3.109609603881836,"109":1.6568033695220947,"110":6.279119968414307,"111":-1.3204623460769653,"112":-2.7649130821228027,"113":-0.6389981508255005,"114":1.9787545204162598,"115":2.1460323333740234,"116":-2.2849836349487305,"117":-2.7321317195892334,"118":0.7119212746620178,"119":-0.6797975301742554,"120":-2.918043375015259,"121":-6.027565002441406,"122":-2.916698932647705,"123":3.3388075828552246,"124":0.045774854719638824,"125":0.04824674874544144,"126":-5.306451797485352,"127":1.8708522319793701,"128":1.368796944618225,"129":-4.522347450256348,"130":1.5071841478347778,"131":-1.432421088218689,"132":-1.0374877452850342,"133":-0.8776344060897827,"134":4.004150390625,"135":-4.821352005004883,"136":-2.615863084793091,"137":2.679486036300659,"138":0.5497618913650513,"139":4.2638044357299805,"140":3.0158448219299316,"141":-2.8906805515289307,"142":-2.014115571975708,"143":0.2577160894870758,"144":2.462698459625244,"145":-1.539199709892273,"146":-1.010201096534729,"147":2.9084384441375732,"148":-2.2985377311706543,"149":-0.25990524888038635,"150":-1.6354408264160156,"151":1.8906511068344116,"152":2.8408775329589844,"153":-0.456264853477478,"154":-3.3616621494293213,"155":0.4941517114639282,"156":-5.215959072113037,"157":2.531371593475342,"158":6.0575852394104,"159":2.8867549896240234,"160":-4.917921543121338,"161":-3.8988120555877686,"162":-4.820832252502441,"163":-6.061003684997559,"164":3.7435262203216553,"165":6.727118492126465,"166":2.5908844470977783,"167":6.567346572875977,"168":3.3609235286712646,"169":-4.999823093414307,"170":3.062781810760498,"171":1.3794844150543213,"172":2.3361260890960693,"173":-1.556409239768982,"174":2.6824951171875,"175":-4.387737274169922,"176":-0.2556949555873871,"177":-4.370015621185303,"178":-0.5888534784317017,"179":0.10279910266399384,"180":-0.15230180323123932,"181":3.154115915298462,"182":0.5069955587387085,"183":-1.8959107398986816,"184":0.1268315613269806,"185":-1.4240190982818604,"186":1.2420690059661865,"187":4.662730693817139,"188":-2.2511866092681885,"189":0.5317910313606262,"190":-0.5979469418525696,"191":-1.6592642068862915,"192":3.92433500289917,"193":0.6470239162445068,"194":-4.393946647644043,"195":-3.162144184112549,"196":2.1484310626983643,"197":3.1845858097076416,"198":1.2794065475463867,"199":-1.7138527631759644,"200":1.347700834274292,"201":-1.5100069046020508,"202":-2.725053310394287,"203":-1.1555479764938354,"204":3.3235862255096436,"205":-1.572648048400879,"206":0.13934926688671112,"207":-4.313347339630127,"208":7.474972724914551,"209":3.642914295196533,"210":2.4655797481536865,"211":-0.4125632047653198,"212":-1.3574564456939697,"213":3.6883761882781982,"214":-4.257838249206543,"215":0.07005206495523453,"216":-3.732790470123291,"217":-1.7314653396606445,"218":-5.102988243103027,"219":-3.5387046337127686,"220":-2.6304802894592285,"221":1.2379398345947266,"222":-3.684664011001587,"223":3.0791256427764893,"224":1.2925046682357788,"225":-1.8993901014328003,"226":-0.5333426594734192,"227":-0.2822284996509552,"228":1.0529682636260986,"229":3.899888038635254,"230":1.1417896747589111,"231":-4.44314432144165,"232":-3.6207025051116943,"233":-2.1107354164123535,"234":-3.738736629486084,"235":3.9072296619415283,"236":0.1223113089799881,"237":1.0744597911834717,"238":2.336550235748291,"239":-3.360769033432007,"240":0.5554006099700928,"241":-0.7758944034576416,"242":4.345334529876709,"243":-0.6854735016822815,"244":1.4777473211288452,"245":-1.504098653793335,"246":-1.9796826839447021,"247":1.6551212072372437,"248":1.5313773155212402,"249":-3.4359073638916016,"250":1.2564207315444946,"251":3.845552921295166,"252":-2.163447141647339,"253":2.5011556148529053,"254":3.8052284717559814,"255":4.345059871673584,"256":2.598616123199463,"257":-0.020120693370699883,"258":-0.9627417325973511,"259":-2.5906689167022705,"260":2.121286153793335,"261":-3.3030872344970703,"262":-1.1278332471847534,"263":0.49785640835762024,"264":-2.199063539505005,"265":0.6173682808876038,"266":-3.5295791625976562,"267":-3.4179999828338623,"268":2.662972927093506,"269":-4.203038692474365,"270":-2.2062337398529053,"271":-5.593809127807617,"272":4.404211521148682,"273":-1.8251466751098633,"274":-3.79620361328125,"275":3.885183811187744,"276":-8.877124786376953,"277":0.7452232837677002,"278":-0.9959594011306763,"279":3.7851498126983643,"280":2.22898268699646,"281":-0.1508643627166748,"282":2.4355757236480713,"283":0.2524152398109436,"284":-5.531449794769287,"285":-0.19085478782653809,"286":5.264438629150391,"287":4.777896404266357,"288":-0.465304970741272,"289":-2.2394800186157227,"290":-1.6436156034469604,"291":-0.5549086332321167,"292":6.213192939758301,"293":4.6765899658203125,"294":-2.980015277862549,"295":1.850131869316101,"296":-1.1262845993041992,"297":0.4171645939350128,"298":4.482356071472168,"299":2.002048969268799,"300":-4.5448198318481445,"301":4.141681671142578,"302":-0.8569040894508362,"303":-1.6934657096862793,"304":-0.8027482032775879,"305":-0.8356699347496033,"306":-0.6703898310661316,"307":-2.562697410583496,"308":-3.141444683074951,"309":1.2912572622299194,"310":0.19404147565364838,"311":3.7208664417266846,"312":0.3648156225681305,"313":-0.913551390171051,"314":0.8100943565368652,"315":-1.1706982851028442,"316":-6.45955753326416,"317":-1.6028108596801758,"318":1.0562102794647217,"319":-0.06669285893440247,"320":-2.403122901916504,"321":0.8635222911834717,"322":-1.6661365032196045,"323":0.8146129250526428,"324":3.701730489730835,"325":0.8302295207977295,"326":-4.498228549957275,"327":-5.561126232147217,"328":2.2448902130126953,"329":0.23337072134017944,"330":-3.3457541465759277,"331":-0.9988031983375549,"332":-0.9600094556808472,"333":1.623881459236145,"334":2.58542799949646,"335":2.632969856262207,"336":1.1262387037277222,"337":2.631808042526245,"338":0.6427945494651794,"339":-4.547088146209717,"340":0.07682830840349197,"341":-1.1449041366577148,"342":-3.922780990600586,"343":2.0265250205993652,"344":4.115858554840088,"345":-2.6110808849334717,"346":0.6722899675369263,"347":1.7424160242080688,"348":1.5821642875671387,"349":0.36928221583366394,"350":-1.6926082372665405,"351":0.32549208402633667,"352":3.637164831161499,"353":-3.516237258911133,"354":-1.2139110565185547,"355":0.3588041663169861,"356":-0.9616096615791321,"357":-0.0946759432554245,"358":1.529314637184143,"359":-0.2565639913082123,"360":3.0504276752471924,"361":2.1674985885620117,"362":4.11864709854126,"363":4.5010175704956055,"364":1.9620018005371094,"365":2.481079578399658,"366":3.5599365234375,"367":2.0364246368408203,"368":2.4056663513183594,"369":3.9091174602508545,"370":-1.4092895984649658,"371":0.10818202048540115,"372":4.970622539520264,"373":-4.511003494262695,"374":3.7299070358276367,"375":3.5394186973571777,"376":1.0549194812774658,"377":3.2542824745178223,"378":1.4373505115509033,"379":-5.9467363357543945,"380":2.1791040897369385,"381":1.6781891584396362,"382":0.0777619257569313,"383":0.08215464651584625,"384":1.4845247268676758,"385":-1.8526288270950317,"386":-1.1924047470092773,"387":-4.041143417358398,"388":-0.46703991293907166,"389":3.464359998703003,"390":-2.233351707458496,"391":0.4664144814014435,"392":0.17193418741226196,"393":1.6526637077331543,"394":1.5313438177108765,"395":0.328036367893219,"396":0.27543139457702637,"397":1.6720250844955444,"398":-0.8922975659370422,"399":-5.661003112792969}},"inputBias":{"rows":20,"columns":1,"weights":{"0":-1.8788506984710693,"1":-0.220394566655159,"2":-1.0193573236465454,"3":-0.07118784636259079,"4":-1.5278899669647217,"5":-2.1631667613983154,"6":-2.9974191188812256,"7":-1.1759917736053467,"8":-0.1610327661037445,"9":-0.014166012406349182,"10":-1.4019346237182617,"11":-0.8033896088600159,"12":-0.153856560587883,"13":-0.3528682291507721,"14":-2.3848259449005127,"15":-0.16747017204761505,"16":-1.3544247150421143,"17":0.709981381893158,"18":-0.7910732626914978,"19":-2.243173122406006}},"forgetMatrix":{"rows":20,"columns":31,"weights":{"0":-0.2793835699558258,"1":-1.426938772201538,"2":-0.2240498661994934,"3":-0.778878927230835,"4":-1.4726109504699707,"5":0.44113779067993164,"6":-1.9867109060287476,"7":-3.0671303272247314,"8":1.5533654689788818,"9":-1.3224010467529297,"10":1.9481335878372192,"11":2.9143497943878174,"12":-0.3638276159763336,"13":-1.3286973237991333,"14":-0.042686205357313156,"15":2.251915693283081,"16":1.2664355039596558,"17":1.236168622970581,"18":-0.4342217743396759,"19":3.0145175457000732,"20":1.406206488609314,"21":2.9709792137145996,"22":0.6474267244338989,"23":1.9144068956375122,"24":1.0770858526229858,"25":0.0931459590792656,"26":-2.597302198410034,"27":-0.01684248074889183,"28":-0.9349768161773682,"29":-0.1924799531698227,"30":0.27390050888061523,"31":1.1259760856628418,"32":-0.30967628955841064,"33":-1.0432970523834229,"34":-1.4289023876190186,"35":0.29531291127204895,"36":1.118186593055725,"37":2.7096033096313477,"38":0.010734609328210354,"39":3.713665246963501,"40":-1.87130868434906,"41":-2.130260705947876,"42":-0.312744677066803,"43":1.6943144798278809,"44":-3.0282089710235596,"45":-2.2275726795196533,"46":-0.9728091359138489,"47":-1.0254615545272827,"48":-0.8743278384208679,"49":-2.880876302719116,"50":-4.0800461769104,"51":-0.4706715941429138,"52":1.2656233310699463,"53":2.9308581352233887,"54":-0.7755679488182068,"55":-2.98530650138855,"56":4.156606674194336,"57":1.509947419166565,"58":-3.843169927597046,"59":2.474236249923706,"60":1.0420491695404053,"61":-3.0551133155822754,"62":0.8992325067520142,"63":-0.5343292951583862,"64":-2.1578128337860107,"65":2.3982248306274414,"66":-0.6140784025192261,"67":-0.825612485408783,"68":-0.9517034888267517,"69":-0.633837878704071,"70":-0.5298723578453064,"71":5.186105728149414,"72":0.8442196846008301,"73":-1.2831026315689087,"74":-0.49389883875846863,"75":0.21514149010181427,"76":0.5379080772399902,"77":-1.8603407144546509,"78":-3.9608538150787354,"79":3.760026454925537,"80":1.0647753477096558,"81":-0.8169155716896057,"82":-0.48980170488357544,"83":-1.0464966297149658,"84":-2.3230581283569336,"85":-0.7097865343093872,"86":-1.7788074016571045,"87":1.2340242862701416,"88":-0.1545550376176834,"89":2.940617799758911,"90":1.6166019439697266,"91":2.0092613697052,"92":-0.18349139392375946,"93":2.816152572631836,"94":0.09546702355146408,"95":0.94968581199646,"96":3.399256944656372,"97":0.8197703957557678,"98":-0.33687978982925415,"99":-0.5947076082229614,"100":-2.448852777481079,"101":-2.2209343910217285,"102":1.5726701021194458,"103":3.6382007598876953,"104":1.5466452836990356,"105":0.23178894817829132,"106":2.017971992492676,"107":2.0595314502716064,"108":0.07518403232097626,"109":0.6435562372207642,"110":-1.0232396125793457,"111":3.12278151512146,"112":1.1297683715820312,"113":2.136122703552246,"114":0.21892192959785461,"115":-4.204598426818848,"116":1.4499481916427612,"117":0.3555642068386078,"118":-0.2684246301651001,"119":-0.8716647624969482,"120":-1.4302411079406738,"121":-2.248852252960205,"122":-4.804206848144531,"123":1.1667845249176025,"124":-2.900601863861084,"125":-1.30145263671875,"126":1.1140718460083008,"127":-2.0052926540374756,"128":0.6054993867874146,"129":1.7836549282073975,"130":-1.5654053688049316,"131":-1.1360934972763062,"132":-0.42245054244995117,"133":1.6820276975631714,"134":0.29813945293426514,"135":1.0278449058532715,"136":-0.24352192878723145,"137":-1.5658221244812012,"138":2.6692755222320557,"139":4.7437357902526855,"140":-0.07088258862495422,"141":0.6951534748077393,"142":-1.5124003887176514,"143":2.630859136581421,"144":0.855650007724762,"145":3.2587573528289795,"146":1.3193111419677734,"147":2.0873515605926514,"148":-0.07206560671329498,"149":-2.853533983230591,"150":0.5645128488540649,"151":-3.3109147548675537,"152":0.09090733528137207,"153":-1.9494086503982544,"154":-0.4244694709777832,"155":-0.7762182950973511,"156":-1.196364164352417,"157":-1.4310036897659302,"158":2.4621567726135254,"159":-1.511523962020874,"160":-1.3704862594604492,"161":-1.8326301574707031,"162":-1.03818678855896,"163":-1.462706446647644,"164":1.9928377866744995,"165":2.047964572906494,"166":-1.4287816286087036,"167":1.365538239479065,"168":1.713241696357727,"169":0.3262981176376343,"170":-0.6113803386688232,"171":1.0918142795562744,"172":0.009907305240631104,"173":2.218937635421753,"174":-0.668728232383728,"175":1.7522609233856201,"176":-0.8063056468963623,"177":-1.6707395315170288,"178":-0.017685862258076668,"179":0.17971915006637573,"180":0.946693480014801,"181":0.06774059683084488,"182":2.0633068084716797,"183":-0.2550826072692871,"184":-0.027240922674536705,"185":1.2166677713394165,"186":-2.2016632556915283,"187":2.5011374950408936,"188":3.1522748470306396,"189":2.224517345428467,"190":0.018731048330664635,"191":1.2117727994918823,"192":-0.8407409191131592,"193":0.9057877063751221,"194":1.487743854522705,"195":-1.4922291040420532,"196":0.18464405834674835,"197":2.399134874343872,"198":-0.9410661458969116,"199":2.3353421688079834,"200":-0.2760903537273407,"201":0.9696201086044312,"202":-1.9758291244506836,"203":1.1353367567062378,"204":0.1418168544769287,"205":2.425901174545288,"206":1.7450133562088013,"207":0.8378394842147827,"208":1.8958359956741333,"209":3.393064022064209,"210":-0.8915767073631287,"211":-2.8390164375305176,"212":3.357429027557373,"213":0.32741111516952515,"214":-2.1708359718322754,"215":-1.1193677186965942,"216":-2.034548044204712,"217":0.06277994811534882,"218":-0.2315664291381836,"219":0.3239858150482178,"220":0.25881531834602356,"221":1.4034960269927979,"222":-0.589508056640625,"223":1.1382502317428589,"224":2.30309796333313,"225":2.131826162338257,"226":-1.2945407629013062,"227":-0.5954597592353821,"228":-0.745404839515686,"229":0.7048265933990479,"230":-0.1711423248052597,"231":-1.895725965499878,"232":0.6784411668777466,"233":-0.050935808569192886,"234":1.7526012659072876,"235":-2.351971387863159,"236":-2.9950735569000244,"237":-2.199652910232544,"238":-0.7678752541542053,"239":2.101170778274536,"240":-0.6476630568504333,"241":-2.92085862159729,"242":0.7932366728782654,"243":-0.32387641072273254,"244":2.156052589416504,"245":0.031001616269350052,"246":3.4446139335632324,"247":-1.9217324256896973,"248":-0.4594668447971344,"249":-2.6308236122131348,"250":-2.9297850131988525,"251":-0.02741132117807865,"252":0.6810520887374878,"253":0.11401177942752838,"254":0.4644923806190491,"255":0.042320024222135544,"256":0.4138033390045166,"257":0.8353374004364014,"258":3.5218849182128906,"259":-1.7175390720367432,"260":0.7843461036682129,"261":0.5385711193084717,"262":0.5426455140113831,"263":-0.7963377237319946,"264":-2.330427408218384,"265":0.6750194430351257,"266":0.6731843948364258,"267":-2.819875717163086,"268":1.987928032875061,"269":-0.8294591903686523,"270":3.3825910091400146,"271":-1.263979196548462,"272":-1.5919212102890015,"273":2.110564947128296,"274":2.4261200428009033,"275":-0.12408733367919922,"276":-2.1847763061523438,"277":1.8330671787261963,"278":-0.06254088878631592,"279":0.17074504494667053,"280":-1.3639918565750122,"281":0.5285279154777527,"282":-0.4463803768157959,"283":-2.4462730884552,"284":-1.2519001960754395,"285":3.1837775707244873,"286":-2.404273509979248,"287":-1.2182551622390747,"288":0.7876124978065491,"289":3.575399398803711,"290":0.07251843810081482,"291":-2.6771438121795654,"292":5.245694160461426,"293":0.8707424402236938,"294":-0.7226460576057434,"295":0.16377006471157074,"296":0.093270443379879,"297":-0.8131590485572815,"298":-2.1713409423828125,"299":-0.05608911067247391,"300":-0.1761450171470642,"301":-1.5316509008407593,"302":-1.963828206062317,"303":-0.04605989158153534,"304":5.020296096801758,"305":0.309617280960083,"306":1.2419638633728027,"307":-1.1318528652191162,"308":-1.3270237445831299,"309":-1.569802165031433,"310":-0.1592084914445877,"311":1.9707159996032715,"312":-0.4553010165691376,"313":0.680854856967926,"314":3.1400718688964844,"315":-0.05515599250793457,"316":-0.5103678107261658,"317":1.3957420587539673,"318":1.2313817739486694,"319":0.9736174941062927,"320":2.250434398651123,"321":0.006614634767174721,"322":-1.750589370727539,"323":2.4091665744781494,"324":-0.9625211954116821,"325":0.233893483877182,"326":-2.0190465450286865,"327":2.4387567043304443,"328":-0.3597547113895416,"329":-1.6924558877944946,"330":0.38437971472740173,"331":1.364424228668213,"332":-1.4506200551986694,"333":0.2859813868999481,"334":-0.9754776358604431,"335":1.4782065153121948,"336":2.4214534759521484,"337":1.26296865940094,"338":-0.7557370066642761,"339":1.036298394203186,"340":1.3788050413131714,"341":0.1394588053226471,"342":-1.6393908262252808,"343":0.36692583560943604,"344":0.9599494934082031,"345":-0.0919889509677887,"346":-0.44201725721359253,"347":-0.02420230023562908,"348":-0.8221769332885742,"349":-1.0586295127868652,"350":2.458617925643921,"351":1.075069546699524,"352":-0.10443498939275742,"353":1.252714991569519,"354":-0.047288812696933746,"355":-0.8136971592903137,"356":0.2568046450614929,"357":-0.7117997407913208,"358":-1.0587269067764282,"359":0.8326303362846375,"360":-1.019593596458435,"361":0.9798923134803772,"362":-1.9031091928482056,"363":-0.743762195110321,"364":1.671554684638977,"365":-1.8186817169189453,"366":-1.0609228610992432,"367":1.9547133445739746,"368":2.748572587966919,"369":-2.0656898021698,"370":-0.9315399527549744,"371":-1.6430494785308838,"372":0.363446980714798,"373":-0.6017423868179321,"374":-0.006875092163681984,"375":-0.174872025847435,"376":3.5706026554107666,"377":0.3065670132637024,"378":0.10670461505651474,"379":4.4409098625183105,"380":1.0553873777389526,"381":4.425139427185059,"382":-0.11592569202184677,"383":-0.5136882066726685,"384":0.07953187078237534,"385":-0.5148148536682129,"386":-3.461616277694702,"387":-0.3673572242259979,"388":-1.262798547744751,"389":2.8875131607055664,"390":-3.23095965385437,"391":1.7645121812820435,"392":-0.274494469165802,"393":-2.7668819427490234,"394":-1.1190329790115356,"395":-2.3187222480773926,"396":-1.9545997381210327,"397":1.7240175008773804,"398":-2.2110307216644287,"399":1.6155307292938232,"400":0.9495614171028137,"401":1.6923750638961792,"402":-3.640768527984619,"403":-0.2739033102989197,"404":-2.942653179168701,"405":0.11713197082281113,"406":1.5401585102081299,"407":1.2153609991073608,"408":-1.8326988220214844,"409":-2.038590908050537,"410":0.18250416219234467,"411":-0.7219375371932983,"412":0.8586400151252747,"413":-0.20766092836856842,"414":1.2208830118179321,"415":-3.8505916595458984,"416":3.740609645843506,"417":0.27687665820121765,"418":0.0025676984805613756,"419":-2.039403200149536,"420":0.5916886329650879,"421":1.578837275505066,"422":-0.7602364420890808,"423":-0.13646452128887177,"424":-1.574373722076416,"425":0.26723554730415344,"426":0.5485119819641113,"427":-1.8665906190872192,"428":1.0966448783874512,"429":2.593693256378174,"430":1.678778052330017,"431":-2.3450212478637695,"432":0.7296573519706726,"433":-1.313231348991394,"434":5.505397319793701,"435":-0.06400348991155624,"436":-0.44176948070526123,"437":-1.9676607847213745,"438":2.5538859367370605,"439":1.1877586841583252,"440":-1.0240882635116577,"441":-0.32295748591423035,"442":1.6380361318588257,"443":1.5584834814071655,"444":0.7039461135864258,"445":-0.8056713342666626,"446":3.1685805320739746,"447":-1.2553132772445679,"448":-3.4735794067382812,"449":-0.16870911419391632,"450":-2.2238211631774902,"451":-3.3637678623199463,"452":0.13604667782783508,"453":0.9567220211029053,"454":2.1804909706115723,"455":-2.1235063076019287,"456":-3.2207705974578857,"457":0.08157990127801895,"458":-1.321205735206604,"459":-2.4771728515625,"460":-0.1760377138853073,"461":-0.21158120036125183,"462":-1.6639313697814941,"463":-0.4771302342414856,"464":-1.3687046766281128,"465":-1.3702588081359863,"466":-1.393892526626587,"467":-2.7393288612365723,"468":1.259867548942566,"469":-0.35119128227233887,"470":-2.6978683471679688,"471":-2.372192859649658,"472":-1.4648312330245972,"473":-2.1845052242279053,"474":2.305973768234253,"475":0.5955541729927063,"476":-0.2926928400993347,"477":-0.9457741975784302,"478":2.579962730407715,"479":2.349393606185913,"480":0.8051438331604004,"481":-0.07571591436862946,"482":1.8263018131256104,"483":0.9672779440879822,"484":-1.186232089996338,"485":-0.07137639075517654,"486":0.4089663326740265,"487":-0.45226070284843445,"488":0.9982659220695496,"489":-0.4481331408023834,"490":0.6186058521270752,"491":-0.058383554220199585,"492":2.408989906311035,"493":1.0101866722106934,"494":1.3174195289611816,"495":1.5804697275161743,"496":1.3425484895706177,"497":-0.1371084451675415,"498":-0.601050078868866,"499":-0.3292217552661896,"500":2.9560723304748535,"501":-1.0973126888275146,"502":0.07152756303548813,"503":-1.3466297388076782,"504":-0.48032185435295105,"505":-0.768873929977417,"506":2.1850171089172363,"507":-0.6445373892784119,"508":0.4205458462238312,"509":-0.8828434348106384,"510":-0.34077051281929016,"511":0.09128724783658981,"512":-2.9099104404449463,"513":1.1283069849014282,"514":1.6487663984298706,"515":-0.33627742528915405,"516":2.5453927516937256,"517":-2.432796001434326,"518":-1.904346227645874,"519":-1.1229125261306763,"520":3.534919023513794,"521":1.8380335569381714,"522":1.610213041305542,"523":1.2385737895965576,"524":0.6754975318908691,"525":-0.9742305874824524,"526":1.8337600231170654,"527":-2.3361310958862305,"528":-2.7163426876068115,"529":-3.755167245864868,"530":1.8504656553268433,"531":0.7472019195556641,"532":-4.796426296234131,"533":0.8483507633209229,"534":-0.6950393319129944,"535":-3.531059741973877,"536":3.278204917907715,"537":3.7093207836151123,"538":-1.9930047988891602,"539":1.2940603494644165,"540":2.113314628601074,"541":3.750035524368286,"542":-2.607609272003174,"543":-1.4142342805862427,"544":0.5908211469650269,"545":3.6467885971069336,"546":-3.7540619373321533,"547":0.3109630346298218,"548":0.607221245765686,"549":-0.35560673475265503,"550":-0.8172227144241333,"551":1.6457445621490479,"552":1.171467900276184,"553":-1.5417115688323975,"554":2.4334635734558105,"555":-1.391269326210022,"556":-1.608717679977417,"557":-1.3678640127182007,"558":0.9487082362174988,"559":-0.7976691126823425,"560":-1.1856380701065063,"561":3.5730538368225098,"562":-0.46076732873916626,"563":0.09937756508588791,"564":-0.6767455339431763,"565":-0.6590576171875,"566":-1.5729717016220093,"567":1.9364339113235474,"568":3.5358164310455322,"569":-3.858618974685669,"570":-1.5180885791778564,"571":1.2974605560302734,"572":-1.5403571128845215,"573":0.3660620450973511,"574":-3.396552801132202,"575":1.936712384223938,"576":0.8531425595283508,"577":-2.8307578563690186,"578":1.2338258028030396,"579":-1.2156914472579956,"580":2.9241347312927246,"581":-1.706327199935913,"582":-2.120884656906128,"583":1.403663992881775,"584":3.875840663909912,"585":3.530168056488037,"586":-1.207715630531311,"587":-1.7522268295288086,"588":-0.4725586771965027,"589":-0.24825620651245117,"590":-0.018321407958865166,"591":-2.362032651901245,"592":0.6751354336738586,"593":0.9928268790245056,"594":3.266328811645508,"595":2.828676700592041,"596":2.9923930168151855,"597":-0.008542299270629883,"598":-1.1297180652618408,"599":-2.4569411277770996,"600":-5.270567417144775,"601":1.9968091249465942,"602":-0.3192416727542877,"603":0.9010016322135925,"604":0.32828274369239807,"605":-3.4542791843414307,"606":-0.9625248908996582,"607":0.10217258334159851,"608":-0.9287501573562622,"609":-2.7789053916931152,"610":-1.4508603811264038,"611":-1.2186442613601685,"612":-0.40454748272895813,"613":0.5897253751754761,"614":0.3501954972743988,"615":1.6666584014892578,"616":-0.24085408449172974,"617":-1.081146240234375,"618":0.5792712569236755,"619":1.328394889831543}},"forgetHidden":{"rows":20,"columns":20,"weights":{"0":-1.873157262802124,"1":3.3669331073760986,"2":0.047273702919483185,"3":2.6774001121520996,"4":1.1563904285430908,"5":-0.8412852883338928,"6":0.653278648853302,"7":0.4235754609107971,"8":-3.2162258625030518,"9":2.321974992752075,"10":-0.8190401792526245,"11":-1.5541576147079468,"12":0.23685984313488007,"13":-2.2566277980804443,"14":-1.719795823097229,"15":-1.0508811473846436,"16":-1.0933880805969238,"17":2.033252477645874,"18":1.8192474842071533,"19":-1.6502734422683716,"20":5.327052593231201,"21":1.3537330627441406,"22":-0.309796005487442,"23":5.039174556732178,"24":1.3606572151184082,"25":1.570597767829895,"26":3.4523203372955322,"27":1.6779005527496338,"28":-2.46234393119812,"29":2.47021484375,"30":0.7657588124275208,"31":0.10479430854320526,"32":3.0121984481811523,"33":1.3185899257659912,"34":1.681795597076416,"35":0.8703888654708862,"36":-1.012729525566101,"37":5.640921592712402,"38":1.0491883754730225,"39":2.2982118129730225,"40":-0.6815138459205627,"41":-0.7681100964546204,"42":0.2697210907936096,"43":2.883287191390991,"44":2.839397430419922,"45":0.42512449622154236,"46":1.7857415676116943,"47":2.3609023094177246,"48":-0.4197101294994354,"49":1.1505792140960693,"50":1.358966588973999,"51":-2.8346049785614014,"52":0.45812860131263733,"53":2.493016481399536,"54":-0.8860440254211426,"55":0.379997581243515,"56":0.20792753994464874,"57":-1.4157718420028687,"58":0.7540760040283203,"59":2.2820258140563965,"60":0.9736303687095642,"61":-0.4702683985233307,"62":-2.3544626235961914,"63":-0.4697313606739044,"64":-0.29726043343544006,"65":4.3732075691223145,"66":5.412916660308838,"67":0.31483352184295654,"68":-2.165759563446045,"69":0.7159523367881775,"70":4.3604230880737305,"71":-0.1808798909187317,"72":-0.3001538813114166,"73":0.551235020160675,"74":0.185185045003891,"75":-0.24958565831184387,"76":0.3819893002510071,"77":-0.6133626699447632,"78":-2.6919353008270264,"79":-0.9324325323104858,"80":-1.5158560276031494,"81":2.1234524250030518,"82":-0.8275999426841736,"83":-0.9268333911895752,"84":0.6383641958236694,"85":-1.4684054851531982,"86":0.778601348400116,"87":-1.027279257774353,"88":-0.36735424399375916,"89":1.478022813796997,"90":-3.1804146766662598,"91":-2.24541974067688,"92":1.1887439489364624,"93":0.343590646982193,"94":-2.632962465286255,"95":-0.7859879732131958,"96":0.4265662729740143,"97":2.152726411819458,"98":0.7940077185630798,"99":1.2903186082839966,"100":0.7601313591003418,"101":-0.43110665678977966,"102":1.6420379877090454,"103":-0.5443084836006165,"104":-0.505132794380188,"105":0.607523500919342,"106":0.0616423599421978,"107":0.27663904428482056,"108":0.45210781693458557,"109":1.8278669118881226,"110":-0.3018408715724945,"111":1.604121208190918,"112":0.4012032449245453,"113":3.529123067855835,"114":-0.4922645688056946,"115":-1.3592071533203125,"116":-2.245237112045288,"117":-2.325824737548828,"118":-1.7961405515670776,"119":-3.340625047683716,"120":-1.2155951261520386,"121":0.48925983905792236,"122":1.5419979095458984,"123":2.2816593647003174,"124":-2.5421841144561768,"125":0.033991191536188126,"126":0.09994300454854965,"127":0.9319193363189697,"128":-0.5363919138908386,"129":-1.1612896919250488,"130":4.750164031982422,"131":1.8302439451217651,"132":-0.7625657320022583,"133":1.3129206895828247,"134":-2.157353401184082,"135":4.644664764404297,"136":-2.406463146209717,"137":3.925473928451538,"138":1.136170506477356,"139":4.946041584014893,"140":1.1765729188919067,"141":-2.0217854976654053,"142":-1.6280500888824463,"143":0.8151856660842896,"144":-0.6362246870994568,"145":-0.22740550339221954,"146":2.9211502075195312,"147":2.3295414447784424,"148":0.36548230051994324,"149":-0.9050743579864502,"150":-0.2858380377292633,"151":-0.32683613896369934,"152":1.5947823524475098,"153":-0.006512222811579704,"154":1.910364031791687,"155":-0.2363448441028595,"156":-2.00740122795105,"157":-0.004560019355267286,"158":0.6198796033859253,"159":1.744679570198059,"160":-0.40949004888534546,"161":1.5431249141693115,"162":0.18892662227153778,"163":-0.752323567867279,"164":0.09056421369314194,"165":1.5179611444473267,"166":1.6662291288375854,"167":-0.20327876508235931,"168":-1.0920004844665527,"169":1.2484720945358276,"170":0.18495729565620422,"171":-0.6894962191581726,"172":1.3683604001998901,"173":0.9552728533744812,"174":-2.7694733142852783,"175":-0.7952743172645569,"176":-0.4228815734386444,"177":1.9769115447998047,"178":0.6002997159957886,"179":0.5411803722381592,"180":11.179780960083008,"181":-5.52714204788208,"182":5.932039737701416,"183":1.1245037317276,"184":-0.5253130197525024,"185":-2.959869623184204,"186":-0.0377388596534729,"187":-2.473947048187256,"188":4.5897603034973145,"189":0.4639829397201538,"190":-1.7706687450408936,"191":-1.0961295366287231,"192":-3.4803404808044434,"193":-0.2840885818004608,"194":-0.3555741608142853,"195":1.5498117208480835,"196":3.07265305519104,"197":-2.071579933166504,"198":-1.6119298934936523,"199":3.668776750564575,"200":3.0605969429016113,"201":0.881436824798584,"202":-1.9089452028274536,"203":1.6875160932540894,"204":2.349709987640381,"205":1.2203315496444702,"206":1.4480738639831543,"207":-0.965959370136261,"208":1.7732558250427246,"209":4.949769973754883,"210":1.669030785560608,"211":-0.4991592764854431,"212":1.90412437915802,"213":-2.6460864543914795,"214":1.0331629514694214,"215":1.3376282453536987,"216":-0.06890146434307098,"217":-2.22346830368042,"218":1.2314273118972778,"219":0.7840674519538879,"220":-0.15753185749053955,"221":0.36690348386764526,"222":1.2411898374557495,"223":-0.17161865532398224,"224":0.4744352102279663,"225":0.6582062840461731,"226":0.07365401834249496,"227":-1.1550425291061401,"228":1.1714658737182617,"229":-1.1280027627944946,"230":0.7670484185218811,"231":-0.6530757546424866,"232":-0.33184418082237244,"233":-1.9077776670455933,"234":-1.153617024421692,"235":0.056211549788713455,"236":2.307257890701294,"237":0.6088597178459167,"238":-0.15060770511627197,"239":-2.5177464485168457,"240":-1.699195384979248,"241":2.6749267578125,"242":2.774905204772949,"243":-0.5590783953666687,"244":-0.027467399835586548,"245":-1.8155792951583862,"246":3.452227830886841,"247":-0.9011708498001099,"248":-1.9925261735916138,"249":5.733606338500977,"250":-0.5536162853240967,"251":0.25503620505332947,"252":4.292601585388184,"253":1.9985383749008179,"254":-7.067443370819092,"255":0.5169020295143127,"256":5.832446575164795,"257":1.4808017015457153,"258":1.9896944761276245,"259":-4.548819541931152,"260":-1.2589399814605713,"261":1.7940309047698975,"262":0.6322047114372253,"263":0.8384258151054382,"264":2.394838333129883,"265":-0.3868512213230133,"266":1.1581003665924072,"267":1.0954201221466064,"268":0.6030026078224182,"269":1.2580491304397583,"270":-1.838957667350769,"271":-0.1772322654724121,"272":1.1069718599319458,"273":-0.3334674835205078,"274":-0.8557569980621338,"275":-2.1205949783325195,"276":-0.1554446816444397,"277":0.6145537495613098,"278":0.16627436876296997,"279":-0.7873052358627319,"280":-0.5120635628700256,"281":2.0083072185516357,"282":-0.3994354009628296,"283":0.37581029534339905,"284":1.5201189517974854,"285":0.2524607181549072,"286":0.6315417885780334,"287":1.9719209671020508,"288":-1.0175771713256836,"289":1.6176602840423584,"290":-1.1103047132492065,"291":-1.6947966814041138,"292":-2.7881076335906982,"293":1.2241857051849365,"294":-0.5318159461021423,"295":-0.34247127175331116,"296":0.8631947636604309,"297":1.3577412366867065,"298":3.0948731899261475,"299":0.6172452569007874,"300":-1.8795146942138672,"301":-0.7512255311012268,"302":0.7937440872192383,"303":1.9998747110366821,"304":1.124626636505127,"305":-0.8355464935302734,"306":-1.6482841968536377,"307":-0.01944546587765217,"308":3.072749614715576,"309":-1.1055057048797607,"310":-3.2408735752105713,"311":0.5539267659187317,"312":1.7426255941390991,"313":-0.14575615525245667,"314":-2.839351177215576,"315":1.3277761936187744,"316":0.05729152262210846,"317":0.9671741724014282,"318":1.2077909708023071,"319":-0.2671648859977722,"320":-0.5270143151283264,"321":-0.9525426030158997,"322":-5.392612934112549,"323":0.258648544549942,"324":0.48638293147087097,"325":-0.09431281685829163,"326":-3.303619384765625,"327":-4.100007057189941,"328":0.7168961763381958,"329":-3.2719058990478516,"330":1.1219865083694458,"331":1.1509106159210205,"332":2.367431163787842,"333":1.3132737874984741,"334":0.01625210791826248,"335":-2.062549591064453,"336":0.015352574177086353,"337":-1.316136121749878,"338":1.0699671506881714,"339":3.322479486465454,"340":4.422783374786377,"341":-0.3685758709907532,"342":-1.5719119310379028,"343":-2.369185209274292,"344":-4.022923469543457,"345":0.46580106019973755,"346":4.71481990814209,"347":4.2935075759887695,"348":1.9797114133834839,"349":0.1209648922085762,"350":3.2082650661468506,"351":-1.7157418727874756,"352":0.04215303435921669,"353":0.1764056533575058,"354":5.80405330657959,"355":0.7637914419174194,"356":0.12189867347478867,"357":-4.027410984039307,"358":1.2188528776168823,"359":-0.7587400674819946,"360":-1.8869857788085938,"361":2.885505199432373,"362":-0.20491667091846466,"363":-2.278350830078125,"364":-1.7885075807571411,"365":-0.483423113822937,"366":-0.8902179002761841,"367":1.4689640998840332,"368":-2.7622106075286865,"369":2.259504795074463,"370":-1.2977007627487183,"371":0.6411428451538086,"372":1.3037101030349731,"373":2.362159013748169,"374":0.09171941131353378,"375":0.6201618313789368,"376":-2.111422061920166,"377":2.1180880069732666,"378":-3.0151565074920654,"379":-0.5409321784973145,"380":0.7251936197280884,"381":-1.9807770252227783,"382":-1.513468861579895,"383":-3.6876003742218018,"384":0.23485790193080902,"385":0.666780412197113,"386":-1.686872959136963,"387":-1.2989110946655273,"388":2.567079782485962,"389":-4.256115913391113,"390":0.5969902873039246,"391":0.19348624348640442,"392":0.8629880547523499,"393":1.6503626108169556,"394":4.650267601013184,"395":0.10943583399057388,"396":-8.771464347839355,"397":-0.19089248776435852,"398":-1.2817410230636597,"399":1.8981510400772095}},"forgetBias":{"rows":20,"columns":1,"weights":{"0":0,"1":0,"2":0,"3":0,"4":0,"5":0,"6":0,"7":0,"8":0,"9":0,"10":0,"11":0,"12":0,"13":0,"14":0,"15":0,"16":0,"17":0,"18":0,"19":0}},"outputMatrix":{"rows":20,"columns":31,"weights":{"0":-3.0861117839813232,"1":-1.7487964630126953,"2":1.8606822490692139,"3":0.8324052095413208,"4":2.8865044116973877,"5":-0.9016845226287842,"6":-0.6659777760505676,"7":-3.182300567626953,"8":0.941405177116394,"9":-1.0956794023513794,"10":-0.815947413444519,"11":-0.033104829490184784,"12":1.0358422994613647,"13":-2.3427791595458984,"14":-1.5079832077026367,"15":2.548471689224243,"16":-1.5972954034805298,"17":-2.133533239364624,"18":-2.0345067977905273,"19":0.18213993310928345,"20":4.729453086853027,"21":1.2978092432022095,"22":3.450429677963257,"23":-0.8392614722251892,"24":-0.9318013787269592,"25":-1.8659203052520752,"26":1.5018417835235596,"27":0.6150668859481812,"28":-3.2477610111236572,"29":-2.2598841190338135,"30":-0.6955487728118896,"31":-1.6468561887741089,"32":-1.7882781028747559,"33":1.835670828819275,"34":-1.3171241283416748,"35":0.8430718183517456,"36":-0.827203631401062,"37":-0.07248740643262863,"38":-0.7595980763435364,"39":0.47234463691711426,"40":2.684234142303467,"41":2.848501443862915,"42":0.3408873677253723,"43":2.269575834274292,"44":-0.025212984532117844,"45":1.5930274724960327,"46":3.257993221282959,"47":-2.2790324687957764,"48":0.0670555979013443,"49":0.2658071517944336,"50":-1.398411750793457,"51":3.180392265319824,"52":1.7543443441390991,"53":0.9779809713363647,"54":-0.35855165123939514,"55":-4.984984874725342,"56":-2.5592591762542725,"57":1.549310326576233,"58":-0.22404524683952332,"59":-5.752224922180176,"60":3.3386528491973877,"61":1.2311346530914307,"62":-2.2488648891448975,"63":2.5534210205078125,"64":-1.6036580801010132,"65":2.119631767272949,"66":-0.270964652299881,"67":-0.7883604168891907,"68":-0.36930617690086365,"69":1.359567403793335,"70":0.3549742102622986,"71":1.5222769975662231,"72":0.6824158430099487,"73":-0.10463602095842361,"74":-0.08851325511932373,"75":1.8455324172973633,"76":1.2209805250167847,"77":1.3472660779953003,"78":-0.3414410948753357,"79":2.310948133468628,"80":0.42567363381385803,"81":-1.9948757886886597,"82":0.7280541658401489,"83":2.405362367630005,"84":2.4059700965881348,"85":-0.7221733331680298,"86":-0.48576822876930237,"87":-4.473911762237549,"88":4.880641937255859,"89":1.262494444847107,"90":4.121705532073975,"91":2.4112002849578857,"92":0.7954373955726624,"93":0.878063976764679,"94":1.1513887643814087,"95":0.5663481950759888,"96":0.2976263165473938,"97":0.17913655936717987,"98":-0.2132536619901657,"99":1.6643977165222168,"100":-0.3844355344772339,"101":-0.48453062772750854,"102":3.393749713897705,"103":0.6580244898796082,"104":-0.19618287682533264,"105":2.788784980773926,"106":3.6809582710266113,"107":0.7398155331611633,"108":-1.2619048357009888,"109":1.2154990434646606,"110":-1.8041036128997803,"111":1.1538227796554565,"112":-1.0676168203353882,"113":-2.418804407119751,"114":1.7264484167099,"115":-0.7850256562232971,"116":-0.9640344381332397,"117":-0.772914707660675,"118":0.6910565495491028,"119":-0.19747024774551392,"120":-0.35609716176986694,"121":1.661406397819519,"122":-0.7962744832038879,"123":1.6504188776016235,"124":0.5580862760543823,"125":2.0735385417938232,"126":-2.1188135147094727,"127":-0.26905375719070435,"128":-1.9091163873672485,"129":-0.26765215396881104,"130":1.363568902015686,"131":1.561699628829956,"132":-0.09242868423461914,"133":0.8548117280006409,"134":0.6549879312515259,"135":0.005130872130393982,"136":-0.31663817167282104,"137":-0.518168568611145,"138":-4.990777969360352,"139":-4.693757057189941,"140":-0.23575390875339508,"141":-1.1132361888885498,"142":-2.8802456855773926,"143":-0.14001312851905823,"144":-0.020171020179986954,"145":-0.9926455020904541,"146":-0.17969071865081787,"147":-2.3696110248565674,"148":1.4400428533554077,"149":0.5626177191734314,"150":1.0137155055999756,"151":0.36643025279045105,"152":1.423300862312317,"153":0.29220709204673767,"154":-0.07659619301557541,"155":-2.289956569671631,"156":-0.144708514213562,"157":-1.0393357276916504,"158":3.756941795349121,"159":-4.324209213256836,"160":-1.7174298763275146,"161":-0.5710874199867249,"162":-3.9162075519561768,"163":0.4816061854362488,"164":0.9336056709289551,"165":-0.5921067595481873,"166":0.4895861744880676,"167":2.4102914333343506,"168":0.42346951365470886,"169":2.3383305072784424,"170":-1.808262586593628,"171":-1.680525302886963,"172":0.6079027652740479,"173":0.6832412481307983,"174":-0.14959385991096497,"175":0.39840778708457947,"176":-0.9802705645561218,"177":-1.0238282680511475,"178":0.9989593625068665,"179":1.6057095527648926,"180":-1.1111900806427002,"181":0.5832669138908386,"182":0.1889253556728363,"183":1.7900114059448242,"184":-1.2317487001419067,"185":-0.4827423095703125,"186":-0.5920625925064087,"187":-0.011931313201785088,"188":-0.48960450291633606,"189":1.5302637815475464,"190":1.3349883556365967,"191":0.1648332178592682,"192":-1.2056032419204712,"193":0.8096006512641907,"194":-0.28202423453330994,"195":1.8216241598129272,"196":1.1409039497375488,"197":1.0668628215789795,"198":-1.9386240243911743,"199":1.7096574306488037,"200":2.4359817504882812,"201":1.3220305442810059,"202":-2.7259562015533447,"203":0.7331337332725525,"204":1.7030225992202759,"205":-0.49391597509384155,"206":0.8533456325531006,"207":1.2851969003677368,"208":3.3769845962524414,"209":1.8177900314331055,"210":-2.1669371128082275,"211":-1.6151561737060547,"212":3.001023292541504,"213":0.773023784160614,"214":-0.9583849906921387,"215":-0.4432213604450226,"216":1.0709397792816162,"217":-0.443886399269104,"218":0.813595712184906,"219":5.563868999481201,"220":-2.9251272678375244,"221":1.605218768119812,"222":0.6416008472442627,"223":-0.8238943815231323,"224":-0.30577412247657776,"225":0.9171394109725952,"226":-2.104335069656372,"227":1.2869377136230469,"228":4.560253143310547,"229":0.9663545489311218,"230":0.30582529306411743,"231":-3.044999361038208,"232":3.9713685512542725,"233":0.49068015813827515,"234":1.8246270418167114,"235":-0.3502211272716522,"236":1.2321661710739136,"237":0.13088348507881165,"238":1.3660587072372437,"239":1.5451676845550537,"240":3.0669310092926025,"241":-0.9847068786621094,"242":-1.0609546899795532,"243":-0.1468431055545807,"244":-1.260049819946289,"245":-0.4947437047958374,"246":-1.6454977989196777,"247":0.23378051817417145,"248":1.204086184501648,"249":0.2976604402065277,"250":2.5233609676361084,"251":-0.5989161133766174,"252":0.9473109245300293,"253":-0.5879588723182678,"254":-0.6647552251815796,"255":-0.40760523080825806,"256":-0.526913583278656,"257":1.4122909307479858,"258":1.194122314453125,"259":2.4449002742767334,"260":0.40967121720314026,"261":-0.5993244647979736,"262":-0.12725968658924103,"263":0.4257379472255707,"264":-3.8619678020477295,"265":0.7083236575126648,"266":1.125742793083191,"267":3.218959093093872,"268":4.822823524475098,"269":0.5428997278213501,"270":-0.22272849082946777,"271":-0.7002502083778381,"272":-0.2291969209909439,"273":-0.5442752242088318,"274":0.30343011021614075,"275":1.4475969076156616,"276":-1.6297184228897095,"277":-1.9216657876968384,"278":0.5283133387565613,"279":-1.8750373125076294,"280":-5.503751754760742,"281":-1.1986132860183716,"282":1.7420158386230469,"283":0.6349438428878784,"284":0.32773077487945557,"285":0.5178664922714233,"286":-2.3093342781066895,"287":2.511129140853882,"288":-2.976114511489868,"289":-0.9449926018714905,"290":-1.542513132095337,"291":-1.5535156726837158,"292":1.1316945552825928,"293":0.41461509466171265,"294":1.2653014659881592,"295":-1.8513656854629517,"296":-0.9421235918998718,"297":0.09288197010755539,"298":-0.33520767092704773,"299":0.3994995653629303,"300":1.1064486503601074,"301":2.450622320175171,"302":-1.6433994770050049,"303":1.0481863021850586,"304":1.6919283866882324,"305":4.357205867767334,"306":0.29734715819358826,"307":-1.387048363685608,"308":0.7241795659065247,"309":-0.543224036693573,"310":-0.17022235691547394,"311":0.2674286365509033,"312":0.9180179834365845,"313":-1.1244690418243408,"314":-0.8505247235298157,"315":-2.2343130111694336,"316":-0.6663674712181091,"317":0.4586612284183502,"318":-1.061488151550293,"319":0.4089597165584564,"320":-0.21888425946235657,"321":0.7798313498497009,"322":0.5898676514625549,"323":-1.3486627340316772,"324":-2.3248488903045654,"325":0.38039711117744446,"326":0.23967765271663666,"327":-0.530768096446991,"328":0.5218176245689392,"329":1.982940912246704,"330":2.8355565071105957,"331":-1.5588363409042358,"332":-2.6024386882781982,"333":1.5367701053619385,"334":0.4021379053592682,"335":-0.7803501486778259,"336":-2.1405251026153564,"337":0.2030412256717682,"338":-0.1855068951845169,"339":-0.2871927320957184,"340":-0.4218771159648895,"341":-1.0514167547225952,"342":-0.2888526916503906,"343":-1.0603384971618652,"344":3.595179557800293,"345":2.6257054805755615,"346":-0.20554520189762115,"347":-1.6163263320922852,"348":-1.387110710144043,"349":0.42429500818252563,"350":1.030971884727478,"351":2.529805898666382,"352":1.0567290782928467,"353":2.8449630737304688,"354":2.5831427574157715,"355":-0.9911673665046692,"356":-1.7773720026016235,"357":-3.7857089042663574,"358":0.7680061459541321,"359":-0.7095780372619629,"360":-0.9327458143234253,"361":0.768031656742096,"362":-2.375666856765747,"363":0.07778953015804291,"364":-0.4819585084915161,"365":0.5287742614746094,"366":1.0135126113891602,"367":1.2906955480575562,"368":2.313673257827759,"369":-1.8866302967071533,"370":1.8477684259414673,"371":0.9318811297416687,"372":1.717864751815796,"373":-1.227143406867981,"374":-2.508739948272705,"375":5.350151062011719,"376":-0.33069899678230286,"377":-0.784906804561615,"378":-2.120734691619873,"379":1.4274736642837524,"380":-0.5436615943908691,"381":0.2538701891899109,"382":3.190972328186035,"383":-1.3555355072021484,"384":3.655797004699707,"385":1.2812553644180298,"386":2.70196270942688,"387":0.36031606793403625,"388":-1.4579464197158813,"389":-0.3452415466308594,"390":2.1979355812072754,"391":0.10807856917381287,"392":0.7401795983314514,"393":0.7241684794425964,"394":2.11958384513855,"395":0.04337571933865547,"396":0.9884623885154724,"397":0.5576108694076538,"398":-0.8161415457725525,"399":0.7622795701026917,"400":-0.9047312140464783,"401":-2.6831085681915283,"402":-1.9142948389053345,"403":0.22168153524398804,"404":-0.2789244055747986,"405":2.52970552444458,"406":2.333232879638672,"407":-1.2996395826339722,"408":0.8493316769599915,"409":-0.896569013595581,"410":-2.671750545501709,"411":0.22441653907299042,"412":-0.003492199582979083,"413":-1.3257144689559937,"414":1.8926717042922974,"415":3.242945432662964,"416":-1.4017953872680664,"417":-1.1357433795928955,"418":0.6882501840591431,"419":-0.5532535314559937,"420":0.3341386616230011,"421":1.8219125270843506,"422":5.623510360717773,"423":4.021975994110107,"424":2.925204038619995,"425":0.5474281907081604,"426":-1.8592772483825684,"427":2.421811819076538,"428":1.3959999084472656,"429":-0.5557382106781006,"430":-1.294358730316162,"431":1.0250492095947266,"432":-1.60421884059906,"433":3.0345563888549805,"434":2.033954381942749,"435":1.0107085704803467,"436":2.305173397064209,"437":0.8050366044044495,"438":0.859528660774231,"439":3.0282185077667236,"440":2.421992063522339,"441":2.105811357498169,"442":2.217162847518921,"443":-0.20651204884052277,"444":-2.4911794662475586,"445":0.36399418115615845,"446":-0.5720627307891846,"447":-1.0465506315231323,"448":-1.5963335037231445,"449":1.3977644443511963,"450":-0.7183035612106323,"451":2.3697378635406494,"452":-2.005324125289917,"453":-1.8303241729736328,"454":-1.6154441833496094,"455":0.7649852633476257,"456":-0.4928184151649475,"457":-1.5862743854522705,"458":-2.987135410308838,"459":1.2072492837905884,"460":-0.09163759648799896,"461":-1.1078263521194458,"462":1.6174509525299072,"463":-0.6044396758079529,"464":-1.0777024030685425,"465":2.703749895095825,"466":-1.2808735370635986,"467":1.4579336643218994,"468":-0.3791212737560272,"469":1.7146786451339722,"470":-2.355349063873291,"471":-4.128047943115234,"472":1.714917540550232,"473":-2.50577712059021,"474":-0.5096858739852905,"475":-0.5517905354499817,"476":1.1216001510620117,"477":1.9850175380706787,"478":-0.11595244705677032,"479":-2.442466974258423,"480":-1.2805454730987549,"481":-1.4235996007919312,"482":0.9884406924247742,"483":-1.6255466938018799,"484":-0.029492875561118126,"485":1.5562450885772705,"486":-2.3151636123657227,"487":0.6985731720924377,"488":1.7755016088485718,"489":2.6785998344421387,"490":-2.3031039237976074,"491":-2.773676872253418,"492":0.9404359459877014,"493":-0.26240503787994385,"494":-0.41170385479927063,"495":0.45080870389938354,"496":-0.8513834476470947,"497":-1.784637689590454,"498":0.19418002665042877,"499":-0.8437424898147583,"500":1.1527633666992188,"501":3.9607858657836914,"502":1.503671407699585,"503":-1.8203470706939697,"504":2.300956964492798,"505":0.42239266633987427,"506":2.8827335834503174,"507":-0.8990281224250793,"508":0.7870830297470093,"509":0.6801080107688904,"510":2.0723912715911865,"511":-2.416539192199707,"512":-1.017167568206787,"513":-0.6365512013435364,"514":-0.5471487641334534,"515":-2.6022210121154785,"516":-2.062281608581543,"517":-1.5165772438049316,"518":-0.45184481143951416,"519":-0.9829535484313965,"520":-1.503027081489563,"521":1.1494239568710327,"522":4.16942834854126,"523":-0.04261089488863945,"524":-1.3897101879119873,"525":-1.125532627105713,"526":-0.8836976289749146,"527":-1.8773516416549683,"528":0.9573173522949219,"529":1.6001883745193481,"530":-1.637482762336731,"531":-1.466457724571228,"532":-0.37745046615600586,"533":0.9143019318580627,"534":-1.1042016744613647,"535":-0.6479760408401489,"536":0.9534028768539429,"537":-0.28325018286705017,"538":0.050580885261297226,"539":-1.374890923500061,"540":-0.05666600540280342,"541":2.0672996044158936,"542":2.3080127239227295,"543":0.9231739044189453,"544":1.729151964187622,"545":1.6385053396224976,"546":-3.650496482849121,"547":0.33172282576560974,"548":-1.1525521278381348,"549":-2.70821475982666,"550":3.179332971572876,"551":0.017646918073296547,"552":-0.05926099419593811,"553":-0.07489091157913208,"554":0.7634884119033813,"555":-1.0216398239135742,"556":1.6944615840911865,"557":0.20656272768974304,"558":2.8660075664520264,"559":-0.9210519194602966,"560":-1.4049477577209473,"561":-1.7324235439300537,"562":0.4471851885318756,"563":0.35785433650016785,"564":1.5945281982421875,"565":-1.2287027835845947,"566":-2.197033405303955,"567":0.6896486282348633,"568":2.1723310947418213,"569":-1.5290722846984863,"570":1.4751032590866089,"571":1.0958569049835205,"572":6.087263584136963,"573":2.8031811714172363,"574":-0.23665361106395721,"575":1.157186508178711,"576":1.1146235466003418,"577":-3.080852508544922,"578":-1.0006846189498901,"579":-1.7167264223098755,"580":-0.2454708367586136,"581":-0.17646147310733795,"582":0.8643398284912109,"583":0.18623888492584229,"584":-0.9239460229873657,"585":0.1804126501083374,"586":-4.988763332366943,"587":0.7609310746192932,"588":-0.786030650138855,"589":0.10089229792356491,"590":1.4470809698104858,"591":-1.5679271221160889,"592":-0.45930278301239014,"593":2.254948616027832,"594":2.6043803691864014,"595":0.6556355357170105,"596":-1.1390821933746338,"597":1.627523422241211,"598":0.5997764468193054,"599":1.6880744695663452,"600":-0.42419716715812683,"601":1.6138697862625122,"602":-1.3033292293548584,"603":-1.3007456064224243,"604":-1.1611953973770142,"605":0.522637665271759,"606":3.165820360183716,"607":-3.795307159423828,"608":0.1700151264667511,"609":-1.0634006261825562,"610":-0.005802740342915058,"611":-2.8116202354431152,"612":-1.5399658679962158,"613":-0.542027473449707,"614":-1.664408802986145,"615":0.8889710307121277,"616":3.169711112976074,"617":2.8254079818725586,"618":3.3384950160980225,"619":0.1834365725517273}},"outputHidden":{"rows":20,"columns":20,"weights":{"0":-0.5532194972038269,"1":-0.35028988122940063,"2":-2.2157814502716064,"3":-0.9097883105278015,"4":4.466598987579346,"5":2.097317695617676,"6":-1.2895147800445557,"7":-2.2038345336914062,"8":-0.12825573980808258,"9":-0.9367470145225525,"10":1.4724735021591187,"11":2.373497724533081,"12":1.2320928573608398,"13":0.054486192762851715,"14":0.8508617281913757,"15":4.2962141036987305,"16":2.971815824508667,"17":0.7634730935096741,"18":-0.6329745054244995,"19":2.2095580101013184,"20":-2.3064162731170654,"21":0.8351223468780518,"22":0.029807690531015396,"23":-0.4582957625389099,"24":2.840303659439087,"25":0.14767412841320038,"26":1.685481071472168,"27":0.316786527633667,"28":-0.5016757249832153,"29":-0.32882851362228394,"30":1.7053240537643433,"31":-2.0638070106506348,"32":3.1802985668182373,"33":-0.1096857488155365,"34":-0.7343829274177551,"35":-5.972130298614502,"36":-0.9514907598495483,"37":-3.5129637718200684,"38":0.46218377351760864,"39":2.522242307662964,"40":0.2914143204689026,"41":2.1577765941619873,"42":2.314060926437378,"43":-0.004781939089298248,"44":-2.137495994567871,"45":1.7250162363052368,"46":-0.4160531759262085,"47":2.839933156967163,"48":0.6036380529403687,"49":-1.0205997228622437,"50":-1.6354234218597412,"51":1.7946140766143799,"52":-1.1407665014266968,"53":0.8907080292701721,"54":-0.0016519950004294515,"55":0.7250388860702515,"56":-0.18390920758247375,"57":-0.8149139285087585,"58":1.218449354171753,"59":-0.8201065063476562,"60":9.691051483154297,"61":-3.2187280654907227,"62":2.851987361907959,"63":0.3915373384952545,"64":3.55490779876709,"65":4.010623931884766,"66":-1.6958041191101074,"67":2.8200814723968506,"68":2.372605562210083,"69":-0.9587109684944153,"70":4.766546726226807,"71":-0.21278920769691467,"72":1.1713783740997314,"73":5.644201755523682,"74":6.258152961730957,"75":2.0915982723236084,"76":0.6235722303390503,"77":0.8351578712463379,"78":-3.5079779624938965,"79":6.948191165924072,"80":-1.5582362413406372,"81":3.364107847213745,"82":4.168102741241455,"83":6.199999809265137,"84":-2.8677451610565186,"85":-7.787654876708984,"86":-0.0782683938741684,"87":4.498311996459961,"88":-2.0870416164398193,"89":0.2759675979614258,"90":-4.779952049255371,"91":2.3209869861602783,"92":-1.4500739574432373,"93":-0.39506566524505615,"94":0.43274062871932983,"95":-2.0152077674865723,"96":-5.185838222503662,"97":-0.5460492372512817,"98":0.8972672820091248,"99":0.025466447696089745,"100":-1.317723035812378,"101":-0.6339303255081177,"102":-4.7322893142700195,"103":0.6243799328804016,"104":-2.4927268028259277,"105":-2.533616065979004,"106":-1.2262641191482544,"107":-4.518299102783203,"108":3.3254125118255615,"109":-5.071915626525879,"110":-0.5260927677154541,"111":-1.3892663717269897,"112":0.7535750865936279,"113":0.8210219740867615,"114":2.728541612625122,"115":0.07402008026838303,"116":-7.337986946105957,"117":-1.1140462160110474,"118":1.0031883716583252,"119":-3.382600784301758,"120":-2.0030953884124756,"121":-0.8390828967094421,"122":-4.286224842071533,"123":-1.258575201034546,"124":2.8468098640441895,"125":0.6208505630493164,"126":-2.6624317169189453,"127":5.473524570465088,"128":-2.2655603885650635,"129":-1.9917964935302734,"130":-1.0249840021133423,"131":1.6670184135437012,"132":3.9530794620513916,"133":-0.40366584062576294,"134":-4.388303756713867,"135":-3.7484230995178223,"136":0.8008226752281189,"137":-3.332674741744995,"138":2.2120704650878906,"139":8.554171562194824,"140":-3.891631841659546,"141":2.607666254043579,"142":-2.990954875946045,"143":-1.5029447078704834,"144":5.8836565017700195,"145":-3.982891082763672,"146":-0.42881354689598083,"147":0.43078887462615967,"148":0.08262988924980164,"149":1.3036648035049438,"150":-0.4520840644836426,"151":4.010310649871826,"152":1.5426936149597168,"153":3.6729438304901123,"154":-2.436782121658325,"155":-1.9202042818069458,"156":-3.025892972946167,"157":-3.3776605129241943,"158":4.5451555252075195,"159":-0.9126931428909302,"160":4.325488567352295,"161":-3.5611162185668945,"162":-5.3652663230896,"163":-1.6663984060287476,"164":0.8570095896720886,"165":4.2060770988464355,"166":-0.5415194630622864,"167":3.6026649475097656,"168":4.250636577606201,"169":-4.9165873527526855,"170":2.441028356552124,"171":-2.1661667823791504,"172":0.14845094084739685,"173":-1.1334614753723145,"174":3.971884250640869,"175":-4.401144981384277,"176":-0.004522804636508226,"177":2.181135892868042,"178":-0.9050440788269043,"179":2.2081282138824463,"180":4.045321464538574,"181":-4.857610702514648,"182":0.777833878993988,"183":-3.757542371749878,"184":-0.03776774927973747,"185":-4.70384407043457,"186":2.409823417663574,"187":4.451391220092773,"188":0.031082825735211372,"189":-6.942563533782959,"190":-2.5954856872558594,"191":-3.9073503017425537,"192":3.159672975540161,"193":-2.74550724029541,"194":5.494508743286133,"195":-3.943125009536743,"196":5.425709247589111,"197":-0.22417321801185608,"198":-1.8398945331573486,"199":5.2267303466796875,"200":-4.59828519821167,"201":3.1862263679504395,"202":0.7670547962188721,"203":1.3261021375656128,"204":4.447841644287109,"205":1.042475938796997,"206":0.267684668302536,"207":1.5634829998016357,"208":-3.131484031677246,"209":0.2925863265991211,"210":-1.9218182563781738,"211":1.056601881980896,"212":3.5280158519744873,"213":0.830937922000885,"214":0.33040741086006165,"215":-1.4147133827209473,"216":-3.0593297481536865,"217":-1.9246721267700195,"218":4.5208048820495605,"219":-6.06516695022583,"220":-2.3343276977539062,"221":-2.241014242172241,"222":-5.382468223571777,"223":2.079542636871338,"224":2.5801048278808594,"225":-6.478784084320068,"226":-3.849841594696045,"227":-1.8487439155578613,"228":-1.2390021085739136,"229":1.8191030025482178,