{"type":"LSTM","options":{"inputSize":31,"inputRange":31,"hiddenLayers":[20,20],"outputSize":31,"decayRate":0.999,"smoothEps":1e-8,"regc":0.000001,"clipval":5,"maxPredictionLength":100,"dataFormatter":{"indexTable":{"p":0,"r":1,"o":2,"n":3,"u":4,"c":5,"e":6," ":7,"h":8,"i":9,"m":10,"t":11,"b":12,"a":13,"v":14,"f":15,"d":16,"l":17,"s":18,".":19,"”":20,"I":21,"g":22,"w":23,"x":24,"“":25,"W":26,"y":27,",":28,"k":29,"unrecognized":30},"characterTable":{"0":"p","1":"r","2":"o","3":"n","4":"u","5":"c","6":"e","7":" ","8":"h","9":"i","10":"m","11":"t","12":"b","13":"a","14":"v","15":"f","16":"d","17":"l","18":"s","19":".","20":"”","21":"I","22":"g","23":"w","24":"x","25":"“","26":"W","27":"y","28":",","29":"k","30":null},"values":["pronounce him to be an active member of the medical profession.”","I could not help laughing at the ease with which he explained his","process of deduction. “When I hear you give your reasons,” I remarked,","“the thing always appears to me to be so ridiculously simple that I","could easily do it myself, though at each successive instance of your"],"characters":["p","r","o","n","u","c","e"," ","h","i","m","t","b","a","v","f","d","l","s",".","”","I","g","w","x","“","W","y",",","k","unrecognized"],"specialIndexes":[30]}},"input":{"rows":32,"columns":31,"weights":{"0":-0.019068706780672073,"1":0.40127265453338623,"2":-0.6437370181083679,"3":1.7388675212860107,"4":2.147674798965454,"5":0.7935780882835388,"6":1.0367127656936646,"7":0.02073625847697258,"8":-0.6011660695075989,"9":0.7275452017784119,"10":-1.1456410884857178,"11":-3.0631837844848633,"12":-0.5203297138214111,"13":-1.5887376070022583,"14":0.9291262030601501,"15":0.6983008980751038,"16":-3.27295184135437,"17":-0.05727763473987579,"18":0.7509625554084778,"19":1.1680084466934204,"20":2.2962088584899902,"21":4.674831390380859,"22":1.071098804473877,"23":-2.1362979412078857,"24":-1.5183007717132568,"25":-1.8438037633895874,"26":0.9055317044258118,"27":-1.340498924255371,"28":0.10891316086053848,"29":1.0124512910842896,"30":0.9710719585418701,"31":-4.214448928833008,"32":0.9596354961395264,"33":-1.4963127374649048,"34":1.188631534576416,"35":0.5251784920692444,"36":-0.7935769557952881,"37":-1.8233457803726196,"38":-4.77400541305542,"39":-0.5022650361061096,"40":2.223724842071533,"41":3.603243350982666,"42":1.5705710649490356,"43":-0.10786045342683792,"44":6.22303581237793,"45":3.3647522926330566,"46":-0.19129927456378937,"47":-2.8125905990600586,"48":-0.28357213735580444,"49":-2.4510083198547363,"50":-0.36505621671676636,"51":-0.373048335313797,"52":0.7262024879455566,"53":0.5811995267868042,"54":0.5156848430633545,"55":-5.246269226074219,"56":-2.334245443344116,"57":0.5317015647888184,"58":3.2312419414520264,"59":-2.497027635574341,"60":-2.187309980392456,"61":4.156229019165039,"62":1.1830463409423828,"63":0.5309149622917175,"64":-0.8188901543617249,"65":0.6861193180084229,"66":2.36330509185791,"67":2.9496071338653564,"68":0.8925039172172546,"69":1.7835843563079834,"70":1.9880125522613525,"71":0.14006957411766052,"72":0.6554665565490723,"73":-0.041456568986177444,"74":1.9135617017745972,"75":2.565492868423462,"76":-3.947734832763672,"77":-2.8136696815490723,"78":2.0765459537506104,"79":-2.12709641456604,"80":-3.8304431438446045,"81":-0.7290959358215332,"82":-4.483221530914307,"83":-1.1251134872436523,"84":-1.1629829406738281,"85":-1.6036498546600342,"86":-1.5968985557556152,"87":3.7364323139190674,"88":-0.6010215282440186,"89":0.8751878142356873,"90":-1.9051501750946045,"91":1.1084949970245361,"92":-2.910029888153076,"93":1.7604124546051025,"94":1.580805778503418,"95":-1.0348131656646729,"96":-0.9826527237892151,"97":2.483644723892212,"98":-0.18417732417583466,"99":-0.8142936825752258,"100":0.4054735600948334,"101":-0.4550073444843292,"102":0.7168030738830566,"103":6.82277774810791,"104":-0.7708243727684021,"105":2.007044553756714,"106":1.9837696552276611,"107":1.2833518981933594,"108":-0.35269099473953247,"109":0.08566369861364365,"110":0.4344902038574219,"111":0.69761723279953,"112":-1.4341825246810913,"113":-1.7400307655334473,"114":-3.1706831455230713,"115":-0.4681437611579895,"116":0.5839332342147827,"117":-0.5764255523681641,"118":-2.589810848236084,"119":-0.24430537223815918,"120":1.0147511959075928,"121":-2.255035161972046,"122":0.30442744493484497,"123":0.9939338564872742,"124":-2.933148145675659,"125":0.9310070276260376,"126":0.158354714512825,"127":2.609311580657959,"128":3.26692795753479,"129":1.5882264375686646,"130":-1.1075904369354248,"131":2.146179437637329,"132":2.833988904953003,"133":1.2377625703811646,"134":-0.8763638734817505,"135":-3.1564481258392334,"136":-1.2946255207061768,"137":1.1730568408966064,"138":-0.49743202328681946,"139":1.5120189189910889,"140":0.10023268312215805,"141":0.20781175792217255,"142":1.6958931684494019,"143":-0.8858192563056946,"144":-1.9155282974243164,"145":-0.5432643890380859,"146":1.8784358501434326,"147":1.0788140296936035,"148":-2.8341004848480225,"149":-0.8349335789680481,"150":2.6038196086883545,"151":-1.160515308380127,"152":-1.3391679525375366,"153":2.842775821685791,"154":-0.45365679264068604,"155":1.73926842212677,"156":3.025007486343384,"157":0.007726440671831369,"158":-0.10608822107315063,"159":1.1715176105499268,"160":2.8861231803894043,"161":3.8240106105804443,"162":2.6503474712371826,"163":3.7667055130004883,"164":-0.2725594937801361,"165":-0.2831847071647644,"166":-2.0869452953338623,"167":-2.0629961490631104,"168":0.03647787496447563,"169":-2.791069984436035,"170":-5.248715877532959,"171":3.8780462741851807,"172":-4.072426795959473,"173":-1.7216846942901611,"174":1.1475192308425903,"175":-1.9913057088851929,"176":0.6313642859458923,"177":-3.547459363937378,"178":-0.38529807329177856,"179":-1.0641402006149292,"180":4.15770959854126,"181":-1.1520946025848389,"182":-4.166739463806152,"183":1.4279781579971313,"184":-2.686695098876953,"185":-5.87515115737915,"186":4.574934005737305,"187":2.021589994430542,"188":-0.04399563744664192,"189":0.8051961660385132,"190":2.8185875415802,"191":-5.418400764465332,"192":0.7626631259918213,"193":2.3154852390289307,"194":-6.078404426574707,"195":2.5629658699035645,"196":2.7512898445129395,"197":0.055836718529462814,"198":1.057569980621338,"199":0.9499037265777588,"200":-0.17338360846042633,"201":0.47910329699516296,"202":0.5872510075569153,"203":0.4619222581386566,"204":1.7565832138061523,"205":-1.2137495279312134,"206":3.937382459640503,"207":-1.7509623765945435,"208":-0.6628468632698059,"209":-3.5200130939483643,"210":-0.14132104814052582,"211":0.3801615238189697,"212":-1.629429817199707,"213":2.467442750930786,"214":-3.4167048931121826,"215":1.0511534214019775,"216":-0.2207343429327011,"217":2.3766181468963623,"218":-0.43272095918655396,"219":0.781541645526886,"220":0.11597704887390137,"221":2.0803403854370117,"222":0.7920649647712708,"223":-1.6554101705551147,"224":0.5795883536338806,"225":-0.23356592655181885,"226":-3.795703411102295,"227":0.07212845981121063,"228":1.5000829696655273,"229":2.2478346824645996,"230":-2.0845232009887695,"231":0.08761107921600342,"232":0.8380721807479858,"233":-0.22065044939517975,"234":-3.928551197052002,"235":-0.08107859641313553,"236":3.6082897186279297,"237":1.4419620037078857,"238":1.7920520305633545,"239":-1.0226083993911743,"240":1.0381354093551636,"241":3.1038084030151367,"242":-1.3088613748550415,"243":-1.8615245819091797,"244":0.12737099826335907,"245":0.7262514233589172,"246":-2.568466901779175,"247":0.3146938979625702,"248":0.7621725797653198,"249":-0.834498405456543,"250":-2.4212896823883057,"251":1.5636087656021118,"252":-3.644747495651245,"253":-1.3423668146133423,"254":-0.8003707528114319,"255":-0.44745421409606934,"256":-1.5074396133422852,"257":0.2819100022315979,"258":1.9420883655548096,"259":-1.5810726881027222,"260":1.7299875020980835,"261":1.4752914905548096,"262":2.351972818374634,"263":-3.978295087814331,"264":0.5677478909492493,"265":-3.6722307205200195,"266":2.4814484119415283,"267":-1.0967243909835815,"268":-2.8571319580078125,"269":-4.337420463562012,"270":1.2456923723220825,"271":0.7626469731330872,"272":1.8486632108688354,"273":-0.30565133690834045,"274":0.7757322788238525,"275":-0.3589684069156647,"276":-0.6933327913284302,"277":-3.849050998687744,"278":0.017362726852297783,"279":0.4326620399951935,"280":1.3611836433410645,"281":3.4680166244506836,"282":0.2288220077753067,"283":5.964070796966553,"284":0.7158151268959045,"285":2.6384754180908203,"286":-0.3299581706523895,"287":0.20514215528964996,"288":0.7392329573631287,"289":1.009795069694519,"290":0.4799327552318573,"291":-2.1714885234832764,"292":0.5437161922454834,"293":0.3340166211128235,"294":6.124301433563232,"295":-0.6724886894226074,"296":0.5646693706512451,"297":-0.08260054141283035,"298":-3.388108491897583,"299":-1.3114968538284302,"300":0.09985191375017166,"301":-3.5345098972320557,"302":0.4558654725551605,"303":-4.476707935333252,"304":0.7448501586914062,"305":3.4718430042266846,"306":1.9616907835006714,"307":-1.9765971899032593,"308":0.1910018026828766,"309":0.008579328656196594,"310":0.6982081532478333,"311":-1.9667065143585205,"312":-1.6296725273132324,"313":0.14325596392154694,"314":-3.4147791862487793,"315":-2.864448070526123,"316":2.2291064262390137,"317":0.660350501537323,"318":-2.7337570190429688,"319":-1.1533479690551758,"320":-0.8119902610778809,"321":0.34777209162712097,"322":-3.035602569580078,"323":0.227615624666214,"324":2.4370570182800293,"325":0.2576272785663605,"326":1.3477997779846191,"327":-0.25513678789138794,"328":3.173163414001465,"329":2.2593212127685547,"330":-0.019095638766884804,"331":-7.274026870727539,"332":-2.3046624660491943,"333":1.5271137952804565,"334":2.7922487258911133,"335":0.3056633770465851,"336":-2.784006118774414,"337":-2.357793092727661,"338":-0.9827306866645813,"339":0.28320571780204773,"340":-2.863158941268921,"341":1.7019487619400024,"342":-4.784810543060303,"343":0.620184063911438,"344":-2.7144651412963867,"345":1.36221182346344,"346":-0.6899129152297974,"347":3.337148666381836,"348":-2.4606261253356934,"349":-2.770047664642334,"350":2.756044387817383,"351":0.8679772615432739,"352":-1.1017906665802002,"353":-5.733616828918457,"354":0.6176018714904785,"355":5.842047691345215,"356":2.050528049468994,"357":3.7710483074188232,"358":-1.1944146156311035,"359":2.1700174808502197,"360":-4.067820072174072,"361":-0.10515318810939789,"362":0.30174800753593445,"363":-2.0809826850891113,"364":-1.1391290426254272,"365":-1.3908920288085938,"366":4.284947395324707,"367":0.0005718281026929617,"368":-1.7651135921478271,"369":-3.1533243656158447,"370":0.28312069177627563,"371":0.8989381790161133,"372":-0.1974344551563263,"373":0.2489462047815323,"374":-0.5075318217277527,"375":0.6667940020561218,"376":1.7400544881820679,"377":1.5760656595230103,"378":2.135908365249634,"379":3.7900218963623047,"380":0.5267820358276367,"381":1.7430944442749023,"382":2.4057915210723877,"383":-1.318816065788269,"384":-2.1686089038848877,"385":2.7925424575805664,"386":1.168710470199585,"387":1.0015133619308472,"388":-0.0021199644543230534,"389":2.162099599838257,"390":-1.3876687288284302,"391":-1.0140910148620605,"392":-1.5749282836914062,"393":2.26273775100708,"394":1.116527795791626,"395":-2.6943626403808594,"396":-4.459430694580078,"397":4.209946155548096,"398":1.5425994396209717,"399":-2.0540778636932373,"400":-1.5591493844985962,"401":2.020498037338257,"402":-2.6271021366119385,"403":2.9943840503692627,"404":-1.1978172063827515,"405":1.4408639669418335,"406":0.19057929515838623,"407":1.40463387966156,"408":1.2112013101577759,"409":-1.2503318786621094,"410":0.34522542357444763,"411":3.3572752475738525,"412":0.17447122931480408,"413":-0.6596329212188721,"414":3.4888174533843994,"415":4.711899280548096,"416":-2.2667059898376465,"417":-3.086122512817383,"418":-2.521306276321411,"419":-1.4052417278289795,"420":-3.4406020641326904,"421":-0.18239140510559082,"422":4.108232498168945,"423":-2.2614893913269043,"424":4.6092729568481445,"425":-3.8005099296569824,"426":0.16902148723602295,"427":-1.0033024549484253,"428":-0.3977804183959961,"429":-4.020961761474609,"430":-5.1213459968566895,"431":-1.4142733812332153,"432":-2.372534990310669,"433":-5.588609218597412,"434":0.8027626276016235,"435":-0.7638833522796631,"436":0.6807231903076172,"437":-0.7642666697502136,"438":-2.128441095352173,"439":0.13377653062343597,"440":0.5612943172454834,"441":-2.8326728343963623,"442":1.6100395917892456,"443":-2.724067211151123,"444":-2.2838759422302246,"445":0.1171736791729927,"446":-0.8114683032035828,"447":-0.46693673729896545,"448":0.5654280185699463,"449":0.8016406893730164,"450":2.1342251300811768,"451":-0.074955515563488,"452":-2.2260661125183105,"453":-1.9099892377853394,"454":-3.723480463027954,"455":0.8777281641960144,"456":-0.26975613832473755,"457":-0.5953524708747864,"458":-0.6367506384849548,"459":1.3813740015029907,"460":-0.5808203220367432,"461":-2.5033822059631348,"462":1.0756033658981323,"463":0.763213574886322,"464":-1.7890961170196533,"465":-1.4503390789031982,"466":0.33576685190200806,"467":-6.55057954788208,"468":1.1430848836898804,"469":1.403437614440918,"470":-3.517141103744507,"471":-5.772983551025391,"472":-0.6692028641700745,"473":-4.8121795654296875,"474":1.6345289945602417,"475":4.950080394744873,"476":-5.351637840270996,"477":-2.6386396884918213,"478":3.502526044845581,"479":-4.092131614685059,"480":-6.891297340393066,"481":-1.4872225522994995,"482":2.100306272506714,"483":-1.6703977584838867,"484":-5.27383279800415,"485":1.1409168243408203,"486":-4.567684650421143,"487":-0.33111485838890076,"488":-5.395402431488037,"489":-1.1540923118591309,"490":-3.2254815101623535,"491":-0.1454656422138214,"492":4.0717668533325195,"493":-0.00649041635915637,"494":8.629122734069824,"495":4.778727054595947,"496":0.7356813549995422,"497":-4.854894161224365,"498":-2.9112708568573,"499":-0.4916253983974457,"500":2.759080171585083,"501":1.4679059982299805,"502":2.3745579719543457,"503":-0.2779027223587036,"504":0.7505092024803162,"505":0.09896286576986313,"506":-0.7192316055297852,"507":-4.402438640594482,"508":-1.613161563873291,"509":-2.3659563064575195,"510":0.052841510623693466,"511":0.7737813591957092,"512":-3.6466357707977295,"513":3.4631571769714355,"514":-1.6294978857040405,"515":-1.229833960533142,"516":0.35226166248321533,"517":0.41442054510116577,"518":-1.8116319179534912,"519":-1.2321416139602661,"520":-0.8170728087425232,"521":2.334428071975708,"522":-1.1119219064712524,"523":-1.3841649293899536,"524":-4.859308242797852,"525":-0.4498973488807678,"526":0.29041826725006104,"527":0.5148908495903015,"528":0.9314435720443726,"529":-2.2527308464050293,"530":1.8965085744857788,"531":0.948945164680481,"532":-0.7814836502075195,"533":-0.1549040824174881,"534":5.2676167488098145,"535":1.1246845722198486,"536":-0.33338218927383423,"537":-0.6664825081825256,"538":-0.21923227608203888,"539":-0.8978053331375122,"540":1.2459616661071777,"541":-2.023587465286255,"542":-1.8860273361206055,"543":-1.6792922019958496,"544":0.9272395372390747,"545":0.008534681983292103,"546":-0.3483140468597412,"547":-0.503611147403717,"548":-1.10662043094635,"549":0.6461809873580933,"550":-1.8088282346725464,"551":0.5998632311820984,"552":3.3672382831573486,"553":0.7467769980430603,"554":-0.10337633639574051,"555":0.9492019414901733,"556":2.64542818069458,"557":1.10429048538208,"558":3.622945547103882,"559":1.5085399150848389,"560":1.8016475439071655,"561":2.491488456726074,"562":2.2432971000671387,"563":0.2780907452106476,"564":2.3823373317718506,"565":2.3861002922058105,"566":-1.3906340599060059,"567":2.19850754737854,"568":2.6530983448028564,"569":0.05518312007188797,"570":-6.926089286804199,"571":3.7234067916870117,"572":1.816238522529602,"573":0.9954148530960083,"574":5.080857276916504,"575":-1.0605089664459229,"576":2.8356761932373047,"577":-1.326956868171692,"578":-4.79507303237915,"579":1.1875447034835815,"580":-2.346967935562134,"581":4.116119861602783,"582":-2.8094851970672607,"583":0.4538213610649109,"584":-1.015971064567566,"585":1.0099778175354004,"586":1.0563998222351074,"587":-1.6700586080551147,"588":-6.308161735534668,"589":1.1788512468338013,"590":-0.7428961396217346,"591":-0.19040270149707794,"592":-0.9218835830688477,"593":-0.8321875929832458,"594":-0.37686264514923096,"595":2.29809308052063,"596":2.210981607437134,"597":-0.4827542304992676,"598":-0.31897878646850586,"599":-1.3757150173187256,"600":-1.6134843826293945,"601":-2.370365619659424,"602":-4.187868595123291,"603":-3.050487518310547,"604":-0.712713897228241,"605":0.13273553550243378,"606":-0.2875642478466034,"607":-1.8549498319625854,"608":-1.1387799978256226,"609":-0.9136815071105957,"610":-1.5420030355453491,"611":-0.3748452663421631,"612":0.6876702904701233,"613":0.422989159822464,"614":0.8333532810211182,"615":-1.6912003755569458,"616":-0.05785014480352402,"617":0.7706969380378723,"618":3.5557076930999756,"619":-2.0576980113983154,"620":-0.41862115263938904,"621":-0.3481389284133911,"622":-1.5258939266204834,"623":-3.8612654209136963,"624":1.3575855493545532,"625":0.901017427444458,"626":0.6950560212135315,"627":1.5858268737792969,"628":-0.7392712831497192,"629":-3.254802942276001,"630":-4.418119430541992,"631":-1.8484550714492798,"632":1.7323437929153442,"633":-3.344646453857422,"634":0.23536357283592224,"635":-0.05695335566997528,"636":-0.12131655216217041,"637":5.676061153411865,"638":-2.0761799812316895,"639":2.5538902282714844,"640":1.201478123664856,"641":-2.543320655822754,"642":3.696199655532837,"643":-5.912809371948242,"644":0.19534853100776672,"645":-0.3665374219417572,"646":4.330613136291504,"647":-4.494383335113525,"648":7.418060779571533,"649":3.9115986824035645,"650":1.0650452375411987,"651":-2.0920417308807373,"652":-4.1717352867126465,"653":0.8190029859542847,"654":2.011536121368408,"655":3.6810672283172607,"656":1.949867844581604,"657":1.6472256183624268,"658":3.6560707092285156,"659":1.4096378087997437,"660":2.5210609436035156,"661":2.5070853233337402,"662":-1.527840256690979,"663":0.6592801809310913,"664":0.4623863697052002,"665":2.4786293506622314,"666":6.647189617156982,"667":-3.8118348121643066,"668":-0.1164313405752182,"669":1.502005934715271,"670":-0.609054446220398,"671":7.3241753578186035,"672":-0.14710500836372375,"673":0.7017422914505005,"674":1.1538939476013184,"675":-2.4256486892700195,"676":0.6611007452011108,"677":0.7984655499458313,"678":-1.770931363105774,"679":-2.8146729469299316,"680":0.9675599336624146,"681":-2.2064449787139893,"682":3.9931910037994385,"683":2.783069610595703,"684":1.8260548114776611,"685":-2.2429001331329346,"686":5.294984817504883,"687":-0.5091142058372498,"688":-0.6254181265830994,"689":-1.7392425537109375,"690":0.28896623849868774,"691":-3.2997913360595703,"692":0.4360113739967346,"693":0.7382907867431641,"694":5.318081855773926,"695":-0.26872286200523376,"696":2.286630868911743,"697":1.874022126197815,"698":-3.7239811420440674,"699":-0.3134133219718933,"700":4.156149864196777,"701":1.695955514907837,"702":-1.7106647491455078,"703":-0.9608496427536011,"704":-2.8632123470306396,"705":-0.42627501487731934,"706":4.761828422546387,"707":-2.158489227294922,"708":-6.9185943603515625,"709":-0.6500861048698425,"710":-4.443733215332031,"711":1.1950974464416504,"712":4.823988437652588,"713":3.3187897205352783,"714":0.864579439163208,"715":-4.971763610839844,"716":-3.019214630126953,"717":2.468932867050171,"718":1.229038119316101,"719":1.7112189531326294,"720":5.55911111831665,"721":1.1344175338745117,"722":-3.0305027961730957,"723":1.4050142765045166,"724":-5.149080753326416,"725":-2.486799955368042,"726":-2.362290382385254,"727":-4.366249084472656,"728":-1.611788272857666,"729":-2.3007571697235107,"730":-1.9016166925430298,"731":-3.381878614425659,"732":-0.5371968746185303,"733":-0.5878918766975403,"734":-2.896245002746582,"735":-0.7069872617721558,"736":-3.090117931365967,"737":0.13880103826522827,"738":3.790908098220825,"739":1.4592783451080322,"740":-0.025337979197502136,"741":0.2525487244129181,"742":-0.6891051530838013,"743":0.03125964477658272,"744":-0.39450109004974365,"745":-2.6329026222229004,"746":-0.48891356587409973,"747":2.254723310470581,"748":1.6622788906097412,"749":-0.455555260181427,"750":-0.3059833347797394,"751":-0.919110894203186,"752":-1.0077061653137207,"753":1.737198829650879,"754":4.449024200439453,"755":-1.981961727142334,"756":-0.06078283488750458,"757":2.7466156482696533,"758":2.589550733566284,"759":1.445380687713623,"760":0.01696247048676014,"761":1.9632741212844849,"762":1.3832809925079346,"763":0.035857561975717545,"764":1.6600110530853271,"765":-0.2633913457393646,"766":-0.21233993768692017,"767":-2.4470536708831787,"768":-2.2261037826538086,"769":1.0850456953048706,"770":0.8151417374610901,"771":1.4831043481826782,"772":-1.1411253213882446,"773":0.5095247626304626,"774":0.36620965600013733,"775":-1.2420685291290283,"776":0.06941820681095123,"777":4.174917221069336,"778":-0.7949584126472473,"779":-3.901890516281128,"780":0.800291121006012,"781":-2.1827714443206787,"782":-2.2382547855377197,"783":5.214946269989014,"784":-1.982141375541687,"785":-0.21602347493171692,"786":2.8639204502105713,"787":-0.9634758234024048,"788":-0.49955806136131287,"789":1.2063302993774414,"790":0.8635132312774658,"791":0.2221118062734604,"792":-0.6236093044281006,"793":0.06358473747968674,"794":-0.18524569272994995,"795":-0.6237590909004211,"796":3.0070924758911133,"797":1.5058035850524902,"798":2.3537540435791016,"799":0.7995187640190125,"800":-3.059425115585327,"801":1.0156166553497314,"802":-0.021783344447612762,"803":-0.8475931882858276,"804":-2.830291986465454,"805":-0.258608341217041,"806":4.469663619995117,"807":1.2887144088745117,"808":1.9634603261947632,"809":-1.0893386602401733,"810":2.294182538986206,"811":-0.3552662432193756,"812":0.8214035630226135,"813":2.1406280994415283,"814":-1.6118566989898682,"815":0.6889320015907288,"816":3.473615884780884,"817":1.4217298030853271,"818":-0.7318242788314819,"819":2.1982052326202393,"820":-0.6149134635925293,"821":2.86661958694458,"822":4.188629150390625,"823":-2.241903066635132,"824":1.7259330749511719,"825":1.9322662353515625,"826":-3.447141170501709,"827":-7.375051975250244,"828":-5.003071308135986,"829":0.886442244052887,"830":1.3790481090545654,"831":3.448763847351074,"832":-0.7172999382019043,"833":-3.1046571731567383,"834":-1.4316484928131104,"835":-3.7278013229370117,"836":0.3635402321815491,"837":-1.1724028587341309,"838":1.0773624181747437,"839":-6.166851997375488,"840":0.7202458381652832,"841":1.267441749572754,"842":-1.7636349201202393,"843":2.9584643840789795,"844":4.248666763305664,"845":-1.151261568069458,"846":0.24597200751304626,"847":2.6072049140930176,"848":-4.582361698150635,"849":-2.2282843589782715,"850":-0.7932795882225037,"851":-3.533967971801758,"852":-0.8188095688819885,"853":-0.9260502457618713,"854":3.0641541481018066,"855":-3.2970809936523438,"856":-1.6679823398590088,"857":-0.1797454059123993,"858":-4.978960990905762,"859":-0.704598605632782,"860":-1.7958673238754272,"861":1.274837851524353,"862":2.8417551517486572,"863":-1.38103449344635,"864":3.0217771530151367,"865":3.5568346977233887,"866":3.3394477367401123,"867":-3.010586977005005,"868":-1.6691656112670898,"869":0.8972820043563843,"870":0.3450169265270233,"871":-1.0641571283340454,"872":0.653021514415741,"873":-0.8431872129440308,"874":0.004458690993487835,"875":0.9905601143836975,"876":-0.4388263523578644,"877":0.4752008616924286,"878":-0.33100515604019165,"879":-0.03821033984422684,"880":-3.601864814758301,"881":-0.07968256622552872,"882":-0.07387196272611618,"883":3.1415138244628906,"884":-3.098119020462036,"885":3.355440139770508,"886":-0.421081006526947,"887":-0.835179328918457,"888":1.7839336395263672,"889":-1.0472625494003296,"890":1.174444556236267,"891":0.5220986008644104,"892":-0.7613657116889954,"893":-0.6180285811424255,"894":-0.25681227445602417,"895":0.11706513911485672,"896":-1.5383777618408203,"897":1.5678178071975708,"898":2.012547492980957,"899":2.2058305740356445,"900":-3.435065746307373,"901":-1.7737202644348145,"902":-0.1279144138097763,"903":1.2981846332550049,"904":0.3772926926612854,"905":5.649117946624756,"906":4.071931838989258,"907":0.8869303464889526,"908":-3.1872880458831787,"909":0.11979885399341583,"910":-3.989504814147949,"911":-1.3822590112686157,"912":-1.7162692546844482,"913":0.17632929980754852,"914":0.15432500839233398,"915":-1.2837008237838745,"916":-1.3608418703079224,"917":-1.565561294555664,"918":-0.414811372756958,"919":-0.22910507023334503,"920":-3.0791842937469482,"921":0.19214323163032532,"922":-6.624192714691162,"923":2.0807383060455322,"924":2.4832088947296143,"925":1.6593228578567505,"926":-0.7541995644569397,"927":-0.31550005078315735,"928":-0.4902401864528656,"929":-1.9202542304992676,"930":3.960660457611084,"931":3.7141544818878174,"932":-2.4719862937927246,"933":-2.9023759365081787,"934":-2.067291259765625,"935":4.009857654571533,"936":-3.217952013015747,"937":1.1736488342285156,"938":4.425027370452881,"939":-4.4259514808654785,"940":0.06181524693965912,"941":0.9581748247146606,"942":1.8316465616226196,"943":-2.9204862117767334,"944":-8.688000679016113,"945":-1.9780199527740479,"946":2.1104540824890137,"947":-0.5423096418380737,"948":-5.921676158905029,"949":4.148134708404541,"950":-1.47858726978302,"951":-1.9701977968215942,"952":0.617604672908783,"953":-0.05470661446452141,"954":0.24714350700378418,"955":1.5450091361999512,"956":-3.095682382583618,"957":-2.5024609565734863,"958":-1.162214994430542,"959":-0.9477282166481018,"960":2.1615617275238037,"961":-0.21199879050254822,"962":0.4875333607196808,"963":-0.7048227190971375,"964":-2.5035240650177,"965":-1.58919358253479,"966":0.3064500093460083,"967":0.8234254717826843,"968":0.5073568224906921,"969":-1.1323143243789673,"970":-1.5285625457763672,"971":-1.0154473781585693,"972":0.5155611038208008,"973":0.07416332513093948,"974":-0.04799027368426323,"975":-1.0050394535064697,"976":-0.12207859754562378,"977":4.152565956115723,"978":-4.358760356903076,"979":-0.9126018285751343,"980":0.841254711151123,"981":-4.34849214553833,"982":3.1819262504577637,"983":0.37425944209098816,"984":-0.05666675418615341,"985":1.3100191354751587,"986":-1.619264006614685,"987":-0.8180171251296997,"988":-0.03589368611574173,"989":2.3685896396636963,"990":-1.865220308303833,"991":-0.15432767570018768}},"hiddenLayers":[{"inputMatrix":{"rows":20,"columns":31,"weights":{"0":-2.0831644535064697,"1":4.223099708557129,"2":1.3527814149856567,"3":0.6269362568855286,"4":-0.2785501182079315,"5":-2.307295799255371,"6":-1.0554918050765991,"7":-0.6010491251945496,"8":1.356325387954712,"9":0.4655749201774597,"10":2.6829476356506348,"11":1.5023829936981201,"12":1.056835651397705,"13":3.254474639892578,"14":-0.38742679357528687,"15":0.6011746525764465,"16":-1.0807071924209595,"17":0.33266884088516235,"18":1.8471283912658691,"19":-2.2376601696014404,"20":-0.7131286263465881,"21":-1.2194172143936157,"22":-1.0447843074798584,"23":0.7881555557250977,"24":-1.92527174949646,"25":0.18291093409061432,"26":-1.773759126663208,"27":3.594684600830078,"28":-0.6540710926055908,"29":3.0288357734680176,"30":0.0305322352796793,"31":1.6801457405090332,"32":-1.3853563070297241,"33":-1.5329937934875488,"34":1.9775660037994385,"35":2.6100401878356934,"36":-1.5930441617965698,"37":-0.7711278796195984,"38":0.10065606981515884,"39":-1.1527149677276611,"40":2.783074378967285,"41":2.9383420944213867,"42":-1.5060971975326538,"43":0.23455052077770233,"44":1.2773141860961914,"45":-0.07793411612510681,"46":-0.6068617105484009,"47":-2.73486328125,"48":0.03504488989710808,"49":-1.1825578212738037,"50":-3.3765406608581543,"51":0.7476739287376404,"52":-2.5166282653808594,"53":0.8142046332359314,"54":-1.1148386001586914,"55":-3.7906136512756348,"56":0.9196080565452576,"57":2.077212333679199,"58":0.3015022277832031,"59":-2.410179615020752,"60":0.9347139000892639,"61":1.0234569311141968,"62":0.6890023946762085,"63":1.2992521524429321,"64":-1.8475821018218994,"65":-1.5379555225372314,"66":-1.7039600610733032,"67":2.7236008644104004,"68":1.151766061782837,"69":0.8347334861755371,"70":1.414773941040039,"71":-3.5468573570251465,"72":0.12632788717746735,"73":0.9071106314659119,"74":0.07833066582679749,"75":-1.2620187997817993,"76":-2.4900314807891846,"77":-1.6102238893508911,"78":2.1100804805755615,"79":0.48980316519737244,"80":-2.4355695247650146,"81":1.8132277727127075,"82":-1.6899312734603882,"83":-0.25414788722991943,"84":0.2614065408706665,"85":-0.05604353919625282,"86":0.6291695237159729,"87":0.8724486231803894,"88":0.44398680329322815,"89":-1.711592197418213,"90":1.5466350317001343,"91":1.3562971353530884,"92":-0.03592999652028084,"93":1.4075169563293457,"94":0.24184872210025787,"95":1.0522884130477905,"96":-1.3909350633621216,"97":0.30426910519599915,"98":0.8246694207191467,"99":-0.8210049271583557,"100":1.2016355991363525,"101":-1.2303308248519897,"102":0.19828186929225922,"103":-0.2763751149177551,"104":-0.5699941515922546,"105":2.2387521266937256,"106":-0.8315756320953369,"107":-2.8696532249450684,"108":-4.07853889465332,"109":-0.24441340565681458,"110":-3.266751289367676,"111":0.2542593777179718,"112":1.9332293272018433,"113":-1.6711431741714478,"114":-4.408560752868652,"115":-0.9619314670562744,"116":0.1396358758211136,"117":1.39347505569458,"118":-4.648703098297119,"119":-2.475578784942627,"120":0.9012723565101624,"121":-1.2245092391967773,"122":0.7426018118858337,"123":-0.4000183343887329,"124":0.6312083601951599,"125":2.0402345657348633,"126":0.6663469672203064,"127":-1.8299272060394287,"128":0.5449833273887634,"129":2.0380282402038574,"130":-0.6879579424858093,"131":-0.7827314138412476,"132":3.0270516872406006,"133":-3.1261098384857178,"134":-1.6121078729629517,"135":-0.12844441831111908,"136":0.13521908223628998,"137":-4.941542148590088,"138":-3.8455541133880615,"139":1.0877711772918701,"140":0.9497396349906921,"141":-1.692753553390503,"142":-3.235741376876831,"143":-0.4539310336112976,"144":0.9054012298583984,"145":-0.5536826252937317,"146":-1.2699555158615112,"147":0.516575276851654,"148":2.7824277877807617,"149":-0.6660780310630798,"150":-1.234475016593933,"151":0.2910064160823822,"152":1.177902102470398,"153":-0.634529173374176,"154":-1.4934359788894653,"155":0.42540308833122253,"156":3.361297130584717,"157":2.7365901470184326,"158":-0.9554526209831238,"159":0.5148549675941467,"160":-0.5758365988731384,"161":-2.2689549922943115,"162":2.150313138961792,"163":-1.363390564918518,"164":1.0731881856918335,"165":-1.4033288955688477,"166":0.5357935428619385,"167":-0.970835268497467,"168":-0.3074178993701935,"169":-0.07232164591550827,"170":3.0286035537719727,"171":0.1076856330037117,"172":2.7454617023468018,"173":0.42244136333465576,"174":3.1852192878723145,"175":0.02264147251844406,"176":-3.0070178508758545,"177":-2.2062149047851562,"178":1.1880649328231812,"179":1.718308448791504,"180":-3.613132953643799,"181":-2.384171962738037,"182":2.2577385902404785,"183":3.275442361831665,"184":-0.6881338357925415,"185":1.8002418279647827,"186":1.702176570892334,"187":-0.8340945839881897,"188":-0.2355138510465622,"189":-2.18508243560791,"190":-1.6673635244369507,"191":0.5244868993759155,"192":0.5023829936981201,"193":-0.4524066150188446,"194":-0.2987087368965149,"195":-1.6543056964874268,"196":-1.1249252557754517,"197":2.5477936267852783,"198":-0.6364118456840515,"199":-0.17737405002117157,"200":-0.07891286909580231,"201":-1.1796759366989136,"202":0.8100183606147766,"203":-0.14060091972351074,"204":-1.193375825881958,"205":3.3059098720550537,"206":-0.2576647996902466,"207":-2.1360561847686768,"208":1.171425700187683,"209":0.8017085194587708,"210":2.40771746635437,"211":-1.0215215682983398,"212":-0.9998584389686584,"213":-2.2664124965667725,"214":0.5774144530296326,"215":-0.9297571778297424,"216":1.0250284671783447,"217":-0.7584445476531982,"218":2.1361467838287354,"219":-2.9097647666931152,"220":2.867048740386963,"221":1.4241093397140503,"222":2.0308961868286133,"223":-2.09759259223938,"224":-0.020094867795705795,"225":0.8677598834037781,"226":1.4351320266723633,"227":3.2476565837860107,"228":-1.4421343803405762,"229":0.6017659902572632,"230":-0.20682567358016968,"231":-3.16898512840271,"232":-2.6291205883026123,"233":-2.1089749336242676,"234":1.1066986322402954,"235":-2.400216579437256,"236":-1.8213995695114136,"237":-0.7137421369552612,"238":-1.435401201248169,"239":0.007681015878915787,"240":-1.5103192329406738,"241":-1.3751729726791382,"242":-0.43681037425994873,"243":2.9711360931396484,"244":4.415983200073242,"245":-2.5001444816589355,"246":0.6670078039169312,"247":1.474630355834961,"248":-0.1853470355272293,"249":-0.6302147507667542,"250":-1.4545443058013916,"251":-0.8571012020111084,"252":-0.09203222393989563,"253":-1.183095097541809,"254":0.9149802923202515,"255":-0.4887421131134033,"256":-1.6549334526062012,"257":-1.152097225189209,"258":1.9068398475646973,"259":-2.6022493839263916,"260":-0.8885956406593323,"261":0.13873080909252167,"262":-0.1328110247850418,"263":1.7852568626403809,"264":-1.1705940961837769,"265":0.6628886461257935,"266":0.45816341042518616,"267":1.575469970703125,"268":1.7261186838150024,"269":-2.1304047107696533,"270":0.8281792998313904,"271":-2.2979769706726074,"272":-0.5917345881462097,"273":1.8166025876998901,"274":0.5886620879173279,"275":-0.864264726638794,"276":-2.2082998752593994,"277":2.1398086547851562,"278":0.015459354035556316,"279":-0.8259531855583191,"280":-3.0003840923309326,"281":0.9734405279159546,"282":0.37206050753593445,"283":1.0551139116287231,"284":2.1271982192993164,"285":0.4525989592075348,"286":0.07179976254701614,"287":0.43949201703071594,"288":3.2102158069610596,"289":2.139214515686035,"290":0.2940141260623932,"291":-1.3894059658050537,"292":1.6946399211883545,"293":0.5788894891738892,"294":3.188847541809082,"295":-2.5187153816223145,"296":2.251985788345337,"297":0.9362720847129822,"298":-1.5563583374023438,"299":0.6912843585014343,"300":1.488933801651001,"301":0.6318015456199646,"302":2.2239162921905518,"303":-2.783395290374756,"304":0.056279752403497696,"305":1.3312323093414307,"306":1.9070993661880493,"307":-3.602635145187378,"308":0.3631974756717682,"309":0.8154643177986145,"310":-3.7117602825164795,"311":-0.7385666370391846,"312":-2.8700246810913086,"313":1.4205217361450195,"314":-0.6217330098152161,"315":-1.155869722366333,"316":1.1266673803329468,"317":-1.4311364889144897,"318":-1.035790205001831,"319":0.8933442831039429,"320":-1.1030073165893555,"321":-2.1379973888397217,"322":-1.1945077180862427,"323":0.8925592303276062,"324":1.4488840103149414,"325":1.3324743509292603,"326":-0.6782851219177246,"327":1.6012685298919678,"328":-0.0378873385488987,"329":0.6645841002464294,"330":2.77372407913208,"331":-2.532782554626465,"332":1.595354676246643,"333":-1.7398179769515991,"334":-0.17741179466247559,"335":-0.4708802103996277,"336":0.5315278172492981,"337":2.080082416534424,"338":-1.5945768356323242,"339":-0.09401395171880722,"340":-1.3929460048675537,"341":2.1182174682617188,"342":-0.28144538402557373,"343":0.6351262331008911,"344":-0.6677364706993103,"345":-1.9109549522399902,"346":2.698951244354248,"347":-1.412217617034912,"348":0.1316106915473938,"349":1.9572741985321045,"350":-1.6219559907913208,"351":-0.6884713172912598,"352":0.6401124000549316,"353":0.11135104298591614,"354":-2.1290762424468994,"355":-1.864978551864624,"356":-0.7474102973937988,"357":3.496387243270874,"358":-0.6733788847923279,"359":-2.1105897426605225,"360":0.23031406104564667,"361":-1.6228094100952148,"362":2.808119773864746,"363":-1.479145884513855,"364":1.1461429595947266,"365":-0.5550795793533325,"366":0.35838863253593445,"367":-0.9261389374732971,"368":0.8276498913764954,"369":3.951939821243286,"370":-0.05247068777680397,"371":-0.3361347019672394,"372":-0.571765124797821,"373":-0.2993724048137665,"374":-1.977000117301941,"375":0.17815452814102173,"376":-0.6973406672477722,"377":-0.6036959290504456,"378":-1.7075144052505493,"379":-0.4948432445526123,"380":1.010546326637268,"381":-4.178403377532959,"382":0.0521269217133522,"383":-1.7535933256149292,"384":0.3783741891384125,"385":0.2449692189693451,"386":2.3692502975463867,"387":-2.077977180480957,"388":-0.15699049830436707,"389":-2.331817865371704,"390":1.7189316749572754,"391":1.4242559671401978,"392":-1.440053105354309,"393":-3.7536261081695557,"394":-0.7039749026298523,"395":-1.0693682432174683,"396":7.712569236755371,"397":-2.1930949687957764,"398":1.8012990951538086,"399":2.3202621936798096,"400":3.296149730682373,"401":-0.7596531510353088,"402":1.8732048273086548,"403":0.3805215656757355,"404":1.3968814611434937,"405":-0.5470881462097168,"406":-1.87980318069458,"407":1.6611989736557007,"408":2.0304014682769775,"409":0.046791158616542816,"410":-1.5674582719802856,"411":1.0485175848007202,"412":-2.2105414867401123,"413":-2.5874183177948,"414":-0.585308849811554,"415":2.076172351837158,"416":-3.2865078449249268,"417":-1.075480341911316,"418":-0.1499742567539215,"419":0.3466876745223999,"420":0.38713258504867554,"421":-1.770416498184204,"422":1.1505048274993896,"423":-0.8304105401039124,"424":2.2803232669830322,"425":-0.5441372990608215,"426":-1.0824835300445557,"427":1.6288014650344849,"428":-2.2721078395843506,"429":-1.2278236150741577,"430":-1.2712178230285645,"431":-0.07019844651222229,"432":-0.38045161962509155,"433":1.0108911991119385,"434":0.49573925137519836,"435":-1.964564561843872,"436":0.15142220258712769,"437":-1.457947850227356,"438":-1.2641721963882446,"439":-0.30708637833595276,"440":1.4044129848480225,"441":0.8051115870475769,"442":0.640025794506073,"443":-0.6470152735710144,"444":-0.4059157967567444,"445":0.3679257333278656,"446":-0.9213752746582031,"447":-0.14256541430950165,"448":-0.284313440322876,"449":0.7133226990699768,"450":0.08590817451477051,"451":-0.9182080030441284,"452":-1.0839083194732666,"453":-2.746821403503418,"454":0.5819746255874634,"455":0.22982801496982574,"456":-1.9558871984481812,"457":0.4916476011276245,"458":0.7407813668251038,"459":5.094577312469482,"460":-1.6151001453399658,"461":-0.24461284279823303,"462":0.25950905680656433,"463":-1.3966383934020996,"464":-1.5397261381149292,"465":-4.988234043121338,"466":-0.3178074061870575,"467":0.18982069194316864,"468":-1.0568687915802002,"469":-1.875993013381958,"470":-0.5507931709289551,"471":-1.7073023319244385,"472":-3.601933002471924,"473":-0.6396877765655518,"474":-0.35081759095191956,"475":-0.8836535215377808,"476":0.4723207652568817,"477":-0.7701776623725891,"478":-0.5443898439407349,"479":1.1246358156204224,"480":1.214966893196106,"481":0.485512375831604,"482":1.5347423553466797,"483":0.41992342472076416,"484":-0.10941309481859207,"485":0.10073718428611755,"486":1.4949394464492798,"487":2.215174436569214,"488":-0.33779287338256836,"489":1.0103615522384644,"490":-1.6744016408920288,"491":2.069730758666992,"492":1.1275981664657593,"493":1.296521782875061,"494":0.7769753336906433,"495":0.8763770461082458,"496":1.6153086423873901,"497":2.5858843326568604,"498":-1.0682286024093628,"499":-1.1466875076293945,"500":-0.5338611602783203,"501":0.5016236305236816,"502":-2.186258316040039,"503":-0.9585631489753723,"504":-1.530421495437622,"505":0.2372223287820816,"506":0.7806773781776428,"507":0.23463141918182373,"508":0.290372759103775,"509":-1.7842435836791992,"510":0.8252134323120117,"511":-2.812011957168579,"512":-0.7494343519210815,"513":-0.4154165983200073,"514":2.1248931884765625,"515":0.1529097557067871,"516":0.7587364315986633,"517":-1.1920620203018188,"518":-0.7829465866088867,"519":-0.41902968287467957,"520":5.744797706604004,"521":-1.0532094240188599,"522":0.2682959735393524,"523":0.8853561878204346,"524":0.31726592779159546,"525":-3.4548792839050293,"526":3.1366987228393555,"527":-1.5681965351104736,"528":0.575742244720459,"529":-0.9580991268157959,"530":-1.4161204099655151,"531":0.2195083051919937,"532":0.5412796139717102,"533":0.3167038559913635,"534":1.496545433998108,"535":3.2807319164276123,"536":-3.0168991088867188,"537":-3.457814931869507,"538":-1.395858883857727,"539":-1.170938491821289,"540":-2.0241811275482178,"541":0.34041428565979004,"542":1.2154027223587036,"543":-1.341493010520935,"544":1.03367280960083,"545":-2.6055495738983154,"546":-0.9075172543525696,"547":1.4347925186157227,"548":4.0026445388793945,"549":3.0834364891052246,"550":0.6031290888786316,"551":1.5999423265457153,"552":0.7786522507667542,"553":0.962630033493042,"554":-2.9441468715667725,"555":3.7880773544311523,"556":1.8852202892303467,"557":-1.1814711093902588,"558":2.3183553218841553,"559":-3.1144604682922363,"560":2.1757538318634033,"561":-0.4894466698169708,"562":0.9657453894615173,"563":-0.9962327480316162,"564":1.9318195581436157,"565":0.28854310512542725,"566":-0.8101975917816162,"567":0.4570562243461609,"568":1.515336275100708,"569":1.0553936958312988,"570":-2.8486082553863525,"571":1.0744866132736206,"572":1.0704792737960815,"573":0.568656325340271,"574":1.2350101470947266,"575":1.2861311435699463,"576":-0.6408511996269226,"577":-0.433807909488678,"578":-1.7853662967681885,"579":0.8193573355674744,"580":-0.7638785243034363,"581":-1.7253965139389038,"582":-0.7579469084739685,"583":1.0516438484191895,"584":0.1864059567451477,"585":-2.6241142749786377,"586":0.06359168887138367,"587":1.3270131349563599,"588":-4.151220321655273,"589":-1.1519646644592285,"590":-4.263225078582764,"591":-0.7500191926956177,"592":-0.9331719279289246,"593":-2.651440143585205,"594":-2.085824728012085,"595":-1.8299236297607422,"596":-0.6039093136787415,"597":-1.2847940921783447,"598":3.7408690452575684,"599":0.3200530409812927,"600":2.823937177658081,"601":1.796634554862976,"602":3.151852607727051,"603":2.2492573261260986,"604":0.2004939615726471,"605":-0.01963379606604576,"606":-0.7361806035041809,"607":1.417189359664917,"608":-2.2061057090759277,"609":2.377166509628296,"610":-2.0318307876586914,"611":1.3887953758239746,"612":0.5879036784172058,"613":0.8473851084709167,"614":-1.1308296918869019,"615":0.4211708903312683,"616":3.3534743785858154,"617":0.3529195785522461,"618":0.1283729523420334,"619":1.9670114517211914}},"inputHidden":{"rows":20,"columns":20,"weights":{"0":-3.430642604827881,"1":0.8118155598640442,"2":-2.060685634613037,"3":-3.026242733001709,"4":1.0510787963867188,"5":-1.3346271514892578,"6":0.29947832226753235,"7":-2.4358747005462646,"8":-4.561018943786621,"9":2.2382802963256836,"10":1.7673187255859375,"11":2.5750479698181152,"12":0.8731090426445007,"13":4.6787428855896,"14":-1.0164042711257935,"15":-0.877075731754303,"16":-7.388918399810791,"17":1.5953537225723267,"18":-2.195607900619507,"19":-0.785891056060791,"20":-3.343618869781494,"21":0.4766908884048462,"22":-0.425983190536499,"23":2.024909496307373,"24":1.8481101989746094,"25":0.959115743637085,"26":2.461512327194214,"27":-3.9782631397247314,"28":-3.7911813259124756,"29":0.6856642365455627,"30":-0.8314172625541687,"31":0.41352415084838867,"32":-1.0290310382843018,"33":-0.2880673408508301,"34":-1.3308848142623901,"35":2.3756930828094482,"36":0.6819911003112793,"37":2.739245891571045,"38":-0.02810155227780342,"39":0.9595004916191101,"40":-1.0577876567840576,"41":0.6207648515701294,"42":1.9106032848358154,"43":1.2753641605377197,"44":1.3125007152557373,"45":0.15428274869918823,"46":-4.124922752380371,"47":1.0059446096420288,"48":-1.7249839305877686,"49":2.8599257469177246,"50":0.32426807284355164,"51":1.2642955780029297,"52":-1.843724012374878,"53":2.824509382247925,"54":-1.8252549171447754,"55":3.111729383468628,"56":-1.2177965641021729,"57":1.167417287826538,"58":-0.014596987515687943,"59":-0.6736075282096863,"60":-1.7513519525527954,"61":0.8468571901321411,"62":2.807297706604004,"63":2.9850621223449707,"64":-1.5960737466812134,"65":-0.03485780954360962,"66":0.707831621170044,"67":-0.3357469439506531,"68":0.9853666424751282,"69":-1.269304633140564,"70":-1.1807783842086792,"71":1.1672030687332153,"72":-2.28932785987854,"73":-1.5369014739990234,"74":-1.090553641319275,"75":1.0749472379684448,"76":0.02571631409227848,"77":4.5654754638671875,"78":2.785550594329834,"79":0.8781211376190186,"80":-1.3853693008422852,"81":-3.431007146835327,"82":2.8911490440368652,"83":1.9256384372711182,"84":-3.8227646350860596,"85":-2.4253621101379395,"86":-0.47634148597717285,"87":1.815874457359314,"88":-0.3713781535625458,"89":-0.6544606685638428,"90":0.5362003445625305,"91":2.2439889907836914,"92":-2.14823055267334,"93":0.22498175501823425,"94":1.6731860637664795,"95":-2.2677524089813232,"96":0.17102038860321045,"97":-0.031135395169258118,"98":-0.3351610004901886,"99":-1.4306837320327759,"100":-3.456876516342163,"101":-1.3850785493850708,"102":2.6535942554473877,"103":1.5825448036193848,"104":-4.1322832107543945,"105":1.7015548944473267,"106":0.7718875408172607,"107":2.784637212753296,"108":-3.307673454284668,"109":0.1573842614889145,"110":-0.5675560832023621,"111":-0.888261616230011,"112":-2.6137564182281494,"113":0.06668917834758759,"114":2.1641807556152344,"115":2.471158742904663,"116":-1.9261913299560547,"117":-2.7017993927001953,"118":0.8096536993980408,"119":-1.2846087217330933,"120":-4.1816511154174805,"121":-6.034298419952393,"122":-3.9478304386138916,"123":2.616476058959961,"124":-0.3875282406806946,"125":0.3376799523830414,"126":-5.040182113647461,"127":1.4943417310714722,"128":1.258709192276001,"129":-4.449341297149658,"130":1.2103893756866455,"131":-3.663724184036255,"132":-1.320131778717041,"133":-1.1538856029510498,"134":4.053689002990723,"135":-4.244027137756348,"136":-2.739670515060425,"137":2.678636074066162,"138":0.6345766186714172,"139":4.589167594909668,"140":2.67459774017334,"141":-2.647838592529297,"142":-2.3645176887512207,"143":-0.6938492655754089,"144":2.0123651027679443,"145":-2.0635693073272705,"146":-0.8523794412612915,"147":2.8837640285491943,"148":-2.7739720344543457,"149":-1.1842819452285767,"150":-2.3433773517608643,"151":1.2054493427276611,"152":3.4260263442993164,"153":-0.9448701739311218,"154":-3.2047908306121826,"155":0.2608252167701721,"156":-5.896585941314697,"157":1.949218511581421,"158":5.72122859954834,"159":3.3293869495391846,"160":-3.1840615272521973,"161":-3.008279323577881,"162":-4.707942008972168,"163":-6.81139612197876,"164":3.959409236907959,"165":4.6472272872924805,"166":3.464998483657837,"167":5.233081817626953,"168":4.316044330596924,"169":-4.115494251251221,"170":3.163682699203491,"171":1.4496971368789673,"172":4.042644500732422,"173":0.12948991358280182,"174":3.0013182163238525,"175":-4.211856842041016,"176":0.6283202767372131,"177":-4.235118389129639,"178":-2.046511173248291,"179":1.6224967241287231,"180":-0.2663763761520386,"181":2.0402960777282715,"182":-1.3093146085739136,"183":-3.212416887283325,"184":-0.18474167585372925,"185":-0.864441454410553,"186":1.7722314596176147,"187":4.040228366851807,"188":-1.5151772499084473,"189":0.8269534111022949,"190":-0.04757941886782646,"191":-1.356091022491455,"192":5.098306179046631,"193":0.41073212027549744,"194":-4.447014808654785,"195":-3.196157455444336,"196":1.2481409311294556,"197":3.4665513038635254,"198":1.0612698793411255,"199":-1.0419338941574097,"200":2.0303397178649902,"201":-1.059916615486145,"202":-2.6531565189361572,"203":-0.398529589176178,"204":1.8293603658676147,"205":-2.447321653366089,"206":-0.07977329194545746,"207":-4.364654541015625,"208":6.104454040527344,"209":-0.10918702185153961,"210":1.8367650508880615,"211":-2.1472554206848145,"212":-1.931136965751648,"213":3.9512503147125244,"214":-2.5570716857910156,"215":0.07388050854206085,"216":-2.046877861022949,"217":-2.6741976737976074,"218":-3.4066028594970703,"219":-4.715121269226074,"220":-2.5667381286621094,"221":1.24246346950531,"222":-3.06660532951355,"223":2.782205820083618,"224":1.5916996002197266,"225":-2.266681671142578,"226":-1.5355037450790405,"227":0.7327790260314941,"228":1.517859697341919,"229":3.6755728721618652,"230":0.7727034091949463,"231":-4.2758307456970215,"232":-3.9590795040130615,"233":-2.3569328784942627,"234":-4.2164506912231445,"235":3.9035913944244385,"236":-0.026082459837198257,"237":0.4661123752593994,"238":2.5086822509765625,"239":-2.489781379699707,"240":0.5864229202270508,"241":-1.2386876344680786,"242":4.359315395355225,"243":-0.9707627892494202,"244":1.6669955253601074,"245":-1.1747716665267944,"246":-1.9120739698410034,"247":1.9649311304092407,"248":1.678891658782959,"249":-4.053189277648926,"250":1.4534276723861694,"251":3.8585283756256104,"252":-1.817460298538208,"253":2.5256175994873047,"254":3.3480494022369385,"255":4.512544631958008,"256":2.730057954788208,"257":0.5047968029975891,"258":-0.6194804906845093,"259":-2.2866556644439697,"260":2.114729166030884,"261":-3.100391149520874,"262":-1.4472991228103638,"263":0.291702538728714,"264":-2.12272310256958,"265":0.6200365424156189,"266":-3.523979902267456,"267":-3.8111305236816406,"268":2.2491819858551025,"269":-3.4877657890319824,"270":-2.193589448928833,"271":-5.884162425994873,"272":4.182160377502441,"273":-1.7436087131500244,"274":-3.9935081005096436,"275":3.9504334926605225,"276":-8.674046516418457,"277":0.9790464639663696,"278":-0.8750996589660645,"279":4.10666036605835,"280":1.6293835639953613,"281":0.2579759955406189,"282":2.584935188293457,"283":-0.5462949872016907,"284":-5.507757186889648,"285":0.2634611129760742,"286":5.384527206420898,"287":5.7308430671691895,"288":-1.0427669286727905,"289":-3.1976237297058105,"290":-2.425973892211914,"291":-0.8858044743537903,"292":6.553036689758301,"293":4.1095991134643555,"294":-2.2702629566192627,"295":2.1769938468933105,"296":-0.9896194934844971,"297":0.6815422177314758,"298":4.7809953689575195,"299":3.72526216506958,"300":-4.413772106170654,"301":3.7780356407165527,"302":-0.968962550163269,"303":-1.6249275207519531,"304":-0.2876445949077606,"305":-0.3437056243419647,"306":-0.7519655823707581,"307":-2.0404911041259766,"308":-3.070399284362793,"309":0.5363849997520447,"310":0.649800717830658,"311":3.0821142196655273,"312":-0.6314893960952759,"313":-1.0948699712753296,"314":1.2654153108596802,"315":-1.1847606897354126,"316":-6.386833190917969,"317":-1.1359905004501343,"318":0.6751033663749695,"319":-0.29061779379844666,"320":2.096855878829956,"321":1.0469043254852295,"322":-1.922538161277771,"323":0.49135664105415344,"324":4.043088912963867,"325":1.0108972787857056,"326":-4.713576793670654,"327":-4.876939296722412,"328":2.7959115505218506,"329":0.07141193002462387,"330":-2.2553234100341797,"331":-1.3180515766143799,"332":-1.4949836730957031,"333":1.0409414768218994,"334":3.668003797531128,"335":2.5984890460968018,"336":2.0797879695892334,"337":0.949890673160553,"338":1.56301748752594,"339":-4.276583194732666,"340":1.3914453983306885,"341":-1.5549601316452026,"342":-3.5970113277435303,"343":1.8366183042526245,"344":4.11323881149292,"345":-2.604719877243042,"346":-0.8590378165245056,"347":1.050283670425415,"348":1.9451831579208374,"349":0.3804645240306854,"350":-2.963712692260742,"351":-0.1391853243112564,"352":4.0835185050964355,"353":-1.8378125429153442,"354":-1.1855361461639404,"355":0.3730757534503937,"356":-1.3938356637954712,"357":-0.2694697678089142,"358":0.4304395616054535,"359":0.13435621559619904,"360":2.2427098751068115,"361":0.9118617177009583,"362":0.23894573748111725,"363":1.5921876430511475,"364":-0.0618303008377552,"365":0.5970087051391602,"366":3.331920862197876,"367":1.6609302759170532,"368":2.632439613342285,"369":2.079491138458252,"370":-1.1126995086669922,"371":2.5732200145721436,"372":3.161837100982666,"373":-4.235670566558838,"374":-0.24584488570690155,"375":3.465176582336426,"376":-1.0955910682678223,"377":2.771406412124634,"378":-1.679447054862976,"379":-2.985308885574341,"380":1.8852298259735107,"381":2.4608614444732666,"382":1.8438481092453003,"383":-1.2673004865646362,"384":0.5760346055030823,"385":1.9272825717926025,"386":-0.8059126734733582,"387":-2.5276777744293213,"388":-0.2988099157810211,"389":2.112277030944824,"390":1.487104058265686,"391":1.9536787271499634,"392":1.264245629310608,"393":2.3102853298187256,"394":2.4403135776519775,"395":0.3109147250652313,"396":-0.4181565046310425,"397":1.3285861015319824,"398":-0.9916936755180359,"399":-2.069622278213501}},"inputBias":{"rows":20,"columns":1,"weights":{"0":-1.8851792812347412,"1":-0.35115185379981995,"2":-0.502731442451477,"3":-0.07143501937389374,"4":-1.7641146183013916,"5":-2.1708309650421143,"6":-3.0022757053375244,"7":-1.0104303359985352,"8":-0.12405981123447418,"9":-0.10870583355426788,"10":-1.173982858657837,"11":-0.8313040733337402,"12":-0.15435165166854858,"13":-0.35405483841896057,"14":-2.3927366733551025,"15":-0.1679999977350235,"16":-1.3606798648834229,"17":0.7123546004295349,"18":-0.7936588525772095,"19":-2.2502927780151367}},"forgetMatrix":{"rows":20,"columns":31,"weights":{"0":-0.4532841444015503,"1":-1.0345475673675537,"2":0.4434951841831207,"3":-0.2686575949192047,"4":-0.41074803471565247,"5":1.043333888053894,"6":-1.7918742895126343,"7":-2.2572174072265625,"8":2.0374958515167236,"9":-0.4125365614891052,"10":1.5709866285324097,"11":2.722897529602051,"12":-0.6584483981132507,"13":-1.0611488819122314,"14":-0.14769987761974335,"15":2.552755117416382,"16":1.5992622375488281,"17":0.9154363870620728,"18":0.17817282676696777,"19":2.8182544708251953,"20":1.0750985145568848,"21":3.349392890930176,"22":0.8332830667495728,"23":2.4601974487304688,"24":0.15449543297290802,"25":-0.5265733003616333,"26":-2.6520578861236572,"27":-0.5550578832626343,"28":-1.2374013662338257,"29":0.06411439180374146,"30":0.01769334264099598,"31":0.14530202746391296,"32":-0.30372628569602966,"33":-1.0921614170074463,"34":-1.6521897315979004,"35":0.9690312743186951,"36":0.44809839129447937,"37":3.3447654247283936,"38":0.2931882441043854,"39":2.4446969032287598,"40":-1.0139399766921997,"41":-1.4235999584197998,"42":-0.8615125417709351,"43":0.21225474774837494,"44":-2.328030586242676,"45":-1.1901274919509888,"46":-0.11666568368673325,"47":-1.9499917030334473,"48":-0.16141094267368317,"49":-1.5031828880310059,"50":-4.61871337890625,"51":0.07688550651073456,"52":0.9277707934379578,"53":3.1302602291107178,"54":0.022428276017308235,"55":-3.5306379795074463,"56":4.074197769165039,"57":1.4359455108642578,"58":-3.4529950618743896,"59":1.5373477935791016,"60":2.0779764652252197,"61":-1.2148836851119995,"62":0.5727986693382263,"63":-0.19423502683639526,"64":-1.8604604005813599,"65":2.6738393306732178,"66":-0.2519749104976654,"67":-0.46181240677833557,"68":-0.9250757098197937,"69":-0.3044159412384033,"70":-0.196507066488266,"71":5.367251396179199,"72":0.4658209979534149,"73":-1.6032077074050903,"74":-0.8174963593482971,"75":0.4512849450111389,"76":0.8592779636383057,"77":-1.5114398002624512,"78":-3.6559064388275146,"79":3.5824456214904785,"80":1.342977523803711,"81":-1.05702543258667,"82":-0.7692395448684692,"83":-0.7584034204483032,"84":-1.9883716106414795,"85":-0.47681406140327454,"86":-2.128169059753418,"87":0.9258904457092285,"88":0.2003444880247116,"89":2.552218198776245,"90":1.4971343278884888,"91":2.4046452045440674,"92":-0.44144970178604126,"93":2.5835061073303223,"94":0.12611570954322815,"95":0.8279579281806946,"96":2.6063568592071533,"97":0.6049601435661316,"98":-0.4686564803123474,"99":-0.7933165431022644,"100":-2.4599571228027344,"101":-2.0333287715911865,"102":1.6135919094085693,"103":3.031493663787842,"104":2.2309672832489014,"105":-0.05989193171262741,"106":1.6321260929107666,"107":2.026601552963257,"108":0.736380398273468,"109":0.3437095880508423,"110":-0.5110939741134644,"111":3.5032997131347656,"112":0.7577687501907349,"113":2.727715253829956,"114":0.6204356551170349,"115":-4.036931991577148,"116":2.2795324325561523,"117":0.7277994751930237,"118":-0.5316458344459534,"119":-0.9420921206474304,"120":-1.5122525691986084,"121":-2.3339855670928955,"122":-4.138291358947754,"123":1.0728312730789185,"124":-2.632307291030884,"125":-0.8026412725448608,"126":0.6427055597305298,"127":-2.083815813064575,"128":0.4382254183292389,"129":2.670955181121826,"130":-1.2103959321975708,"131":-0.6650146842002869,"132":0.45570340752601624,"133":1.5624768733978271,"134":0.14585763216018677,"135":1.17551589012146,"136":-0.7071526050567627,"137":-1.542229413986206,"138":2.7960572242736816,"139":5.018193244934082,"140":0.40434134006500244,"141":0.5589849948883057,"142":-2.559149980545044,"143":2.3474977016448975,"144":-0.26568445563316345,"145":3.587379217147827,"146":1.8247942924499512,"147":1.4928385019302368,"148":0.019221177324652672,"149":-1.6849852800369263,"150":0.6491974592208862,"151":-4.416378974914551,"152":-0.33707430958747864,"153":-1.469375729560852,"154":-0.9002321362495422,"155":-0.7382517457008362,"156":-1.226281762123108,"157":-1.4285526275634766,"158":2.3763222694396973,"159":-1.653883934020996,"160":-1.4843138456344604,"161":-1.7751879692077637,"162":-1.1959751844406128,"163":-1.4387972354888916,"164":1.9463828802108765,"165":1.990586519241333,"166":-1.3902318477630615,"167":1.2726025581359863,"168":1.681872844696045,"169":0.3181901276111603,"170":-0.5457146763801575,"171":1.2260267734527588,"172":0.043388932943344116,"173":2.128624200820923,"174":-0.7282267212867737,"175":1.6488770246505737,"176":-0.8972243666648865,"177":-1.757994532585144,"178":-0.10921380668878555,"179":0.25662678480148315,"180":1.0390011072158813,"181":-0.005004000384360552,"182":1.9904690980911255,"183":-0.17240484058856964,"184":0.020815787836909294,"185":1.1382485628128052,"186":-1.9933489561080933,"187":1.6846305131912231,"188":2.8303160667419434,"189":2.561771869659424,"190":0.3923206627368927,"191":1.0659693479537964,"192":-0.3204924166202545,"193":0.30127033591270447,"194":1.6138745546340942,"195":-0.9265392422676086,"196":-0.037566687911748886,"197":1.9903161525726318,"198":-1.4103813171386719,"199":2.2597641944885254,"200":0.3042765259742737,"201":1.635097622871399,"202":-2.2265007495880127,"203":1.5725868940353394,"204":-0.00412646634504199,"205":2.1574833393096924,"206":2.348926305770874,"207":1.2186356782913208,"208":1.5569430589675903,"209":2.2501704692840576,"210":-1.0727571249008179,"211":-2.2683115005493164,"212":3.502209186553955,"213":0.1667037010192871,"214":-2.3856911659240723,"215":-0.6233740448951721,"216":-1.7233070135116577,"217":0.01042079459875822,"218":-0.2687152922153473,"219":0.21884018182754517,"220":0.04423822462558746,"221":1.926866888999939,"222":-0.5909692645072937,"223":1.1013708114624023,"224":2.280172348022461,"225":1.5478534698486328,"226":-0.7261536121368408,"227":-0.7289348244667053,"228":-1.407495141029358,"229":1.3715437650680542,"230":-0.40721964836120605,"231":-1.2926267385482788,"232":0.681818962097168,"233":-0.09559648483991623,"234":2.3625481128692627,"235":-1.7822784185409546,"236":-3.604639768600464,"237":-2.149779796600342,"238":-0.7721108794212341,"239":2.181582450866699,"240":-0.70094233751297,"241":-2.22951078414917,"242":0.18991830945014954,"243":-0.311422735452652,"244":2.7238357067108154,"245":0.0281347818672657,"246":3.502366542816162,"247":-1.2382009029388428,"248":-0.11236833035945892,"249":-2.581251859664917,"250":-2.421287775039673,"251":0.35474053025245667,"252":0.802092432975769,"253":0.10527295619249344,"254":0.9058099389076233,"255":0.22972750663757324,"256":0.1455029398202896,"257":1.106431007385254,"258":3.660503387451172,"259":-1.3002849817276,"260":0.3110314607620239,"261":0.9400734901428223,"262":0.9036564826965332,"263":-0.7948880791664124,"264":-1.9557017087936401,"265":0.3724712133407593,"266":0.9318752288818359,"267":-3.108632802963257,"268":1.6164324283599854,"269":-0.18795117735862732,"270":3.0894055366516113,"271":-1.0156629085540771,"272":-1.9862631559371948,"273":2.705472230911255,"274":2.3374459743499756,"275":-0.019062699750065804,"276":-1.9080475568771362,"277":1.4790173768997192,"278":-0.5515540838241577,"279":-0.7255568504333496,"280":-1.6676708459854126,"281":1.6021672487258911,"282":-0.805330753326416,"283":-2.774466037750244,"284":-0.30055132508277893,"285":3.390852689743042,"286":-2.895026683807373,"287":-1.4196525812149048,"288":2.015258550643921,"289":3.1558401584625244,"290":1.1110502481460571,"291":-2.2392807006835938,"292":4.914526462554932,"293":1.4822698831558228,"294":0.21498508751392365,"295":0.36693471670150757,"296":-0.160628080368042,"297":0.21935585141181946,"298":-1.5298124551773071,"299":0.24615761637687683,"300":0.543368399143219,"301":-1.6876636743545532,"302":-1.5317496061325073,"303":-0.7782644629478455,"304":4.17402458190918,"305":0.002939080586656928,"306":0.2701910436153412,"307":-2.0177128314971924,"308":-1.7604044675827026,"309":-1.7600409984588623,"310":0.1580035239458084,"311":1.6630208492279053,"312":-0.14007368683815002,"313":0.3661123514175415,"314":2.8357324600219727,"315":-0.37077781558036804,"316":-0.19601775705814362,"317":1.7169297933578491,"318":1.4772487878799438,"319":1.2925306558609009,"320":1.941611409187317,"321":-0.30952420830726624,"322":-2.072801113128662,"323":2.100206136703491,"324":-1.283185601234436,"325":-0.08106010407209396,"326":-1.9342561960220337,"327":2.1299452781677246,"328":-0.6775636672973633,"329":-2.0128746032714844,"330":0.06811823695898056,"331":1.0505719184875488,"332":-1.7723016738891602,"333":0.6032181978225708,"334":-0.6689134836196899,"335":1.8006278276443481,"336":2.112764596939087,"337":1.5630462169647217,"338":-0.442719429731369,"339":1.3561455011367798,"340":1.0677258968353271,"341":0.5553953647613525,"342":-0.9387956857681274,"343":-0.41156381368637085,"344":1.7351179122924805,"345":0.7541266679763794,"346":-0.8878111243247986,"347":-0.011894199065864086,"348":0.029524514451622963,"349":-1.4574623107910156,"350":2.2407143115997314,"351":2.3863332271575928,"352":-0.4451145827770233,"353":0.33424946665763855,"354":0.761404275894165,"355":-1.2487056255340576,"356":-0.2550913989543915,"357":-1.3792028427124023,"358":-0.27892324328422546,"359":0.058735985308885574,"360":-1.6702837944030762,"361":0.1472375988960266,"362":-2.1150805950164795,"363":-0.035601165145635605,"364":0.8983973860740662,"365":-2.3164544105529785,"366":-0.20250608026981354,"367":2.7876923084259033,"368":3.10233211517334,"369":-1.630832552909851,"370":-0.0564696229994297,"371":-1.3138936758041382,"372":0.5390065908432007,"373":-1.3017094135284424,"374":-0.659381091594696,"375":-0.5718321204185486,"376":3.505737781524658,"377":-0.12919026613235474,"378":-0.42342862486839294,"379":3.7102909088134766,"380":0.9045458436012268,"381":4.726933002471924,"382":-0.020638607442378998,"383":-1.4991774559020996,"384":0.7158817648887634,"385":-1.0492637157440186,"386":-2.6173486709594727,"387":-0.7070266604423523,"388":-1.4762775897979736,"389":2.7400853633880615,"390":-2.8003084659576416,"391":0.7381400465965271,"392":0.20484544336795807,"393":-2.916995048522949,"394":-1.3413258790969849,"395":-3.544978380203247,"396":-1.9353969097137451,"397":1.6609762907028198,"398":-1.8768644332885742,"399":2.32096529006958,"400":0.2679016888141632,"401":2.408325672149658,"402":-2.713364362716675,"403":-0.6971450448036194,"404":-2.844205379486084,"405":0.48328346014022827,"406":2.217150926589966,"407":0.8856697082519531,"408":-1.9018915891647339,"409":-1.8487730026245117,"410":-0.2289496511220932,"411":-0.37859633564949036,"412":0.462018758058548,"413":0.014319016598165035,"414":1.632565975189209,"415":-3.7267520427703857,"416":3.8189544677734375,"417":0.12389971315860748,"418":0.5460782647132874,"419":-2.1127967834472656,"420":0.7726053595542908,"421":0.9683395624160767,"422":-0.1448211520910263,"423":0.5637109875679016,"424":-1.202298879623413,"425":0.6848719716072083,"426":0.3375743329524994,"427":-1.9922508001327515,"428":1.2817741632461548,"429":3.08746337890625,"430":1.1764222383499146,"431":-1.651500940322876,"432":0.9961369037628174,"433":-1.1543549299240112,"434":6.342772960662842,"435":0.30872273445129395,"436":0.26921215653419495,"437":-1.7642284631729126,"438":2.8806583881378174,"439":0.9338642954826355,"440":-0.31131109595298767,"441":0.19337065517902374,"442":1.243003249168396,"443":1.7428805828094482,"444":0.905709981918335,"445":-0.6544820070266724,"446":2.223989725112915,"447":-0.9587234854698181,"448":-3.328902244567871,"449":0.3887176215648651,"450":-1.6495801210403442,"451":-3.59891676902771,"452":0.5470179319381714,"453":0.2190084308385849,"454":1.648245930671692,"455":-2.015387535095215,"456":-3.8247737884521484,"457":0.30278685688972473,"458":-1.5660091638565063,"459":-1.832600474357605,"460":-0.7659313082695007,"461":0.04878666251897812,"462":-1.3387974500656128,"463":-0.8172595500946045,"464":-2.270892858505249,"465":-1.2179092168807983,"466":-1.2086553573608398,"467":-2.2232680320739746,"468":0.7851662635803223,"469":-0.19470350444316864,"470":-2.6926164627075195,"471":-2.3130805492401123,"472":-1.9387025833129883,"473":-2.1366422176361084,"474":2.1342999935150146,"475":0.4021206796169281,"476":-0.03145254775881767,"477":-0.8789588809013367,"478":2.424962043762207,"479":2.593646764755249,"480":1.3747588396072388,"481":-0.11657672375440598,"482":1.9002466201782227,"483":1.1785240173339844,"484":-0.942391037940979,"485":0.05016177147626877,"486":0.6515429019927979,"487":-0.6939901113510132,"488":1.1968549489974976,"489":-0.3405117094516754,"490":0.18619436025619507,"491":-0.45866844058036804,"492":2.2185122966766357,"493":0.7168417572975159,"494":1.2866181135177612,"495":1.7093061208724976,"496":2.0457870960235596,"497":-0.0029739560559391975,"498":0.22445642948150635,"499":-0.5156214833259583,"500":2.6966395378112793,"501":-0.8984463214874268,"502":0.991366446018219,"503":-1.6146156787872314,"504":-0.34494906663894653,"505":-1.1883941888809204,"506":2.0586159229278564,"507":-0.4695293605327606,"508":0.24497583508491516,"509":-0.8905449509620667,"510":-0.4604869782924652,"511":0.28627556562423706,"512":-2.4308512210845947,"513":1.183968424797058,"514":1.5264019966125488,"515":-0.43675747513771057,"516":1.5189509391784668,"517":-2.0679306983947754,"518":-2.3893871307373047,"519":-1.4333473443984985,"520":3.6906955242156982,"521":2.2753634452819824,"522":1.535502314567566,"523":1.1390403509140015,"524":0.9620680212974548,"525":-0.6989355087280273,"526":1.3925979137420654,"527":-3.4877586364746094,"528":-3.8145079612731934,"529":-4.165873050689697,"530":1.0170866250991821,"531":-0.699965238571167,"532":-6.317534923553467,"533":0.08532103151082993,"534":-1.1075078248977661,"535":-1.7972420454025269,"536":2.589667797088623,"537":2.434534788131714,"538":-1.217732548713684,"539":0.8876459002494812,"540":1.5364000797271729,"541":2.1967685222625732,"542":-2.3262228965759277,"543":-1.3950687646865845,"544":0.8953223824501038,"545":1.29893159866333,"546":-1.9476022720336914,"547":1.2437381744384766,"548":-0.4709274470806122,"549":0.657047688961029,"550":-2.233027935028076,"551":1.9473676681518555,"552":1.7481751441955566,"553":-0.9434100985527039,"554":0.8917140960693359,"555":-1.5905674695968628,"556":-1.6102348566055298,"557":-1.2188493013381958,"558":1.1711350679397583,"559":-0.7321024537086487,"560":-1.0837234258651733,"561":3.086491346359253,"562":-0.2931481897830963,"563":0.15710435807704926,"564":-0.7541242837905884,"565":-0.4661305248737335,"566":-1.555909276008606,"567":2.064995050430298,"568":3.7845380306243896,"569":-3.6216189861297607,"570":-1.3364124298095703,"571":1.4874958992004395,"572":-1.760944128036499,"573":0.008145342580974102,"574":-3.234285354614258,"575":1.5427905321121216,"576":0.7828783392906189,"577":-2.594558000564575,"578":1.0054720640182495,"579":-1.4177148342132568,"580":2.731569528579712,"581":-1.8222721815109253,"582":-1.963226079940796,"583":1.3219996690750122,"584":3.925297975540161,"585":3.2325804233551025,"586":-1.6642435789108276,"587":-2.4437949657440186,"588":-0.32793259620666504,"589":-1.5749986171722412,"590":-1.148684024810791,"591":-1.6178381443023682,"592":1.4310641288757324,"593":0.13176603615283966,"594":2.061183452606201,"595":3.6299145221710205,"596":2.5347652435302734,"597":0.7127549648284912,"598":-1.7295726537704468,"599":-3.131706714630127,"600":-4.7780866622924805,"601":0.7199471592903137,"602":-0.9624853134155273,"603":0.5196667909622192,"604":1.434099793434143,"605":-2.598196268081665,"606":-1.3706835508346558,"607":-0.6736961007118225,"608":0.07476802170276642,"609":-1.6693967580795288,"610":-0.5171904563903809,"611":-0.38934049010276794,"612":-2.1909995079040527,"613":0.15542995929718018,"614":1.6085631847381592,"615":2.3855671882629395,"616":-0.8663392066955566,"617":-0.2929995059967041,"618":0.5679795145988464,"619":0.08010115474462509}},"forgetHidden":{"rows":20,"columns":20,"weights":{"0":-1.023160457611084,"1":2.72247576713562,"2":0.35632312297821045,"3":2.039607524871826,"4":1.2476221323013306,"5":-0.8439684510231018,"6":0.9695969820022583,"7":0.13922424614429474,"8":-2.5710694789886475,"9":2.0145368576049805,"10":-0.8218024969100952,"11":-0.9287946820259094,"12":0.8947919607162476,"13":-2.1700239181518555,"14":-1.7244244813919067,"15":-1.053995132446289,"16":-1.776715636253357,"17":1.686786413192749,"18":1.8147085905075073,"19":-1.0052831172943115,"20":5.287156581878662,"21":0.3295381963253021,"22":-0.20673051476478577,"23":3.2642924785614014,"24":1.3654476404190063,"25":1.5829030275344849,"26":3.9707987308502197,"27":1.5694738626480103,"28":-0.757785975933075,"29":2.4606516361236572,"30":1.0846437215805054,"31":0.03589020296931267,"32":4.158041000366211,"33":1.4017020463943481,"34":1.5761293172836304,"35":0.873243510723114,"36":-2.400475025177002,"37":5.152660369873047,"38":-0.09222128987312317,"39":2.8812952041625977,"40":-0.6836966872215271,"41":-1.8915376663208008,"42":-0.03191438317298889,"43":2.5766148567199707,"44":2.532729387283325,"45":0.42651355266571045,"46":1.7916738986968994,"47":2.368818521499634,"48":-0.42110803723335266,"49":0.033488936722278595,"50":1.3633177280426025,"51":-2.8428404331207275,"52":1.5581125020980835,"53":2.498873233795166,"54":0.22677771747112274,"55":0.37909185886383057,"56":0.2085370570421219,"57":-0.4387798607349396,"58":-0.3787093460559845,"59":2.2884280681610107,"60":0.8940526843070984,"61":-2.0146615505218506,"62":-2.439479351043701,"63":0.09074725955724716,"64":-0.3672035038471222,"65":2.831102132797241,"66":5.1190409660339355,"67":0.32064130902290344,"68":-0.6132304072380066,"69":1.5035271644592285,"70":1.1036641597747803,"71":-0.3134673535823822,"72":-0.6069689393043518,"73":0.24070949852466583,"74":-0.13119088113307953,"75":-0.2596047818660736,"76":0.1181696355342865,"77":-1.5512820482254028,"78":-2.5275778770446777,"79":-0.5321406722068787,"80":-1.521011471748352,"81":2.1305720806121826,"82":-0.8303770422935486,"83":-1.0644255876541138,"84":-0.2400951385498047,"85":-2.21517276763916,"86":0.7811723351478577,"87":-0.867771327495575,"88":-0.3680926561355591,"89":1.3085078001022339,"90":-3.1927740573883057,"91":-1.9432880878448486,"92":0.9634786248207092,"93":-0.3971234858036041,"94":-1.8578176498413086,"95":-0.7885571718215942,"96":0.4253910481929779,"97":1.6694668531417847,"98":0.559049129486084,"99":1.296504259109497,"100":0.7627023458480835,"101":-0.4401141107082367,"102":1.6475751399993896,"103":-0.6113321185112,"104":-0.5060974955558777,"105":0.6076563596725464,"106":0.06194624677300453,"107":0.2775290012359619,"108":0.4612363278865814,"109":1.8336607217788696,"110":-0.30305400490760803,"111":1.6073445081710815,"112":0.45874834060668945,"113":3.5416202545166016,"114":-0.4939329922199249,"115":-1.363558292388916,"116":-2.3214590549468994,"117":-2.292017936706543,"118":-1.8596665859222412,"119":-3.3441781997680664,"120":-1.2401201725006104,"121":1.2099794149398804,"122":1.5474427938461304,"123":1.940475344657898,"124":-2.5378501415252686,"125":0.41923898458480835,"126":0.5195814967155457,"127":1.2140330076217651,"128":-0.4159339368343353,"129":-1.9878190755844116,"130":4.760531425476074,"131":2.146247386932373,"132":-0.33553799986839294,"133":1.3203437328338623,"134":-1.8484054803848267,"135":4.977996826171875,"136":-2.8638017177581787,"137":4.05437707901001,"138":0.6500707864761353,"139":4.9681396484375,"140":0.869586706161499,"141":-1.7517070770263672,"142":-1.5073214769363403,"143":0.5282080769538879,"144":-0.9419124126434326,"145":-0.22816088795661926,"146":2.8932392597198486,"147":2.340702533721924,"148":0.323637992143631,"149":-0.9011073112487793,"150":-0.28690287470817566,"151":-0.01689635030925274,"152":1.285852313041687,"153":-0.05174674466252327,"154":1.8626266717910767,"155":-0.23713591694831848,"156":-1.7009191513061523,"157":0.5622796416282654,"158":1.2380943298339844,"159":2.083742141723633,"160":-0.5065820217132568,"161":1.39766526222229,"162":0.1896153688430786,"163":-0.7373011112213135,"164":0.08548631519079208,"165":1.5263937711715698,"166":1.6720755100250244,"167":-0.2158527821302414,"168":-0.8982933163642883,"169":1.1011712551116943,"170":0.20802004635334015,"171":-0.6941143870353699,"172":1.5312706232070923,"173":0.9541995525360107,"174":-2.6286463737487793,"175":-0.7976095080375671,"176":-0.6532007455825806,"177":2.1910033226013184,"178":0.43591949343681335,"179":0.4138028919696808,"180":10.816225051879883,"181":-2.462259292602539,"182":4.688466548919678,"183":2.2616324424743652,"184":-0.08844892680644989,"185":-2.9736602306365967,"186":-0.23632627725601196,"187":-3.933350086212158,"188":1.6843957901000977,"189":1.2610743045806885,"190":-2.1074042320251465,"191":-1.100377082824707,"192":-1.4955798387527466,"193":-0.5872454047203064,"194":-0.8259990811347961,"195":1.5549724102020264,"196":0.04145229235291481,"197":-1.4372360706329346,"198":-0.38405007123947144,"199":3.360630750656128,"200":3.070880889892578,"201":0.8772069811820984,"202":-1.9152733087539673,"203":1.3780828714370728,"204":2.355945587158203,"205":1.5402928590774536,"206":1.45281982421875,"207":-0.9691236615180969,"208":2.0360593795776367,"209":4.957150936126709,"210":1.9906423091888428,"211":-0.5007908940315247,"212":2.2264504432678223,"213":-2.6462488174438477,"214":1.038251280784607,"215":1.3419842720031738,"216":-0.06912510097026825,"217":-2.232276439666748,"218":0.9194632172584534,"219":0.7866383194923401,"220":-0.15500125288963318,"221":0.42637714743614197,"222":1.2451483011245728,"223":-0.9860703349113464,"224":-0.0982978567481041,"225":0.6638067960739136,"226":0.0850009024143219,"227":-1.1589587926864624,"228":1.1167199611663818,"229":-1.0572714805603027,"230":0.7696191072463989,"231":0.11770389974117279,"232":0.5537886619567871,"233":-1.9143739938735962,"234":-0.6554734110832214,"235":0.05590258166193962,"236":1.4343960285186768,"237":0.6018632650375366,"238":-1.1108516454696655,"239":-1.1265017986297607,"240":-1.7217968702316284,"241":2.5089540481567383,"242":1.8174465894699097,"243":-2.3585896492004395,"244":0.7631711959838867,"245":-1.9608631134033203,"246":4.408299446105957,"247":-0.5611194372177124,"248":-1.4806267023086548,"249":1.2133867740631104,"250":-1.3207263946533203,"251":0.5693886876106262,"252":2.813204765319824,"253":2.27119517326355,"254":-5.742458820343018,"255":0.42325255274772644,"256":3.383633852005005,"257":0.7566854357719421,"258":1.1099048852920532,"259":-2.2169363498687744,"260":-1.2888696193695068,"261":2.1169819831848145,"262":0.6343396306037903,"263":0.838614284992218,"264":2.3512184619903564,"265":-0.3881298303604126,"266":1.162053108215332,"267":1.1174330711364746,"268":0.053386274725198746,"269":1.5795326232910156,"270":-1.844890832901001,"271":-0.12945428490638733,"272":0.9436336159706116,"273":-0.9397944211959839,"274":-0.8586344122886658,"275":-2.1277072429656982,"276":-0.15824474394321442,"277":0.6166632771492004,"278":0.1670030951499939,"279":-0.7899521589279175,"280":-0.5067052841186523,"281":2.0114858150482178,"282":-0.4341374337673187,"283":-0.5898118019104004,"284":0.09362609684467316,"285":0.2505572736263275,"286":0.633716881275177,"287":1.9862174987792969,"288":-1.0140799283981323,"289":1.6279511451721191,"290":-1.1042834520339966,"291":-0.5796828269958496,"292":-2.8179216384887695,"293":0.9948715567588806,"294":0.1851966381072998,"295":-0.3436081111431122,"296":1.0887789726257324,"297":1.542231798171997,"298":1.822901725769043,"299":0.6396715641021729,"300":-1.9747579097747803,"301":-0.6679285764694214,"302":0.8290743827819824,"303":1.980417013168335,"304":1.100163459777832,"305":-0.8384200930595398,"306":-1.6538512706756592,"307":-0.01950027421116829,"308":3.0105011463165283,"309":-1.0231664180755615,"310":-3.251868486404419,"311":0.5557278394699097,"312":1.77884042263031,"313":-0.11456134170293808,"314":-2.8887858390808105,"315":1.315103530883789,"316":0.0289439894258976,"317":1.1224688291549683,"318":1.1869816780090332,"319":-0.3672790229320526,"320":0.1883094757795334,"321":-1.2904378175735474,"322":-5.9376606941223145,"323":0.15123426914215088,"324":1.0102328062057495,"325":-0.5848405957221985,"326":-3.335263967514038,"327":-3.276315212249756,"328":1.0254981517791748,"329":-4.125695705413818,"330":1.125797986984253,"331":-0.442085862159729,"332":2.392735004425049,"333":0.7953940033912659,"334":-0.017096703872084618,"335":-2.0925984382629395,"336":-0.22297735512256622,"337":-1.7295503616333008,"338":0.7760022878646851,"339":1.9718843698501587,"340":7.089049816131592,"341":-0.5334231853485107,"342":-3.4703755378723145,"343":0.08465312421321869,"344":-3.541842460632324,"345":0.24155588448047638,"346":3.8613975048065186,"347":5.392476558685303,"348":3.727322816848755,"349":1.3114947080612183,"350":3.37095308303833,"351":-1.7395905256271362,"352":-1.4368155002593994,"353":-0.25351482629776,"354":3.835500478744507,"355":1.0775096416473389,"356":0.005313936620950699,"357":-5.29693078994751,"358":1.6528377532958984,"359":-0.4317202866077423,"360":-1.8972043991088867,"361":2.7172634601593018,"362":-0.2241085320711136,"363":-2.14146089553833,"364":-1.7893205881118774,"365":-0.4681549072265625,"366":-0.8820191025733948,"367":1.467226505279541,"368":-2.6297125816345215,"369":1.921765923500061,"370":-1.2954323291778564,"371":0.6421554684638977,"372":1.4224010705947876,"373":2.3669426441192627,"374":0.4416463375091553,"375":0.6390201449394226,"376":-2.2274203300476074,"377":2.378848075866699,"378":-3.240769863128662,"379":-0.7048501968383789,"380":0.7759841084480286,"381":-2.148918628692627,"382":-0.1538279950618744,"383":-2.0602080821990967,"384":0.5098903179168701,"385":0.6470568776130676,"386":-1.9670637845993042,"387":-0.4871620237827301,"388":2.3118491172790527,"389":-4.116849899291992,"390":0.085346519947052,"391":-0.0985116958618164,"392":0.3390534222126007,"393":1.655655860900879,"394":4.366952896118164,"395":-0.19863282144069672,"396":-6.631287574768066,"397":-0.3737561106681824,"398":-0.8849300742149353,"399":0.6101909875869751}},"forgetBias":{"rows":20,"columns":1,"weights":{"0":0,"1":0,"2":0,"3":0,"4":0,"5":0,"6":0,"7":0,"8":0,"9":0,"10":0,"11":0,"12":0,"13":0,"14":0,"15":0,"16":0,"17":0,"18":0,"19":0}},"outputMatrix":{"rows":20,"columns":31,"weights":{"0":-1.3688044548034668,"1":0.22872750461101532,"2":0.5645442605018616,"3":-0.09526097029447556,"4":4.416370868682861,"5":-0.17311860620975494,"6":-1.894312858581543,"7":-2.0962042808532715,"8":-0.15122507512569427,"9":-0.2737414240837097,"10":0.3046126961708069,"11":-1.2618507146835327,"12":2.6960391998291016,"13":-2.0660548210144043,"14":-0.8194288611412048,"15":1.2107536792755127,"16":-2.3731489181518555,"17":-1.8744051456451416,"18":-0.32448408007621765,"19":-0.6057769656181335,"20":3.895233392715454,"21":0.5342273116111755,"22":1.6925084590911865,"23":0.22794067859649658,"24":-1.5434577465057373,"25":-3.284952163696289,"26":0.967297375202179,"27":1.766652226448059,"28":-4.206904411315918,"29":-0.9064270257949829,"30":0.22498367726802826,"31":-1.3128083944320679,"32":-3.6388726234436035,"33":0.2094164788722992,"34":0.35302239656448364,"35":-0.36783868074417114,"36":-1.4629870653152466,"37":-0.6637798547744751,"38":-1.365286111831665,"39":-0.5602734088897705,"40":2.8521957397460938,"41":3.2427730560302734,"42":-0.8469130992889404,"43":2.630749464035034,"44":0.7296733856201172,"45":2.4529612064361572,"46":1.5757495164871216,"47":-1.3136078119277954,"48":-1.2719054222106934,"49":0.546799898147583,"50":-2.7473111152648926,"51":2.6658356189727783,"52":0.5526754856109619,"53":2.134843349456787,"54":-0.11398123949766159,"55":-3.876477003097534,"56":-1.6950618028640747,"57":2.6152195930480957,"58":-0.3498497009277344,"59":-5.930776596069336,"60":1.709177851676941,"61":1.2410528659820557,"62":-1.374023675918579,"63":2.021027088165283,"64":-1.6868902444839478,"65":1.45345139503479,"66":-0.42345014214515686,"67":-1.2869893312454224,"68":-0.5833384990692139,"69":1.3723480701446533,"70":0.004122926387935877,"71":0.2952658534049988,"72":-0.8693130612373352,"73":-0.07040058076381683,"74":0.12913304567337036,"75":1.1768419742584229,"76":-0.06384734809398651,"77":0.42971962690353394,"78":-0.15824595093727112,"79":1.681929349899292,"80":0.11976327002048492,"81":-1.304136037826538,"82":1.101394534111023,"83":1.746445655822754,"84":1.9031648635864258,"85":-0.8131747245788574,"86":0.5792470574378967,"87":-4.894312381744385,"88":4.471182823181152,"89":2.08039927482605,"90":5.602605819702148,"91":1.9787917137145996,"92":1.4220858812332153,"93":0.446128785610199,"94":0.0442044623196125,"95":-0.0005339626804925501,"96":0.604593813419342,"97":-0.3761797249317169,"98":-0.5533993244171143,"99":0.764654278755188,"100":-0.9896525740623474,"101":-0.885827898979187,"102":3.1477458477020264,"103":0.5026895403862,"104":-0.07688703387975693,"105":2.565002202987671,"106":3.5143673419952393,"107":0.6643081903457642,"108":-1.6821095943450928,"109":1.5463285446166992,"110":-1.9062649011611938,"111":1.4885272979736328,"112":-0.3511761426925659,"113":-1.469613790512085,"114":1.6613633632659912,"115":-0.3733164966106415,"116":-1.355434775352478,"117":-0.25211986899375916,"118":0.6526886224746704,"119":-0.974358081817627,"120":0.1268223226070404,"121":1.2857654094696045,"122":-0.8354488611221313,"123":1.1215643882751465,"124":1.0827378034591675,"125":1.8625671863555908,"126":-1.1981128454208374,"127":0.09389355778694153,"128":-1.3907203674316406,"129":0.7126390337944031,"130":0.9185500741004944,"131":2.3626699447631836,"132":-0.6374744176864624,"133":0.29549548029899597,"134":0.28563961386680603,"135":0.38860687613487244,"136":-0.1629689782857895,"137":-1.4621376991271973,"138":-4.368148326873779,"139":-3.803542137145996,"140":-0.16766200959682465,"141":-1.8624964952468872,"142":-3.4494423866271973,"143":0.1273391991853714,"144":0.9288051128387451,"145":0.15060193836688995,"146":-0.029788080602884293,"147":-1.6802897453308105,"148":1.491012454032898,"149":0.4177720248699188,"150":0.4613039195537567,"151":0.6109037399291992,"152":1.1516488790512085,"153":0.21220572292804718,"154":-0.23199230432510376,"155":-2.25455379486084,"156":-0.34358832240104675,"157":-0.6363317370414734,"158":2.052278995513916,"159":-3.7583885192871094,"160":-1.500801682472229,"161":-0.9299365282058716,"162":-2.853290319442749,"163":0.1234949454665184,"164":0.9282196164131165,"165":-1.6488760709762573,"166":0.5639340281486511,"167":2.140185832977295,"168":-0.43542706966400146,"169":2.318331003189087,"170":-0.9089379906654358,"171":-1.5334750413894653,"172":0.8816521763801575,"173":0.32011502981185913,"174":-0.1544397473335266,"175":1.1842010021209717,"176":-0.13932402431964874,"177":-0.2931445837020874,"178":1.8347179889678955,"179":1.1848740577697754,"180":-1.3369076251983643,"181":-0.010931105352938175,"182":0.5038080215454102,"183":1.21913480758667,"184":-0.8828821182250977,"185":-1.2608493566513062,"186":-0.014755583368241787,"187":-0.23571544885635376,"188":-0.7271683216094971,"189":2.5996205806732178,"190":0.9023177623748779,"191":-0.7844792008399963,"192":-2.2187142372131348,"193":-0.3861037492752075,"194":-1.0197287797927856,"195":1.1522103548049927,"196":1.616901159286499,"197":0.5499259233474731,"198":-1.6877936124801636,"199":2.6599278450012207,"200":3.119720458984375,"201":0.9026869535446167,"202":-1.5186715126037598,"203":0.4278936982154846,"204":2.5480403900146484,"205":-1.3378403186798096,"206":0.2681224048137665,"207":0.8908390998840332,"208":3.8060715198516846,"209":1.0577659606933594,"210":-1.891798734664917,"211":-0.4832165837287903,"212":4.3808488845825195,"213":0.39834123849868774,"214":-1.701937198638916,"215":-0.602043867111206,"216":0.5189893841743469,"217":-0.5595000982284546,"218":1.059797763824463,"219":5.203770160675049,"220":-2.0565598011016846,"221":1.6960699558258057,"222":1.355273962020874,"223":-0.7978895902633667,"224":-0.1720317006111145,"225":2.036201238632202,"226":-1.6454169750213623,"227":1.6685348749160767,"228":4.483455181121826,"229":0.7455096244812012,"230":0.6264505386352539,"231":-3.4558112621307373,"232":4.328196048736572,"233":-0.3781578540802002,"234":1.8092076778411865,"235":-1.5901451110839844,"236":0.9272950887680054,"237":0.0919889286160469,"238":1.0798590183258057,"239":1.7021129131317139,"240":1.987625241279602,"241":-2.7077808380126953,"242":-0.7423192858695984,"243":0.5599180459976196,"244":-1.705451488494873,"245":-0.8406912088394165,"246":-0.6734805703163147,"247":-0.30684369802474976,"248":0.6640496253967285,"249":0.9958531260490417,"250":2.8614444732666016,"251":0.7873040437698364,"252":0.5624295473098755,"253":-0.693169355392456,"254":-1.5175670385360718,"255":-1.0167316198349,"256":-1.029623031616211,"257":1.0497463941574097,"258":2.9747047424316406,"259":2.139421224594116,"260":1.976456880569458,"261":0.4196135699748993,"262":0.7099744081497192,"263":-0.41592419147491455,"264":-3.328874111175537,"265":-0.6878833770751953,"266":1.6697254180908203,"267":2.3872804641723633,"268":3.5831406116485596,"269":0.2744596004486084,"270":0.6903032064437866,"271":-0.7910821437835693,"272":-0.08728010952472687,"273":-1.4676281213760376,"274":1.7716529369354248,"275":3.3267858028411865,"276":-0.3939288258552551,"277":-3.992368698120117,"278":0.29764077067375183,"279":-1.9072778224945068,"280":-4.338982105255127,"281":-0.31134775280952454,"282":1.2898855209350586,"283":1.417037010192871,"284":2.230828285217285,"285":0.5263546705245972,"286":-2.015842914581299,"287":3.5438785552978516,"288":-2.148284912109375,"289":-0.9497818350791931,"290":-0.6363856792449951,"291":0.5066208243370056,"292":1.6785476207733154,"293":0.40542399883270264,"294":1.6051467657089233,"295":-2.0142297744750977,"296":-1.2762749195098877,"297":0.48978742957115173,"298":0.09633735567331314,"299":0.20488190650939941,"300":2.1064305305480957,"301":2.5069847106933594,"302":-1.9668216705322266,"303":0.30416354537010193,"304":1.7897084951400757,"305":4.1660661697387695,"306":0.3884178698062897,"307":-3.4485716819763184,"308":0.00124074867926538,"309":-0.1045282781124115,"310":-0.9186476469039917,"311":1.7854139804840088,"312":1.2905707359313965,"313":-1.231134295463562,"314":-1.4928452968597412,"315":-2.6702709197998047,"316":-1.9128971099853516,"317":-1.2181516885757446,"318":-0.48133590817451477,"319":0.3387130796909332,"320":-0.7956799864768982,"321":4.212815284729004,"322":0.10893617570400238,"323":-0.07306329905986786,"324":-1.1640721559524536,"325":1.3787356615066528,"326":0.5601457953453064,"327":-0.9394547939300537,"328":-0.3621957004070282,"329":2.6176908016204834,"330":3.4748170375823975,"331":-1.0794861316680908,"332":-2.5399980545043945,"333":0.3607598543167114,"334":1.397190809249878,"335":-1.6020280122756958,"336":-1.8904383182525635,"337":1.3085647821426392,"338":-0.49877914786338806,"339":-2.0677061080932617,"340":-0.27683699131011963,"341":-1.3507884740829468,"342":1.0674775838851929,"343":-0.548170804977417,"344":2.6080522537231445,"345":2.795117139816284,"346":0.20280729234218597,"347":-0.7881778478622437,"348":-0.7513355612754822,"349":0.5245994925498962,"350":1.770524501800537,"351":2.133354902267456,"352":1.3278082609176636,"353":1.940312147140503,"354":2.39167857170105,"355":-1.0787291526794434,"356":-1.497225046157837,"357":-3.587573289871216,"358":1.3554279804229736,"359":-0.5475364923477173,"360":-0.9196473956108093,"361":1.0061237812042236,"362":-2.0161185264587402,"363":0.23284783959388733,"364":0.6840814352035522,"365":0.4459770619869232,"366":0.6199859976768494,"367":0.8164989352226257,"368":2.8911590576171875,"369":-0.9677978157997131,"370":2.278560161590576,"371":0.8110731840133667,"372":1.5263267755508423,"373":-1.708124041557312,"374":-2.928271532058716,"375":4.922816276550293,"376":0.04289574176073074,"377":-1.0312042236328125,"378":-2.09488844871521,"379":2.0814990997314453,"380":0.33084455132484436,"381":0.3458646535873413,"382":2.3785297870635986,"383":-1.5303364992141724,"384":3.7383155822753906,"385":1.0852655172348022,"386":1.5443114042282104,"387":-0.15391217172145844,"388":-1.5896146297454834,"389":-1.027543544769287,"390":1.7369135618209839,"391":0.4076825976371765,"392":0.7907603979110718,"393":-0.07303650677204132,"394":1.367314338684082,"395":-1.2915140390396118,"396":0.6204575300216675,"397":1.3735935688018799,"398":-1.0487754344940186,"399":0.05240077152848244,"400":-2.8984875679016113,"401":-1.4321846961975098,"402":-1.5335173606872559,"403":1.3207608461380005,"404":0.17060554027557373,"405":1.7197800874710083,"406":1.259463906288147,"407":-0.5050400495529175,"408":1.603176474571228,"409":-0.36965399980545044,"410":-2.4416470527648926,"411":0.4614752531051636,"412":0.6353124380111694,"413":-0.9818087816238403,"414":0.8579367399215698,"415":3.5503149032592773,"416":-2.4909114837646484,"417":-1.3596899509429932,"418":-0.09576553106307983,"419":-1.2416200637817383,"420":0.5914688110351562,"421":2.3117318153381348,"422":4.243438243865967,"423":3.2539403438568115,"424":2.0948712825775146,"425":-1.0129605531692505,"426":-3.278500556945801,"427":3.004591703414917,"428":1.1074714660644531,"429":-1.2671003341674805,"430":-0.9010770916938782,"431":1.4117335081100464,"432":0.2959545850753784,"433":4.054753303527832,"434":0.9992969036102295,"435":1.3713704347610474,"436":0.974916398525238,"437":0.769636869430542,"438":0.8015193343162537,"439":2.891392469406128,"440":2.0488593578338623,"441":2.699728488922119,"442":2.758730411529541,"443":-0.388838529586792,"444":-2.5153472423553467,"445":-0.8393306136131287,"446":0.1454729288816452,"447":-0.7637719511985779,"448":-2.5882833003997803,"449":0.12374415993690491,"450":-1.1505275964736938,"451":3.1797823905944824,"452":-2.167492628097534,"453":-0.5966600179672241,"454":-1.2726696729660034,"455":-0.13432925939559937,"456":0.6060798764228821,"457":-1.7413849830627441,"458":-2.380375385284424,"459":0.8597962260246277,"460":0.5240511894226074,"461":-1.6441051959991455,"462":0.6299386024475098,"463":0.28932154178619385,"464":-0.798477053642273,"465":2.3197059631347656,"466":-0.621684193611145,"467":1.936912178993225,"468":-1.6450328826904297,"469":1.9062817096710205,"470":-1.7943806648254395,"471":-3.7913289070129395,"472":1.3276793956756592,"473":-2.314563512802124,"474":-0.6912818551063538,"475":-0.9204045534133911,"476":1.0417321920394897,"477":1.8711909055709839,"478":-1.2527223825454712,"479":-2.8324391841888428,"480":-0.5582228302955627,"481":-1.7261254787445068,"482":1.4643357992172241,"483":-2.481851100921631,"484":-0.49806949496269226,"485":1.5365625619888306,"486":-2.3185486793518066,"487":1.1298954486846924,"488":1.162232756614685,"489":2.0576677322387695,"490":-2.3391761779785156,"491":-3.046421527862549,"492":1.1387295722961426,"493":0.5972061157226562,"494":0.0965285524725914,"495":0.8796725273132324,"496":-0.6617024540901184,"497":-1.9578348398208618,"498":0.2923322021961212,"499":-0.8254924416542053,"500":0.5157629251480103,"501":4.171464920043945,"502":0.4488986134529114,"503":-2.045590877532959,"504":2.4524450302124023,"505":0.5946057438850403,"506":2.3615150451660156,"507":-0.5155978202819824,"508":1.4231852293014526,"509":0.9557126760482788,"510":2.230640411376953,"511":-2.753351926803589,"512":-0.19887210428714752,"513":-0.36791497468948364,"514":-0.4282478094100952,"515":-2.0758743286132812,"516":-2.3694777488708496,"517":-1.0520864725112915,"518":-0.2219567447900772,"519":-0.6215620636940002,"520":-1.2496627569198608,"521":0.8088014125823975,"522":3.0994608402252197,"523":-0.9200789332389832,"524":-1.9192694425582886,"525":-1.2823365926742554,"526":-1.2814048528671265,"527":-0.033021681010723114,"528":-0.4760340452194214,"529":0.30572280287742615,"530":0.29456043243408203,"531":-1.4292415380477905,"532":0.3026065230369568,"533":1.5253652334213257,"534":0.8366532921791077,"535":-1.3971937894821167,"536":-0.9698155522346497,"537":0.07330339401960373,"538":0.0014399383217096329,"539":-1.498989224433899,"540":0.7695748805999756,"541":2.4960827827453613,"542":1.2462388277053833,"543":0.8276145458221436,"544":0.2933675944805145,"545":1.758678913116455,"546":-2.8421969413757324,"547":-0.33752965927124023,"548":-1.9742646217346191,"549":0.3353050649166107,"550":1.3230534791946411,"551":1.2643160820007324,"552":2.673532247543335,"553":1.2425693273544312,"554":-0.003999689593911171,"555":0.10175291448831558,"556":1.9669791460037231,"557":-1.3900718688964844,"558":3.8756837844848633,"559":-4.128018856048584,"560":0.791181743144989,"561":-2.0963194370269775,"562":-1.507246971130371,"563":-2.306091070175171,"564":2.5234434604644775,"565":-1.2104460000991821,"566":-2.375176429748535,"567":-1.9647765159606934,"568":0.04771001264452934,"569":-0.3876006603240967,"570":0.07553116977214813,"571":1.0651525259017944,"572":4.62744140625,"573":3.220531940460205,"574":1.4129983186721802,"575":0.5586389899253845,"576":0.0006419057608582079,"577":-2.2230303287506104,"578":-1.0562127828598022,"579":-1.57516610622406,"580":0.5739543437957764,"581":0.39906349778175354,"582":1.06242036819458,"583":2.6392459869384766,"584":-3.166442394256592,"585":-1.4446971416473389,"586":-4.296119689941406,"587":0.9458157420158386,"588":-2.5717732906341553,"589":-0.4767807424068451,"590":1.3683332204818726,"591":-1.1696782112121582,"592":0.3287980854511261,"593":2.8157336711883545,"594":2.1606953144073486,"595":-0.6953576803207397,"596":0.37842434644699097,"597":-0.1038423553109169,"598":1.1103078126907349,"599":1.9896812438964844,"600":-1.2462718486785889,"601":1.170641303062439,"602":-0.22266928851604462,"603":-0.41582629084587097,"604":-0.556206464767456,"605":-2.7801432609558105,"606":3.775871992111206,"607":-1.2760977745056152,"608":-1.3471919298171997,"609":-0.2838844656944275,"610":-0.5065674781799316,"611":-0.6752485036849976,"612":-2.9112930297851562,"613":-0.06487121433019638,"614":-1.110334873199463,"615":1.916568636894226,"616":3.3928935527801514,"617":0.3502742350101471,"618":3.3387532234191895,"619":1.859689712524414}},"outputHidden":{"rows":20,"columns":20,"weights":{"0":1.9793518781661987,"1":-0.45527613162994385,"2":-2.2848637104034424,"3":-1.7971264123916626,"4":3.512787103652954,"5":2.389986038208008,"6":-0.8704538345336914,"7":-2.3979997634887695,"8":0.692144513130188,"9":-1.0715821981430054,"10":0.48773396015167236,"11":3.018588066101074,"12":2.0173096656799316,"13":0.24151542782783508,"14":0.4689338505268097,"15":4.005409240722656,"16":1.8764684200286865,"17":0.871330201625824,"18":-0.4006018340587616,"19":3.1683685779571533,"20":-2.0091712474823,"21":1.132757306098938,"22":-0.07916666567325592,"23":-0.015591180883347988,"24":2.184772491455078,"25":-0.7566300630569458,"26":1.717063307762146,"27":2.1006886959075928,"28":-0.6987946629524231,"29":-0.5803746581077576,"30":1.5281224250793457,"31":-2.198925733566284,"32":2.7602574825286865,"33":-0.34797999262809753,"34":-0.840294361114502,"35":-6.038898468017578,"36":-0.9679664969444275,"37":-4.592707633972168,"38":0.865828812122345,"39":2.2133371829986572,"40":0.004571523051708937,"41":2.5557336807250977,"42":1.2814807891845703,"43":0.3655821681022644,"44":-1.8989137411117554,"45":1.757906436920166,"46":-0.12407317012548447,"47":2.159578323364258,"48":1.172038197517395,"49":-0.24656455218791962,"50":-1.462278127670288,"51":2.6423346996307373,"52":-1.249032974243164,"53":1.3286548852920532,"54":-0.25599774718284607,"55":1.070764422416687,"56":0.08751127123832703,"57":-0.3985682725906372,"58":0.9438995122909546,"59":-1.3344407081604004,"60":10.588163375854492,"61":-4.273591995239258,"62":1.50899076461792,"63":0.7771990299224854,"64":3.4635183811187744,"65":5.347067356109619,"66":-1.7293890714645386,"67":3.3988559246063232,"68":4.013550281524658,"69":-2.2655131816864014,"70":5.9067840576171875,"71":-3.2080466747283936,"72":1.2084075212478638,"73":6.291847229003906,"74":7.1084699630737305,"75":1.85511314868927,"76":0.7604977488517761,"77":0.28212353587150574,"78":-3.1890738010406494,"79":3.1983554363250732,"80":0.5364766716957092,"81":0.6481836438179016,"82":3.311011791229248,"83":6.036189079284668,"84":-2.697669506072998,"85":-7.154363632202148,"86":0.34705957770347595,"87":5.0616912841796875,"88":-0.4904210865497589,"89":-0.06999620795249939,"90":-2.8163959980010986,"91":0.928899347782135,"92":-3.613823413848877,"93":-0.896670937538147,"94":1.3349363803863525,"95":-2.911104917526245,"96":-5.79945182800293,"97":1.2034016847610474,"98":0.5476358532905579,"99":0.15654565393924713,"100":3.553548574447632,"101":-0.4831249415874481,"102":-3.7120585441589355,"103":0.5226901173591614,"104":-3.5149152278900146,"105":-0.05191405117511749,"106":-0.5009538531303406,"107":-4.590060234069824,"108":0.8079875707626343,"109":-5.293116569519043,"110":-0.07691998779773712,"111":-1.1124267578125,"112":0.8179234862327576,"113":1.6952579021453857,"114":3.151695728302002,"115":0.686814546585083,"116":-6.051216125488281,"117":0.2521275579929352,"118":-0.2117544412612915,"119":-5.526208400726318,"120":-2.8790528774261475,"121":-1.1584200859069824,"122":-3.5196986198425293,"123":-0.7695655822753906,"124":1.9628934860229492,"125":1.5806137323379517,"126":-2.918915271759033,"127":6.467942714691162,"128":-1.860878825187683,"129":-2.1457371711730957,"130":-1.6405047178268433,"131":1.3524965047836304,"132":3.1455554962158203,"133":-0.5421285629272461,"134":-3.562725305557251,"135":-0.5755479335784912,"136":0.40586671233177185,"137":-3.1499743461608887,"138":2.568779230117798,"139":7.3322434425354,"140":-4.362345218658447,"141":2.753194808959961,"142":-2.8551337718963623,"143":-2.0329508781433105,"144":6.600895404815674,"145":-4.428092002868652,"146":0.5305226445198059,"147":-0.586439847946167,"148":0.7555460333824158,"149":1.5242139101028442,"150":-0.893155038356781,"151":1.3059395551681519,"152":2.1326162815093994,"153":4.240797996520996,"154":-2.878847360610962,"155":-2.018594980239868,"156":-4.4095330238342285,"157":-1.7371346950531006,"158":5.592284202575684,"159":-0.898932158946991,"160":5.20966100692749,"161":-3.290799856185913,"162":-4.771097660064697,"163":-0.7831122875213623,"164":-0.6521284580230713,"165":0.15088820457458496,"166":-0.633238673210144,"167":6.007447242736816,"168":3.512033700942993,"169":-3.681749105453491,"170":1.4727534055709839,"171":-0.32027310132980347,"172":-1.0845897197723389,"173":-1.419085144996643,"174":5.050656795501709,"175":-4.087522506713867,"176":1.374328851699829,"177":0.9806097149848938,"178":-0.5317174792289734,"179":0.33192065358161926,"180":2.9430742263793945,"181":-4.994943141937256,"182":-2.588970184326172,"183":-2.2747371196746826,"184":-0.08557027578353882,"185":-4.659954071044922,"186":2.85109806060791,"187":2.1290061473846436,"188":0.369728147983551,"189":-6.701834678649902,"190":-2.6969387531280518,"191":-4.8107194900512695,"192":1.7423454523086548,"193":-3.1904242038726807,"194":4.550430774688721,"195":-3.638120174407959,"196":5.649652004241943,"197":-0.09749279916286469,"198":-0.475024938583374,"199":5.191454887390137,"200":-4.819238185882568,"201":1.8981564044952393,"202":0.450285404920578,"203":1.2711459398269653,"204":3.725954055786133,"205":-3.4632692337036133,"206":0.5237653255462646,"207":1.74354887008667,"208":-1.4583572149276733,"209":-2.2039339542388916,"210":-3.3916327953338623,"211":-1.275591254234314,"212":3.1605660915374756,"213":-0.25067469477653503,"214":-0.218196839094162,"215":-1.6167854070663452,"216":-3.1456706523895264,"217":-2.79288387298584,"218":3.230088472366333,"219":-6.3284759521484375,"220":-3.2743985652923584,"221":-1.5727959871292114,"222":-5.916879653930664,"223":1.9093912839889526,"224":2.8158514499664307,"225":-6.452406883239746,"226":-4.001921653747559,"227":-1.6202601194381714,"228":-1.9159151315689087,"229":2.1059932708740234,