{"type":"n","options":{"inputSize":29,"inputRange":29,"hiddenLayers":[20,20],"outputSize":29,"decayRate":0.999,"smoothEps":1e-8,"regc":0.000001,"clipval":5,"maxPredictionLength":100,"dataFormatter":{"indexTable":{"T":0,"h":1,"e":2," ":3,"A":4,"d":5,"v":6,"n":7,"t":8,"u":9,"r":10,"s":11,"o":12,"f":13,"S":14,"l":15,"c":16,"k":17,"H":18,"m":19,"b":20,"y":21,"C":22,"a":23,"D":24,"I":25,"i":26,"B":27,"unrecognized":28},"characterTable":{"0":"T","1":"h","2":"e","3":" ","4":"A","5":"d","6":"v","7":"n","8":"t","9":"u","10":"r","11":"s","12":"o","13":"f","14":"S","15":"l","16":"c","17":"k","18":"H","19":"m","20":"b","21":"y","22":"C","23":"a","24":"D","25":"I","26":"i","27":"B","28":null},"values":["The Adventures of Sherlock Holmes  by Arthur Conan Doyle  Contents     I","     A Scandal in Bohemia     II"],"characters":["T","h","e"," ","A","d","v","n","t","u","r","s","o","f","S","l","c","k","H","m","b","y","C","a","D","I","i","B","unrecognized"],"specialIndexes":[28]}},"input":{"rows":30,"columns":29,"weights":{"0":-0.11473549157381058,"1":-1.8462978601455688,"2":2.7588493824005127,"3":-1.4538096189498901,"4":-3.279168128967285,"5":-0.4506927728652954,"6":-0.049696262925863266,"7":1.7367037534713745,"8":0.6559642553329468,"9":-1.873006820678711,"10":1.8751335144042969,"11":-1.254719853401184,"12":-2.564699172973633,"13":-0.20477209985256195,"14":-1.8989996910095215,"15":0.2974594235420227,"16":-1.526577115058899,"17":-0.30352452397346497,"18":2.1333651542663574,"19":3.874830722808838,"20":-1.9141288995742798,"21":-0.11563780903816223,"22":1.4771820306777954,"23":-3.7566115856170654,"24":4.548004150390625,"25":2.759401798248291,"26":-1.1464163064956665,"27":2.547067403793335,"28":1.577842116355896,"29":59.21674728393555,"30":-90.21434783935547,"31":-52.61738967895508,"32":57.178218841552734,"33":-51.74622344970703,"34":-97.32170104980469,"35":-103.3070068359375,"36":-31.59939956665039,"37":3.6128997802734375,"38":92.75308227539062,"39":33.16502380371094,"40":-69.4017333984375,"41":-79.15618896484375,"42":93.04644012451172,"43":-87.64851379394531,"44":10.090165138244629,"45":-16.309072494506836,"46":60.400150299072266,"47":-73.1724624633789,"48":67.3435287475586,"49":115.76414489746094,"50":59.72623825073242,"51":-40.22740173339844,"52":127.10491943359375,"53":-60.24087142944336,"54":-31.35313606262207,"55":-75.8583755493164,"56":-80.37218475341797,"57":-93.6534194946289,"58":-1.7612625360488892,"59":-17.686426162719727,"60":21.835857391357422,"61":9.990673065185547,"62":-0.4392433762550354,"63":-12.123559951782227,"64":14.402803421020508,"65":18.59510040283203,"66":3.725348949432373,"67":4.860753536224365,"68":-24.53221321105957,"69":-11.35257339477539,"70":-27.113283157348633,"71":14.815783500671387,"72":11.688939094543457,"73":-17.215084075927734,"74":5.4994635581970215,"75":2.730457067489624,"76":-28.04119873046875,"77":17.136810302734375,"78":-19.094663619995117,"79":-15.794048309326172,"80":13.1536283493042,"81":-2.045884370803833,"82":-2.6278467178344727,"83":-9.631691932678223,"84":1.2615939378738403,"85":6.480919361114502,"86":-10.74481201171875,"87":5.885894775390625,"88":-0.3422001004219055,"89":11.965673446655273,"90":-1.3969463109970093,"91":1.5247092247009277,"92":1.128009557723999,"93":-4.126591682434082,"94":-2.3701422214508057,"95":2.2652394771575928,"96":0.07921968400478363,"97":-0.6171206831932068,"98":-6.128415584564209,"99":-1.488452434539795,"100":-5.0379109382629395,"101":1.6283482313156128,"102":3.19612193107605,"103":1.1212775707244873,"104":0.3937825560569763,"105":0.10809701681137085,"106":-9.941996574401855,"107":0.8885253071784973,"108":4.955659866333008,"109":2.2380781173706055,"110":5.947405815124512,"111":-1.1173839569091797,"112":-3.1875522136688232,"113":-2.3096976280212402,"114":-1.2854886054992676,"115":3.5603721141815186,"116":0.47069475054740906,"117":0.4580375850200653,"118":0.3111391067504883,"119":-1.4476035833358765,"120":-0.4387049674987793,"121":0.8873170018196106,"122":0.4654533565044403,"123":-2.000924587249756,"124":5.175474643707275,"125":-0.6775574088096619,"126":5.039397239685059,"127":0.2461971491575241,"128":-0.33976617455482483,"129":-1.85068941116333,"130":-1.7397446632385254,"131":1.4172371625900269,"132":1.8874192237854004,"133":-3.098860025405884,"134":1.2944914102554321,"135":-4.232228755950928,"136":2.003953456878662,"137":-1.412774920463562,"138":1.6524330377578735,"139":5.4133782386779785,"140":-2.4217629432678223,"141":-1.7134958505630493,"142":-1.1230378150939941,"143":-0.16316328942775726,"144":6.971199989318848,"145":-46.572078704833984,"146":-71.26470947265625,"147":6.908454418182373,"148":-84.45953369140625,"149":-57.92538070678711,"150":77.70996856689453,"151":47.81986999511719,"152":-47.3245735168457,"153":-91.7333755493164,"154":-86.60665130615234,"155":-73.90235137939453,"156":-79.6324691772461,"157":70.33979034423828,"158":87.05623626708984,"159":66.14669036865234,"160":52.92750930786133,"161":-25.7998104095459,"162":-51.39921188354492,"163":81.27926635742188,"164":-81.53238677978516,"165":-29.18960952758789,"166":-53.59986114501953,"167":69.37863159179688,"168":-40.348541259765625,"169":-14.43339729309082,"170":78.16575622558594,"171":-78.46980285644531,"172":72.09022521972656,"173":83.13025665283203,"174":-2.2193288803100586,"175":2.7573606967926025,"176":0.1389237493276596,"177":-8.54503345489502,"178":4.834187030792236,"179":5.7209858894348145,"180":-7.5868401527404785,"181":-4.658787250518799,"182":3.919365644454956,"183":-5.145732402801514,"184":-6.625710964202881,"185":-6.472775459289551,"186":-3.751619577407837,"187":0.06955849379301071,"188":0.18832682073116302,"189":0.28939059376716614,"190":-4.73007345199585,"191":1.4872264862060547,"192":-3.269299268722534,"193":-0.061475012451410294,"194":15.14683723449707,"195":-10.300662994384766,"196":3.323991060256958,"197":-1.098885416984558,"198":6.981231689453125,"199":-5.9436140060424805,"200":5.145223617553711,"201":1.449004054069519,"202":0.6897938251495361,"203":-20.684951782226562,"204":7.404068946838379,"205":-14.676910400390625,"206":24.384214401245117,"207":22.011337280273438,"208":-15.827200889587402,"209":2.4914894104003906,"210":15.539141654968262,"211":12.841265678405762,"212":-27.629478454589844,"213":4.35373067855835,"214":21.303617477416992,"215":-5.628343105316162,"216":24.865358352661133,"217":-8.469167709350586,"218":7.833374500274658,"219":14.265642166137695,"220":-23.63925552368164,"221":-1.223623514175415,"222":-20.162092208862305,"223":7.695644855499268,"224":8.505009651184082,"225":-12.262337684631348,"226":8.85776424407959,"227":-19.47394561767578,"228":21.249975204467773,"229":-35.651363372802734,"230":-40.44635009765625,"231":-5.883122444152832,"232":8.981951713562012,"233":-5.553700923919678,"234":-2.789654016494751,"235":-1.4599679708480835,"236":3.955796003341675,"237":4.541457176208496,"238":-7.252645015716553,"239":-0.13140039145946503,"240":3.4922609329223633,"241":0.2627752423286438,"242":8.931406021118164,"243":2.5016074180603027,"244":-5.255138397216797,"245":-0.5543506145477295,"246":-3.3127546310424805,"247":4.684371471405029,"248":-3.7643473148345947,"249":-5.269954204559326,"250":1.855884313583374,"251":4.233292102813721,"252":8.001811027526855,"253":4.586236953735352,"254":-8.524203300476074,"255":-0.31286463141441345,"256":-1.2309623956680298,"257":-0.2423902004957199,"258":-1.7888952493667603,"259":-2.615647792816162,"260":-4.70490837097168,"261":-4.41272497177124,"262":8.85421085357666,"263":5.131464958190918,"264":-1.3443351984024048,"265":-1.7986364364624023,"266":5.024075984954834,"267":-2.621199131011963,"268":-6.6042799949646,"269":-1.5805913209915161,"270":-1.430957317352295,"271":-0.12176143378019333,"272":5.760592460632324,"273":2.7257704734802246,"274":-3.0590426921844482,"275":3.7233657836914062,"276":-1.3367035388946533,"277":2.7108733654022217,"278":0.6697478294372559,"279":4.402581214904785,"280":1.6763670444488525,"281":-0.8244411945343018,"282":7.07072639465332,"283":1.9413787126541138,"284":-4.763853073120117,"285":-1.144848108291626,"286":8.174519538879395,"287":-2.6370351314544678,"288":7.656281471252441,"289":-1.7751747369766235,"290":-23.93975067138672,"291":28.21828842163086,"292":-27.337921142578125,"293":28.63388442993164,"294":14.160624504089355,"295":26.775423049926758,"296":47.556663513183594,"297":-18.341344833374023,"298":-29.211458206176758,"299":-6.599361419677734,"300":-25.116853713989258,"301":24.270549774169922,"302":20.2834529876709,"303":23.741592407226562,"304":-14.92190933227539,"305":-42.204498291015625,"306":-21.30075454711914,"307":-39.63938903808594,"308":-30.620786666870117,"309":-3.3591344356536865,"310":-31.340856552124023,"311":1.1281286478042603,"312":-29.459375381469727,"313":-33.502235412597656,"314":22.404186248779297,"315":-17.106653213500977,"316":14.267618179321289,"317":-18.44637107849121,"318":-22.677766799926758,"319":-8.296019554138184,"320":-2.2955687046051025,"321":-0.15376900136470795,"322":-2.052137613296509,"323":8.78138256072998,"324":3.38838529586792,"325":1.637709379196167,"326":4.030517101287842,"327":-1.8827669620513916,"328":-4.214019298553467,"329":4.325836658477783,"330":-1.2139132022857666,"331":-8.571513175964355,"332":-2.3779141902923584,"333":1.9599698781967163,"334":-4.798751354217529,"335":1.379530429840088,"336":1.8290122747421265,"337":-6.235895156860352,"338":-0.6628113985061646,"339":7.181000232696533,"340":-3.4424519538879395,"341":-0.4311060309410095,"342":4.345546245574951,"343":-0.7783629298210144,"344":-4.513036251068115,"345":-5.5925445556640625,"346":-3.2186553478240967,"347":5.053659915924072,"348":5.018482208251953,"349":-3.397690773010254,"350":1.6958853006362915,"351":0.36621323227882385,"352":9.652777671813965,"353":4.59605598449707,"354":7.26668643951416,"355":-9.393146514892578,"356":3.4485812187194824,"357":0.04455358162522316,"358":-0.6199491620063782,"359":0.9327027797698975,"360":-0.43195798993110657,"361":-3.597456455230713,"362":-0.9911530613899231,"363":-0.9794103503227234,"364":-0.8655470013618469,"365":-1.7861508131027222,"366":-0.8094393014907837,"367":1.3502252101898193,"368":-6.564555644989014,"369":-1.3159019947052002,"370":0.5065537095069885,"371":1.1728044748306274,"372":-1.0657894611358643,"373":-0.09963762760162354,"374":-1.7236993312835693,"375":8.870649337768555,"376":1.8991185426712036,"377":4.602851867675781,"378":-2.4897148609161377,"379":1.861636996269226,"380":4.118340492248535,"381":-0.03422059491276741,"382":0.3979121744632721,"383":-1.4998142719268799,"384":6.0439229011535645,"385":2.815424680709839,"386":2.708437442779541,"387":8.64864444732666,"388":-1.8958066701889038,"389":-2.96781325340271,"390":-2.345689296722412,"391":4.274277687072754,"392":-1.0348002910614014,"393":-0.7087835073471069,"394":-4.045952796936035,"395":-0.25721803307533264,"396":-5.901764869689941,"397":-7.471230506896973,"398":-0.7023740410804749,"399":5.70989990234375,"400":0.4472063183784485,"401":-7.209345817565918,"402":6.316747188568115,"403":0.6134957075119019,"404":1.6703296899795532,"405":6.112436771392822,"406":6.4227094650268555,"407":6.347659587860107,"408":2.8561975955963135,"409":8.381824493408203,"410":-8.525551795959473,"411":-4.833563804626465,"412":-11.611166000366211,"413":0.7321504354476929,"414":0.8436036705970764,"415":-1.781370759010315,"416":-12.214106559753418,"417":-2.4144840240478516,"418":-16.832996368408203,"419":-2.412874221801758,"420":-5.674751281738281,"421":11.978200912475586,"422":-6.80661153793335,"423":4.171546459197998,"424":-7.351551532745361,"425":-13.429245948791504,"426":19.468215942382812,"427":1.4194588661193848,"428":-11.490516662597656,"429":3.6418187618255615,"430":-3.4905974864959717,"431":1.6240031719207764,"432":-1.7262189388275146,"433":-2.8853135108947754,"434":-11.74254322052002,"435":-37.28660583496094,"436":-36.47543716430664,"437":114.49156951904297,"438":-36.30561828613281,"439":-54.61896896362305,"440":67.2166519165039,"441":-93.42506408691406,"442":25.883596420288086,"443":7.703083515167236,"444":-22.716838836669922,"445":18.62617301940918,"446":57.055503845214844,"447":-1.380886435508728,"448":-19.907697677612305,"449":60.758949279785156,"450":121.15547180175781,"451":124.84387969970703,"452":107.142822265625,"453":-101.07978820800781,"454":17.980745315551758,"455":-95.63956451416016,"456":-55.50276565551758,"457":108.62712097167969,"458":-99.7750473022461,"459":-25.248945236206055,"460":90.36103820800781,"461":85.45209503173828,"462":29.895526885986328,"463":138.23333740234375,"464":3.563913345336914,"465":7.990874767303467,"466":2.4211714267730713,"467":3.952521562576294,"468":7.998213291168213,"469":0.19014988839626312,"470":1.9498108625411987,"471":1.880956768989563,"472":4.375875473022461,"473":-3.6100783348083496,"474":3.18599271774292,"475":2.3951520919799805,"476":3.4129879474639893,"477":-1.494131326675415,"478":-0.5448271632194519,"479":-4.628269195556641,"480":6.72230863571167,"481":-2.584372043609619,"482":-7.24115514755249,"483":-7.71764612197876,"484":-6.298874378204346,"485":1.5132564306259155,"486":1.9791302680969238,"487":0.8101866245269775,"488":-4.818278789520264,"489":4.4054436683654785,"490":-0.7452553510665894,"491":5.108166217803955,"492":-3.8111138343811035,"493":6.3307623863220215,"494":2.7235028743743896,"495":-0.062114372849464417,"496":3.536445140838623,"497":9.648627281188965,"498":0.33165934681892395,"499":18.02928924560547,"500":3.7478315830230713,"501":-0.667785108089447,"502":-9.813719749450684,"503":6.58268928527832,"504":5.910783767700195,"505":0.3904644548892975,"506":-3.7100093364715576,"507":0.2579464018344879,"508":-7.982077598571777,"509":-0.15780167281627655,"510":4.82322883605957,"511":-10.548688888549805,"512":-2.074518918991089,"513":-1.5749599933624268,"514":0.21326905488967896,"515":-4.161144733428955,"516":-11.138827323913574,"517":-14.246255874633789,"518":14.836237907409668,"519":-6.756807327270508,"520":11.083627700805664,"521":0.4296846091747284,"522":2.7608273029327393,"523":11.41211986541748,"524":-5.989589214324951,"525":2.849324941635132,"526":-2.5495474338531494,"527":23.499370574951172,"528":0.654054582118988,"529":-7.4381561279296875,"530":4.537527561187744,"531":-9.190764427185059,"532":17.342193603515625,"533":4.7650227546691895,"534":20.475852966308594,"535":8.236872673034668,"536":-14.790704727172852,"537":9.207298278808594,"538":-6.5108747482299805,"539":-15.275290489196777,"540":-1.551416039466858,"541":-3.3064794540405273,"542":-9.48054313659668,"543":9.065834999084473,"544":5.255306243896484,"545":-10.673667907714844,"546":-2.6018881797790527,"547":5.492514133453369,"548":-15.64348030090332,"549":-10.791497230529785,"550":-2.0109431743621826,"551":-4.470428943634033,"552":13.509513854980469,"553":10.680018424987793,"554":35.981327056884766,"555":-30.34903907775879,"556":-14.298717498779297,"557":-26.46221351623535,"558":-12.536267280578613,"559":3.028151750564575,"560":-16.984838485717773,"561":-1.6356157064437866,"562":11.432168006896973,"563":-6.922708511352539,"564":15.466605186462402,"565":1.5166590213775635,"566":0.5136929750442505,"567":0.27537164092063904,"568":-6.359210968017578,"569":2.377969741821289,"570":17.95302391052246,"571":6.293996810913086,"572":19.742191314697266,"573":3.312668561935425,"574":-15.89646053314209,"575":-15.190069198608398,"576":-8.909259796142578,"577":28.080602645874023,"578":9.326986312866211,"579":-39.78525161743164,"580":4.486654281616211,"581":-0.5936849117279053,"582":-8.218535423278809,"583":1.107846736907959,"584":7.530206680297852,"585":-2.402540922164917,"586":6.420759677886963,"587":0.6762558221817017,"588":3.485348701477051,"589":8.716567993164062,"590":9.346719741821289,"591":2.825127363204956,"592":1.1174554824829102,"593":-1.8757364749908447,"594":-3.595381498336792,"595":-4.8171706199646,"596":5.744645595550537,"597":8.425769805908203,"598":-2.7380917072296143,"599":-0.004468569997698069,"600":2.2458150386810303,"601":-2.8681275844573975,"602":1.4075011014938354,"603":10.051304817199707,"604":11.058053970336914,"605":-7.6029276847839355,"606":-1.544366478919983,"607":-11.63613510131836,"608":8.490300178527832,"609":18.971406936645508,"610":26.998991012573242,"611":10.167954444885254,"612":-7.504596710205078,"613":-19.950830459594727,"614":4.7918524742126465,"615":15.404447555541992,"616":-19.44059944152832,"617":5.673692226409912,"618":-14.787901878356934,"619":18.416330337524414,"620":7.956543445587158,"621":-25.130361557006836,"622":-22.1314754486084,"623":5.78663969039917,"624":2.2069244384765625,"625":-10.453296661376953,"626":-14.058382034301758,"627":-8.591087341308594,"628":-13.764945030212402,"629":-15.090438842773438,"630":-12.459481239318848,"631":-40.254581451416016,"632":-2.9345102310180664,"633":-6.068072319030762,"634":6.594533920288086,"635":11.887131690979004,"636":-7.4070305824279785,"637":22.579465866088867,"638":14.269599914550781,"639":-14.768264770507812,"640":-11.78657054901123,"641":24.269229888916016,"642":-10.509284973144531,"643":-11.96900463104248,"644":-14.138410568237305,"645":6.292848587036133,"646":14.358975410461426,"647":-17.48250389099121,"648":12.590648651123047,"649":16.47533416748047,"650":-7.728983402252197,"651":17.621719360351562,"652":-4.98746395111084,"653":-11.886207580566406,"654":-8.106531143188477,"655":-19.100650787353516,"656":-9.595782279968262,"657":0.05433909595012665,"658":20.772659301757812,"659":7.985066890716553,"660":-4.877779006958008,"661":0.30731359124183655,"662":-25.676868438720703,"663":16.50297737121582,"664":4.6973676681518555,"665":-4.9998779296875,"666":-4.387253761291504,"667":118.66126251220703,"668":109.41665649414062,"669":4.281304836273193,"670":104.47801208496094,"671":23.818031311035156,"672":106.64815521240234,"673":-104.7211685180664,"674":-6.839321613311768,"675":37.91109085083008,"676":-40.80999755859375,"677":12.16294002532959,"678":105.54771423339844,"679":-49.959476470947266,"680":71.8152084350586,"681":-85.75306701660156,"682":30.554283142089844,"683":-23.8287410736084,"684":33.90045166015625,"685":103.072265625,"686":-112.61782836914062,"687":64.40360260009766,"688":-81.53364562988281,"689":39.67658615112305,"690":112.04557800292969,"691":-2.4448633193969727,"692":110.4050521850586,"693":76.24549102783203,"694":-74.18831634521484,"695":-8.064634323120117,"696":-0.3045639991760254,"697":-4.4010419845581055,"698":1.3026139736175537,"699":3.2334392070770264,"700":8.436334609985352,"701":0.982974112033844,"702":2.227039337158203,"703":-0.6731711626052856,"704":6.320165157318115,"705":5.6892313957214355,"706":2.669766902923584,"707":1.684072494506836,"708":-3.3126416206359863,"709":-4.351748943328857,"710":-9.986893653869629,"711":0.26579228043556213,"712":5.580825328826904,"713":-0.3513334095478058,"714":1.2515149116516113,"715":-3.7841432094573975,"716":1.4642595052719116,"717":-4.27244234085083,"718":-2.579684019088745,"719":5.868957042694092,"720":1.509031057357788,"721":2.693728446960449,"722":1.381644368171692,"723":-0.6370971202850342,"724":0.06013286113739014,"725":-782.0938720703125,"726":813.821044921875,"727":-812.89306640625,"728":779.3999633789062,"729":-688.1575317382812,"730":815.0738525390625,"731":784.873046875,"732":766.8208618164062,"733":833.982666015625,"734":-805.6802978515625,"735":-831.6913452148438,"736":843.3670043945312,"737":797.1536865234375,"738":-788.188720703125,"739":-774.4719848632812,"740":-801.8171997070312,"741":810.2088623046875,"742":838.4904174804688,"743":729.3743286132812,"744":-733.310546875,"745":-776.3584594726562,"746":-772.3721313476562,"747":-747.749267578125,"748":-681.2832641601562,"749":-766.8214111328125,"750":768.438232421875,"751":-752.11962890625,"752":-752.5206298828125,"753":-801.3843383789062,"754":-9.857460975646973,"755":-56.42542266845703,"756":70.82941436767578,"757":-62.856449127197266,"758":-60.30290603637695,"759":-17.056184768676758,"760":57.54691696166992,"761":-33.53050231933594,"762":24.90615463256836,"763":-33.24540328979492,"764":-19.90485954284668,"765":-63.85447311401367,"766":18.705129623413086,"767":-20.691028594970703,"768":39.736412048339844,"769":-21.190608978271484,"770":26.21800994873047,"771":-36.584354400634766,"772":-15.86379623413086,"773":-83.74653625488281,"774":44.15078353881836,"775":-7.655256271362305,"776":44.51002502441406,"777":-41.99557876586914,"778":-78.36717987060547,"779":47.08663558959961,"780":-81.67991638183594,"781":4.57608699798584,"782":-63.066741943359375,"783":2.568801164627075,"784":-6.832234859466553,"785":-0.610809326171875,"786":-5.870728492736816,"787":-4.508243083953857,"788":-1.5882179737091064,"789":4.860764980316162,"790":-3.6437060832977295,"791":-2.923891305923462,"792":1.3676244020462036,"793":4.860288143157959,"794":-3.4792466163635254,"795":-5.231945514678955,"796":-4.264004230499268,"797":-7.129793167114258,"798":0.7661621570587158,"799":-2.531233310699463,"800":-1.551406979560852,"801":0.05299534648656845,"802":-3.738389730453491,"803":-1.037614345550537,"804":1.832617163658142,"805":-6.895333766937256,"806":-4.286255359649658,"807":9.701395034790039,"808":-2.8985984325408936,"809":0.0872286707162857,"810":2.386958360671997,"811":-2.0216360092163086,"812":31.72783088684082,"813":94.45661926269531,"814":-0.3749016523361206,"815":-71.35386657714844,"816":-13.341266632080078,"817":-18.86387825012207,"818":-70.11616516113281,"819":-68.39128875732422,"820":-69.18875122070312,"821":-31.147775650024414,"822":85.18534851074219,"823":-20.2894287109375,"824":-43.37672424316406,"825":-22.218910217285156,"826":31.98423957824707,"827":-0.34224769473075867,"828":57.28694534301758,"829":-40.573699951171875,"830":43.07490158081055,"831":6.847339630126953,"832":1.6066954135894775,"833":72.1314697265625,"834":25.773801803588867,"835":10.921874046325684,"836":-56.101810455322266,"837":-54.44847869873047,"838":-50.53452682495117,"839":-75.97041320800781,"840":37.1460075378418,"841":4.938490867614746,"842":1.6570830345153809,"843":-1.873892068862915,"844":5.329324722290039,"845":2.311918020248413,"846":-2.5734825134277344,"847":2.622037887573242,"848":-0.2895914614200592,"849":-3.424133062362671,"850":-1.5683029890060425,"851":0.3244541585445404,"852":2.9333605766296387,"853":-0.005058784503489733,"854":0.3034891188144684,"855":-5.331197738647461,"856":2.79341983795166,"857":7.5108561515808105,"858":-0.8855185508728027,"859":-1.2166337966918945,"860":2.0928993225097656,"861":-0.19677668809890747,"862":-0.1304928958415985,"863":1.1104434728622437,"864":-4.904769420623779,"865":-0.21275654435157776,"866":-2.9946706295013428,"867":2.786949396133423,"868":0.5245605111122131,"869":2.4414451122283936}},"hiddenLayers":[{"inputMatrix":{"rows":20,"columns":29,"weights":{"0":-2.6902546882629395,"1":0.3193150758743286,"2":-5.5387043952941895,"3":-1.0352741479873657,"4":2.3111345767974854,"5":4.293864727020264,"6":4.3054704666137695,"7":0.1963859498500824,"8":-1.3381540775299072,"9":0.16338835656642914,"10":-2.0830442905426025,"11":0.6747311353683472,"12":0.5188671350479126,"13":2.212611198425293,"14":3.862891912460327,"15":-0.591646134853363,"16":1.3949567079544067,"17":4.02897310256958,"18":-3.113880157470703,"19":7.057534217834473,"20":-1.1373958587646484,"21":-0.435811847448349,"22":0.2890285551548004,"23":-2.1392405033111572,"24":4.742323398590088,"25":2.122004270553589,"26":2.064913511276245,"27":-1.5278135538101196,"28":2.5809857845306396,"29":-0.26137232780456543,"30":-0.24993732571601868,"31":0.936829686164856,"32":0.749589741230011,"33":1.1614251136779785,"34":-5.40731143951416,"35":0.857306718826294,"36":-3.718543529510498,"37":-1.0101611614227295,"38":0.9769103527069092,"39":0.41593870520591736,"40":-1.6052353382110596,"41":-0.8791473507881165,"42":0.8975985050201416,"43":-0.897774338722229,"44":-0.5147803425788879,"45":2.3294782638549805,"46":-1.0700547695159912,"47":-0.5728863477706909,"48":-1.8731894493103027,"49":2.414018154144287,"50":-2.119333267211914,"51":-0.7953959107398987,"52":2.1078991889953613,"53":1.606070637702942,"54":-3.100911855697632,"55":4.508718967437744,"56":0.7248786091804504,"57":-0.7607334852218628,"58":3.338996648788452,"59":-1.029367208480835,"60":-0.7334473133087158,"61":-0.7338414192199707,"62":1.4826219081878662,"63":-3.2166566848754883,"64":1.9053051471710205,"65":-0.5248099565505981,"66":-3.1760478019714355,"67":-1.8047410249710083,"68":7.705373287200928,"69":-1.7164649963378906,"70":2.940553903579712,"71":0.28084129095077515,"72":-2.760578155517578,"73":-2.3007149696350098,"74":0.5285192131996155,"75":-0.6276851296424866,"76":2.205475330352783,"77":-2.062415361404419,"78":2.948331356048584,"79":3.5897607803344727,"80":0.11834748089313507,"81":-1.009555697441101,"82":-4.8862104415893555,"83":-4.263385772705078,"84":-1.4960477352142334,"85":-0.053764376789331436,"86":1.1663227081298828,"87":-0.4931845963001251,"88":-0.6938989162445068,"89":-0.4519751965999603,"90":3.0393118858337402,"91":3.5295350551605225,"92":-0.8805323243141174,"93":-1.9938666820526123,"94":-1.04655122756958,"95":-1.134724497795105,"96":-3.5686824321746826,"97":-1.527585506439209,"98":2.566016435623169,"99":2.1305859088897705,"100":0.5794221758842468,"101":0.46938860416412354,"102":0.289238840341568,"103":4.361147403717041,"104":0.17735236883163452,"105":-3.9733481407165527,"106":-1.9460169076919556,"107":5.983676433563232,"108":-2.284869909286499,"109":6.038897514343262,"110":2.0244219303131104,"111":2.0136101245880127,"112":4.252159595489502,"113":0.055834803730249405,"114":-0.5697436928749084,"115":2.861988067626953,"116":-3.3609485626220703,"117":-0.7968890070915222,"118":-1.931023359298706,"119":-3.6414027214050293,"120":-4.967723369598389,"121":0.31144577264785767,"122":-3.508450508117676,"123":-0.22140102088451385,"124":-4.834024429321289,"125":-3.6860904693603516,"126":-0.4930437505245209,"127":-0.6239511966705322,"128":2.340937852859497,"129":-1.0360041856765747,"130":-1.7737617492675781,"131":-1.16901433467865,"132":1.308708906173706,"133":2.8251023292541504,"134":1.3215246200561523,"135":6.42132043838501,"136":2.371364116668701,"137":1.223185658454895,"138":6.074410915374756,"139":-2.750169038772583,"140":-2.6340551376342773,"141":-2.3032772541046143,"142":2.8770811557769775,"143":2.13432240486145,"144":3.5967228412628174,"145":3.5013527870178223,"146":0.11070378869771957,"147":1.7121235132217407,"148":1.0233110189437866,"149":2.094026565551758,"150":0.46978193521499634,"151":0.6840927004814148,"152":2.3241984844207764,"153":-0.1243877187371254,"154":-0.8773120045661926,"155":1.9946379661560059,"156":-0.23974964022636414,"157":4.488129615783691,"158":4.6253252029418945,"159":2.1983556747436523,"160":-1.1834290027618408,"161":1.9933687448501587,"162":-2.145259141921997,"163":-0.5335405468940735,"164":-4.118101119995117,"165":-2.6771042346954346,"166":-0.6534627079963684,"167":3.2310447692871094,"168":0.026477228850126266,"169":-2.998697519302368,"170":-3.5267162322998047,"171":6.421083927154541,"172":-2.8618905544281006,"173":6.068797588348389,"174":-1.6268271207809448,"175":1.7309342622756958,"176":-1.258162021636963,"177":1.9781948328018188,"178":0.13413874804973602,"179":2.617387056350708,"180":3.3297741413116455,"181":-1.0048576593399048,"182":6.025286674499512,"183":0.7982636094093323,"184":-2.4770522117614746,"185":0.9263200759887695,"186":1.610920786857605,"187":-1.7774384021759033,"188":-0.35882434248924255,"189":-1.5281577110290527,"190":3.4368038177490234,"191":5.107632160186768,"192":2.6147074699401855,"193":1.2925060987472534,"194":-3.810479164123535,"195":0.898536205291748,"196":-0.9102371335029602,"197":0.24006856977939606,"198":-2.8445334434509277,"199":-1.455735445022583,"200":-0.7930458784103394,"201":-0.26421573758125305,"202":-2.9756948947906494,"203":-0.9019122123718262,"204":5.670876502990723,"205":0.5050092339515686,"206":2.5831847190856934,"207":-0.6503771543502808,"208":-1.567083477973938,"209":-0.5155358910560608,"210":1.2479418516159058,"211":2.5192654132843018,"212":-0.4669584035873413,"213":1.929731845855713,"214":-0.42767441272735596,"215":1.3948309421539307,"216":-1.470628261566162,"217":-2.7261745929718018,"218":1.6192642450332642,"219":-0.19686484336853027,"220":-1.1466950178146362,"221":4.780124187469482,"222":-4.446002006530762,"223":4.590449810028076,"224":-0.2931186854839325,"225":3.135664463043213,"226":-3.6989634037017822,"227":-0.34704339504241943,"228":0.640803337097168,"229":2.853837490081787,"230":2.5633974075317383,"231":1.859128713607788,"232":5.287844181060791,"233":-3.289259910583496,"234":-2.6054458618164062,"235":0.05077384039759636,"236":0.2350160926580429,"237":3.8642616271972656,"238":0.08113425970077515,"239":-3.1280033588409424,"240":2.2442128658294678,"241":2.3070945739746094,"242":-0.3557158410549164,"243":0.903165340423584,"244":-0.31796959042549133,"245":0.3853168785572052,"246":-1.5418422222137451,"247":1.0207585096359253,"248":-2.2442314624786377,"249":4.719964504241943,"250":1.1951936483383179,"251":3.2752532958984375,"252":-0.3236065208911896,"253":-0.6381306052207947,"254":-0.5399772524833679,"255":6.007347583770752,"256":3.700568675994873,"257":0.7808424830436707,"258":-1.293460488319397,"259":2.3838462829589844,"260":-1.3375569581985474,"261":-0.6577895283699036,"262":-2.8895692825317383,"263":1.4428273439407349,"264":1.2132056951522827,"265":-2.8922417163848877,"266":-5.230353832244873,"267":1.7377523183822632,"268":-0.5149097442626953,"269":-1.4624788761138916,"270":-0.03065495193004608,"271":-1.6584066152572632,"272":-2.2114977836608887,"273":0.9486261010169983,"274":-0.10643886029720306,"275":-5.697430610656738,"276":-4.61803674697876,"277":-1.3735064268112183,"278":0.05870649591088295,"279":4.659559726715088,"280":-3.565621852874756,"281":4.354870796203613,"282":-0.7078861594200134,"283":2.272674798965454,"284":-1.8574748039245605,"285":1.551155924797058,"286":-2.846536874771118,"287":-0.4003726840019226,"288":-1.8006280660629272,"289":0.23063676059246063,"290":0.5076669454574585,"291":6.867511749267578,"292":1.2466152906417847,"293":-2.2365076541900635,"294":-1.301433801651001,"295":-3.7241272926330566,"296":-5.265367031097412,"297":-2.0021443367004395,"298":1.8118799924850464,"299":2.81268310546875,"300":-3.4053876399993896,"301":-0.534125030040741,"302":-1.0276472568511963,"303":0.21274711191654205,"304":-1.443771243095398,"305":5.917341232299805,"306":-3.1712896823883057,"307":-1.0437877178192139,"308":4.469138145446777,"309":-5.687305927276611,"310":4.587884902954102,"311":-2.087055206298828,"312":-0.4994392693042755,"313":2.587632656097412,"314":2.8535475730895996,"315":4.161016464233398,"316":-7.8215484619140625,"317":0.9321501851081848,"318":3.4331862926483154,"319":-1.4080489873886108,"320":-3.6882286071777344,"321":0.010117743164300919,"322":1.9395641088485718,"323":0.022054575383663177,"324":-0.08661320060491562,"325":-2.9362125396728516,"326":4.618917465209961,"327":0.9766755104064941,"328":1.6208138465881348,"329":0.993366539478302,"330":1.1655346155166626,"331":-1.1738381385803223,"332":0.6427630186080933,"333":0.5550777316093445,"334":0.7140501737594604,"335":0.44087252020835876,"336":0.7092010378837585,"337":4.42421817779541,"338":-3.961914539337158,"339":1.9346988201141357,"340":0.907939612865448,"341":0.8821161389350891,"342":1.6813230514526367,"343":-5.715999603271484,"344":-0.15314987301826477,"345":-3.6415951251983643,"346":-1.080875039100647,"347":2.353006601333618,"348":-1.4573767185211182,"349":-2.2423603534698486,"350":-2.2272729873657227,"351":2.4066622257232666,"352":0.19307255744934082,"353":3.4691989421844482,"354":-2.2879292964935303,"355":-3.599731206893921,"356":-0.9491287469863892,"357":1.511741042137146,"358":-1.272729516029358,"359":0.39541998505592346,"360":0.4572316110134125,"361":0.8031120300292969,"362":0.5737310647964478,"363":-3.943586587905884,"364":2.2784667015075684,"365":1.250945806503296,"366":2.1858208179473877,"367":3.597184181213379,"368":-2.0571892261505127,"369":-2.9067320823669434,"370":-1.3736568689346313,"371":-0.6387964487075806,"372":4.480328559875488,"373":0.9707534313201904,"374":2.8094375133514404,"375":5.024477958679199,"376":-0.43302643299102783,"377":-0.6826747059822083,"378":-5.033008098602295,"379":2.635857582092285,"380":2.9459033012390137,"381":1.479597806930542,"382":0.5747846961021423,"383":-1.6769052743911743,"384":-0.6452551484107971,"385":1.6320160627365112,"386":-0.746798574924469,"387":-1.897275686264038,"388":3.2908694744110107,"389":-0.07783658057451248,"390":-4.330513954162598,"391":0.4945047199726105,"392":-2.0303003787994385,"393":-0.8848161101341248,"394":0.9887558221817017,"395":-3.312481164932251,"396":-2.325758695602417,"397":6.839211940765381,"398":0.6261998414993286,"399":1.4038465023040771,"400":1.9287917613983154,"401":-0.8208504915237427,"402":1.6122829914093018,"403":-1.6751799583435059,"404":4.168428421020508,"405":-2.1555426120758057,"406":-2.1384267807006836,"407":-5.922283172607422,"408":3.348618984222412,"409":2.865856885910034,"410":-1.0194734334945679,"411":0.07990369945764542,"412":-4.218597412109375,"413":3.26143217086792,"414":0.24204346537590027,"415":-1.4822893142700195,"416":0.12983183562755585,"417":-5.356290817260742,"418":-2.031486988067627,"419":-0.9185081720352173,"420":-0.14581537246704102,"421":1.5243529081344604,"422":-4.766373634338379,"423":1.159529209136963,"424":-1.6554898023605347,"425":-1.7937867641448975,"426":3.3956475257873535,"427":-3.170769453048706,"428":-3.110807180404663,"429":-0.3275549113750458,"430":2.259486675262451,"431":-0.387956440448761,"432":-1.1648021936416626,"433":-0.18057763576507568,"434":3.197176933288574,"435":2.2404770851135254,"436":-2.9652321338653564,"437":2.5078296661376953,"438":-3.340047836303711,"439":-1.706856369972229,"440":2.5556890964508057,"441":-1.6239376068115234,"442":-0.21412163972854614,"443":2.9515509605407715,"444":0.882042407989502,"445":-1.028768539428711,"446":-1.8065840005874634,"447":-1.7820863723754883,"448":-3.715383529663086,"449":3.515796661376953,"450":2.8728249073028564,"451":-3.3200623989105225,"452":-3.3813583850860596,"453":0.2707340121269226,"454":0.9394276738166809,"455":-4.079986572265625,"456":-1.5388643741607666,"457":-2.8157482147216797,"458":-0.07362227141857147,"459":-0.24795393645763397,"460":-1.861367106437683,"461":5.522180557250977,"462":-0.9726077914237976,"463":-1.4944491386413574,"464":-1.2762278318405151,"465":-1.3319967985153198,"466":1.8531813621520996,"467":0.8202115893363953,"468":0.841140627861023,"469":-0.15983596444129944,"470":2.2417004108428955,"471":0.8498724102973938,"472":1.494320273399353,"473":-0.17812319099903107,"474":1.3189644813537598,"475":6.270873546600342,"476":-6.086644649505615,"477":1.2511910200119019,"478":-1.9083704948425293,"479":1.4011307954788208,"480":-1.2435510158538818,"481":-2.2988522052764893,"482":0.24343955516815186,"483":-0.24758610129356384,"484":1.0011370182037354,"485":0.7894341945648193,"486":0.24094711244106293,"487":-3.733205795288086,"488":-0.550038754940033,"489":0.49465614557266235,"490":2.704282760620117,"491":-1.2753828763961792,"492":-0.03221288323402405,"493":-3.025186777114868,"494":0.1201164722442627,"495":-0.8649432063102722,"496":-0.7789256572723389,"497":3.504204750061035,"498":2.7543325424194336,"499":-4.053958415985107,"500":-0.5457624793052673,"501":-1.8513126373291016,"502":-5.898861408233643,"503":-1.2645131349563599,"504":-0.6156821846961975,"505":-7.043400764465332,"506":-0.2950655221939087,"507":1.3920708894729614,"508":3.742438554763794,"509":1.9252415895462036,"510":-4.038006782531738,"511":-1.2565703392028809,"512":-5.759715557098389,"513":1.0752888917922974,"514":0.025696953758597374,"515":-2.103133201599121,"516":4.652346134185791,"517":6.051465034484863,"518":-1.3858728408813477,"519":2.593097686767578,"520":-3.568777561187744,"521":0.7241665720939636,"522":-0.10860449075698853,"523":4.098607063293457,"524":8.608804702758789,"525":-2.7152023315429688,"526":-2.9133708477020264,"527":0.9038340449333191,"528":-1.8632481098175049,"529":2.1087303161621094,"530":0.6005518436431885,"531":-1.6565059423446655,"532":-3.9934558868408203,"533":7.597929000854492,"534":5.060431957244873,"535":0.08591602742671967,"536":-2.232978582382202,"537":3.9270424842834473,"538":3.8782997131347656,"539":-2.539017915725708,"540":-1.3352771997451782,"541":3.6494359970092773,"542":-5.524876117706299,"543":-1.0172464847564697,"544":-0.8009312152862549,"545":1.7533432245254517,"546":4.118934631347656,"547":3.345669984817505,"548":0.27118030190467834,"549":1.9245861768722534,"550":1.1603630781173706,"551":-1.2655080556869507,"552":-2.282160758972168,"553":4.581630706787109,"554":0.1488911211490631,"555":-4.997056484222412,"556":0.5004070401191711,"557":-2.734830141067505,"558":3.199831485748291,"559":3.3623738288879395,"560":-2.353670358657837,"561":-2.0506207942962646,"562":-1.718859314918518,"563":0.6955764889717102,"564":1.112975001335144,"565":-2.7839362621307373,"566":5.578774452209473,"567":-0.5552430152893066,"568":0.2819438874721527,"569":3.4221925735473633,"570":0.15543989837169647,"571":5.577112197875977,"572":1.863471508026123,"573":-1.1529558897018433,"574":2.5824155807495117,"575":-0.8747575283050537,"576":3.6787822246551514,"577":-0.5574776530265808,"578":-1.5375995635986328,"579":-0.39952972531318665}},"inputHidden":{"rows":20,"columns":20,"weights":{"0":7.521129131317139,"1":-0.28913310170173645,"2":10.30166244506836,"3":-6.941068649291992,"4":0.8222318887710571,"5":-0.45465198159217834,"6":8.293624877929688,"7":0.9617819786071777,"8":-3.3245508670806885,"9":-2.2227237224578857,"10":-7.669198989868164,"11":-7.664801597595215,"12":-8.06775951385498,"13":5.3601155281066895,"14":8.330225944519043,"15":-4.888274669647217,"16":5.1416544914245605,"17":14.010295867919922,"18":-12.415873527526855,"19":-9.807059288024902,"20":-16.169469833374023,"21":12.508480072021484,"22":-6.002773284912109,"23":0.5346793532371521,"24":0.7463729977607727,"25":12.8311185836792,"26":-13.040982246398926,"27":15.010627746582031,"28":-2.577765703201294,"29":-12.614222526550293,"30":16.82841682434082,"31":12.655906677246094,"32":-5.471536636352539,"33":3.3883578777313232,"34":5.775862693786621,"35":-16.521371841430664,"36":-2.3507235050201416,"37":1.346625566482544,"38":-2.3092894554138184,"39":6.978967666625977,"40":1.1230189800262451,"41":14.69839859008789,"42":5.205723762512207,"43":-2.048102855682373,"44":-5.224756240844727,"45":-3.719470262527466,"46":-9.471524238586426,"47":-7.621748924255371,"48":-5.113182067871094,"49":8.988353729248047,"50":5.737837314605713,"51":-6.059394359588623,"52":-0.20769162476062775,"53":8.99107551574707,"54":-3.4742274284362793,"55":0.3652556538581848,"56":-11.014476776123047,"57":-9.050193786621094,"58":6.626223564147949,"59":-8.625378608703613,"60":8.11151123046875,"61":-3.138882637023926,"62":19.926387786865234,"63":-3.700655460357666,"64":14.492073059082031,"65":8.873274803161621,"66":7.859219074249268,"67":-5.973793029785156,"68":7.2949652671813965,"69":-7.294629096984863,"70":-6.749946117401123,"71":-5.587870121002197,"72":0.6331595182418823,"73":13.381566047668457,"74":5.144752502441406,"75":8.586980819702148,"76":1.5406430959701538,"77":-2.4431352615356445,"78":-7.101007461547852,"79":1.4119635820388794,"80":-0.5089311003684998,"81":4.660582065582275,"82":6.713106155395508,"83":-4.399679660797119,"84":5.194233417510986,"85":0.36663785576820374,"86":0.43876856565475464,"87":-10.117119789123535,"88":0.2651478350162506,"89":8.615106582641602,"90":8.382292747497559,"91":3.4520812034606934,"92":8.992265701293945,"93":-0.8681049346923828,"94":2.1823134422302246,"95":-4.290243625640869,"96":5.64302921295166,"97":2.4680707454681396,"98":-4.555908679962158,"99":0.40536949038505554,"100":0.5777640342712402,"101":-2.292989492416382,"102":-13.129886627197266,"103":-6.630359172821045,"104":3.7813830375671387,"105":-10.81781005859375,"106":1.3798017501831055,"107":-22.309480667114258,"108":-6.662472248077393,"109":7.406488418579102,"110":-4.728600978851318,"111":6.716097831726074,"112":-5.990067481994629,"113":8.42152214050293,"114":2.9166884422302246,"115":-7.718186855316162,"116":1.0976144075393677,"117":9.604313850402832,"118":8.115852355957031,"119":-7.587510585784912,"120":-5.937067985534668,"121":-4.249748229980469,"122":-1.8223905563354492,"123":4.518209934234619,"124":-1.793506383895874,"125":-3.558471202850342,"126":2.199523448944092,"127":6.475708961486816,"128":-3.045250177383423,"129":14.195047378540039,"130":-13.037546157836914,"131":9.647015571594238,"132":23.415117263793945,"133":-8.287479400634766,"134":1.7676101922988892,"135":-16.883657455444336,"136":-5.204742431640625,"137":5.140992641448975,"138":-11.46999740600586,"139":-2.0548925399780273,"140":13.136530876159668,"141":-0.6339266896247864,"142":0.9401456117630005,"143":-18.70855712890625,"144":2.922537326812744,"145":-2.799295663833618,"146":1.8636620044708252,"147":13.029742240905762,"148":-1.7116566896438599,"149":3.2846925258636475,"150":6.431534767150879,"151":1.8969589471817017,"152":-3.646771192550659,"153":2.4264631271362305,"154":-6.562133312225342,"155":-5.888501167297363,"156":-4.889462947845459,"157":-11.882532119750977,"158":7.412564277648926,"159":-2.04274845123291,"160":2.2047886848449707,"161":8.99555778503418,"162":4.824594974517822,"163":2.8789501190185547,"164":5.913132667541504,"165":-2.2290024757385254,"166":3.856444835662842,"167":7.007595539093018,"168":4.468428134918213,"169":16.010629653930664,"170":13.887267112731934,"171":-4.189469337463379,"172":1.1860511302947998,"173":-5.611142635345459,"174":10.193587303161621,"175":4.509586334228516,"176":12.678618431091309,"177":3.562310218811035,"178":13.330876350402832,"179":4.618007183074951,"180":-0.28619441390037537,"181":4.7487359046936035,"182":-4.979935169219971,"183":6.405903339385986,"184":6.46335506439209,"185":1.3259798288345337,"186":7.933375358581543,"187":4.089936256408691,"188":12.532478332519531,"189":8.293469429016113,"190":3.4445972442626953,"191":-6.986259937286377,"192":-14.53838062286377,"193":6.115600109100342,"194":-6.380195617675781,"195":6.104095458984375,"196":-6.647568225860596,"197":-11.164580345153809,"198":-16.336496353149414,"199":8.750304222106934,"200":-0.17651361227035522,"201":-3.6121060848236084,"202":4.969141006469727,"203":-11.851024627685547,"204":12.153788566589355,"205":-10.156743049621582,"206":-1.4947611093521118,"207":0.42058902978897095,"208":1.0411838293075562,"209":-3.0831074714660645,"210":6.4618425369262695,"211":6.256015300750732,"212":-2.2011046409606934,"213":11.753133773803711,"214":-0.24207785725593567,"215":-9.24252986907959,"216":8.608421325683594,"217":-4.831907272338867,"218":-8.217306137084961,"219":4.857104301452637,"220":-5.743533611297607,"221":7.526897430419922,"222":-9.196227073669434,"223":2.270498037338257,"224":13.409280776977539,"225":-19.71560287475586,"226":13.6292724609375,"227":-7.150842666625977,"228":-17.54676628112793,"229":1.8599903583526611,"230":14.705016136169434,"231":-5.705102920532227,"232":0.4153905510902405,"233":-6.2416462898254395,"234":-6.54024600982666,"235":-10.372672080993652,"236":10.340483665466309,"237":7.971541881561279,"238":-1.8660367727279663,"239":-4.504830360412598,"240":7.906322479248047,"241":-6.693748474121094,"242":0.29117295145988464,"243":8.754638671875,"244":-0.4517112672328949,"245":5.450788497924805,"246":-7.317224979400635,"247":8.466588973999023,"248":-3.2415597438812256,"249":-2.451367139816284,"250":-2.3110923767089844,"251":11.858914375305176,"252":-14.550931930541992,"253":2.4596664905548096,"254":11.58654499053955,"255":-0.911237895488739,"256":6.515312194824219,"257":11.575362205505371,"258":-0.2896159887313843,"259":-9.865772247314453,"260":-0.3060385286808014,"261":0.6457569599151611,"262":-8.985376358032227,"263":-2.5367743968963623,"264":2.177623987197876,"265":23.46581268310547,"266":-9.410703659057617,"267":17.719345092773438,"268":6.564943790435791,"269":-10.597942352294922,"270":-2.4457247257232666,"271":-5.00596284866333,"272":3.700639009475708,"273":11.189698219299316,"274":11.791382789611816,"275":-12.098762512207031,"276":2.1133646965026855,"277":5.657391548156738,"278":-6.450425624847412,"279":15.43576717376709,"280":11.533992767333984,"281":3.015774965286255,"282":10.538165092468262,"283":-3.92744779586792,"284":-6.401438236236572,"285":0.7940042614936829,"286":8.322648048400879,"287":-9.154873847961426,"288":12.542165756225586,"289":-0.22978942096233368,"290":-2.8900797367095947,"291":-0.7477205395698547,"292":-3.9382164478302,"293":4.441094875335693,"294":0.43147847056388855,"295":-6.459557056427002,"296":-3.7833175659179688,"297":-9.741539001464844,"298":1.941951036453247,"299":-5.215921401977539,"300":-6.15939474105835,"301":-4.564528465270996,"302":-0.9804309606552124,"303":-12.597458839416504,"304":-6.141801834106445,"305":1.7261759042739868,"306":8.230039596557617,"307":-17.088661193847656,"308":-4.321136951446533,"309":6.949856758117676,"310":5.373377799987793,"311":10.391088485717773,"312":8.943714141845703,"313":5.010470390319824,"314":-0.03802252560853958,"315":-13.22907829284668,"316":-11.79489803314209,"317":2.881803035736084,"318":-15.783910751342773,"319":5.396806240081787,"320":6.4953484535217285,"321":-5.788417339324951,"322":4.4264092445373535,"323":1.6882730722427368,"324":4.129581928253174,"325":-1.960654616355896,"326":-25.09687042236328,"327":-0.3004152178764343,"328":-2.8054606914520264,"329":-1.4836686849594116,"330":2.4912219047546387,"331":5.667316913604736,"332":-5.200738430023193,"333":12.576448440551758,"334":0.8412100672721863,"335":-20.009666442871094,"336":1.5559043884277344,"337":0.9090538024902344,"338":9.192606925964355,"339":8.720658302307129,"340":7.160016059875488,"341":-10.202630996704102,"342":0.11257436126470566,"343":-6.787148952484131,"344":-6.63893985748291,"345":-6.331615924835205,"346":-0.3652976453304291,"347":-3.4186160564422607,"348":7.062759876251221,"349":2.6464128494262695,"350":0.526462197303772,"351":4.62955379486084,"352":1.1665743589401245,"353":6.690627574920654,"354":-0.2118941843509674,"355":-3.9594268798828125,"356":0.2839992642402649,"357":4.010624408721924,"358":-12.326229095458984,"359":3.539989709854126,"360":-4.324041843414307,"361":-5.728177070617676,"362":3.6687750816345215,"363":-1.3767324686050415,"364":-3.6078174114227295,"365":-1.1649247407913208,"366":12.314531326293945,"367":-5.751885890960693,"368":10.910109519958496,"369":-11.904929161071777,"370":-12.35917854309082,"371":-2.5612428188323975,"372":-11.394389152526855,"373":-0.9584318399429321,"374":5.513678550720215,"375":7.29042387008667,"376":-2.9597327709198,"377":3.620323657989502,"378":11.981661796569824,"379":-9.329805374145508,"380":4.045796871185303,"381":1.8856432437896729,"382":10.532882690429688,"383":-8.62385082244873,"384":-4.224062442779541,"385":5.606908321380615,"386":1.4817265272140503,"387":2.117061138153076,"388":14.704521179199219,"389":0.9481779932975769,"390":11.341914176940918,"391":7.061270713806152,"392":7.746458530426025,"393":-3.114436149597168,"394":6.142178535461426,"395":-2.257272243499756,"396":0.021630121394991875,"397":-5.301794528961182,"398":5.76418399810791,"399":11.72365951538086}},"inputBias":{"rows":20,"columns":1,"weights":{"0":-0.051023513078689575,"1":3.6402597427368164,"2":-0.8502753376960754,"3":-2.478724241256714,"4":3.216202974319458,"5":3.471909523010254,"6":-2.174248456954956,"7":-0.510036826133728,"8":3.549994707107544,"9":0.7558541893959045,"10":3.4559245109558105,"11":8.556620597839355,"12":-0.004198869690299034,"13":-4.2360663414001465,"14":1.2530213594436646,"15":0.9456714987754822,"16":-9.349785804748535,"17":1.4139070510864258,"18":4.3013811111450195,"19":0.0011174685787409544}},"forgetMatrix":{"rows":20,"columns":29,"weights":{"0":-2.276139497756958,"1":-0.5251235365867615,"2":0.5406140089035034,"3":0.6003568768501282,"4":-1.6827037334442139,"5":-1.9930992126464844,"6":-1.7103221416473389,"7":-0.8607901930809021,"8":0.300530344247818,"9":-1.6659208536148071,"10":-0.1364576518535614,"11":-4.54217004776001,"12":-4.390631675720215,"13":-2.8342854976654053,"14":-1.8510582447052002,"15":-2.0466041564941406,"16":-4.735945701599121,"17":-1.5112510919570923,"18":-0.9616830945014954,"19":-4.563263416290283,"20":-1.7828351259231567,"21":7.417473316192627,"22":-3.622685194015503,"23":2.6339073181152344,"24":1.3753342628479004,"25":1.885543704032898,"26":-0.7688516974449158,"27":-3.2841243743896484,"28":1.6399785280227661,"29":-1.4668543338775635,"30":0.9270573258399963,"31":0.22516198456287384,"32":-1.490128517150879,"33":1.0383775234222412,"34":8.6545991897583,"35":0.045110005885362625,"36":-0.9378364682197571,"37":-1.6348060369491577,"38":6.206921577453613,"39":-4.377866268157959,"40":-3.999859094619751,"41":1.0497636795043945,"42":-0.6907879710197449,"43":5.010952949523926,"44":-1.675573468208313,"45":1.948544979095459,"46":-0.9754137992858887,"47":3.7146055698394775,"48":0.27994585037231445,"49":-2.1368696689605713,"50":2.184760093688965,"51":2.281242609024048,"52":1.371569275856018,"53":-0.8441756963729858,"54":-2.732463836669922,"55":-3.026721239089966,"56":-3.052323579788208,"57":-2.5659422874450684,"58":0.49155282974243164,"59":-0.7422884106636047,"60":-0.0360545851290226,"61":-3.9100096225738525,"62":0.8201852440834045,"63":1.5127594470977783,"64":1.1894340515136719,"65":-1.074843168258667,"66":1.13615882396698,"67":1.616286277770996,"68":4.517938137054443,"69":1.4504449367523193,"70":0.80124831199646,"71":-2.6271347999572754,"72":-2.259377956390381,"73":4.28401517868042,"74":2.6227939128875732,"75":2.4533157348632812,"76":-2.464813232421875,"77":0.397711843252182,"78":0.559772789478302,"79":-2.4323341846466064,"80":0.10027095675468445,"81":0.030660856515169144,"82":7.147301197052002,"83":0.9762780666351318,"84":-1.8018443584442139,"85":1.6067858934402466,"86":4.951816558837891,"87":-1.8465142250061035,"88":2.617868423461914,"89":-0.44186562299728394,"90":2.3384652137756348,"91":-0.4810330271720886,"92":2.5179286003112793,"93":1.447403907775879,"94":-2.274374008178711,"95":-2.642329216003418,"96":0.17053411900997162,"97":-2.3528170585632324,"98":2.042872905731201,"99":-1.5143626928329468,"100":3.97538423538208,"101":-2.2021965980529785,"102":-2.3828303813934326,"103":-2.6096534729003906,"104":0.40495091676712036,"105":-6.527315139770508,"106":-2.2027957439422607,"107":-2.3167800903320312,"108":-1.191725730895996,"109":-6.850606918334961,"110":0.4889222979545593,"111":-1.1358693838119507,"112":-1.9224739074707031,"113":4.291628360748291,"114":3.5879008769989014,"115":2.6809709072113037,"116":0.6703104376792908,"117":-1.2416361570358276,"118":-0.22868090867996216,"119":0.15833939611911774,"120":0.6468925476074219,"121":-4.104372978210449,"122":-1.0548744201660156,"123":-1.8096941709518433,"124":1.3105117082595825,"125":3.0613269805908203,"126":-0.19860923290252686,"127":-1.6401017904281616,"128":-2.4059135913848877,"129":-5.433104038238525,"130":-4.541234493255615,"131":3.7200541496276855,"132":3.841312885284424,"133":0.02385462448000908,"134":0.6143218874931335,"135":-1.5194510221481323,"136":-0.6037195920944214,"137":-1.0112732648849487,"138":-0.40588346123695374,"139":4.16984224319458,"140":-0.8100000023841858,"141":-1.2743632793426514,"142":-2.6253256797790527,"143":-0.7027699947357178,"144":-1.4699007272720337,"145":0.7662790417671204,"146":-4.271292209625244,"147":3.6130168437957764,"148":1.296455979347229,"149":-4.177769660949707,"150":2.0255625247955322,"151":-0.9807448983192444,"152":-3.920503854751587,"153":2.3667237758636475,"154":-0.7656161785125732,"155":-0.46580976247787476,"156":-3.0131986141204834,"157":1.6013613939285278,"158":-3.412283182144165,"159":-0.2013038694858551,"160":-2.2148215770721436,"161":-4.171860218048096,"162":1.2857940196990967,"163":-0.49802353978157043,"164":1.8323124647140503,"165":-0.8824923038482666,"166":-3.9062180519104004,"167":1.7527904510498047,"168":2.2946207523345947,"169":3.3797028064727783,"170":-3.536935806274414,"171":1.0358331203460693,"172":0.8255500197410583,"173":1.9251421689987183,"174":-3.2114756107330322,"175":-3.797722101211548,"176":-3.0279533863067627,"177":-0.5756555199623108,"178":0.221634179353714,"179":0.7048883438110352,"180":3.145824432373047,"181":0.489307165145874,"182":2.0402865409851074,"183":0.33623918890953064,"184":2.2184035778045654,"185":-2.5162386894226074,"186":2.702254056930542,"187":-0.23792831599712372,"188":-0.4638204872608185,"189":-0.6327797174453735,"190":2.272064208984375,"191":2.535597801208496,"192":-2.961935043334961,"193":4.61947774887085,"194":-0.29285505414009094,"195":-2.8689639568328857,"196":0.49923691153526306,"197":1.9829630851745605,"198":1.8930156230926514,"199":1.1983883380889893,"200":0.9295052289962769,"201":1.4145666360855103,"202":-0.6861523389816284,"203":0.3896719515323639,"204":0.15477100014686584,"205":1.8457436561584473,"206":4.732036590576172,"207":-1.0546526908874512,"208":1.4157196283340454,"209":0.7415592670440674,"210":-3.343047857284546,"211":-2.27789568901062,"212":-2.9456307888031006,"213":-0.702489972114563,"214":-5.155007362365723,"215":1.3424845933914185,"216":-0.6314521431922913,"217":1.2518837451934814,"218":-3.8727383613586426,"219":3.2222180366516113,"220":-0.6377673745155334,"221":-2.5040078163146973,"222":3.342500925064087,"223":-3.331411600112915,"224":1.9049923419952393,"225":2.9740099906921387,"226":-1.9127464294433594,"227":-1.4245659112930298,"228":-1.999875783920288,"229":1.357208013534546,"230":4.198875904083252,"231":-1.2728123664855957,"232":0.6017449498176575,"233":0.8015234470367432,"234":-4.189864158630371,"235":3.189906358718872,"236":0.6106609106063843,"237":-1.4399324655532837,"238":-1.6449438333511353,"239":0.20706595480442047,"240":-3.3086252212524414,"241":-0.8651065230369568,"242":-1.5959080457687378,"243":-1.7707436084747314,"244":2.1266069412231445,"245":0.6743450164794922,"246":-1.282300353050232,"247":2.3644089698791504,"248":0.6357619166374207,"249":4.241005897521973,"250":-3.113328456878662,"251":1.5076900720596313,"252":-1.225266456604004,"253":1.2864145040512085,"254":1.592590093612671,"255":2.7581443786621094,"256":1.3841254711151123,"257":-3.492208957672119,"258":2.2609317302703857,"259":2.1106674671173096,"260":-1.706282138824463,"261":5.329379558563232,"262":-0.27783340215682983,"263":12.870623588562012,"264":-3.902107000350952,"265":3.62552547454834,"266":3.5849297046661377,"267":4.442359924316406,"268":4.328787326812744,"269":0.49170055985450745,"270":1.3470478057861328,"271":2.8716933727264404,"272":-1.7621617317199707,"273":-2.6489999294281006,"274":3.3964576721191406,"275":-3.5343546867370605,"276":-2.0733165740966797,"277":-0.8145725131034851,"278":0.48414039611816406,"279":0.9406118392944336,"280":0.18632204830646515,"281":-1.0523128509521484,"282":8.384478569030762,"283":-2.3275792598724365,"284":1.40756094455719,"285":1.7415493726730347,"286":3.671436309814453,"287":0.09867604821920395,"288":4.867828845977783,"289":-0.659929633140564,"290":0.3606255054473877,"291":1.245793104171753,"292":0.059068404138088226,"293":-1.2643967866897583,"294":0.896965503692627,"295":-5.617941379547119,"296":-3.0290892124176025,"297":0.3483763337135315,"298":1.8301639556884766,"299":1.6364880800247192,"300":8.15587043762207,"301":3.062774658203125,"302":0.5205837488174438,"303":-6.475572109222412,"304":-8.098160743713379,"305":0.8884640336036682,"306":1.8666478395462036,"307":-2.252070426940918,"308":0.5602771639823914,"309":3.3017592430114746,"310":-2.6410415172576904,"311":-1.1355894804000854,"312":2.396925926208496,"313":0.4143825173377991,"314":-0.1276223361492157,"315":3.676945209503174,"316":-0.5735859870910645,"317":1.1571993827819824,"318":-0.9037761092185974,"319":-0.2804367244243622,"320":-3.9216442108154297,"321":0.3692643344402313,"322":-0.4651890993118286,"323":-0.5626232624053955,"324":1.4092332124710083,"325":-0.4437897205352783,"326":6.90349006652832,"327":0.5141768455505371,"328":-2.9098856449127197,"329":4.632848739624023,"330":1.071263313293457,"331":0.47689488530158997,"332":1.5012812614440918,"333":-6.561112403869629,"334":-0.7020832896232605,"335":4.133358001708984,"336":-1.123284935951233,"337":0.2232665717601776,"338":-1.9351152181625366,"339":-0.2104308009147644,"340":2.874021053314209,"341":1.2517017126083374,"342":-0.43394964933395386,"343":-2.638219118118286,"344":-3.074204206466675,"345":-1.5608566999435425,"346":0.1360854208469391,"347":0.1445218175649643,"348":-2.7876851558685303,"349":-2.008867025375366,"350":0.25461193919181824,"351":0.27807265520095825,"352":-3.1186132431030273,"353":-1.9850832223892212,"354":0.7612613439559937,"355":-3.2601029872894287,"356":0.443988174200058,"357":4.531003952026367,"358":-4.041959762573242,"359":-3.0252630710601807,"360":-0.04711366072297096,"361":-3.2308759689331055,"362":-1.0362855195999146,"363":-0.6448557376861572,"364":-2.6483469009399414,"365":2.707465410232544,"366":-2.7381389141082764,"367":4.168598175048828,"368":-0.6184563636779785,"369":-1.2069809436798096,"370":0.8199562430381775,"371":-2.389420747756958,"372":2.1199405193328857,"373":-3.371551990509033,"374":-0.1654585599899292,"375":4.056728839874268,"376":0.5954220294952393,"377":0.4417935311794281,"378":3.646965265274048,"379":1.3511772155761719,"380":-2.066718578338623,"381":-2.781933307647705,"382":1.3676804304122925,"383":2.7399823665618896,"384":0.33811336755752563,"385":-3.8503096103668213,"386":-4.998544216156006,"387":2.5975120067596436,"388":-1.5446783304214478,"389":5.48605489730835,"390":-1.2509911060333252,"391":-2.371044635772705,"392":-0.20604470372200012,"393":-2.463568687438965,"394":-8.140813827514648,"395":-1.604029655456543,"396":-2.0676445960998535,"397":-3.5252020359039307,"398":-0.165037602186203,"399":2.3704071044921875,"400":-4.664878845214844,"401":-1.0300655364990234,"402":-2.4039852619171143,"403":3.045414447784424,"404":4.089087963104248,"405":3.068035125732422,"406":1.2254329919815063,"407":0.15364693105220795,"408":0.6648370623588562,"409":-3.608320713043213,"410":1.3744299411773682,"411":-0.3167572021484375,"412":0.6546284556388855,"413":-1.941248893737793,"414":-1.814128041267395,"415":1.9175585508346558,"416":2.7761030197143555,"417":-1.5609233379364014,"418":-1.553539514541626,"419":-2.2898831367492676,"420":5.59850549697876,"421":-3.628504753112793,"422":1.1066781282424927,"423":-5.161165237426758,"424":-2.059499979019165,"425":0.002666980493813753,"426":-2.1405482292175293,"427":1.4481914043426514,"428":-1.4070836305618286,"429":6.49243688583374,"430":2.12196683883667,"431":0.2333899289369583,"432":0.47503161430358887,"433":-2.2936108112335205,"434":-0.30671876668930054,"435":-2.3014755249023438,"436":-2.7054450511932373,"437":-0.40341901779174805,"438":-0.16569942235946655,"439":-0.08218201994895935,"440":-2.1561295986175537,"441":-2.1862668991088867,"442":0.2408800572156906,"443":-1.658859372138977,"444":1.7761964797973633,"445":-2.215261697769165,"446":-6.27506685256958,"447":-0.5197876691818237,"448":1.0203574895858765,"449":-5.0722527503967285,"450":-1.87489914894104,"451":-2.2566821575164795,"452":0.5210012793540955,"453":-3.285656213760376,"454":-3.3839962482452393,"455":0.11564888805150986,"456":-0.18495072424411774,"457":-3.849947929382324,"458":-0.7861761450767517,"459":3.8167881965637207,"460":-0.3928413689136505,"461":-0.7559186220169067,"462":-3.709580659866333,"463":-0.9555168151855469,"464":1.7231159210205078,"465":-5.746038436889648,"466":1.8618651628494263,"467":-2.932669162750244,"468":2.690786361694336,"469":-2.0607621669769287,"470":1.0320783853530884,"471":2.040800094604492,"472":3.4813730716705322,"473":-1.6201012134552002,"474":2.6582741737365723,"475":-0.3866175711154938,"476":-2.367043972015381,"477":0.797886848449707,"478":3.4933362007141113,"479":-0.7383871078491211,"480":1.6475849151611328,"481":-2.117631673812866,"482":4.534278869628906,"483":0.31498706340789795,"484":7.117764949798584,"485":1.8348743915557861,"486":0.39556220173835754,"487":3.723522901535034,"488":-2.161320447921753,"489":2.45770525932312,"490":0.002988518215715885,"491":-1.4167507886886597,"492":5.916100978851318,"493":-5.073705673217773,"494":-2.437204599380493,"495":1.5315499305725098,"496":-3.846078395843506,"497":3.143054723739624,"498":-0.41183993220329285,"499":-1.2459896802902222,"500":5.528675079345703,"501":-1.1707096099853516,"502":-1.1756809949874878,"503":-1.4051345586776733,"504":2.177241086959839,"505":-5.236593246459961,"506":-0.5094420909881592,"507":2.2508976459503174,"508":-2.7559988498687744,"509":1.9093188047409058,"510":1.625637412071228,"511":-1.382296085357666,"512":0.7732581496238708,"513":2.2065298557281494,"514":0.04337475821375847,"515":2.6762518882751465,"516":1.3423852920532227,"517":6.746392250061035,"518":-2.658299446105957,"519":-0.5290589332580566,"520":-1.3893996477127075,"521":2.8412532806396484,"522":-2.9519245624542236,"523":4.008234024047852,"524":1.8559678792953491,"525":0.8722074031829834,"526":3.0428414344787598,"527":-1.5523748397827148,"528":-2.5615413188934326,"529":-0.39015576243400574,"530":0.8338796496391296,"531":-0.08764766156673431,"532":2.303124189376831,"533":6.673588275909424,"534":3.5925660133361816,"535":3.0732531547546387,"536":-2.275317668914795,"537":-0.9735119342803955,"538":0.3389661908149719,"539":-0.5845788717269897,"540":0.25497323274612427,"541":-3.914940595626831,"542":4.296029090881348,"543":3.1429765224456787,"544":-2.532527208328247,"545":-3.940887928009033,"546":0.8103180527687073,"547":4.45133638381958,"548":1.8147406578063965,"549":0.15516844391822815,"550":-2.2341558933258057,"551":-1.903927206993103,"552":-1.0548248291015625,"553":0.2868523895740509,"554":0.22622555494308472,"555":-4.887003421783447,"556":0.031383536756038666,"557":-1.3560811281204224,"558":2.16747784614563,"559":0.9025927186012268,"560":3.8866868019104004,"561":-3.117694139480591,"562":-3.8523504734039307,"563":-1.1549134254455566,"564":-1.1094492673873901,"565":-2.8028199672698975,"566":-0.22569788992404938,"567":-4.222390651702881,"568":2.808570384979248,"569":-2.3436384201049805,"570":0.6989021301269531,"571":-1.9511942863464355,"572":0.6347225308418274,"573":-2.044940710067749,"574":-3.90087890625,"575":2.842982053756714,"576":0.6188364624977112,"577":1.2727746963500977,"578":3.2466301918029785,"579":-2.8489160537719727}},"forgetHidden":{"rows":20,"columns":20,"weights":{"0":3.8214361667633057,"1":2.941326379776001,"2":0.8460628390312195,"3":4.426036834716797,"4":2.7793972492218018,"5":-0.7923380136489868,"6":-9.544488906860352,"7":-4.7479352951049805,"8":-1.2987221479415894,"9":2.760537624359131,"10":-0.698753297328949,"11":0.04347803816199303,"12":6.35468864440918,"13":-3.269432544708252,"14":2.6100072860717773,"15":-6.986970901489258,"16":-4.86021089553833,"17":-9.17959976196289,"18":1.684067726135254,"19":4.950845718383789,"20":-0.8283586502075195,"21":-1.7075119018554688,"22":-1.5810962915420532,"23":-2.3380143642425537,"24":-0.7675922513008118,"25":0.7762668132781982,"26":11.650467872619629,"27":-0.14775216579437256,"28":5.0361809730529785,"29":0.8556288480758667,"30":-2.4882912635803223,"31":-13.089729309082031,"32":-0.19291354715824127,"33":-16.275678634643555,"34":-7.465913772583008,"35":2.876771926879883,"36":-4.127066135406494,"37":2.3138372898101807,"38":-2.563169479370117,"39":-4.429035663604736,"40":-3.112443208694458,"41":-11.576068878173828,"42":6.589831352233887,"43":-12.982315063476562,"44":6.961916923522949,"45":9.394128799438477,"46":-6.14131498336792,"47":-0.9090537428855896,"48":0.08235551416873932,"49":0.5623143315315247,"50":-2.997800588607788,"51":0.7109043002128601,"52":3.853386402130127,"53":5.954070091247559,"54":-7.681121349334717,"55":-0.3538510799407959,"56":-3.0657010078430176,"57":-7.1263251304626465,"58":-10.343639373779297,"59":-0.11186247318983078,"60":2.6753060817718506,"61":3.3098604679107666,"62":-3.6392602920532227,"63":-3.241105318069458,"64":11.77072525024414,"65":-4.840217113494873,"66":-3.216937780380249,"67":1.1588236093521118,"68":-13.813372611999512,"69":-7.340905666351318,"70":-1.8753327131271362,"71":-6.74965763092041,"72":5.015174865722656,"73":-3.7953038215637207,"74":6.4205145835876465,"75":-7.474621772766113,"76":2.658545732498169,"77":-1.7756015062332153,"78":-0.08820241689682007,"79":-5.180894374847412,"80":-1.3666554689407349,"81":0.03358184173703194,"82":0.9062760472297668,"83":4.824701309204102,"84":0.0665058121085167,"85":-6.878036975860596,"86":3.0272839069366455,"87":-5.720702648162842,"88":-8.671409606933594,"89":0.2502779960632324,"90":2.5230581760406494,"91":0.8045845627784729,"92":-5.2813401222229,"93":5.91495943069458,"94":0.35824549198150635,"95":-8.852173805236816,"96":3.30409836769104,"97":9.324606895446777,"98":-3.4962050914764404,"99":2.1467881202697754,"100":-1.221781611442566,"101":-7.278010368347168,"102":2.8645777702331543,"103":-8.40038013458252,"104":7.354730129241943,"105":4.077439308166504,"106":-4.422842502593994,"107":-1.4640964269638062,"108":-4.631317615509033,"109":-2.5893754959106445,"110":-6.98197078704834,"111":-5.04612398147583,"112":-6.175991058349609,"113":5.309394359588623,"114":2.9774234294891357,"115":2.925048828125,"116":8.317427635192871,"117":-4.087728023529053,"118":7.155974864959717,"119":0.6727954745292664,"120":2.1754865646362305,"121":2.836528778076172,"122":-7.888557434082031,"123":5.542618274688721,"124":2.060027599334717,"125":3.3626604080200195,"126":-6.631757736206055,"127":-4.102109432220459,"128":4.75235652923584,"129":-4.5876264572143555,"130":-0.5599502325057983,"131":-2.088853120803833,"132":10.468354225158691,"133":-0.009528004564344883,"134":-1.8984719514846802,"135":3.379267454147339,"136":-2.221738815307617,"137":-7.31117582321167,"138":5.614143371582031,"139":-2.7707695960998535,"140":7.058157920837402,"141":-11.199817657470703,"142":1.3328179121017456,"143":5.425811767578125,"144":-2.0653018951416016,"145":-0.20314805209636688,"146":2.3268332481384277,"147":-0.659267246723175,"148":2.648923635482788,"149":3.78243088722229,"150":11.240150451660156,"151":0.7324146032333374,"152":4.864573001861572,"153":-2.2161061763763428,"154":10.80155086517334,"155":6.09281587600708,"156":1.2047538757324219,"157":-7.580637454986572,"158":3.0844411849975586,"159":-7.061931610107422,"160":3.5593953132629395,"161":1.8036599159240723,"162":1.504687786102295,"163":-1.1637177467346191,"164":-6.456027507781982,"165":-3.22611403465271,"166":-3.066237211227417,"167":0.030567564070224762,"168":-2.43218994140625,"169":1.2021201848983765,"170":-5.069180011749268,"171":-0.7219665050506592,"172":1.4821052551269531,"173":2.006263017654419,"174":-0.6216230988502502,"175":-0.8337653875350952,"176":-9.525558471679688,"177":-1.474966049194336,"178":1.1447458267211914,"179":5.266016006469727,"180":2.8179547786712646,"181":-0.696748673915863,"182":7.537318229675293,"183":-1.2423129081726074,"184":-1.9638619422912598,"185":4.423160552978516,"186":-8.455500602722168,"187":-1.8280117511749268,"188":6.817032814025879,"189":-3.5436182022094727,"190":-0.39539921283721924,"191":-2.121417284011841,"192":-3.9451217651367188,"193":-17.45883560180664,"194":-4.545098781585693,"195":-8.137492179870605,"196":-5.2222676277160645,"197":-15.69116497039795,"198":0.6378618478775024,"199":-6.601570129394531,"200":2.820284128189087,"201":1.5655457973480225,"202":9.727311134338379,"203":-0.25539395213127136,"204":3.855626106262207,"205":3.6298398971557617,"206":2.7226109504699707,"207":-1.6891063451766968,"208":1.3828911781311035,"209":-9.984121322631836,"210":-5.002868175506592,"211":-7.0200276374816895,"212":2.0046353340148926,"213":9.862110137939453,"214":-7.0048723220825195,"215":-3.7285170555114746,"216":-9.745623588562012,"217":1.4212688207626343,"218":-1.8735402822494507,"219":-6.205138206481934,"220":-0.36610934138298035,"221":-4.910732269287109,"222":-7.10700798034668,"223":2.3005175590515137,"224":-2.6883132457733154,"225":-0.8571001887321472,"226":-1.4184181690216064,"227":6.617496967315674,"228":-5.832083702087402,"229":-4.075187683105469,"230":-1.6561360359191895,"231":2.624211311340332,"232":-0.535118579864502,"233":-3.540137529373169,"234":-5.34625768661499,"235":-2.5238754749298096,"236":-5.109776973724365,"237":6.570113182067871,"238":0.7301837205886841,"239":1.3560996055603027,"240":6.158462047576904,"241":-1.1721094846725464,"242":-6.014611721038818,"243":5.385190486907959,"244":0.12907858192920685,"245":3.4768381118774414,"246":2.3427999019622803,"247":3.4633913040161133,"248":3.3942205905914307,"249":0.28243938088417053,"250":1.4112507104873657,"251":9.991629600524902,"252":6.980184555053711,"253":-2.217820405960083,"254":-6.426580429077148,"255":-6.0253496170043945,"256":-4.592034339904785,"257":0.7843058705329895,"258":3.9943249225616455,"259":-7.46198844909668,"260":3.6369175910949707,"261":-0.5345681309700012,"262":7.246196746826172,"263":4.029536247253418,"264":-16.679933547973633,"265":-0.08832281082868576,"266":3.697190523147583,"267":4.7724833488464355,"268":-4.8387980461120605,"269":-0.7033063769340515,"270":-2.048738718032837,"271":8.411182403564453,"272":3.7018890380859375,"273":-7.457458972930908,"274":-3.4050345420837402,"275":-3.5549051761627197,"276":4.005668640136719,"277":3.4886298179626465,"278":7.851702690124512,"279":4.352488040924072,"280":-0.9169955253601074,"281":3.2856435775756836,"282":1.648520827293396,"283":-11.627106666564941,"284":2.4272732734680176,"285":-5.9189982414245605,"286":3.2617077827453613,"287":-8.676702499389648,"288":-1.9891167879104614,"289":3.3189189434051514,"290":-17.419618606567383,"291":-3.4305286407470703,"292":2.4586246013641357,"293":-4.250518321990967,"294":-4.175764083862305,"295":4.582510471343994,"296":8.749849319458008,"297":-10.339982032775879,"298":2.287344217300415,"299":-2.690885543823242,"300":-1.3890506029129028,"301":-8.569639205932617,"302":-2.5950329303741455,"303":-6.207566261291504,"304":0.2268945574760437,"305":0.7553298473358154,"306":-21.54813003540039,"307":-2.789881944656372,"308":4.8171305656433105,"309":-6.942776203155518,"310":-7.652740955352783,"311":-11.156944274902344,"312":-0.20210672914981842,"313":4.421032428741455,"314":-4.381046295166016,"315":7.76986837387085,"316":-1.5873600244522095,"317":-14.884568214416504,"318":3.5042810440063477,"319":-0.3066834807395935,"320":-0.2510169744491577,"321":2.6298789978027344,"322":-3.781285524368286,"323":-0.39454957842826843,"324":-8.263579368591309,"325":1.735302448272705,"326":-7.146663188934326,"327":-12.148713111877441,"328":3.8253719806671143,"329":-7.5954766273498535,"330":-4.007875919342041,"331":8.041991233825684,"332":6.280185222625732,"333":-8.869606018066406,"334":5.959183216094971,"335":5.792350769042969,"336":-4.784430980682373,"337":0.9925139546394348,"338":10.676825523376465,"339":-4.079547882080078,"340":-5.018510818481445,"341":-5.4821319580078125,"342":6.329305171966553,"343":-11.675871849060059,"344":-6.555434226989746,"345":3.617572546005249,"346":-1.3549354076385498,"347":7.781646728515625,"348":-0.972007691860199,"349":-1.7312893867492676,"350":-7.212460517883301,"351":-0.5062479972839355,"352":1.450008511543274,"353":-4.882203102111816,"354":-6.847513675689697,"355":10.556824684143066,"356":1.7747267484664917,"357":-8.296134948730469,"358":-4.5715718269348145,"359":-1.500493049621582,"360":5.597741603851318,"361":-12.937643051147461,"362":-0.25643423199653625,"363":-3.174143075942993,"364":-2.129940986633301,"365":5.142043590545654,"366":-6.272271156311035,"367":-5.743880271911621,"368":-7.53928804397583,"369":-8.341883659362793,"370":6.334752559661865,"371":-5.881196975708008,"372":-2.852734088897705,"373":-3.572514295578003,"374":-12.242461204528809,"375":-8.030545234680176,"376":-6.144937992095947,"377":-7.950160503387451,"378":5.092512130737305,"379":-2.2289931774139404,"380":10.411040306091309,"381":-1.188429355621338,"382":-5.374065399169922,"383":4.425294876098633,"384":6.9140543937683105,"385":-3.7238895893096924,"386":-0.013200794346630573,"387":2.7388062477111816,"388":-0.39861276745796204,"389":10.121688842773438,"390":9.535665512084961,"391":-5.661406993865967,"392":2.778559923171997,"393":0.7657586336135864,"394":1.5890394449234009,"395":-6.82379674911499,"396":-0.7061532139778137,"397":0.010520790703594685,"398":-1.5861355066299438,"399":1.421240210533142}},"forgetBias":{"rows":20,"columns":1,"weights":{"0":0,"1":0,"2":0,"3":0,"4":0,"5":0,"6":0,"7":0,"8":0,"9":0,"10":0,"11":0,"12":0,"13":0,"14":0,"15":0,"16":0,"17":0,"18":0,"19":0}},"outputMatrix":{"rows":20,"columns":29,"weights":{"0":-2.82102632522583,"1":1.0312851667404175,"2":-2.2770819664001465,"3":-2.899487018585205,"4":-0.3992149531841278,"5":8.09924030303955,"6":-2.825986385345459,"7":-2.2208471298217773,"8":-0.22234924137592316,"9":-0.7550479173660278,"10":-3.7095534801483154,"11":0.5260767340660095,"12":3.2891125679016113,"13":1.2995470762252808,"14":5.808248996734619,"15":-0.6789798140525818,"16":2.1660308837890625,"17":2.295511484146118,"18":0.9363434910774231,"19":1.322576642036438,"20":-0.6048535704612732,"21":1.6857415437698364,"22":1.5475385189056396,"23":-1.3962770700454712,"24":0.6066960096359253,"25":-0.9252175092697144,"26":1.9057198762893677,"27":2.8332173824310303,"28":-3.4125804901123047,"29":1.9331718683242798,"30":2.0003645420074463,"31":-3.566586494445801,"32":-0.2137502133846283,"33":-2.4757838249206543,"34":-1.1897555589675903,"35":-1.9079397916793823,"36":2.1576101779937744,"37":1.0295286178588867,"38":0.2105705589056015,"39":-2.7644920349121094,"40":5.260023593902588,"41":2.104863405227661,"42":1.079598069190979,"43":0.7747575044631958,"44":2.9981632232666016,"45":1.7511906623840332,"46":2.1703238487243652,"47":3.6372950077056885,"48":6.772961139678955,"49":-3.1902689933776855,"50":-0.1647762656211853,"51":1.623287320137024,"52":0.16352424025535583,"53":3.625095844268799,"54":-0.7862205505371094,"55":0.895420491695404,"56":-2.085545539855957,"57":-1.1893147230148315,"58":1.1863784790039062,"59":2.9051268100738525,"60":0.6621003746986389,"61":1.0934646129608154,"62":-2.448878526687622,"63":-3.337043046951294,"64":0.8564347624778748,"65":-0.8807293772697449,"66":-2.668602228164673,"67":1.0565344095230103,"68":0.5831143260002136,"69":-2.371946096420288,"70":1.5637774467468262,"71":2.5161406993865967,"72":0.06717686355113983,"73":2.6177384853363037,"74":1.6606462001800537,"75":6.087695121765137,"76":2.5897605419158936,"77":2.838939666748047,"78":-0.5516934394836426,"79":5.331396579742432,"80":0.03569917753338814,"81":1.5980563163757324,"82":-1.2422678470611572,"83":-2.872929573059082,"84":0.7702201008796692,"85":-2.353437900543213,"86":0.9878049492835999,"87":1.6920820474624634,"88":-2.4172708988189697,"89":0.3342338800430298,"90":-4.421565055847168,"91":2.381239652633667,"92":-2.0161147117614746,"93":-4.138819217681885,"94":0.45505717396736145,"95":1.0253561735153198,"96":-2.071166515350342,"97":-2.514728307723999,"98":-2.4167628288269043,"99":-2.5187971591949463,"100":0.5789176225662231,"101":0.5977857708930969,"102":-4.370686054229736,"103":-3.33260178565979,"104":0.2066088169813156,"105":-1.4869880676269531,"106":2.6955864429473877,"107":3.4695334434509277,"108":-0.16342997550964355,"109":-0.11264827847480774,"110":0.5408459901809692,"111":4.284529685974121,"112":2.397343873977661,"113":-2.66099214553833,"114":-0.7527926564216614,"115":3.2523109912872314,"116":-1.6091268062591553,"117":-0.1817895621061325,"118":0.06182605028152466,"119":4.913389682769775,"120":-0.8338446617126465,"121":-3.491764545440674,"122":0.19070777297019958,"123":-1.0669795274734497,"124":-4.534176349639893,"125":-1.8666276931762695,"126":-2.3633086681365967,"127":-0.8834111094474792,"128":1.4565521478652954,"129":1.0036351680755615,"130":-2.142148494720459,"131":-0.3997651934623718,"132":-3.1167519092559814,"133":-1.4146983623504639,"134":-4.506233215332031,"135":4.079477787017822,"136":-2.3381879329681396,"137":-6.462852478027344,"138":2.51003098487854,"139":-1.714354157447815,"140":0.5024877786636353,"141":0.024536142125725746,"142":3.017313003540039,"143":3.6404829025268555,"144":1.3456732034683228,"145":-3.0313007831573486,"146":1.1217660903930664,"147":-1.0928962230682373,"148":-3.6329684257507324,"149":-3.2573773860931396,"150":3.127443552017212,"151":-3.05460524559021,"152":2.290076732635498,"153":4.037999153137207,"154":0.460547536611557,"155":0.17015011608600616,"156":-3.5761468410491943,"157":6.69677209854126,"158":4.188655376434326,"159":-2.478301763534546,"160":-0.8453758358955383,"161":-2.801056385040283,"162":0.9569879770278931,"163":7.032672882080078,"164":0.6153104305267334,"165":5.287905693054199,"166":-0.7651483416557312,"167":1.0923259258270264,"168":-3.014495372772217,"169":-1.3681082725524902,"170":0.33669212460517883,"171":0.10242484509944916,"172":-0.7606282234191895,"173":1.9014225006103516,"174":1.0742663145065308,"175":0.6424688696861267,"176":1.1648157835006714,"177":-2.603428602218628,"178":1.0834388732910156,"179":1.5055822134017944,"180":-0.3887785077095032,"181":-4.697441577911377,"182":-1.1813874244689941,"183":-0.5808811187744141,"184":-0.4897134304046631,"185":0.10685060173273087,"186":-0.9781595468521118,"187":-1.120891809463501,"188":1.5416038036346436,"189":1.7272082567214966,"190":-2.043030023574829,"191":1.3411855697631836,"192":1.0168882608413696,"193":0.3057266175746918,"194":-0.3457661271095276,"195":-0.43273788690567017,"196":-1.9195939302444458,"197":-0.24397079646587372,"198":2.1792972087860107,"199":-0.6894255876541138,"200":2.0390801429748535,"201":1.1312874555587769,"202":-3.1852526664733887,"203":-2.1982929706573486,"204":0.7606282830238342,"205":-1.2645169496536255,"206":3.101470947265625,"207":-0.2061920315027237,"208":-2.1045897006988525,"209":2.3997209072113037,"210":-3.1365654468536377,"211":-0.7769643664360046,"212":-0.2547991871833801,"213":-0.7468810677528381,"214":-0.08858833461999893,"215":0.5858413577079773,"216":1.180960774421692,"217":1.2966382503509521,"218":-1.6733969449996948,"219":-1.4560458660125732,"220":-0.4139168858528137,"221":-0.9426936507225037,"222":3.1649084091186523,"223":-1.465466022491455,"224":-0.8831644058227539,"225":-1.3010714054107666,"226":-1.520877718925476,"227":1.8397753238677979,"228":-1.4508764743804932,"229":2.4181530475616455,"230":1.1626218557357788,"231":0.4557020366191864,"232":-5.257678031921387,"233":-2.898191452026367,"234":2.811279058456421,"235":3.4997642040252686,"236":-0.4186415374279022,"237":-3.8749682903289795,"238":3.1133475303649902,"239":-1.0202865600585938,"240":-0.7032400369644165,"241":-0.32105615735054016,"242":-0.6890559196472168,"243":1.1321806907653809,"244":-1.2928621768951416,"245":-1.419210433959961,"246":-3.5981032848358154,"247":0.46672630310058594,"248":0.4405844211578369,"249":3.3161914348602295,"250":2.1066317558288574,"251":2.6831798553466797,"252":0.11846528947353363,"253":1.8035240173339844,"254":-2.915149450302124,"255":-0.45456060767173767,"256":-1.536157488822937,"257":-0.6808286905288696,"258":-0.7515880465507507,"259":5.647539138793945,"260":-3.685551643371582,"261":0.42979156970977783,"262":1.3461230993270874,"263":0.807548999786377,"264":-2.5261290073394775,"265":4.08807373046875,"266":1.9424430131912231,"267":-0.15939472615718842,"268":-1.7830126285552979,"269":-0.9966388940811157,"270":5.545507907867432,"271":-0.20189951360225677,"272":4.295663833618164,"273":7.452824592590332,"274":0.4542219340801239,"275":0.9407975077629089,"276":-3.2157139778137207,"277":0.3410688638687134,"278":2.7840263843536377,"279":5.954708099365234,"280":0.565811812877655,"281":-3.1794676780700684,"282":0.5587143301963806,"283":-1.1213619709014893,"284":1.9495232105255127,"285":1.1071059703826904,"286":-2.413771390914917,"287":0.8750643730163574,"288":4.127462387084961,"289":-1.1672760248184204,"290":1.8978257179260254,"291":-1.3508554697036743,"292":-4.326790809631348,"293":1.6687142848968506,"294":2.3169338703155518,"295":0.28316572308540344,"296":-2.8757784366607666,"297":4.054808139801025,"298":-0.28036975860595703,"299":-0.18295690417289734,"300":2.3811655044555664,"301":-4.158709526062012,"302":1.4545787572860718,"303":-4.120334625244141,"304":4.6788787841796875,"305":-0.7276588678359985,"306":1.364976167678833,"307":-0.772705078125,"308":4.48504114151001,"309":-7.300361633300781,"310":2.8198795318603516,"311":0.31563255190849304,"312":1.9287495613098145,"313":2.7614879608154297,"314":-0.28696998953819275,"315":1.283509373664856,"316":-1.867448091506958,"317":-4.184386253356934,"318":-3.4542396068573,"319":-0.6341015100479126,"320":-4.284843444824219,"321":2.1083552837371826,"322":3.3639256954193115,"323":0.9892343878746033,"324":2.260896921157837,"325":-0.17000862956047058,"326":0.45090755820274353,"327":1.1254560947418213,"328":1.3992241621017456,"329":2.2904813289642334,"330":-1.765880823135376,"331":2.170551061630249,"332":-2.990605354309082,"333":-2.5742571353912354,"334":-0.390198677778244,"335":-8.006307601928711,"336":-5.503873348236084,"337":-2.345961570739746,"338":0.7573090195655823,"339":0.5161076188087463,"340":-1.9724972248077393,"341":-3.847691059112549,"342":0.11352211236953735,"343":0.6004946827888489,"344":1.1620664596557617,"345":2.8980603218078613,"346":3.1971681118011475,"347":-0.8041601777076721,"348":-1.9283270835876465,"349":1.665065884590149,"350":-0.01761661469936371,"351":0.18789948523044586,"352":-0.6146262288093567,"353":-0.3348477780818939,"354":-2.373983144760132,"355":0.3376636505126953,"356":0.5763054490089417,"357":1.5391845703125,"358":-2.7826881408691406,"359":1.5466430187225342,"360":0.13183774054050446,"361":-0.9207366704940796,"362":1.6997833251953125,"363":-0.7905076146125793,"364":0.09173666685819626,"365":-0.3838772475719452,"366":1.487231969833374,"367":-0.07788531482219696,"368":-0.21687102317810059,"369":4.352674961090088,"370":-2.1560657024383545,"371":1.304734230041504,"372":-0.9669795632362366,"373":0.47238633036613464,"374":-1.586974859237671,"375":-1.0862629413604736,"376":-1.1117849349975586,"377":2.932605028152466,"378":1.7207671403884888,"379":2.2309229373931885,"380":1.8320707082748413,"381":-1.9401366710662842,"382":3.6088595390319824,"383":0.36129507422447205,"384":-3.143331527709961,"385":0.31511038541793823,"386":2.9985623359680176,"387":-0.6391487121582031,"388":-1.315661072731018,"389":1.4519292116165161,"390":-1.661383032798767,"391":-0.38469254970550537,"392":0.44511470198631287,"393":-0.628974974155426,"394":3.2723631858825684,"395":0.38885998725891113,"396":-0.28498268127441406,"397":0.14502984285354614,"398":0.3700821101665497,"399":-3.651463747024536,"400":1.984148621559143,"401":0.7149107456207275,"402":0.898674726486206,"403":-3.24928879737854,"404":4.178471088409424,"405":0.6768507361412048,"406":-0.5509994029998779,"407":-5.53067684173584,"408":4.472629070281982,"409":0.5909482836723328,"410":0.662943422794342,"411":-3.073814868927002,"412":-0.660066545009613,"413":1.7737869024276733,"414":2.2135307788848877,"415":1.1034003496170044,"416":0.6249914169311523,"417":-2.8370628356933594,"418":0.9041430950164795,"419":-1.5113317966461182,"420":-0.6227414011955261,"421":1.5055979490280151,"422":2.9603800773620605,"423":-2.0007100105285645,"424":-2.1426706314086914,"425":-0.5223459005355835,"426":0.3519695997238159,"427":-1.8395782709121704,"428":3.843832015991211,"429":0.7712448239326477,"430":-0.2708212435245514,"431":-0.7912729382514954,"432":-1.6847766637802124,"433":-1.8197495937347412,"434":-1.3792948722839355,"435":-0.4074501395225525,"436":-1.9454394578933716,"437":0.04186181351542473,"438":2.8921990394592285,"439":4.443332195281982,"440":-0.3466838002204895,"441":-0.7479409575462341,"442":2.0235707759857178,"443":3.8188998699188232,"444":-2.5336766242980957,"445":-1.2985687255859375,"446":1.8977588415145874,"447":-1.0389896631240845,"448":-2.7012839317321777,"449":0.6808006167411804,"450":-2.0660157203674316,"451":3.1168034076690674,"452":0.17240852117538452,"453":-3.7489397525787354,"454":-3.39970064163208,"455":-0.31390729546546936,"456":-2.3756353855133057,"457":1.883847951889038,"458":1.0834449529647827,"459":1.9803038835525513,"460":2.3485753536224365,"461":-0.8699076175689697,"462":2.455188751220703,"463":-0.4031469225883484,"464":-3.833329916000366,"465":-1.9147813320159912,"466":0.9534058570861816,"467":-0.8402652740478516,"468":-2.6515755653381348,"469":-4.70348596572876,"470":2.1029481887817383,"471":-2.1519157886505127,"472":-1.601357102394104,"473":0.13303793966770172,"474":0.8390863537788391,"475":-2.3725829124450684,"476":-5.1653361320495605,"477":-1.8668395280838013,"478":-2.0232088565826416,"479":2.3215339183807373,"480":0.1552545130252838,"481":1.1364719867706299,"482":0.33824655413627625,"483":0.6996048092842102,"484":-2.9074933528900146,"485":-0.28845852613449097,"486":-5.051302433013916,"487":1.5319509506225586,"488":0.9590951800346375,"489":1.535764217376709,"490":12.534274101257324,"491":1.687400221824646,"492":-4.957788944244385,"493":-1.5406628847122192,"494":1.6952803134918213,"495":0.46206843852996826,"496":-1.0659741163253784,"497":-1.0750800371170044,"498":0.5814697742462158,"499":-1.6679850816726685,"500":-1.4206911325454712,"501":1.7204205989837646,"502":1.8479260206222534,"503":-0.6435996294021606,"504":-1.3605763912200928,"505":0.2944442927837372,"506":-3.028900623321533,"507":-3.69634747505188,"508":-1.012607216835022,"509":-4.109014511108398,"510":-1.265931487083435,"511":1.356147289276123,"512":0.7373429536819458,"513":-0.6245459914207458,"514":-0.08635827898979187,"515":0.5538802742958069,"516":0.368356317281723,"517":-2.223377227783203,"518":-0.8845306634902954,"519":0.2273014783859253,"520":1.8476413488388062,"521":-1.0583515167236328,"522":2.401548147201538,"523":4.34146785736084,"524":-2.0657618045806885,"525":-2.037578821182251,"526":-0.994260847568512,"527":-2.99094557762146,"528":1.6699445247650146,"529":-1.2763645648956299,"530":-4.6902852058410645,"531":1.6947782039642334,"532":-0.6207473278045654,"533":4.1224870681762695,"534":1.939451813697815,"535":2.7033488750457764,"536":0.5065206289291382,"537":1.6282086372375488,"538":0.5144031047821045,"539":1.2222959995269775,"540":2.914642810821533,"541":-2.838106870651245,"542":-0.9060770273208618,"543":2.7990775108337402,"544":-0.7035735249519348,"545":-1.0581393241882324,"546":1.538972020149231,"547":0.5417024493217468,"548":2.5379269123077393,"549":2.092729091644287,"550":-2.601896286010742,"551":0.5144414305686951,"552":-0.41434741020202637,"553":-3.01405930519104,"554":2.518847942352295,"555":-2.1931426525115967,"556":-3.972553014755249,"557":-0.25776082277297974,"558":0.8160246014595032,"559":-2.4023914337158203,"560":2.8113627433776855,"561":1.4894872903823853,"562":-0.539859414100647,"563":-2.731531858444214,"564":1.1134332418441772,"565":-0.6376703977584839,"566":0.3015729486942291,"567":-3.0437464714050293,"568":3.4574902057647705,"569":1.1385637521743774,"570":2.143980026245117,"571":1.5855861902236938,"572":2.4238698482513428,"573":-1.6474851369857788,"574":-1.3877826929092407,"575":-4.873753070831299,"576":-2.6930978298187256,"577":0.5601269602775574,"578":1.0473800897598267,"579":-2.138617515563965}},"outputHidden":{"rows":20,"columns":20,"weights":{"0":16.318218231201172,"1":-5.7045698165893555,"2":-1.480018973350525,"3":5.359010219573975,"4":-4.207507133483887,"5":1.4336268901824951,"6":-2.008146286010742,"7":2.5732100009918213,"8":1.8080201148986816,"9":-0.20180462300777435,"10":-10.717936515808105,"11":-8.945295333862305,"12":-2.8166275024414062,"13":9.783037185668945,"14":7.118708610534668,"15":-5.5858564376831055,"16":3.7272121906280518,"17":-9.013800621032715,"18":-3.3542368412017822,"19":-6.332484245300293,"20":-0.6371802091598511,"21":-3.6559908390045166,"22":2.901916265487671,"23":7.825901508331299,"24":4.100461483001709,"25":0.4641974866390228,"26":2.0336978435516357,"27":4.492376327514648,"28":-1.1176334619522095,"29":-2.275698184967041,"30":8.93590259552002,"31":13.173754692077637,"32":13.900484085083008,"33":-11.927111625671387,"34":8.259238243103027,"35":-9.85949993133545,"36":6.338313102722168,"37":5.204977035522461,"38":9.306394577026367,"39":-14.758952140808105,"40":-3.514195203781128,"41":15.877062797546387,"42":10.397032737731934,"43":7.2132744789123535,"44":4.503592014312744,"45":-3.2977685928344727,"46":17.59994125366211,"47":-0.6587243676185608,"48":3.2139885425567627,"49":8.836065292358398,"50":-7.446723461151123,"51":-15.523870468139648,"52":10.836618423461914,"53":2.042015314102173,"54":4.543712615966797,"55":-5.8097686767578125,"56":4.38609504699707,"57":-3.534456729888916,"58":-1.8103480339050293,"59":2.2421703338623047,"60":-0.6516722440719604,"61":2.339536428451538,"62":2.8027288913726807,"63":8.169264793395996,"64":-0.5665707588195801,"65":3.3473892211914062,"66":-0.12458660453557968,"67":2.442633628845215,"68":-10.626564979553223,"69":5.447078227996826,"70":-9.387409210205078,"71":0.6333551406860352,"72":0.4023377299308777,"73":-0.19350486993789673,"74":8.500174522399902,"75":-1.4320508241653442,"76":-0.9946994185447693,"77":-1.3340445756912231,"78":-8.404488563537598,"79":-2.1572773456573486,"80":23.990392684936523,"81":-3.9081287384033203,"82":-0.05875568091869354,"83":6.4734978675842285,"84":4.588146209716797,"85":4.876867294311523,"86":-11.668061256408691,"87":-7.531560897827148,"88":2.6523642539978027,"89":1.588433027267456,"90":-6.053603172302246,"91":-2.9484987258911133,"92":3.5133166313171387,"93":-3.6538798809051514,"94":1.7300121784210205,"95":10.280661582946777,"96":-4.619306564331055,"97":-3.815192461013794,"98":8.786310195922852,"99":-3.940678596496582,"100":-9.459539413452148,"101":-13.356423377990723,"102":-7.33657169342041,"103":-12.61800765991211,"104":7.142350673675537,"105":-12.209372520446777,"106":17.86078453063965,"107":5.415399551391602,"108":3.5138020515441895,"109":-1.033877968788147,"110":2.4046056270599365,"111":3.2799859046936035,"112":9.62575912475586,"113":16.185928344726562,"114":-4.945600986480713,"115":-3.4204916954040527,"116":-1.775448203086853,"117":-9.06014347076416,"118":6.850557804107666,"119":0.3893015384674072,"120":0.3879915177822113,"121":-5.10600471496582,"122":-16.644695281982422,"123":-6.3930840492248535,"124":-5.113588333129883,"125":-6.271778583526611,"126":-3.4849610328674316,"127":-13.928236961364746,"128":-10.39815616607666,"129":5.810787677764893,"130":12.892058372497559,"131":-2.028609275817871,"132":-7.8531694412231445,"133":1.732513666152954,"134":6.117971897125244,"135":0.6755964159965515,"136":-4.421700954437256,"137":1.0377525091171265,"138":4.4269938468933105,"139":5.569492340087891,"140":-4.637670516967773,"141":-2.4488861560821533,"142":7.51168966293335,"143":-1.8471652269363403,"144":-16.98926544189453,"145":-2.8664114475250244,"146":-3.6973581314086914,"147":3.2810890674591064,"148":-5.74521541595459,"149":3.786341428756714,"150":-9.554117202758789,"151":5.685303211212158,"152":-15.8711519241333,"153":0.7046898603439331,"154":-11.593385696411133,"155":7.115075588226318,"156":8.615768432617188,"157":14.959890365600586,"158":5.987812042236328,"159":3.0307719707489014,"160":1.0025917291641235,"161":11.057540893554688,"162":-13.792622566223145,"163":-13.217511177062988,"164":0.7276333570480347,"165":1.1365652084350586,"166":13.402505874633789,"167":0.9431073665618896,"168":-3.4813475608825684,"169":9.831825256347656,"170":3.4068119525909424,"171":11.6591215133667,"172":1.7227829694747925,"173":4.647974014282227,"174":5.82870626449585,"175":-14.803938865661621,"176":-1.0541181564331055,"177":10.471510887145996,"178":-5.233607769012451,"179":-0.4658365845680237,"180":-9.858369827270508,"181":-15.642992973327637,"182":2.147660732269287,"183":7.196070194244385,"184":-5.569766044616699,"185":-4.121039390563965,"186":9.090538024902344,"187":6.425748825073242,"188":9.413142204284668,"189":-5.5058135986328125,"190":12.011966705322266,"191":6.408905029296875,"192":-1.722070336341858,"193":-12.567026138305664,"194":-3.4645578861236572,"195":-14.318255424499512,"196":1.0674492120742798,"197":-8.313474655151367,"198":2.311636209487915,"199":-6.158226490020752,"200":-8.610465049743652,"201":-8.730209350585938,"202":-6.29337739944458,"203":10.517277717590332,"204":-7.191287040710449,"205":9.577649116516113,"206":-1.0228227376937866,"207":-10.534908294677734,"208":11.611883163452148,"209":-5.010646820068359,"210":-2.968531370162964,"211":5.279486179351807,"212":4.546515941619873,"213":4.126361846923828,"214":8.42441463470459,"215":1.028833031654358,"216":3.1734554767608643,"217":-3.2380971908569336,"218":9.558736801147461,"219":5.182947158813477,"220":6.264883518218994,"221":-0.04007876664400101,"222":-15.46245002746582,"223":-0.8745003342628479,"224":3.0051777362823486,"225":8.025431632995605,"226":-2.236152410507202,"227":8.535801887512207,"228":13.883155822753906,"229":0.7945919632911682,"230":-5.394074440002441,"231":-13.762961387634277,"232":-3.0466315746307373,"233":4.347339153289795,"234":-0.5352119207382202,"235":-8.906166076660156,"236":-1.9378224611282349,"237":10.981820106506348,"238":-7.476567268371582,"239":15.880645751953125,"240":1.6646831035614014,"241":4.319906711578369,"242":11.136981964111328,"243":2.6718854904174805,"244":2.8119359016418457,"245":-3.8032586574554443,"246":-7.24638032913208,"247":12.47399616241455,"248":0.24030859768390656,"249":3.833369731903076,"250":6.039024829864502,"251":-5.354953765869141,"252":-6.828919410705566,"253":3.204437255859375,"254":-23.990612030029297,"255":-6.560634613037109,"256":-5.619272232055664,"257":-5.8804802894592285,"258":-12.34269905090332,"259":3.249281883239746,"260":-4.755483150482178,"261":-9.815995216369629,"262":-5.5026655197143555,"263":3.4990971088409424,"264":-13.314669609069824,"265":-8.748725891113281,"266":23.21979331970215,"267":-6.361660480499268,"268":15.91107177734375,"269":12.905248641967773,"270":21.046138763427734,"271":5.485414505004883,"272":-6.2514472007751465,"273":1.0774794816970825,"274":-28.821422576904297,"275":1.5336335897445679,"276":6.615296840667725,"277":11.981730461120605,"278":-5.9922194480896,"279":2.551913261413574,"280":1.5159580707550049,"281":-2.2227094173431396,"282":0.10972175002098083,"283":12.739395141601562,"284":-9.940244674682617,"285":0.23850712180137634,"286":5.922037601470947,"287":1.166621446609497,"288":12.249958038330078,"289":13.408857345581055,"290":7.883058071136475,"291":-4.984238147735596,"292":-22.243040084838867,"293":-1.5884969234466553,"294":2.2267041206359863,"295":-1.9030121564865112,"296":11.666783332824707,"297":17.352773666381836,"298":6.4163312911987305,"299":-0.8141391277313232,"300":-2.2182931900024414,"301":3.928673505783081,"302":-6.340902328491211,"303":-8.979840278625488,"304":-0.24421489238739014,"305":11.351819038391113,"306":-10.72796630859375,"307":-24.24903678894043,"308":3.544654607772827,"309":8.95993709564209,"310":-8.5441255569458,"311":3.7900707721710205,"312":15.50882625579834,"313":-2.48185658454895,"314":10.280096054077148,"315":6.313610553741455,"316":-5.698092937469482,"317":5.729102611541748,"318":-10.435507774353027,"319":2.484079360961914,"320":5.18927526473999,"321":7.182741165161133,"322":-4.47777795791626,"323":-2.9630837440490723,"324":3.5429317951202393,"325":-4.321432590484619,"326":4.062567710876465,"327":-14.206098556518555,"328":5.830711841583252,"329":4.018869876861572,"330":-6.180163860321045,"331":-3.25598406791687,"332":-14.75900936126709,"333":2.9259119033813477,"334":0.9187040328979492,"335":-0.8641490936279297,"336":22.272947311401367,"337":1.4851566553115845,"338":-4.582446098327637,"339":-1.2200076580047607,"340":-1.7442162036895752,"341":7.208345413208008,"342":13.40895938873291,"343":19.551403045654297,"344":3.443324327468872,"345":9.484284400939941,"346":3.685777187347412,"347":-7.528177261352539,"348":-5.716521263122559,"349":4.231686592102051,"350":14.411758422851562,"351":-4.411807537078857,"352":-5.180601119995117,"353":13.649930953979492,"354":-7.526156902313232,"355":10.919896125793457,"356":2.181273937225342,"357":2.832136631011963,"358":-13.758064270019531,"359":10.716069221496582,"360":-13.89129638671875,"361":-0.6147701144218445,"362":-8.500924110412598,"363":-1.4867173433303833,"364":-9.308026313781738,"365":-0.24418413639068604,"366":8.167618751525879,"367":-0.6305996775627136,"368":6.878861904144287,"369":10.929986953735352,"370":-4.635989189147949,"371":-3.9392316341400146,"372":-9.178116798400879,"373":1.3110547065734863,"374":8.006733894348145,"375":-9.543781280517578,"376":-10.15904426574707,"377":4.2293853759765625,"378":12.946619033813477,"379":-6.0586957931518555,"380":11.458282470703125,"381":3.5864810943603516,"382":2.126192092895508,"383":2.069352388381958,"384":4.12675142288208,"385":-5.59430456161499,"386":9.776117324829102,"387":-5.753859519958496,"388":-0.5966163873672485,"389":4.064481258392334,"390":12.511825561523438,"391":-3.9967167377471924,"392":18.766643524169922,"393":9.938611030578613,"394":-15.765948295593262,"395":1.710082769393921,"396":4.907586574554443,"397":5.897315979003906,"398":13.06795597076416,"399":2.2656188011169434}},"outputBias":{"rows":20,"columns":1,"weights":{"0":-2.176281452178955,"1":-1.1566540002822876,"2":0.10458442568778992,"3":0.30884289741516113,"4":-1.6262208223342896,"5":6.087474346160889,"6":-1.7327781915664673,"7":1.8667008876800537,"8":2.2159922122955322,"9":-1.265149474143982,"10":4.110229969024658,"11":-1.1554741859436035,"12":5.557068347930908,"13":-3.2171101570129395,"14":1.1584168672561646,"15":-9.625174522399902,"16":-0.8084283471107483,"17":0.7812187671661377,"18":1.4068161249160767,"19":-0.7361247539520264}},"cellActivationMatrix":{"rows":20,"columns":29,"weights":{"0":-1.9912365674972534,"1":-3.273554563522339,"2":0.1193057969212532,"3":-0.0348316915333271,"4":-0.4681098461151123,"5":1.7808915376663208,"6":-0.2781371772289276,"7":0.490531861782074,"8":-3.6416399478912354,"9":0.37859633564949036,"10":-0.02784084714949131,"11":-1.5141276121139526,"12":2.8927910327911377,"13":0.7694965600967407,"14":0.5118300318717957,"15":0.2615600824356079,"16":0.17442534863948822,"17":2.966773271560669,"18":0.5260079503059387,"19":-1.1812700033187866,"20":2.141838788986206,"21":-3.6408114433288574,"22":-0.4397754669189453,"23":0.39905765652656555,"24":-1.7923920154571533,"25":-1.1628572940826416,"26":1.1535509824752808,"27":-2.4684653282165527,"28":-0.07674285024404526,"29":0.11119809001684189,"30":1.879052996635437,"31":0.848601222038269,"32":-2.3874080181121826,"33":-2.809392213821411,"34":2.124711275100708,"35":-1.0130527019500732,"36":-4.154689788818359,"37":2.2910728454589844,"38":-1.2748030424118042,"39":-1.630070686340332,"40":2.296628475189209,"41":1.0002384185791016,"42":1.8637346029281616,"43":-0.24858500063419342,"44":1.1539840698242188,"45":-0.6382691860198975,"46":-3.602724313735962,"47":-2.3455440998077393,"48":-2.134892225265503,"49":-2.7260892391204834,"50":-1.7820088863372803,"51":-0.8878997564315796,"52":-0.6163645386695862,"53":3.292177438735962,"54":2.201692581176758,"55":2.4123759269714355,"56":0.2679402828216553,"57":1.4061187505722046,"58":1.713982105255127,"59":1.8118149042129517,"60":0.10384439677000046,"61":-3.8931527137756348,"62":2.1951231956481934,"63":-0.4721311926841736,"64":-1.4637523889541626,"65":-1.560532569885254,"66":-0.6385385394096375,"67":0.20168069005012512,"68":-1.881977915763855,"69":0.8625819087028503,"70":1.873020887374878,"71":-0.6645422577857971,"72":2.5403923988342285,"73":-0.9188729524612427,"74":-1.5293924808502197,"75":-0.6827200651168823,"76":2.1401753425598145,"77":-2.888648271560669,"78":-0.773191511631012,"79":2.541059732437134,"80":2.670093536376953,"81":1.3675620555877686,"82":-1.5874102115631104,"83":1.776082992553711,"84":2.850980281829834,"85":-0.7994202971458435,"86":0.3984959125518799,"87":-0.9754197001457214,"88":-0.5411297082901001,"89":-1.2266050577163696,"90":0.346988707780838,"91":2.3132665157318115,"92":3.2250707149505615,"93":0.26538798213005066,"94":-1.288869857788086,"95":-1.607834815979004,"96":-2.031233787536621,"97":-1.7200188636779785,"98":3.4470033645629883,"99":-1.2275285720825195,"100":1.8350120782852173,"101":-2.2877140045166016,"102":-3.318532705307007,"103":-1.9637656211853027,